~o
<STREAMINFO> 1 39
<VECSIZE> 39<NULLD><MFCC_D_A_0><DIAGC>
~s "silst"
<MEAN> 39
 -6.762428e+00 6.329682e+00 1.925013e+00 2.322357e+00 1.995613e+00 4.097737e+00 2.999638e+00 4.877147e+00 5.533495e+00 6.435550e+00 5.429881e+00 4.514077e+00 5.932985e+01 3.683048e-02 1.110151e-02 1.835441e-01 2.330968e-01 3.011303e-01 1.108838e-02 -8.387743e-02 -4.961381e-02 -1.451259e-01 -2.614248e-01 -3.696738e-01 -2.985706e-01 1.953628e-01 4.115363e-01 8.732864e-02 2.038997e-01 -7.602488e-02 -2.059607e-01 -3.986707e-01 -4.808297e-01 -5.280842e-01 -5.038748e-01 -4.238629e-01 -4.448220e-01 -3.581817e-01 5.062997e-01
<VARIANCE> 39
 7.408252e+00 1.628052e+01 1.609772e+01 1.900834e+01 2.243894e+01 2.129625e+01 1.802545e+01 1.802253e+01 1.878605e+01 1.926159e+01 1.916148e+01 2.044202e+01 1.455095e+01 8.430813e-01 8.905624e-01 1.024660e+00 1.134019e+00 1.260390e+00 1.611482e+00 1.816169e+00 2.271272e+00 2.388920e+00 2.394459e+00 2.294384e+00 2.064401e+00 5.740522e-01 2.154674e-01 2.690485e-01 2.636791e-01 2.790494e-01 3.193892e-01 4.026897e-01 4.123019e-01 4.498295e-01 4.650118e-01 4.433358e-01 3.903260e-01 3.812456e-01 1.344321e-01
<GCONST> 9.873496e+01
~h "A"
<BEGINHMM>
<NUMSTATES> 5
<STATE> 2
<MEAN> 39
 4.385604e+00 -3.519647e+00 -7.566754e+00 -1.283567e+01 -2.706542e+00 2.985717e+00 -5.353271e+00 -6.811933e+00 -3.575538e+00 -4.259264e+00 -2.110776e+00 -6.250494e+00 8.045816e+01 3.450367e-01 -3.489286e-02 -6.634684e-01 -5.322523e-01 -1.135435e-01 9.023898e-01 1.443763e+00 3.879971e-01 -1.041201e+00 -1.548346e+00 4.085222e-01 2.069643e-01 -1.533892e-01 -3.961821e-01 4.487446e-01 5.113120e-01 5.747141e-01 2.514262e-02 -5.523386e-01 5.872343e-02 2.076596e-01 4.585829e-02 1.456203e-01 -8.333841e-02 7.683092e-02 -3.926970e-01
<VARIANCE> 39
 3.364781e+01 2.295587e+01 2.179209e+01 2.678232e+01 3.712022e+01 5.128358e+01 5.164705e+01 3.487378e+01 6.461755e+01 6.595898e+01 4.494801e+01 4.229403e+01 1.948411e+01 3.589491e-01 1.189615e+00 1.169694e+00 1.473847e+00 1.737901e+00 2.518478e+00 2.377863e+00 2.415461e+00 2.604608e+00 2.483336e+00 2.404748e+00 1.862212e+00 4.689422e-01 2.500245e-01 1.613678e-01 1.824178e-01 2.610705e-01 3.533817e-01 3.780831e-01 5.567945e-01 5.964736e-01 5.150763e-01 5.308185e-01 4.937686e-01 4.648795e-01 6.966352e-02
<GCONST> 1.093456e+02
<STATE> 3
<MEAN> 39
 5.269057e+00 6.542527e-01 -5.578772e+00 -1.023339e+01 -4.562315e+00 7.339035e-01 -2.254355e+00 -4.625173e+00 -8.385047e+00 -9.117158e+00 -3.354816e+00 -7.518920e+00 7.640448e+01 -1.497691e-01 7.825538e-01 6.103097e-01 6.940779e-01 -8.359785e-02 -4.313220e-01 1.153992e-01 -1.446550e-01 -2.525608e-01 2.258916e-01 -2.706023e-01 -1.049330e-01 -8.060445e-01 -1.066940e-01 7.035400e-02 1.300866e-01 1.161977e-01 1.178521e-01 5.057466e-02 -1.288988e-01 -1.022166e-01 9.350521e-02 2.240066e-01 3.539070e-02 8.948064e-02 -1.152542e-01
<VARIANCE> 39
 2.784303e+01 2.543830e+01 2.510231e+01 3.595273e+01 4.057740e+01 3.836203e+01 5.110228e+01 5.074741e+01 8.319530e+01 4.881570e+01 3.799939e+01 3.776866e+01 2.312773e+01 2.280658e-01 6.745337e-01 1.117857e+00 1.380633e+00 1.126306e+00 1.493376e+00 1.806149e+00 2.054457e+00 1.834881e+00 1.689135e+00 1.455497e+00 1.437579e+00 3.248601e-01 4.394760e-02 9.524423e-02 1.831851e-01 2.234695e-01 2.048411e-01 2.701008e-01 3.254678e-01 3.768435e-01 3.485207e-01 3.290194e-01 2.852131e-01 2.772308e-01 3.665186e-02
<GCONST> 9.843983e+01
<STATE> 4
<MEAN> 39
 1.646034e+00 6.800975e+00 -1.192049e+00 -5.136027e+00 -1.778347e+00 2.390013e+00 4.418442e-01 -3.791049e+00 -6.395540e+00 -4.466831e+00 -2.600770e+00 -3.709437e+00 6.832947e+01 -1.321527e+00 2.335250e-01 1.375272e-01 3.156532e-01 6.100240e-01 5.285654e-01 6.787114e-01 1.065378e+00 1.040562e+00 9.968136e-01 7.667548e-01 9.755623e-01 -1.160159e+00 -1.105379e-01 -2.732386e-01 -1.792562e-01 -1.495396e-01 -4.645886e-02 -3.358433e-02 4.687728e-02 2.397062e-01 2.583866e-01 1.225964e-01 1.456248e-01 1.117162e-01 1.850889e-01
<VARIANCE> 39
 3.043220e+01 3.392517e+01 2.352996e+01 4.503354e+01 2.735147e+01 2.844539e+01 4.302433e+01 5.421728e+01 5.362018e+01 4.365034e+01 3.572922e+01 2.941068e+01 3.371539e+01 1.253116e+00 1.525109e+00 1.632170e+00 1.878259e+00 1.695693e+00 1.914760e+00 2.663925e+00 3.583146e+00 3.543159e+00 2.475533e+00 2.595599e+00 2.138894e+00 6.755220e-01 1.972677e-01 2.135058e-01 3.038653e-01 3.339970e-01 3.118660e-01 4.295212e-01 5.195678e-01 6.591116e-01 5.486090e-01 4.190598e-01 4.810347e-01 4.091991e-01 1.286824e-01
<GCONST> 1.132396e+02
<TRANSP> 5
 0.000000e+00 1.000000e+00 0.000000e+00 0.000000e+00 0.000000e+00
 0.000000e+00 6.775686e-01 3.224314e-01 0.000000e+00 0.000000e+00
 0.000000e+00 0.000000e+00 8.562569e-01 1.437431e-01 0.000000e+00
 0.000000e+00 0.000000e+00 0.000000e+00 8.168420e-01 1.831580e-01
 0.000000e+00 0.000000e+00 0.000000e+00 0.000000e+00 0.000000e+00
<ENDHMM>
~h "E"
<BEGINHMM>
<NUMSTATES> 5
<STATE> 2
<MEAN> 39
 -3.584785e-01 -3.367382e+00 6.086564e+00 -5.184777e+00 -1.415045e+01 -1.596245e+01 -9.271978e+00 8.348383e-01 2.205252e+00 2.244678e-01 -2.659591e+00 -2.545386e+00 8.143702e+01 1.258490e+00 -2.894958e+00 -5.764867e-02 -1.549192e+00 -1.444978e+00 -5.226669e-02 -1.566599e-01 1.424745e+00 5.585583e-01 -1.280077e-01 -8.561145e-02 -6.500403e-01 1.731231e+00 -1.259036e+00 2.989747e-01 -4.951717e-01 3.172259e-01 1.212546e+00 1.180782e+00 1.190544e+00 4.024341e-01 2.696611e-01 1.588147e-01 2.957307e-01 2.391811e-01 -5.848041e-01
<VARIANCE> 39
 4.015861e+01 1.740329e+01 3.162345e+01 3.818813e+01 2.451085e+01 4.742047e+01 6.401616e+01 2.429328e+01 6.070522e+01 1.762213e+01 4.675203e+01 5.751667e+01 1.592132e+01 1.701891e+00 1.182606e+00 1.514872e+00 1.042989e+00 3.028428e+00 2.875497e+00 3.267543e+00 1.152305e+00 2.834687e+00 1.438419e+00 3.109243e+00 1.107904e+00 7.171771e-01 1.084711e-01 2.658268e-01 2.578577e-01 3.976233e-01 3.707546e-01 3.839589e-01 4.964323e-01 3.850461e-01 3.906233e-01 3.295659e-01 6.211641e-01 5.061738e-01 7.740905e-02
<GCONST> 1.091336e+02
<STATE> 3
<MEAN> 39
 -2.317482e+00 -9.236865e+00 1.084799e+00 -7.737392e+00 -1.135807e+01 -1.516293e+01 -7.239064e+00 3.963646e+00 4.045663e+00 -2.418013e+00 -3.974947e+00 -9.198014e+00 8.464310e+01 1.807622e-01 -3.936703e-01 -8.691673e-01 1.864834e-01 1.134516e+00 1.338656e+00 4.819583e-01 7.604395e-02 -1.966744e-01 -2.598690e-01 -7.121126e-01 -9.564935e-02 -2.031530e-01 -2.157319e-01 6.488697e-01 4.220001e-02 2.599941e-01 4.159916e-01 2.246554e-01 -1.195156e-01 -1.373413e-01 -1.253146e-01 6.907824e-02 6.386416e-02 2.891887e-01 -4.325815e-01
<VARIANCE> 39
 3.539133e+01 1.246301e+01 3.474395e+01 2.092340e+01 2.975259e+01 8.409035e+01 6.229863e+01 2.635865e+01 7.144170e+01 3.196359e+01 4.920933e+01 1.018741e+02 1.183698e+01 2.986318e-01 2.142924e+00 1.267847e+00 1.027602e+00 1.944505e+00 1.197298e+00 3.284694e+00 1.967515e+00 1.906004e+00 1.941953e+00 1.394949e+00 2.040169e+00 7.366311e-01 1.335702e-01 2.469286e-01 2.962365e-01 2.419192e-01 3.013194e-01 1.950709e-01 6.039320e-01 3.593484e-01 3.930328e-01 3.862012e-01 3.759925e-01 2.659321e-01 7.584788e-02
<GCONST> 1.057104e+02
<STATE> 4
<MEAN> 39
 -1.065144e+00 -5.096395e+00 1.798927e+00 -4.136764e+00 -6.994171e+00 -7.251706e+00 -3.419626e+00 4.564191e+00 2.850521e+00 -9.303750e-01 -5.807804e+00 -2.942603e+00 7.707858e+01 -3.538177e-01 3.172719e-01 -2.556327e-01 3.221672e-01 1.079920e+00 7.309496e-01 -8.491740e-02 1.168062e-01 3.272849e-01 1.639492e-01 2.105907e-04 1.165764e-01 -6.600912e-01 -8.259075e-02 7.464913e-04 3.331083e-02 3.599773e-02 9.957187e-02 -7.237658e-03 -1.033125e-01 -5.358018e-02 7.757720e-02 5.517924e-02 6.468534e-02 1.088760e-02 -3.448445e-02
<VARIANCE> 39
 7.010031e+01 1.338180e+01 3.232207e+01 3.493421e+01 5.230564e+01 5.494172e+01 5.983606e+01 3.126632e+01 5.326122e+01 4.014414e+01 3.975389e+01 1.868541e+01 1.637213e+01 6.171792e-01 9.952911e-01 8.450460e-01 1.032855e+00 2.023833e+00 1.627831e+00 2.473322e+00 1.709577e+00 1.819364e+00 2.088423e+00 1.290568e+00 1.302190e+00 2.813789e-01 9.743307e-02 1.149044e-01 1.874776e-01 1.544128e-01 2.575533e-01 2.574295e-01 4.245563e-01 2.904969e-01 3.019695e-01 3.447870e-01 2.700207e-01 2.777760e-01 3.699601e-02
<GCONST> 9.972788e+01
<TRANSP> 5
 0.000000e+00 1.000000e+00 0.000000e+00 0.000000e+00 0.000000e+00
 0.000000e+00 5.091480e-01 4.908521e-01 0.000000e+00 0.000000e+00
 0.000000e+00 0.000000e+00 7.555557e-01 2.444443e-01 0.000000e+00
 0.000000e+00 0.000000e+00 0.000000e+00 8.842418e-01 1.157582e-01
 0.000000e+00 0.000000e+00 0.000000e+00 0.000000e+00 0.000000e+00
<ENDHMM>
~h "O"
<BEGINHMM>
<NUMSTATES> 5
<STATE> 2
<MEAN> 39
 4.284088e+00 -4.511350e-01 -5.351829e+00 -1.176346e+01 -4.495489e+00 -1.708597e+00 -8.516161e+00 -1.060328e+01 1.106066e+00 5.555509e+00 -2.352866e+00 -5.689916e+00 7.904982e+01 2.562230e+00 -9.730046e-01 -1.518024e+00 -4.037623e+00 -1.619923e+00 4.334836e-01 -2.962839e-01 -2.000158e+00 -5.729095e-01 -3.218279e-02 -2.595183e-01 -1.610095e+00 2.002789e+00 -1.348920e+00 -4.558516e-01 7.894826e-02 5.223361e-01 4.926951e-01 3.131773e-01 6.421302e-01 1.294623e+00 6.321125e-01 1.129513e-01 1.989691e-01 5.549859e-01 -2.511970e-01
<VARIANCE> 39
 3.384776e+01 1.082226e+01 2.292952e+01 2.371691e+01 2.894230e+01 4.873145e+01 2.818556e+01 1.396361e+01 2.154561e+01 1.671322e+01 6.084026e+01 1.895582e+01 1.459631e+01 2.030927e+00 2.000678e+00 3.139512e+00 2.537696e+00 3.177593e+00 2.182834e+00 2.443499e+00 3.480834e+00 3.103620e+00 1.284105e+00 6.939198e+00 2.027023e+00 5.987867e-01 5.885592e-02 2.351432e-01 2.615027e-01 4.555846e-01 2.671583e-01 2.867851e-01 2.156434e-01 2.246513e-01 2.258943e-01 3.526289e-01 3.491288e-01 1.981175e-01 1.132703e-01
<GCONST> 1.044088e+02
<STATE> 3
<MEAN> 39
 4.430676e+00 -3.172529e+00 -7.560880e+00 -1.604563e+01 -4.458399e+00 1.153246e+00 -7.034734e+00 -8.817882e+00 9.055860e-01 5.537430e+00 -3.896183e+00 -7.234569e+00 8.065685e+01 -3.131203e-02 -4.949976e-01 -5.309744e-01 -1.110187e+00 8.899072e-02 9.777460e-01 6.708751e-01 3.035478e-01 -2.881242e-01 -7.803019e-01 -1.607680e-01 -2.294401e-01 2.654468e-01 -4.027883e-01 3.657193e-01 2.215069e-01 7.030357e-01 3.680689e-01 -3.505535e-02 1.240525e-01 3.542132e-01 -4.400371e-02 -2.472077e-01 5.980161e-02 3.177206e-01 -4.949599e-01
<VARIANCE> 39
 2.904035e+01 1.283666e+01 3.341045e+01 2.851707e+01 4.562188e+01 5.025548e+01 3.216791e+01 2.706067e+01 4.771022e+01 2.458923e+01 9.257063e+01 1.941657e+01 1.299593e+01 1.558994e-01 9.759523e-01 6.425436e-01 1.022281e+00 7.221759e-01 9.098272e-01 1.451754e+00 1.137148e+00 1.073530e+00 1.470556e+00 1.112575e+00 9.206692e-01 3.846807e-01 1.946184e-01 2.015422e-01 2.369319e-01 3.009070e-01 3.159353e-01 2.088677e-01 1.710838e-01 4.219989e-01 2.772955e-01 2.230259e-01 4.825619e-01 1.770965e-01 8.334853e-02
<GCONST> 9.444013e+01
<STATE> 4
<MEAN> 39
 2.193107e+00 -9.780897e-01 -8.380368e+00 -1.701595e+01 -1.946796e+00 5.219539e+00 -2.292477e+00 -7.898453e+00 -5.376117e-01 1.077751e+00 -1.198793e+00 -5.211225e+00 7.773151e+01 -2.713509e-01 7.532398e-01 7.160517e-02 2.974250e-01 3.537162e-01 3.388274e-01 4.506404e-01 4.451754e-01 -2.387799e-01 -4.019403e-01 1.035684e-02 4.516688e-01 -7.344956e-01 -5.696468e-02 5.469919e-02 1.233564e-01 1.783181e-01 2.082238e-02 -7.038879e-02 -5.476192e-02 4.861775e-02 1.044609e-01 6.385234e-02 3.479326e-02 1.008396e-02 -9.729447e-02
<VARIANCE> 39
 5.504980e+01 2.034655e+01 3.897559e+01 2.316055e+01 5.672464e+01 4.644984e+01 5.599430e+01 3.914727e+01 3.029715e+01 3.749568e+01 6.013619e+01 3.586204e+01 1.681548e+01 5.147075e-01 8.900582e-01 8.228624e-01 1.276471e+00 1.110234e+00 1.554512e+00 1.501499e+00 1.676476e+00 1.400913e+00 1.548375e+00 1.365740e+00 1.348860e+00 3.661214e-01 8.658716e-02 1.330468e-01 1.310998e-01 1.640027e-01 2.061766e-01 2.385768e-01 3.253201e-01 2.745335e-01 2.623556e-01 2.000482e-01 2.166213e-01 3.234711e-01 4.860970e-02
<GCONST> 9.736420e+01
<TRANSP> 5
 0.000000e+00 1.000000e+00 0.000000e+00 0.000000e+00 0.000000e+00
 0.000000e+00 4.440854e-01 5.559146e-01 0.000000e+00 0.000000e+00
 0.000000e+00 0.000000e+00 6.949047e-01 3.050953e-01 0.000000e+00
 0.000000e+00 0.000000e+00 0.000000e+00 8.810451e-01 1.189549e-01
 0.000000e+00 0.000000e+00 0.000000e+00 0.000000e+00 0.000000e+00
<ENDHMM>
~h "R"
<BEGINHMM>
<NUMSTATES> 5
<STATE> 2
<MEAN> 39
 -7.761790e-01 8.606292e-01 7.051786e-01 -4.906573e+00 -3.401750e-02 -2.909429e+00 -8.016255e+00 -3.530751e+00 2.274196e+00 6.578140e-01 -5.066278e+00 -1.896497e+00 7.465041e+01 6.229562e-01 7.070144e-02 -3.038666e-01 -8.490407e-01 -2.195232e-03 -1.198356e-01 -5.053442e-01 -5.893596e-01 -2.407919e-01 -1.379431e-01 -2.826608e-01 -1.118941e-01 8.307787e-01 -2.268382e-01 3.071748e-02 9.833665e-02 5.283454e-02 -4.538075e-02 7.284270e-02 3.091622e-01 2.018668e-01 -3.348774e-02 7.312989e-02 3.176549e-01 1.750269e-01 -2.122331e-01
<VARIANCE> 39
 4.526461e+01 4.475006e+01 3.744552e+01 6.345781e+01 7.761015e+01 8.162772e+01 5.084743e+01 5.284940e+01 5.744682e+01 5.553549e+01 4.188736e+01 3.130054e+01 3.902581e+01 2.930956e+00 2.585015e+00 2.240657e+00 4.214074e+00 6.514556e+00 4.938283e+00 4.488729e+00 4.315434e+00 3.978322e+00 3.842295e+00 3.432639e+00 2.740806e+00 2.946860e+00 5.332575e-01 4.536302e-01 3.508651e-01 7.198443e-01 1.008265e+00 7.401235e-01 7.024266e-01 8.975468e-01 7.469902e-01 7.763144e-01 6.234962e-01 5.298608e-01 3.227126e-01
<GCONST> 1.330465e+02
<STATE> 3
<MEAN> 39
 8.540261e-01 3.049694e+00 7.045390e-01 -6.290269e+00 7.931702e-01 -9.496052e-01 -7.577393e+00 -3.739057e+00 2.073684e+00 1.369742e-01 -4.062186e+00 -4.817030e-01 7.454634e+01 3.634378e-01 -1.555136e-01 -1.112512e-01 -5.317845e-01 -7.677908e-01 -3.616626e-01 1.446351e-01 -2.703761e-02 -1.943235e-01 -2.026743e-01 1.525599e-01 -3.223510e-02 4.249336e-01 7.384902e-02 -2.102541e-01 -1.227386e-02 2.152355e-02 -2.682841e-01 -4.901293e-02 5.257637e-02 -4.973438e-02 2.197916e-03 1.183454e-02 -1.540096e-02 -1.112616e-01 6.562732e-02
<VARIANCE> 39
 3.330256e+01 3.349035e+01 3.877917e+01 5.584985e+01 5.768188e+01 6.201756e+01 4.544939e+01 3.973692e+01 5.948471e+01 4.674709e+01 3.305608e+01 3.634225e+01 2.495967e+01 1.304399e+00 1.644257e+00 1.366755e+00 1.846333e+00 3.491290e+00 2.186217e+00 2.080536e+00 2.551049e+00 1.945557e+00 1.964176e+00 1.847888e+00 1.901496e+00 7.040179e-01 2.473120e-01 2.269705e-01 2.010527e-01 3.444133e-01 5.338743e-01 3.844375e-01 3.821188e-01 4.537864e-01 3.659140e-01 3.796964e-01 3.447519e-01 3.239322e-01 1.385830e-01
<GCONST> 1.129034e+02
<STATE> 4
<MEAN> 39
 3.839463e+00 1.566234e+00 -4.654036e-02 -9.827711e+00 -6.743482e+00 -3.117397e+00 -8.271460e+00 -5.046958e+00 1.157512e+00 6.797134e-01 -3.449247e+00 -2.289076e+00 7.633912e+01 8.485567e-02 -3.540923e-01 1.716769e-01 -1.195635e-01 -6.803750e-01 -1.506622e-01 -9.497283e-03 2.026301e-03 -3.478333e-02 -1.504494e-01 9.214623e-02 -1.589910e-01 1.878112e-01 -1.171265e-01 2.937905e-02 5.230171e-02 8.159776e-02 1.195958e-01 8.286032e-02 3.159065e-04 1.664496e-02 -3.282623e-02 -1.131773e-02 4.897691e-02 3.044011e-02 -7.000726e-02
<VARIANCE> 39
 3.159796e+01 5.542675e+01 3.811112e+01 7.014697e+01 5.489895e+01 7.627839e+01 5.696383e+01 4.654551e+01 5.742099e+01 4.968338e+01 4.461325e+01 3.681022e+01 2.779845e+01 6.185242e-01 1.445437e+00 1.033854e+00 1.689359e+00 2.295443e+00 2.074296e+00 2.261729e+00 2.077823e+00 1.620646e+00 2.010316e+00 1.675178e+00 1.591932e+00 9.121060e-01 7.635000e-02 1.648560e-01 1.322716e-01 2.155599e-01 2.644010e-01 2.832100e-01 3.012610e-01 3.050203e-01 2.813207e-01 3.044930e-01 2.591982e-01 2.384752e-01 8.073755e-02
<GCONST> 1.068986e+02
<TRANSP> 5
 0.000000e+00 1.000000e+00 0.000000e+00 0.000000e+00 0.000000e+00
 0.000000e+00 7.134029e-01 2.865971e-01 0.000000e+00 0.000000e+00
 0.000000e+00 0.000000e+00 7.096680e-01 2.903320e-01 0.000000e+00
 0.000000e+00 0.000000e+00 0.000000e+00 7.611260e-01 2.388740e-01
 0.000000e+00 0.000000e+00 0.000000e+00 0.000000e+00 0.000000e+00
<ENDHMM>
~h "S"
<BEGINHMM>
<NUMSTATES> 5
<STATE> 2
<MEAN> 39
 -1.478136e+01 -8.734288e-01 8.536965e+00 -2.574942e+00 -4.876523e+00 -2.992960e+00 -1.426266e+00 1.743986e+00 4.680117e+00 2.697502e+00 2.557826e+00 1.292919e+00 7.691108e+01 -4.448752e-01 -2.144557e-01 -1.757729e-01 1.350766e-01 2.193649e-01 1.401726e-01 5.775067e-02 7.027368e-02 4.479340e-01 1.684125e-01 1.116284e-01 1.377876e-01 5.140929e-02 4.267085e-01 7.205179e-02 -5.171601e-02 6.097702e-02 1.772080e-02 -5.802164e-02 -1.274008e-01 -9.572501e-02 -1.851149e-01 -8.969167e-02 -1.634695e-01 -1.334767e-01 -1.461320e-01
<VARIANCE> 39
 1.279587e+02 2.197245e+01 3.203043e+01 3.960535e+01 4.528957e+01 5.109437e+01 3.942905e+01 7.733059e+01 6.194792e+01 4.551931e+01 3.721335e+01 4.491290e+01 2.396970e+01 1.526222e+00 5.837156e-01 7.876195e-01 1.092922e+00 1.233347e+00 1.442021e+00 1.475964e+00 1.900705e+00 1.936303e+00 1.809216e+00 1.912201e+00 1.498703e+00 5.725077e-01 2.244806e-01 1.261839e-01 1.544151e-01 1.854065e-01 2.739397e-01 3.001698e-01 3.206351e-01 4.191621e-01 3.439170e-01 3.587266e-01 3.679398e-01 3.175556e-01 3.931496e-02
<GCONST> 1.050689e+02
<STATE> 3
<MEAN> 39
 -9.839484e+00 -1.410182e+00 6.926051e+00 -1.015385e+00 -2.561001e+00 -2.368256e+00 -3.606201e+00 8.875257e-01 4.870477e+00 2.436699e+00 -2.306777e-01 -2.823506e-01 7.467558e+01 3.738452e+00 3.725342e-01 -1.241128e+00 -2.414178e-01 -1.923846e-01 -4.592219e-01 -1.831822e+00 -1.735865e+00 -1.466506e+00 -1.089791e+00 -1.658652e+00 -1.764981e+00 4.199062e-02 5.886087e-01 -7.254884e-02 -5.100411e-01 -5.574030e-01 -2.863020e-01 6.477477e-02 -1.987813e-01 -4.019060e-01 -3.541159e-01 -1.720349e-01 -1.555419e-01 -2.907164e-01 4.300309e-01
<VARIANCE> 39
 1.031991e+02 2.300290e+01 2.738593e+01 4.568170e+01 4.319996e+01 5.389943e+01 4.574543e+01 7.092006e+01 7.627426e+01 4.797575e+01 3.923050e+01 4.615674e+01 2.323671e+01 6.038487e+00 1.795465e+00 2.615506e+00 2.700738e+00 3.102301e+00 3.991088e+00 4.334307e+00 4.403195e+00 3.192927e+00 2.922088e+00 3.372746e+00 3.080196e+00 1.248979e+00 6.799914e-01 3.419669e-01 2.977708e-01 3.531739e-01 4.898437e-01 5.721108e-01 6.907828e-01 6.144645e-01 6.267341e-01 5.635862e-01 6.323051e-01 5.446583e-01 1.856317e-01
<GCONST> 1.262402e+02
<STATE> 4
<MEAN> 39
 3.310322e+00 2.385041e+00 1.211628e+00 -5.002127e+00 -5.639694e+00 -3.667570e+00 -7.806085e+00 -8.207928e+00 -6.440714e+00 -4.223139e+00 -5.105560e+00 -6.979540e+00 7.435631e+01 6.011912e-01 -8.174237e-03 -7.522084e-01 -4.177969e-01 2.415856e-01 4.039087e-01 -1.359991e-01 -2.250256e-01 -1.889972e-01 1.424962e-01 -1.049525e-02 -1.124192e-01 -4.734448e-02 -5.616057e-01 -1.066256e-01 1.573224e-02 -7.106179e-02 1.112664e-01 1.630063e-01 4.018165e-01 4.006647e-01 3.293840e-01 2.399173e-01 3.648386e-01 3.593459e-01 -4.576074e-02
<VARIANCE> 39
 3.182304e+01 4.748803e+01 2.597256e+01 3.745990e+01 3.963092e+01 4.153357e+01 5.206561e+01 6.807597e+01 1.034811e+02 6.054205e+01 4.287986e+01 3.332438e+01 4.161526e+01 5.531302e+00 2.547169e+00 3.395446e+00 3.823060e+00 3.116043e+00 2.783721e+00 3.277689e+00 5.206471e+00 5.062996e+00 3.557387e+00 3.509724e+00 3.386463e+00 2.170381e+00 5.128921e-01 2.787665e-01 2.677731e-01 2.750634e-01 4.724161e-01 5.673304e-01 8.050572e-01 6.293130e-01 4.753214e-01 4.846242e-01 5.781470e-01 4.813568e-01 1.462424e-01
<GCONST> 1.263210e+02
<TRANSP> 5
 0.000000e+00 1.000000e+00 0.000000e+00 0.000000e+00 0.000000e+00
 0.000000e+00 8.555225e-01 1.444775e-01 0.000000e+00 0.000000e+00
 0.000000e+00 0.000000e+00 5.650515e-01 4.349484e-01 0.000000e+00
 0.000000e+00 0.000000e+00 0.000000e+00 7.415338e-01 2.584662e-01
 0.000000e+00 0.000000e+00 0.000000e+00 0.000000e+00 0.000000e+00
<ENDHMM>
~h "Z"
<BEGINHMM>
<NUMSTATES> 5
<STATE> 2
<MEAN> 39
 -6.487423e+00 7.692452e+00 1.693222e+01 -1.148734e+00 -6.148927e+00 -7.599040e+00 -7.854358e+00 -3.342178e+00 -4.654840e+00 8.226485e-01 -3.186116e+00 -9.211290e-01 7.455896e+01 -8.975627e-01 9.818007e-01 1.174653e+00 -1.732115e-01 4.076378e-01 -7.534212e-01 -3.507581e-01 -8.475927e-01 -5.147317e-01 -4.593064e-01 -2.192725e-01 2.746694e-01 1.147983e+00 -2.486008e-01 -1.441544e-01 -4.664730e-01 -5.458208e-02 3.222565e-01 5.421575e-01 4.560261e-01 1.582379e-01 1.715936e-01 1.159792e-01 1.966015e-01 -8.913174e-02 -2.149582e-01
<VARIANCE> 39
 3.677531e+01 1.688031e+01 2.729171e+01 3.970666e+01 3.139076e+01 3.326988e+01 2.333675e+01 2.108168e+01 4.931988e+01 2.506185e+01 2.030623e+01 3.910009e+01 2.346928e+01 3.392365e+00 1.503332e+00 2.309610e+00 1.711058e+00 6.446280e+00 5.360506e+00 5.548109e+00 1.490804e+00 3.083623e+00 2.554262e+00 2.338417e+00 1.788996e+00 1.729096e+00 4.574901e-01 3.720798e-01 3.109979e-01 2.996020e-01 8.607388e-01 6.110080e-01 8.855522e-01 3.386070e-01 5.109593e-01 4.768765e-01 3.093670e-01 4.660468e-01 2.009959e-01
<GCONST> 1.169555e+02
<STATE> 3
<MEAN> 39
 -1.264956e+01 9.824389e+00 1.906460e+01 -1.542243e+00 -2.779509e+00 -5.029622e+00 -5.309703e+00 -5.261456e+00 -4.122373e+00 -2.560149e-01 -2.316527e+00 -1.453100e+00 7.721894e+01 -2.866639e-01 2.225633e-02 1.703309e-01 -2.045674e-01 -9.575907e-02 1.602846e-01 -1.757797e-02 -2.546725e-01 1.339451e-01 8.184076e-02 -4.658098e-02 -7.374248e-02 1.312991e-01 3.500938e-01 -1.861730e-01 6.407484e-02 -4.141773e-03 -3.804305e-01 -1.858956e-01 -2.189704e-01 -4.618954e-02 -1.776356e-02 4.453958e-02 -1.853379e-02 8.352648e-02 -2.812592e-02
<VARIANCE> 39
 3.984735e+01 1.346571e+01 2.031667e+01 2.954402e+01 2.480389e+01 2.138622e+01 2.058676e+01 2.044611e+01 3.508521e+01 2.230362e+01 2.300396e+01 2.547995e+01 2.433429e+01 1.480127e+00 5.838766e-01 6.005933e-01 5.970870e-01 2.298387e+00 1.721699e+00 1.719025e+00 1.576598e+00 1.338827e+00 1.382244e+00 1.244719e+00 1.301678e+00 2.046264e-01 9.542622e-02 1.166717e-01 9.943119e-02 9.207727e-02 2.247074e-01 2.780714e-01 2.863604e-01 2.973690e-01 2.561354e-01 2.640227e-01 2.893660e-01 2.098269e-01 3.352873e-02
<GCONST> 9.029848e+01
<STATE> 4
<MEAN> 39
 -5.296218e+00 4.205154e+00 2.185434e+01 -1.232687e+00 -1.364669e+01 -8.000805e+00 -1.034550e+01 -7.514470e+00 -4.795032e+00 -7.630944e-01 -1.536795e+00 -3.660798e-02 7.819981e+01 1.006381e+00 -1.184794e+00 4.361672e-02 -9.601213e-02 -1.169481e+00 -3.744717e-01 -6.022328e-01 1.420614e-01 -2.237919e-01 -2.356336e-01 -9.822540e-02 1.514602e-01 1.481493e-01 -1.089694e-01 -1.693614e-02 -1.239193e-01 -1.499838e-02 2.359866e-01 1.242162e-01 8.349770e-02 1.815345e-01 5.021435e-02 -9.069137e-03 -1.107991e-01 -4.411833e-02 -7.589020e-03
<VARIANCE> 39
 4.002840e+01 2.703132e+01 2.211754e+01 6.736682e+01 3.259209e+01 2.886834e+01 2.672546e+01 1.820745e+01 2.496730e+01 3.962467e+01 4.178141e+01 2.203452e+01 1.991551e+01 6.203378e-01 7.670612e-01 7.051963e-01 7.304911e-01 1.145642e+00 1.907552e+00 1.888671e+00 1.267467e+00 1.458880e+00 1.824587e+00 1.588700e+00 1.191700e+00 1.598284e-01 1.176362e-01 1.416841e-01 9.120308e-02 1.228022e-01 1.626265e-01 3.182558e-01 2.975391e-01 1.940383e-01 2.854913e-01 3.155041e-01 2.134127e-01 2.363244e-01 2.684660e-02
<GCONST> 9.233942e+01
<TRANSP> 5
 0.000000e+00 1.000000e+00 0.000000e+00 0.000000e+00 0.000000e+00
 0.000000e+00 7.318020e-01 2.681980e-01 0.000000e+00 0.000000e+00
 0.000000e+00 0.000000e+00 8.748121e-01 1.251880e-01 0.000000e+00
 0.000000e+00 0.000000e+00 0.000000e+00 8.527911e-01 1.472089e-01
 0.000000e+00 0.000000e+00 0.000000e+00 0.000000e+00 0.000000e+00
<ENDHMM>
~h "a"
<BEGINHMM>
<NUMSTATES> 5
<STATE> 2
<MEAN> 39
 2.454636e+00 -1.006603e+01 -5.454505e+00 -8.891551e+00 -2.213727e+00 -2.626237e+00 -6.408199e+00 -7.982277e-01 3.547811e+00 -2.198070e+00 -8.186497e+00 -7.970390e+00 8.341335e+01 3.446223e-03 -4.488716e-01 -6.169941e-01 -1.342908e-02 6.557516e-01 5.117258e-01 3.421360e-01 -3.361810e-01 -1.304203e-01 -1.714390e-01 -1.032025e-01 -3.281823e-01 1.311673e-01 -9.820904e-02 6.580199e-01 3.535429e-01 3.428820e-01 -3.061985e-02 -1.828632e-01 -1.064982e-01 -1.849589e-01 -1.914676e-01 1.849363e-01 3.271063e-01 2.608267e-01 -5.026545e-01
<VARIANCE> 39
 3.808493e+01 1.943629e+01 2.726842e+01 3.035220e+01 3.187401e+01 7.557381e+01 4.560183e+01 4.005096e+01 8.287049e+01 4.360593e+01 7.842743e+01 6.843880e+01 1.175990e+01 3.065700e-01 1.669694e+00 1.407271e+00 1.084528e+00 1.968016e+00 2.379486e+00 2.121808e+00 1.958745e+00 1.650646e+00 1.748635e+00 1.849306e+00 1.805761e+00 5.577090e-01 1.284773e-01 1.852799e-01 1.835453e-01 2.732614e-01 3.055920e-01 3.514578e-01 3.698609e-01 4.015807e-01 4.452359e-01 3.292551e-01 4.311767e-01 3.611172e-01 9.431041e-02
<GCONST> 1.069389e+02
<STATE> 3
<MEAN> 39
 2.973578e+00 -7.633523e+00 -8.395453e+00 -8.628934e+00 2.509767e+00 -3.501450e-01 -5.069476e+00 -5.800344e+00 2.199218e+00 -1.942683e+00 -5.707978e+00 -9.021939e+00 8.073885e+01 2.522622e-02 8.103763e-01 -5.904296e-02 4.231136e-01 3.880976e-01 3.947187e-01 2.516330e-02 -2.391574e-01 -2.764613e-01 9.115817e-02 3.424641e-01 2.089743e-01 -9.961607e-01 -1.007421e-01 2.540452e-01 1.594324e-01 1.139630e-01 -5.430329e-02 3.221636e-02 6.511132e-02 1.719999e-01 7.130782e-04 5.913942e-02 7.115626e-02 1.437830e-01 -2.890980e-01
<VARIANCE> 39
 3.512831e+01 2.568527e+01 2.334261e+01 3.166503e+01 3.792114e+01 6.978387e+01 5.630224e+01 3.682326e+01 5.002326e+01 3.999599e+01 6.264019e+01 4.968698e+01 1.845911e+01 3.368593e-01 1.465413e+00 1.032503e+00 1.042759e+00 1.234737e+00 1.429964e+00 1.533143e+00 1.528021e+00 1.657588e+00 1.288885e+00 1.352357e+00 1.310869e+00 7.981966e-01 7.543924e-02 1.231529e-01 1.454095e-01 1.794629e-01 2.090862e-01 2.582304e-01 3.101882e-01 2.645367e-01 2.592057e-01 2.520329e-01 2.280124e-01 2.281068e-01 7.096183e-02
<GCONST> 9.898511e+01
<STATE> 4
<MEAN> 39
 1.402908e-01 -1.497059e+00 -6.184367e+00 -5.152844e+00 2.605720e+00 2.498351e+00 -1.362674e+00 -7.425350e-01 3.728450e+00 1.457006e+00 -1.812886e+00 -5.134167e+00 7.090295e+01 -9.291190e-01 7.862472e-01 2.551584e-01 4.094257e-01 1.419047e-01 4.755178e-01 9.665941e-01 9.915240e-01 3.886147e-01 8.051364e-01 9.269678e-01 9.222685e-01 -1.480895e+00 -8.664689e-02 -2.209791e-01 -2.956407e-02 -1.099565e-01 -8.785033e-02 -9.649131e-02 -6.595591e-03 5.099175e-02 7.196388e-02 4.970934e-02 4.535156e-02 2.325181e-02 2.602572e-01
<VARIANCE> 39
 2.326506e+01 3.034835e+01 2.962528e+01 3.593115e+01 3.486485e+01 6.145796e+01 4.226965e+01 4.685487e+01 4.467972e+01 4.640334e+01 5.148716e+01 5.439912e+01 3.312878e+01 1.410312e+00 1.762412e+00 1.287382e+00 1.712858e+00 1.857257e+00 2.256614e+00 2.766287e+00 2.712042e+00 2.660637e+00 2.608751e+00 2.727316e+00 2.281920e+00 1.112372e+00 1.720506e-01 2.271490e-01 2.508371e-01 2.874504e-01 3.222423e-01 4.066171e-01 4.809541e-01 5.024683e-01 4.601257e-01 4.684444e-01 4.680575e-01 4.200262e-01 1.248281e-01
<GCONST> 1.139985e+02
<TRANSP> 5
 0.000000e+00 1.000000e+00 0.000000e+00 0.000000e+00 0.000000e+00
 0.000000e+00 7.086067e-01 2.913934e-01 0.000000e+00 0.000000e+00
 0.000000e+00 0.000000e+00 7.992315e-01 2.007685e-01 0.000000e+00
 0.000000e+00 0.000000e+00 0.000000e+00 8.112190e-01 1.887810e-01
 0.000000e+00 0.000000e+00 0.000000e+00 0.000000e+00 0.000000e+00
<ENDHMM>
~h "b"
<BEGINHMM>
<NUMSTATES> 5
<STATE> 2
<MEAN> 39
 3.403277e+00 1.304934e+01 6.793274e+00 3.989986e+00 1.677513e-01 -1.643322e+00 -6.201640e+00 -6.633678e+00 -5.057118e+00 -2.167873e+00 -3.460537e+00 -5.697164e+00 6.525399e+01 3.130568e-01 4.243275e-02 8.958176e-03 -1.019325e-01 -4.960516e-02 -2.733733e-01 -4.371299e-01 -2.063089e-01 -1.131524e-01 -1.183292e-01 -1.466742e-01 -1.109173e-01 4.956744e-01 -1.694249e-01 -6.360536e-01 -2.952548e-01 -3.625596e-01 -1.623753e-01 2.731493e-02 8.493149e-02 2.480856e-01 4.105871e-01 3.017743e-01 1.793689e-01 2.677087e-01 3.372248e-01
<VARIANCE> 39
 9.324413e+00 3.854856e+01 1.906714e+01 2.235084e+01 1.653464e+01 2.120287e+01 2.245012e+01 2.504141e+01 2.692793e+01 2.814727e+01 3.793730e+01 2.437603e+01 1.910350e+01 1.417708e+00 2.334341e+00 1.109855e+00 1.199593e+00 1.454992e+00 2.096744e+00 2.396452e+00 2.783545e+00 2.462247e+00 2.090758e+00 1.973521e+00 1.845431e+00 1.212133e+00 2.250559e-01 3.218966e-01 2.504123e-01 3.449443e-01 4.011265e-01 4.628678e-01 4.984333e-01 5.055863e-01 4.628455e-01 4.228951e-01 4.106411e-01 3.398495e-01 3.340345e-01
<GCONST> 1.070048e+02
<STATE> 3
<MEAN> 39
 2.675453e+00 5.253065e+00 3.233755e+00 -5.901021e-01 -1.211967e+00 -3.138601e+00 -7.826698e+00 -6.794102e+00 -2.688012e+00 -9.300184e-02 -3.026919e+00 -4.103833e+00 7.180913e+01 3.166890e-01 -3.021232e+00 -1.608342e+00 -2.906626e+00 -1.965947e+00 -9.127319e-01 -1.066077e+00 1.262723e-01 1.833952e+00 1.370323e+00 3.463115e-01 5.541370e-01 3.218873e+00 1.043819e-01 -3.373746e-01 -2.030982e-01 -5.754209e-01 -3.148872e-01 2.835207e-01 2.216569e-01 1.395141e-01 1.811367e-01 -8.741207e-02 -2.004550e-01 -3.500724e-01 3.192656e-01
<VARIANCE> 39
 2.639306e+01 3.093649e+01 2.617204e+01 4.504793e+01 2.237152e+01 3.673425e+01 2.951768e+01 2.813064e+01 3.172019e+01 3.559008e+01 3.674612e+01 2.471353e+01 2.601587e+01 2.455674e+00 4.249850e+00 3.673711e+00 4.238869e+00 3.077070e+00 4.466894e+00 3.430561e+00 4.074540e+00 4.686677e+00 3.463070e+00 3.323631e+00 3.825389e+00 1.910663e+00 2.425807e-01 6.848282e-01 4.066544e-01 5.385264e-01 5.583826e-01 5.625087e-01 6.201988e-01 5.053980e-01 6.329243e-01 5.413496e-01 5.897990e-01 5.910861e-01 3.868290e-01
<GCONST> 1.236066e+02
<STATE> 4
<MEAN> 39
 4.503287e+00 -2.549103e+00 -1.501231e+00 -9.870859e+00 -6.428288e+00 -2.269782e+00 -8.781997e+00 -5.893599e+00 3.098383e+00 2.979332e+00 -2.687616e+00 -6.306100e+00 7.967802e+01 2.665735e-02 -2.376782e+00 -1.234599e+00 -2.142643e+00 -7.954519e-01 5.570493e-01 4.591388e-01 8.310427e-01 1.159578e+00 -1.636520e-01 -9.430815e-01 -9.090089e-01 2.190564e+00 -1.862271e-01 6.510825e-01 3.660864e-01 7.760015e-01 6.486320e-01 3.107886e-01 4.270890e-01 2.775010e-02 -6.576029e-01 -6.190125e-01 -2.890007e-01 -9.907383e-02 -7.465414e-01
<VARIANCE> 39
 3.756960e+01 3.299894e+01 4.898906e+01 5.630724e+01 3.733027e+01 9.810079e+01 3.524592e+01 3.970191e+01 4.970152e+01 4.273301e+01 8.691331e+01 4.826984e+01 1.960676e+01 1.164940e+00 3.175006e+00 3.228647e+00 3.366943e+00 4.002633e+00 3.727302e+00 3.782175e+00 3.253218e+00 4.017678e+00 3.289617e+00 4.036258e+00 4.821837e+00 1.596470e+00 1.846804e-01 3.447791e-01 2.740888e-01 5.198685e-01 4.020135e-01 6.559614e-01 4.910023e-01 5.107008e-01 5.305581e-01 4.379148e-01 5.530469e-01 5.084241e-01 1.895242e-01
<GCONST> 1.242646e+02
<TRANSP> 5
 0.000000e+00 1.000000e+00 0.000000e+00 0.000000e+00 0.000000e+00
 0.000000e+00 8.066803e-01 1.933198e-01 0.000000e+00 0.000000e+00
 0.000000e+00 0.000000e+00 4.786588e-01 5.213412e-01 0.000000e+00
 0.000000e+00 0.000000e+00 0.000000e+00 4.853252e-01 5.146748e-01
 0.000000e+00 0.000000e+00 0.000000e+00 0.000000e+00 0.000000e+00
<ENDHMM>
~h "d"
<BEGINHMM>
<NUMSTATES> 5
<STATE> 2
<MEAN> 39
 1.323330e+00 1.389122e+01 9.235965e+00 3.612894e+00 -1.473219e+00 -3.348960e+00 -6.062232e+00 -4.203153e+00 -3.659835e+00 -2.993406e+00 -5.070239e+00 -5.324688e+00 6.490166e+01 -1.480079e-01 8.919941e-02 1.583276e-01 -4.534611e-02 -1.243832e-02 -4.360040e-01 -9.742694e-02 -2.340387e-02 -3.213318e-02 -2.429089e-01 -1.954048e-01 -5.623422e-02 6.434134e-01 -3.425244e-01 -5.587970e-01 -8.517581e-02 -1.655051e-01 -1.258804e-01 -3.556988e-02 2.840680e-02 1.192353e-01 2.194730e-01 1.959998e-01 3.162482e-01 3.451545e-01 3.289335e-01
<VARIANCE> 39
 1.096063e+01 3.195149e+01 1.550819e+01 2.727052e+01 2.194034e+01 2.197832e+01 1.992231e+01 2.361120e+01 2.809571e+01 3.072003e+01 2.101569e+01 2.181232e+01 2.175248e+01 2.444911e+00 2.537635e+00 1.324250e+00 1.460353e+00 2.402355e+00 2.636172e+00 2.729003e+00 3.081010e+00 2.469458e+00 2.114353e+00 2.038085e+00 2.184799e+00 1.605158e+00 2.531888e-01 2.605267e-01 2.984799e-01 3.511953e-01 7.245715e-01 5.831172e-01 6.408553e-01 6.855373e-01 5.017723e-01 4.914002e-01 3.423978e-01 3.156438e-01 3.981369e-01
<GCONST> 1.107579e+02
<STATE> 3
<MEAN> 39
 -5.040247e+00 7.548385e+00 8.139610e+00 6.636168e-01 -2.378646e+00 -7.347335e+00 -6.839152e+00 -4.573214e+00 -2.429710e+00 -2.226468e+00 -3.390012e+00 -2.379507e+00 7.388299e+01 -3.306026e-01 -2.345598e+00 1.223425e+00 -1.118351e+00 -3.390618e+00 -2.399846e+00 -1.984378e+00 -6.436315e-01 1.556200e-01 2.004934e-01 1.087532e+00 1.274618e+00 3.157985e+00 6.358464e-01 -2.521616e-01 4.010767e-01 -2.662164e-01 -9.789450e-01 -1.495721e-02 -4.805613e-01 9.391271e-03 -3.891709e-03 6.786091e-02 1.131626e-01 -9.505592e-02 -2.969032e-02
<VARIANCE> 39
 3.155746e+01 1.683948e+01 3.776966e+01 2.971663e+01 4.523692e+01 4.762370e+01 3.801417e+01 3.053477e+01 3.068041e+01 2.306777e+01 2.245714e+01 3.212482e+01 2.635122e+01 2.716892e+00 2.722731e+00 3.389145e+00 4.597767e+00 5.165783e+00 3.392495e+00 3.922340e+00 3.099609e+00 3.179164e+00 6.370468e+00 2.542267e+00 2.608835e+00 1.563584e+00 2.359061e-01 4.797276e-01 5.353174e-01 6.162795e-01 8.187765e-01 8.570572e-01 6.747377e-01 6.033614e-01 4.871044e-01 5.763710e-01 5.636171e-01 5.041435e-01 3.194732e-01
<GCONST> 1.233686e+02
<STATE> 4
<MEAN> 39
 -1.580012e+00 1.255007e+00 1.435457e+01 -1.527901e+00 -1.557020e+01 -1.184333e+01 -1.397205e+01 -5.316388e+00 -1.669649e+00 -2.760204e+00 2.852904e-01 2.374031e-01 7.963235e+01 7.218243e-01 -1.936846e+00 1.222994e+00 -1.378345e+00 -3.291212e+00 -5.663486e-01 -1.494179e+00 8.823588e-02 1.774715e-01 3.593952e-01 8.190824e-01 2.997673e-01 1.593871e+00 -3.315992e-02 5.820391e-01 -4.884160e-01 9.007201e-02 9.451245e-01 6.876768e-01 7.596776e-01 1.755484e-01 -8.724597e-02 1.462828e-01 -3.443584e-01 -3.498469e-01 -7.450547e-01
<VARIANCE> 39
 3.362079e+01 2.064654e+01 4.012529e+01 6.932172e+01 4.009767e+01 4.989545e+01 4.242793e+01 2.328820e+01 5.768776e+01 6.802162e+01 3.949456e+01 3.824521e+01 1.819534e+01 6.951188e-01 1.245086e+00 2.577196e+00 3.910932e+00 4.016685e+00 3.272478e+00 3.380560e+00 2.910269e+00 2.416609e+00 5.374688e+00 3.112749e+00 2.189672e+00 8.102072e-01 1.449486e-01 2.228689e-01 2.698149e-01 3.897118e-01 4.761555e-01 4.184032e-01 4.364440e-01 3.244412e-01 4.186840e-01 5.961121e-01 3.331338e-01 3.880485e-01 1.360055e-01
<GCONST> 1.157632e+02
<TRANSP> 5
 0.000000e+00 1.000000e+00 0.000000e+00 0.000000e+00 0.000000e+00
 0.000000e+00 8.269886e-01 1.730114e-01 0.000000e+00 0.000000e+00
 0.000000e+00 0.000000e+00 5.941339e-01 4.058661e-01 0.000000e+00
 0.000000e+00 0.000000e+00 0.000000e+00 5.119772e-01 4.880228e-01
 0.000000e+00 0.000000e+00 0.000000e+00 0.000000e+00 0.000000e+00
<ENDHMM>
~h "e"
<BEGINHMM>
<NUMSTATES> 5
<STATE> 2
<MEAN> 39
 -2.605198e+00 -4.181474e+00 1.297078e+01 -4.602890e+00 -1.815261e+01 -1.429283e+01 -1.156811e+01 -1.895531e+00 -5.107093e-01 -1.623008e+00 -7.998720e-01 -6.977368e-01 8.276128e+01 -1.591506e-01 -9.742869e-02 3.877984e-01 -3.894226e-01 -5.698681e-01 1.027443e-01 2.530811e-01 -3.510375e-02 -3.284391e-01 2.065058e-01 2.306504e-01 -2.941833e-03 2.535308e-02 -6.969607e-02 3.587471e-01 -2.612213e-01 2.337298e-01 5.647376e-01 1.490077e-01 2.646637e-01 -2.399386e-02 -4.382858e-02 5.062077e-02 -1.223027e-01 -3.217804e-02 -4.164480e-01
<VARIANCE> 39
 3.578303e+01 2.093812e+01 3.055876e+01 6.368913e+01 3.146685e+01 5.494006e+01 5.548220e+01 3.852103e+01 4.690422e+01 7.292044e+01 4.522966e+01 3.855203e+01 1.547381e+01 2.438538e-01 6.822590e-01 7.269349e-01 8.459725e-01 1.150099e+00 9.244038e-01 1.148172e+00 1.096613e+00 1.211733e+00 1.370508e+00 1.124707e+00 9.852225e-01 4.033148e-01 1.186130e-01 1.692779e-01 1.488512e-01 2.046482e-01 3.071580e-01 3.204615e-01 3.722200e-01 2.568756e-01 2.541273e-01 3.335922e-01 2.687984e-01 2.161735e-01 8.733658e-02
<GCONST> 9.723009e+01
<STATE> 3
<MEAN> 39
 -1.296843e-01 -4.447774e-01 1.349721e+01 -5.846009e+00 -1.866404e+01 -1.183528e+01 -7.704013e+00 -4.425117e+00 -4.294052e+00 7.862759e-01 -1.707623e+00 -4.980840e-01 7.783718e+01 4.662863e-02 7.421172e-01 -4.363275e-01 4.887242e-01 6.870210e-01 4.275182e-01 7.477679e-01 4.279761e-02 3.541403e-02 4.471469e-02 -1.932111e-01 -8.739879e-02 -1.118651e+00 -8.800840e-02 1.773776e-01 -1.939315e-01 2.294144e-01 3.468998e-01 1.466656e-01 1.264758e-01 1.431867e-01 1.929789e-01 -3.060517e-02 5.216641e-02 4.959783e-02 -2.631524e-01
<VARIANCE> 39
 3.426338e+01 2.160767e+01 2.613317e+01 7.841571e+01 2.638389e+01 4.716805e+01 4.591791e+01 3.566246e+01 4.325912e+01 5.342822e+01 4.831318e+01 2.757882e+01 1.863399e+01 3.428308e-01 1.094141e+00 9.334001e-01 1.428083e+00 1.506900e+00 1.518528e+00 1.612312e+00 1.365541e+00 1.531795e+00 1.928012e+00 1.577005e+00 1.111409e+00 6.928576e-01 8.641002e-02 1.541005e-01 1.673943e-01 2.352648e-01 2.510022e-01 2.662269e-01 2.881724e-01 2.681811e-01 2.577479e-01 2.906809e-01 2.758665e-01 2.144741e-01 7.639411e-02
<GCONST> 9.969351e+01
<STATE> 4
<MEAN> 39
 -2.998613e+00 3.215313e+00 9.834774e+00 -7.743781e-01 -1.151314e+01 -8.532641e+00 -3.388469e+00 -6.694414e-01 -1.878339e-01 1.332214e+00 1.006696e+00 1.241867e+00 7.015717e+01 -9.789929e-01 4.986797e-01 -1.080014e+00 4.128491e-01 1.540816e+00 8.129522e-01 8.607807e-01 8.286098e-01 9.845431e-01 8.226601e-01 8.878732e-01 6.828947e-01 -1.337093e+00 -1.142269e-01 -2.508186e-01 -3.112030e-02 -1.803804e-01 -9.500720e-02 -4.097823e-02 -1.699634e-01 2.024371e-02 7.469375e-02 1.332003e-01 1.347876e-01 7.963686e-02 2.710990e-01
<VARIANCE> 39
 2.761667e+01 3.680027e+01 2.469459e+01 4.787706e+01 3.643927e+01 4.596735e+01 4.362769e+01 3.835536e+01 3.931862e+01 4.867870e+01 4.732887e+01 3.520135e+01 3.981216e+01 1.676092e+00 1.843674e+00 1.407558e+00 2.056432e+00 2.757760e+00 2.385191e+00 2.883541e+00 2.627475e+00 2.541238e+00 3.201164e+00 3.287885e+00 2.231312e+00 1.150700e+00 1.807225e-01 2.409133e-01 2.393135e-01 2.883922e-01 4.577204e-01 4.084165e-01 4.346309e-01 4.401768e-01 4.475778e-01 5.454961e-01 5.557269e-01 3.989375e-01 1.177979e-01
<GCONST> 1.153175e+02
<TRANSP> 5
 0.000000e+00 1.000000e+00 0.000000e+00 0.000000e+00 0.000000e+00
 0.000000e+00 7.375458e-01 2.624542e-01 0.000000e+00 0.000000e+00
 0.000000e+00 0.000000e+00 7.609001e-01 2.390999e-01 0.000000e+00
 0.000000e+00 0.000000e+00 0.000000e+00 7.817808e-01 2.182192e-01
 0.000000e+00 0.000000e+00 0.000000e+00 0.000000e+00 0.000000e+00
<ENDHMM>
~h "f"
<BEGINHMM>
<NUMSTATES> 5
<STATE> 2
<MEAN> 39
 -1.370527e+01 -9.797170e-01 4.630978e+00 7.790904e-01 -1.714244e+00 -3.847147e+00 1.637900e-01 4.468826e+00 4.738368e+00 5.397894e+00 1.860987e+00 4.298339e+00 7.391416e+01 -4.183182e-01 -3.383348e-01 -2.787315e-01 -1.044057e-01 1.123241e-01 2.160982e-01 1.748081e-01 2.079858e-01 2.649994e-01 3.725619e-01 2.792525e-01 2.110479e-01 7.139798e-02 3.790304e-01 1.351685e-01 1.644793e-01 -7.469464e-03 -1.272167e-01 -9.139440e-02 -1.438508e-01 -2.269380e-01 -2.044431e-01 -1.632390e-01 -1.448419e-01 -1.497025e-01 -6.965075e-02
<VARIANCE> 39
 2.932810e+01 1.379882e+01 2.784590e+01 2.334124e+01 2.849626e+01 3.594074e+01 4.693723e+01 3.002332e+01 3.594326e+01 2.892962e+01 2.523930e+01 2.959070e+01 2.673549e+01 8.535610e-01 6.201804e-01 9.826216e-01 9.087986e-01 1.357358e+00 1.430322e+00 1.458257e+00 1.812055e+00 1.730739e+00 1.760872e+00 1.509562e+00 1.444695e+00 5.647658e-01 1.714150e-01 1.513275e-01 1.511543e-01 2.062868e-01 2.979279e-01 3.293843e-01 3.615964e-01 4.071081e-01 3.746240e-01 3.646010e-01 3.270092e-01 3.053235e-01 5.412422e-02
<GCONST> 9.882829e+01
<STATE> 3
<MEAN> 39
 -1.221769e+01 -1.220757e+00 5.469378e+00 8.974444e-01 -8.059747e-01 -2.295927e+00 1.544536e+00 4.364828e+00 4.664719e+00 5.997440e+00 2.187183e+00 4.646304e+00 7.194707e+01 3.137370e+00 1.155302e+00 1.053280e+00 -3.941982e-01 -1.625095e+00 -1.422295e+00 -1.802059e+00 -2.186441e+00 -1.831768e+00 -1.579620e+00 -1.380625e+00 -1.341865e+00 2.199185e-01 9.035221e-01 3.343461e-02 8.955242e-02 -4.831212e-01 -9.623145e-01 -6.411276e-01 -8.336534e-01 -6.805649e-01 -4.595018e-01 -4.019932e-01 -2.755419e-01 -3.249742e-01 6.008284e-01
<VARIANCE> 39
 4.059546e+01 1.362407e+01 3.861076e+01 2.406226e+01 2.622849e+01 3.246484e+01 4.601798e+01 2.654303e+01 2.627553e+01 2.601955e+01 2.326777e+01 2.976133e+01 2.336246e+01 1.950354e+00 1.883250e+00 1.971384e+00 2.902399e+00 3.677332e+00 4.691601e+00 3.754686e+00 2.772131e+00 2.842968e+00 2.695677e+00 1.987945e+00 2.083207e+00 1.065185e+00 2.386500e-01 3.763829e-01 2.652828e-01 5.818318e-01 3.857459e-01 5.622113e-01 6.256098e-01 3.793079e-01 5.284861e-01 5.203618e-01 4.776466e-01 4.157066e-01 1.355258e-01
<GCONST> 1.145056e+02
<STATE> 4
<MEAN> 39
 -8.363830e-02 1.488637e+00 8.836622e+00 -1.668293e+00 -1.067400e+01 -1.086516e+01 -7.725057e+00 -4.232638e+00 -1.983329e+00 -2.516977e-01 -2.764716e+00 -3.586131e-01 7.616605e+01 3.069773e+00 -5.764506e-01 7.695932e-01 -1.849764e+00 -3.381434e+00 -1.981216e+00 -2.619113e+00 -1.907429e+00 -1.191882e+00 -1.013682e+00 -5.613351e-01 -9.114401e-01 2.069870e+00 -9.611757e-01 -4.754758e-01 -2.163620e-01 -2.142885e-01 2.981431e-01 5.946574e-01 5.931599e-01 7.290809e-01 5.447209e-01 5.010930e-01 5.157386e-01 4.068263e-01 2.660039e-02
<VARIANCE> 39
 4.402803e+01 3.259501e+01 5.412748e+01 4.151666e+01 5.132263e+01 7.139714e+01 3.847183e+01 2.553616e+01 3.650070e+01 3.054623e+01 1.883906e+01 2.008719e+01 2.721099e+01 2.444722e+00 3.713250e+00 2.408239e+00 4.937209e+00 3.562617e+00 5.769886e+00 5.304557e+00 3.517684e+00 4.157753e+00 4.101005e+00 3.913573e+00 2.842245e+00 8.468590e-01 2.491595e-01 3.057777e-01 1.862074e-01 3.634183e-01 6.126999e-01 5.801721e-01 5.718613e-01 3.245593e-01 3.144479e-01 3.378111e-01 3.070709e-01 2.870376e-01 2.673819e-01
<GCONST> 1.197501e+02
<TRANSP> 5
 0.000000e+00 1.000000e+00 0.000000e+00 0.000000e+00 0.000000e+00
 0.000000e+00 8.815113e-01 1.184887e-01 0.000000e+00 0.000000e+00
 0.000000e+00 0.000000e+00 5.752168e-01 4.247833e-01 0.000000e+00
 0.000000e+00 0.000000e+00 0.000000e+00 5.611759e-01 4.388241e-01
 0.000000e+00 0.000000e+00 0.000000e+00 0.000000e+00 0.000000e+00
<ENDHMM>
~h "g"
<BEGINHMM>
<NUMSTATES> 5
<STATE> 2
<MEAN> 39
 1.774687e+00 9.589317e+00 8.601774e+00 2.960295e+00 -4.782914e+00 -5.256863e+00 -4.976634e+00 -4.074123e+00 -4.877391e+00 -1.152806e+00 -3.203158e+00 -4.176315e+00 6.711610e+01 -2.688851e-01 -2.681050e-01 3.460028e-01 3.554596e-02 -8.152798e-03 -5.527440e-01 -3.264377e-01 -1.317810e-01 -2.608410e-01 2.051508e-01 -1.885565e-01 1.078353e-01 7.647617e-01 -2.560555e-01 -5.798535e-01 -4.008787e-02 -2.261952e-01 -1.610531e-01 -6.157222e-02 1.893288e-02 2.151320e-01 3.152631e-01 2.436520e-01 1.553966e-01 2.719306e-01 3.874613e-01
<VARIANCE> 39
 1.611947e+01 6.609515e+01 2.465458e+01 2.774662e+01 3.643731e+01 2.929101e+01 2.383609e+01 3.596323e+01 3.119465e+01 3.563162e+01 3.375317e+01 1.891062e+01 3.242527e+01 3.055986e+00 5.550871e+00 2.524142e+00 2.439523e+00 5.264433e+00 3.947219e+00 2.839647e+00 3.791855e+00 3.483637e+00 3.360869e+00 2.492402e+00 2.401459e+00 3.381142e+00 4.198456e-01 5.523735e-01 3.870949e-01 5.226342e-01 1.161370e+00 7.274218e-01 5.686417e-01 7.110116e-01 6.528406e-01 6.614403e-01 4.770959e-01 3.458481e-01 4.249781e-01
<GCONST> 1.237504e+02
<STATE> 3
<MEAN> 39
 -2.724036e+00 -1.034392e-01 1.076360e+01 -1.671695e+00 -1.021982e+01 -1.165563e+01 -8.554388e+00 -2.961388e+00 -3.053461e+00 3.121156e+00 -2.729575e+00 3.581396e-01 7.795541e+01 7.191093e-01 -2.139769e+00 1.392242e-02 -1.853945e+00 -2.712761e+00 -1.524412e+00 -1.255386e+00 1.094991e+00 1.124659e+00 -6.346509e-02 5.704405e-01 4.784439e-01 2.356927e+00 4.654643e-01 3.633874e-02 -5.941612e-01 -1.761958e-01 3.542105e-01 5.744967e-01 3.542425e-01 3.157026e-01 3.364852e-01 -5.082349e-01 -2.161048e-01 -5.259763e-01 -3.873120e-01
<VARIANCE> 39
 4.289599e+01 2.123143e+01 5.917168e+01 5.427068e+01 9.215358e+01 5.835383e+01 5.705990e+01 4.186020e+01 3.830999e+01 6.087754e+01 5.004583e+01 2.510374e+01 1.719080e+01 2.412882e+00 2.552956e+00 3.598876e+00 4.200284e+00 6.399157e+00 3.967718e+00 4.678511e+00 4.911602e+00 5.617266e+00 6.750707e+00 3.284559e+00 3.088794e+00 1.371994e+00 4.681856e-01 5.073231e-01 6.901459e-01 8.812041e-01 2.210980e+00 7.434250e-01 7.739560e-01 8.119770e-01 9.260249e-01 1.140244e+00 7.737486e-01 6.473539e-01 1.753029e-01
<GCONST> 1.335602e+02
<STATE> 4
<MEAN> 39
 1.592371e+00 -7.474261e+00 5.244060e+00 -6.292538e+00 -1.198479e+01 -1.119009e+01 -7.965328e+00 4.154328e+00 3.014184e+00 -1.029415e+00 -4.591998e+00 -3.130043e+00 8.240778e+01 4.460341e-01 -1.556455e+00 -2.483222e+00 -9.215428e-01 1.882076e+00 1.233518e+00 9.507918e-01 6.180927e-01 1.128622e+00 -6.688673e-01 -1.435482e+00 -1.470367e+00 7.234006e-01 -1.655930e-01 4.097624e-01 -1.157727e-01 3.975103e-01 6.533194e-01 3.878928e-01 2.365774e-01 -7.271622e-01 -4.539361e-01 1.713779e-01 -3.787859e-02 -1.087390e-01 -3.991969e-01
<VARIANCE> 39
 3.867845e+01 2.303572e+01 3.848582e+01 4.604216e+01 4.687931e+01 5.626514e+01 8.056477e+01 4.664357e+01 8.492545e+01 4.221731e+01 6.245390e+01 3.282639e+01 1.347756e+01 2.734582e-01 1.072877e+00 1.493978e+00 2.118261e+00 3.597566e+00 1.632650e+00 2.183175e+00 3.173927e+00 3.261573e+00 4.030193e+00 2.950513e+00 3.624787e+00 4.316291e-01 7.582714e-02 1.575240e-01 3.621098e-01 3.216287e-01 7.866946e-01 3.220998e-01 6.766511e-01 4.806629e-01 4.735675e-01 6.149741e-01 6.114788e-01 4.429870e-01 6.041258e-02
<GCONST> 1.137876e+02
<TRANSP> 5
 0.000000e+00 1.000000e+00 0.000000e+00 0.000000e+00 0.000000e+00
 0.000000e+00 8.305748e-01 1.694252e-01 0.000000e+00 0.000000e+00
 0.000000e+00 0.000000e+00 6.844591e-01 3.155409e-01 0.000000e+00
 0.000000e+00 0.000000e+00 0.000000e+00 6.440502e-01 3.559498e-01
 0.000000e+00 0.000000e+00 0.000000e+00 0.000000e+00 0.000000e+00
<ENDHMM>
~h "i"
<BEGINHMM>
<NUMSTATES> 5
<STATE> 2
<MEAN> 39
 -3.797029e+00 4.544654e+00 2.002843e+01 -3.134257e+00 -1.400051e+01 -6.620740e+00 -1.406706e+01 -8.215607e+00 -5.352836e+00 -6.879690e+00 -3.415563e+00 8.272956e-02 7.749937e+01 -5.154759e-02 -1.842784e-01 8.083494e-01 -8.046508e-01 -8.528429e-01 6.598859e-01 -7.811722e-01 -1.133757e-01 -1.454737e-02 -5.078241e-01 1.100951e-01 2.755653e-02 4.246857e-01 -3.128006e-01 1.305907e-01 -7.782998e-01 1.740211e-01 9.482853e-01 1.372907e-01 7.700407e-01 4.715176e-01 2.611867e-01 4.668925e-01 1.303183e-01 -1.239287e-01 -4.328297e-01
<VARIANCE> 39
 2.970059e+01 2.465876e+01 4.121074e+01 7.614450e+01 4.533933e+01 5.153612e+01 5.220955e+01 3.102229e+01 4.546223e+01 4.350240e+01 4.614047e+01 3.360680e+01 2.039796e+01 1.138383e+00 1.822657e+00 1.804180e+00 3.391732e+00 3.737133e+00 3.438222e+00 3.164130e+00 2.187954e+00 1.967219e+00 2.386657e+00 2.185332e+00 1.984329e+00 4.587202e-01 2.809679e-01 3.312276e-01 2.732935e-01 6.060566e-01 5.297403e-01 8.624669e-01 7.387761e-01 4.689152e-01 5.456233e-01 5.452814e-01 4.505021e-01 4.071471e-01 9.221171e-02
<GCONST> 1.173788e+02
<STATE> 3
<MEAN> 39
 -4.039479e+00 6.801575e+00 1.839840e+01 -6.212391e+00 -1.174629e+01 -6.249070e+00 -1.369784e+01 -7.521286e+00 -7.518936e+00 -6.438535e+00 -3.618533e+00 -2.001455e+00 7.572964e+01 1.197299e-01 3.226687e-01 -4.353172e-01 1.667292e-01 2.843587e-01 5.197909e-02 4.720425e-01 -1.705973e-02 -2.395382e-02 2.254968e-01 6.850527e-02 -5.565471e-03 -6.040714e-01 8.321940e-03 1.942344e-02 -2.720580e-01 2.281418e-01 1.926696e-01 2.871849e-03 2.513811e-01 2.982427e-02 1.293260e-01 1.561124e-01 5.002500e-02 5.222434e-02 -2.221018e-01
<VARIANCE> 39
 2.719979e+01 2.161182e+01 5.132881e+01 7.759763e+01 4.229402e+01 5.009278e+01 4.190611e+01 2.979984e+01 4.522249e+01 4.766364e+01 5.004604e+01 3.897662e+01 2.143399e+01 3.441802e-01 7.972311e-01 9.847019e-01 1.342107e+00 1.421636e+00 1.299759e+00 1.593821e+00 1.310277e+00 1.435185e+00 1.578633e+00 1.311804e+00 1.220991e+00 4.760005e-01 7.596567e-02 1.441153e-01 1.813641e-01 2.566901e-01 3.056071e-01 3.050169e-01 2.921946e-01 2.867552e-01 2.747013e-01 2.912426e-01 2.822549e-01 2.411007e-01 5.465476e-02
<GCONST> 9.977721e+01
<STATE> 4
<MEAN> 39
 -4.546865e+00 8.376782e+00 1.240045e+01 -1.057881e+00 -5.776050e+00 -3.567307e+00 -6.840245e+00 -5.441304e+00 -3.701172e+00 -2.470071e+00 -1.450054e+00 5.729034e-02 6.784495e+01 -5.237877e-01 -2.702165e-01 -1.557330e+00 5.935735e-01 1.273025e+00 7.139606e-01 1.178767e+00 9.465578e-01 1.093486e+00 9.665802e-01 6.083074e-01 3.325515e-01 -1.220737e+00 -1.206192e-01 -1.993129e-01 4.178729e-02 -1.132721e-01 -4.641021e-02 1.092197e-02 -1.003919e-01 1.147028e-01 1.073983e-01 5.115214e-02 5.861191e-02 4.689340e-02 2.040219e-01
<VARIANCE> 39
 2.439981e+01 3.211415e+01 3.678991e+01 5.331787e+01 3.791728e+01 4.136485e+01 3.623839e+01 3.202008e+01 3.270509e+01 3.844910e+01 3.587735e+01 2.846929e+01 3.785989e+01 1.111027e+00 1.484949e+00 1.829790e+00 2.244507e+00 2.291483e+00 2.626637e+00 2.396022e+00 2.625758e+00 2.493090e+00 2.603567e+00 2.427654e+00 2.187918e+00 9.581075e-01 1.466880e-01 2.461353e-01 3.007266e-01 3.322007e-01 4.397246e-01 4.638949e-01 4.111095e-01 4.749675e-01 4.261318e-01 4.598192e-01 4.366570e-01 3.769809e-01 1.426591e-01
<GCONST> 1.128521e+02
<TRANSP> 5
 0.000000e+00 1.000000e+00 0.000000e+00 0.000000e+00 0.000000e+00
 0.000000e+00 5.133909e-01 4.866091e-01 0.000000e+00 0.000000e+00
 0.000000e+00 0.000000e+00 8.264670e-01 1.735329e-01 0.000000e+00
 0.000000e+00 0.000000e+00 0.000000e+00 8.004497e-01 1.995504e-01
 0.000000e+00 0.000000e+00 0.000000e+00 0.000000e+00 0.000000e+00
<ENDHMM>
~h "k"
<BEGINHMM>
<NUMSTATES> 5
<STATE> 2
<MEAN> 39
 -6.131794e+00 1.599129e-02 -3.521183e+00 -3.281346e+00 3.747857e+00 2.331928e-01 -4.837520e-01 2.004134e+00 7.038180e-01 8.784626e+00 1.956352e+00 3.581989e+00 6.961697e+01 5.713752e-01 -3.568284e-01 -2.155499e-01 -4.955885e-01 -6.727214e-02 -8.804174e-01 -8.316590e-01 -8.296127e-01 -8.218513e-01 -1.551444e-01 -6.628964e-01 -3.818714e-01 1.570446e+00 5.402509e-01 3.336926e-01 5.073366e-01 -2.527786e-02 -7.327000e-01 -2.687392e-01 -2.557869e-01 -3.866898e-01 -1.451602e-01 -6.278243e-01 -1.448458e-01 -3.119197e-01 -1.701988e-02
<VARIANCE> 39
 3.694492e+01 2.961848e+01 7.959341e+01 4.893815e+01 4.925064e+01 5.115268e+01 4.552329e+01 4.159907e+01 4.749279e+01 4.130817e+01 4.034669e+01 3.007131e+01 4.527140e+01 3.723111e+00 3.848835e+00 7.521173e+00 4.989662e+00 7.069375e+00 4.027623e+00 3.785330e+00 4.460442e+00 4.566481e+00 6.196779e+00 3.335482e+00 3.170070e+00 2.899904e+00 5.527538e-01 5.920368e-01 1.205116e+00 1.108154e+00 1.056377e+00 6.708302e-01 6.878091e-01 6.980187e-01 9.043167e-01 9.646605e-01 6.996498e-01 5.419469e-01 5.223753e-01
<GCONST> 1.363829e+02
<STATE> 3
<MEAN> 39
 1.980751e+00 3.937927e+00 1.492547e+00 -5.017335e+00 -4.770169e+00 -6.666184e+00 -6.576400e+00 -5.298139e+00 -5.249465e+00 1.048181e+00 -2.453694e+00 -1.471516e+00 7.438779e+01 3.233531e+00 2.664239e-01 7.692752e-01 -1.710035e+00 -3.883824e+00 -1.738551e+00 -1.595933e+00 -1.754463e+00 -9.869813e-01 -2.581074e+00 -9.914214e-01 -1.404591e+00 1.887703e+00 -3.621059e-01 -6.852725e-01 -6.878800e-01 -3.433363e-01 4.008577e-01 6.352065e-01 4.019765e-01 4.739901e-01 4.878651e-01 4.443245e-01 2.835680e-01 2.126091e-01 3.764872e-02
<VARIANCE> 39
 5.093476e+01 3.312387e+01 4.703161e+01 4.480169e+01 6.196608e+01 5.504879e+01 4.647256e+01 4.870249e+01 4.564179e+01 4.042578e+01 3.699843e+01 2.406219e+01 2.690602e+01 8.613345e-01 4.722834e+00 4.019321e+00 5.862351e+00 4.803757e+00 4.188032e+00 3.792549e+00 5.622272e+00 6.206655e+00 5.313248e+00 5.093729e+00 3.489230e+00 9.591343e-01 3.593475e-01 2.583933e-01 2.939256e-01 5.511720e-01 9.768385e-01 4.425284e-01 4.804634e-01 4.746709e-01 4.590282e-01 5.836976e-01 4.319424e-01 4.107908e-01 1.782507e-01
<GCONST> 1.258962e+02
<STATE> 4
<MEAN> 39
 4.434827e+00 -5.676761e-01 -6.824642e-03 -9.759502e+00 -1.015959e+01 -6.967324e+00 -6.812880e+00 -4.994401e+00 -3.755049e+00 -1.499787e+00 -2.125610e+00 -4.050507e+00 7.881790e+01 6.699098e-01 -1.199345e+00 -4.836239e-01 -9.523212e-01 -6.772825e-01 2.327323e-01 -1.704537e-01 -2.678144e-01 4.598086e-01 -6.503854e-01 -1.537383e-01 -6.936732e-01 1.064669e+00 -7.781017e-01 -2.400059e-02 -2.696227e-01 4.150980e-01 1.147375e+00 5.998572e-01 4.173365e-01 2.675880e-01 1.672929e-01 6.254993e-01 1.757963e-01 2.897162e-01 -4.933921e-01
<VARIANCE> 39
 3.563415e+01 5.277347e+01 4.164059e+01 5.326027e+01 4.670970e+01 6.796591e+01 6.081818e+01 8.508138e+01 9.213868e+01 7.441743e+01 7.498096e+01 4.100895e+01 2.307258e+01 1.077577e+00 2.125701e+00 3.289922e+00 3.941342e+00 5.895757e+00 2.835844e+00 2.893220e+00 3.450123e+00 3.564109e+00 3.631465e+00 3.292441e+00 3.103178e+00 8.860554e-01 1.654739e-01 4.390920e-01 3.202929e-01 6.203009e-01 5.052841e-01 5.467508e-01 6.430084e-01 8.269176e-01 7.078185e-01 7.326352e-01 6.568112e-01 4.426859e-01 1.073430e-01
<GCONST> 1.265303e+02
<TRANSP> 5
 0.000000e+00 1.000000e+00 0.000000e+00 0.000000e+00 0.000000e+00
 0.000000e+00 8.143486e-01 1.856514e-01 0.000000e+00 0.000000e+00
 0.000000e+00 0.000000e+00 4.654929e-01 5.345070e-01 0.000000e+00
 0.000000e+00 0.000000e+00 0.000000e+00 4.458824e-01 5.541177e-01
 0.000000e+00 0.000000e+00 0.000000e+00 0.000000e+00 0.000000e+00
<ENDHMM>
~h "l"
<BEGINHMM>
<NUMSTATES> 5
<STATE> 2
<MEAN> 39
 4.246465e-01 5.081635e+00 9.773977e+00 1.566168e+00 -4.828554e+00 -9.565101e+00 -1.302289e+01 -3.348710e+00 -1.443518e+00 -1.708743e+00 -2.648619e+00 -2.325979e+00 7.118098e+01 1.023926e+00 -3.432246e-01 9.014542e-01 -3.853515e-01 -9.637280e-01 -1.966170e+00 -2.492322e+00 -4.670976e-01 -5.770239e-01 -8.210233e-01 -2.398382e-01 -2.130466e-01 1.698695e+00 -3.586712e-01 -3.809925e-01 -2.471229e-01 -1.947718e-01 1.086482e-01 5.551204e-01 5.301717e-01 4.385810e-01 2.545289e-01 3.030950e-01 3.123383e-01 2.053897e-01 -8.976939e-02
<VARIANCE> 39
 2.624962e+01 5.191755e+01 3.122285e+01 6.297354e+01 4.343076e+01 6.142086e+01 7.305009e+01 3.036046e+01 5.186841e+01 4.664997e+01 3.433047e+01 4.092433e+01 3.824062e+01 2.426802e+00 2.601829e+00 2.329183e+00 3.311130e+00 3.843259e+00 6.347766e+00 7.523225e+00 3.788667e+00 3.833187e+00 3.558535e+00 3.487709e+00 2.668867e+00 2.395218e+00 2.797673e-01 3.968490e-01 3.508145e-01 4.398444e-01 7.421066e-01 9.421082e-01 1.248621e+00 6.125856e-01 6.167228e-01 5.908986e-01 6.229290e-01 4.624666e-01 2.592446e-01
<GCONST> 1.286054e+02
<STATE> 3
<MEAN> 39
 1.986566e+00 1.892756e+00 1.204163e+01 2.133288e-01 -6.412589e+00 -1.148543e+01 -1.740392e+01 -1.455478e+00 -2.459981e+00 -4.043312e+00 -1.081992e+00 -2.910896e+00 7.491393e+01 8.182728e-02 -8.553470e-01 -7.750217e-02 -6.687943e-01 -7.760521e-01 1.864229e-01 7.735001e-02 6.262827e-03 1.213962e-01 5.481438e-01 5.503844e-03 -2.106872e-01 7.775596e-01 -2.382879e-02 -1.836657e-01 -2.150783e-01 -2.046275e-01 -2.864329e-01 3.410254e-01 4.008261e-01 -8.356359e-02 1.550709e-01 2.479972e-01 -1.184282e-01 -3.734178e-02 7.607844e-02
<VARIANCE> 39
 2.375126e+01 3.956854e+01 3.969379e+01 6.846341e+01 3.755200e+01 5.468459e+01 6.468571e+01 2.798147e+01 7.266673e+01 5.184569e+01 4.728177e+01 4.879347e+01 1.507125e+01 3.829603e-01 1.514517e+00 1.718211e+00 1.551683e+00 2.699470e+00 2.066664e+00 3.038379e+00 2.496717e+00 2.098750e+00 2.930560e+00 2.270212e+00 1.474273e+00 6.695958e-01 6.848021e-02 2.233164e-01 1.967521e-01 2.908390e-01 4.336484e-01 4.609007e-01 5.784220e-01 4.400248e-01 3.973970e-01 4.506408e-01 3.804401e-01 2.970386e-01 1.089468e-01
<GCONST> 1.109174e+02
<STATE> 4
<MEAN> 39
 1.053217e+00 -3.943515e+00 7.866140e+00 -5.168083e+00 -1.172921e+01 -1.045595e+01 -1.452090e+01 -2.850578e+00 2.711824e-01 2.307715e+00 -4.236257e+00 -3.969281e+00 8.008664e+01 4.483401e-02 -9.741914e-01 -9.595362e-01 -1.332315e+00 -8.607110e-01 1.246197e+00 8.806323e-01 -1.722099e-01 5.607959e-01 5.628182e-01 -4.192146e-01 -1.296335e-01 9.666840e-01 -5.594457e-02 3.204296e-01 -5.977336e-02 4.147628e-02 4.026365e-01 1.332941e-01 8.977504e-02 -9.752959e-02 -2.445064e-01 -4.066455e-01 1.235499e-01 7.292042e-02 -2.060154e-01
<VARIANCE> 39
 2.853594e+01 2.788774e+01 5.652638e+01 6.078762e+01 5.042361e+01 5.976668e+01 7.048030e+01 6.110397e+01 5.707952e+01 6.781258e+01 7.130831e+01 4.851676e+01 1.291078e+01 4.362575e-01 1.872584e+00 3.107733e+00 2.848966e+00 4.674971e+00 4.100393e+00 4.630672e+00 3.794578e+00 2.949996e+00 4.158241e+00 3.932889e+00 2.478255e+00 6.558034e-01 3.977215e-02 1.547587e-01 1.798888e-01 2.849522e-01 3.746108e-01 3.729419e-01 5.702451e-01 5.191215e-01 4.233379e-01 5.001673e-01 4.957183e-01 3.250414e-01 6.779821e-02
<GCONST> 1.166898e+02
<TRANSP> 5
 0.000000e+00 1.000000e+00 0.000000e+00 0.000000e+00 0.000000e+00
 0.000000e+00 6.546348e-01 3.453651e-01 0.000000e+00 0.000000e+00
 0.000000e+00 0.000000e+00 7.417814e-01 2.582186e-01 0.000000e+00
 0.000000e+00 0.000000e+00 0.000000e+00 5.343875e-01 4.656125e-01
 0.000000e+00 0.000000e+00 0.000000e+00 0.000000e+00 0.000000e+00
<ENDHMM>
~h "m"
<BEGINHMM>
<NUMSTATES> 5
<STATE> 2
<MEAN> 39
 3.400461e+00 6.729622e+00 6.535926e+00 4.102885e+00 -3.311400e+00 -7.580679e+00 -8.280466e+00 -1.011458e+01 -8.232129e+00 -1.401418e+00 -1.952295e+00 -6.840443e+00 6.972498e+01 1.428215e+00 -2.237361e-01 3.269998e-01 6.371285e-01 -7.797602e-01 -1.848635e+00 -1.130064e+00 -2.032853e+00 -1.799446e+00 -1.758405e-01 1.790930e-02 -1.069165e+00 1.379046e+00 -4.438033e-01 -4.558401e-01 -2.973728e-01 -3.839557e-01 7.538605e-02 5.629767e-01 4.728692e-01 6.715238e-01 5.526163e-01 2.647358e-01 2.425250e-01 4.505692e-01 -2.285967e-02
<VARIANCE> 39
 1.913058e+01 5.595977e+01 2.062917e+01 3.715097e+01 2.817743e+01 4.011708e+01 3.624451e+01 4.996736e+01 4.898135e+01 4.912940e+01 4.956691e+01 2.799181e+01 3.615179e+01 2.230992e+00 2.335295e+00 2.098063e+00 2.763978e+00 3.154112e+00 4.163030e+00 4.163226e+00 4.760072e+00 3.814571e+00 3.259277e+00 3.245315e+00 2.536462e+00 2.819241e+00 1.880776e-01 2.708688e-01 2.894765e-01 2.496649e-01 3.972033e-01 5.242076e-01 5.353925e-01 7.933151e-01 4.723944e-01 4.929203e-01 4.738821e-01 3.163267e-01 2.081545e-01
<GCONST> 1.201158e+02
<STATE> 3
<MEAN> 39
 5.374006e+00 3.203428e+00 5.065301e+00 3.432362e+00 -4.763110e+00 -8.221876e+00 -8.828790e+00 -1.251152e+01 -1.141171e+01 -1.858570e+00 -1.289271e+00 -7.922305e+00 7.346990e+01 1.072764e-01 -5.946344e-01 -4.193018e-01 -5.357242e-01 -9.932369e-02 2.900700e-01 3.738427e-02 3.552955e-01 2.233859e-01 -2.711794e-01 6.015866e-02 1.325376e-01 5.256689e-01 -8.514454e-02 -1.705585e-01 -2.029468e-01 -5.473199e-01 -1.342235e-01 3.165453e-01 7.097824e-02 4.884854e-01 3.862439e-01 -1.971294e-01 -1.236975e-01 1.809912e-01 1.566063e-01
<VARIANCE> 39
 1.706642e+01 3.476266e+01 1.990388e+01 4.265298e+01 2.580778e+01 4.372529e+01 4.594477e+01 4.254704e+01 6.343900e+01 5.350983e+01 5.884676e+01 3.557598e+01 1.932408e+01 2.211755e-01 8.466703e-01 1.834691e+00 2.325668e+00 1.207893e+00 1.456139e+00 1.545419e+00 2.848054e+00 2.232003e+00 1.739085e+00 1.397895e+00 1.503256e+00 4.862776e-01 7.293892e-02 1.438576e-01 3.428285e-01 2.561202e-01 2.607819e-01 2.784962e-01 3.108548e-01 4.091346e-01 4.226901e-01 3.219526e-01 3.171450e-01 2.970390e-01 6.716272e-02
<GCONST> 1.026199e+02
<STATE> 4
<MEAN> 39
 4.956908e+00 -1.817366e+00 1.088521e+00 -4.345767e+00 -7.072662e+00 -5.003339e+00 -7.971880e+00 -5.884181e+00 -6.045751e+00 -4.910549e+00 -2.113933e+00 -6.466769e+00 7.803203e+01 -4.410294e-01 -1.318872e+00 -7.712677e-01 -2.604023e+00 -6.050053e-01 1.676283e+00 2.850871e-01 1.748651e+00 1.430554e+00 -9.038517e-01 -7.117135e-01 5.486493e-01 1.376958e+00 -1.721862e-01 2.479653e-01 3.063265e-01 2.306319e-01 2.224951e-01 9.531164e-02 -2.980480e-02 -3.917403e-01 -2.359478e-01 1.497800e-01 -1.084318e-02 -8.014015e-02 -1.987141e-01
<VARIANCE> 39
 2.746390e+01 2.643424e+01 6.591710e+01 5.701589e+01 4.630231e+01 6.094263e+01 4.551777e+01 3.218628e+01 6.838390e+01 5.061346e+01 5.660640e+01 4.381303e+01 1.922363e+01 8.718674e-01 2.065058e+00 6.420945e+00 2.349873e+00 4.674370e+00 2.962513e+00 3.284718e+00 4.625279e+00 4.844201e+00 3.263345e+00 2.697744e+00 2.853100e+00 6.049728e-01 6.621296e-02 1.879733e-01 2.687806e-01 5.656059e-01 3.454089e-01 4.375657e-01 3.915324e-01 4.366284e-01 4.777200e-01 3.709327e-01 3.499997e-01 3.431772e-01 7.307100e-02
<GCONST> 1.172104e+02
<TRANSP> 5
 0.000000e+00 1.000000e+00 0.000000e+00 0.000000e+00 0.000000e+00
 0.000000e+00 5.711049e-01 4.288951e-01 0.000000e+00 0.000000e+00
 0.000000e+00 0.000000e+00 8.036405e-01 1.963594e-01 0.000000e+00
 0.000000e+00 0.000000e+00 0.000000e+00 5.584471e-01 4.415528e-01
 0.000000e+00 0.000000e+00 0.000000e+00 0.000000e+00 0.000000e+00
<ENDHMM>
~h "n"
<BEGINHMM>
<NUMSTATES> 5
<STATE> 2
<MEAN> 39
 4.562020e+00 7.932357e+00 8.170071e+00 2.752012e+00 -8.891283e+00 -7.450760e+00 -5.496304e+00 -1.040131e+01 -7.395589e+00 2.860036e-01 -4.817343e+00 -5.131645e+00 7.082733e+01 6.323555e-01 -1.617362e-01 1.489555e-01 1.527106e-01 -8.113791e-01 -7.051964e-01 -2.453563e-01 -1.009586e+00 -5.035683e-01 1.092700e-01 -3.253069e-01 -2.519578e-01 6.722569e-01 -3.384821e-01 -3.092710e-01 -1.613696e-01 -1.900774e-01 2.955402e-01 1.470183e-01 1.295108e-01 6.588559e-01 3.287582e-01 -3.465460e-02 1.384078e-01 2.417604e-01 3.616196e-02
<VARIANCE> 39
 1.840133e+01 4.182648e+01 2.576910e+01 4.182656e+01 2.558162e+01 2.336038e+01 2.126794e+01 4.128100e+01 8.371986e+01 3.682985e+01 2.280932e+01 3.732992e+01 2.131121e+01 1.268773e+00 1.243798e+00 1.137225e+00 1.386409e+00 2.252020e+00 2.543583e+00 2.635577e+00 3.417070e+00 2.240220e+00 1.601398e+00 2.081331e+00 1.856336e+00 1.546432e+00 1.209583e-01 2.266007e-01 2.599819e-01 2.754670e-01 3.081764e-01 4.353952e-01 5.468208e-01 4.046597e-01 4.174553e-01 4.559835e-01 3.632863e-01 3.091575e-01 1.740669e-01
<GCONST> 1.088923e+02
<STATE> 3
<MEAN> 39
 2.798430e+00 3.296816e+00 6.357941e+00 6.743494e-01 -8.927473e+00 -1.140455e+01 -6.290734e+00 -8.065014e+00 -9.279202e+00 -1.225904e+00 -4.418144e+00 -4.966121e+00 7.503363e+01 -6.179863e-01 -1.460597e+00 -8.198525e-01 -1.456141e+00 9.552896e-01 -2.549078e-01 -5.799255e-01 2.632349e+00 1.025801e+00 -1.299616e+00 -4.182681e-01 2.798367e-01 1.440509e+00 -1.079563e-01 -5.726066e-01 -2.591170e-01 -4.899772e-01 1.315035e-01 5.215982e-01 -8.644656e-02 4.032297e-01 5.860533e-01 -3.162595e-01 -2.781293e-01 -8.662722e-03 3.445848e-01
<VARIANCE> 39
 2.751565e+01 2.072079e+01 3.111468e+01 5.389338e+01 4.053523e+01 3.230481e+01 2.350303e+01 4.316527e+01 9.044742e+01 4.941705e+01 5.063826e+01 6.044859e+01 1.394769e+01 4.361540e-01 1.958710e+00 2.901277e+00 2.306177e+00 2.143736e+00 3.308988e+00 3.248346e+00 3.245184e+00 3.445884e+00 4.261793e+00 3.315958e+00 1.858127e+00 7.931611e-01 9.590526e-02 2.044803e-01 3.829997e-01 3.640191e-01 3.658191e-01 5.224394e-01 5.450459e-01 7.247214e-01 4.390942e-01 4.950925e-01 5.037053e-01 3.275752e-01 9.712452e-02
<GCONST> 1.148002e+02
<STATE> 4
<MEAN> 39
 1.094979e+00 -4.775044e+00 3.397033e+00 -6.948727e+00 -5.256987e+00 -7.522940e+00 -9.170655e+00 3.646002e-01 -3.651858e+00 -6.496093e+00 -7.821490e+00 -5.117895e+00 8.088199e+01 -3.400553e-01 -2.426924e+00 -9.998882e-01 -1.314801e+00 5.689871e-01 1.509598e+00 -3.623887e-02 7.555791e-01 1.961533e+00 -8.800265e-01 -1.023771e+00 1.973504e-02 1.502762e+00 1.768559e-01 3.209983e-01 7.078773e-02 5.689493e-01 -2.568500e-01 5.952740e-02 3.906371e-01 -9.490765e-01 -2.631182e-01 3.735572e-01 1.312334e-01 -1.149325e-01 -3.747218e-01
<VARIANCE> 39
 2.797238e+01 2.827120e+01 5.680568e+01 4.630111e+01 4.859383e+01 4.264499e+01 4.737795e+01 3.220121e+01 1.330255e+02 6.289339e+01 6.985751e+01 6.029631e+01 1.394772e+01 5.848572e-01 1.723671e+00 2.605783e+00 2.364177e+00 2.907832e+00 2.781383e+00 4.170919e+00 3.049407e+00 3.165987e+00 4.179724e+00 2.885577e+00 2.050440e+00 6.687427e-01 4.495081e-02 2.581989e-01 3.790748e-01 2.507127e-01 2.108498e-01 5.563102e-01 6.102917e-01 4.867075e-01 4.856780e-01 6.577125e-01 4.608538e-01 3.153327e-01 6.791856e-02
<GCONST> 1.156964e+02
<TRANSP> 5
 0.000000e+00 1.000000e+00 0.000000e+00 0.000000e+00 0.000000e+00
 0.000000e+00 8.184498e-01 1.815502e-01 0.000000e+00 0.000000e+00
 0.000000e+00 0.000000e+00 6.713176e-01 3.286824e-01 0.000000e+00
 0.000000e+00 0.000000e+00 0.000000e+00 6.087275e-01 3.912725e-01
 0.000000e+00 0.000000e+00 0.000000e+00 0.000000e+00 0.000000e+00
<ENDHMM>
~h "o"
<BEGINHMM>
<NUMSTATES> 5
<STATE> 2
<MEAN> 39
 3.926615e+00 1.618191e+00 -1.719674e+00 -1.511283e+01 -7.171715e+00 -1.863799e+00 -1.332759e+01 -1.188971e+01 -3.511528e+00 5.408385e+00 -4.367427e-01 -1.167264e+00 7.872581e+01 2.263425e-01 5.077073e-02 -2.098472e-01 -8.409635e-01 -4.152449e-01 6.978067e-01 3.392715e-01 -3.015736e-01 -5.129690e-01 -2.264217e-01 1.850523e-01 2.939238e-01 -4.085877e-02 -3.552968e-01 1.779653e-01 1.444228e-01 5.919470e-01 4.461243e-01 -8.616775e-02 4.014023e-01 5.158998e-01 1.000642e-01 -2.423230e-01 -1.294562e-01 2.129978e-02 -4.302934e-01
<VARIANCE> 39
 3.010288e+01 3.001100e+01 3.647425e+01 4.672290e+01 5.986551e+01 7.315825e+01 5.386463e+01 4.272606e+01 4.850134e+01 8.982349e+01 5.634055e+01 3.972535e+01 1.772284e+01 5.120665e-01 1.080567e+00 1.354068e+00 3.358174e+00 2.677399e+00 2.273670e+00 2.995129e+00 2.448911e+00 2.352004e+00 2.979816e+00 2.374492e+00 2.110702e+00 8.044045e-01 2.179445e-01 2.554717e-01 2.248663e-01 4.127544e-01 5.621886e-01 4.460328e-01 6.371009e-01 5.958394e-01 5.320345e-01 6.819992e-01 5.011071e-01 4.265729e-01 1.065543e-01
<GCONST> 1.166678e+02
<STATE> 3
<MEAN> 39
 6.269523e+00 5.567867e+00 -2.261665e+00 -1.751312e+01 -1.058864e+01 1.382843e+00 -8.120899e+00 -9.447496e+00 -5.092750e+00 3.620335e-02 -8.636492e-01 7.459552e-01 7.523660e+01 -9.260991e-02 3.765343e-01 -7.650638e-02 1.866171e-01 1.495116e-01 2.106651e-02 4.965139e-01 3.969351e-01 -1.033359e-01 -2.167912e-01 -1.051489e-02 1.494649e-01 -6.526855e-01 -1.501147e-01 4.510558e-02 5.032495e-02 3.848805e-01 2.454433e-01 -1.168515e-01 6.998083e-02 1.500063e-01 7.551326e-02 9.293757e-02 7.972763e-02 -4.821791e-02 -2.031338e-01
<VARIANCE> 39
 2.781686e+01 2.599372e+01 3.881898e+01 3.524986e+01 5.682474e+01 4.717558e+01 3.406758e+01 3.533802e+01 4.478312e+01 4.833511e+01 3.326186e+01 3.620081e+01 1.688689e+01 2.169022e-01 6.272751e-01 5.913715e-01 1.556020e+00 1.347389e+00 1.119553e+00 1.405601e+00 1.313424e+00 1.391092e+00 1.542623e+00 1.488165e+00 1.258631e+00 5.395159e-01 5.071672e-02 8.689143e-02 1.254261e-01 2.062014e-01 2.389370e-01 1.898358e-01 2.099679e-01 2.418570e-01 2.607836e-01 2.495256e-01 2.590845e-01 2.399108e-01 4.468019e-02
<GCONST> 9.401818e+01
<STATE> 4
<MEAN> 39
 1.896985e+00 7.363256e+00 -1.501826e+00 -1.018932e+01 -5.777101e+00 3.190800e-01 -3.774796e+00 -4.284424e+00 -2.851899e+00 2.520088e+00 2.990476e+00 2.457625e+00 6.761898e+01 -1.172095e+00 1.863322e-02 1.630598e-01 1.257779e+00 6.870875e-01 -1.193762e-01 8.461345e-01 1.191180e+00 9.094455e-01 6.527137e-01 8.922096e-01 4.621035e-01 -1.195957e+00 -6.736927e-02 -1.911100e-01 8.921183e-03 -9.022368e-02 -5.395616e-02 -1.203587e-02 -1.088068e-01 -2.651316e-02 1.220060e-01 1.149023e-01 -1.795787e-02 3.954590e-02 2.094343e-01
<VARIANCE> 39
 2.505222e+01 3.364988e+01 1.977390e+01 4.390774e+01 3.426254e+01 3.569991e+01 4.072933e+01 4.333015e+01 4.043296e+01 4.402111e+01 4.152908e+01 3.818724e+01 2.738209e+01 1.076558e+00 1.194949e+00 1.319923e+00 2.169146e+00 2.242065e+00 1.921058e+00 2.232359e+00 2.745151e+00 2.971375e+00 2.905559e+00 2.832412e+00 2.497977e+00 8.275952e-01 1.645233e-01 1.790310e-01 2.181116e-01 3.630881e-01 3.815150e-01 3.570560e-01 4.151478e-01 4.546979e-01 5.037115e-01 5.331624e-01 5.529419e-01 4.514241e-01 1.187795e-01
<GCONST> 1.118742e+02
<TRANSP> 5
 0.000000e+00 1.000000e+00 0.000000e+00 0.000000e+00 0.000000e+00
 0.000000e+00 6.081629e-01 3.918371e-01 0.000000e+00 0.000000e+00
 0.000000e+00 0.000000e+00 8.148601e-01 1.851399e-01 0.000000e+00
 0.000000e+00 0.000000e+00 0.000000e+00 8.019105e-01 1.980895e-01
 0.000000e+00 0.000000e+00 0.000000e+00 0.000000e+00 0.000000e+00
<ENDHMM>
~h "p"
<BEGINHMM>
<NUMSTATES> 5
<STATE> 2
<MEAN> 39
 -7.217736e+00 1.454125e+00 3.568660e+00 4.632397e-02 -8.495669e-01 -9.873979e-01 -1.972674e-01 3.510576e+00 4.674704e+00 5.074277e+00 2.509093e+00 3.257244e+00 6.733765e+01 1.967262e-01 -5.701386e-01 1.304466e+00 9.288378e-02 -6.338968e-01 -1.480441e+00 -1.081151e+00 -5.543727e-01 -6.671500e-01 -6.784385e-01 -9.869654e-01 -2.128561e-01 2.034086e+00 6.009964e-01 2.537644e-01 3.527270e-01 -2.401833e-01 -5.639008e-01 -3.044568e-01 -5.275645e-01 -6.247672e-01 -5.676824e-01 -4.235692e-01 -2.816641e-01 -2.992814e-01 2.987953e-01
<VARIANCE> 39
 2.782850e+01 3.292788e+01 3.816270e+01 3.415903e+01 3.328985e+01 3.834679e+01 3.286955e+01 3.236509e+01 3.086061e+01 2.973623e+01 2.878118e+01 2.787687e+01 5.256752e+01 3.936396e+00 4.001810e+00 4.554205e+00 3.273551e+00 4.823806e+00 5.388619e+00 4.313420e+00 4.419296e+00 4.449815e+00 3.654197e+00 3.193802e+00 2.869359e+00 3.336144e+00 3.897226e-01 6.742066e-01 5.930944e-01 6.556215e-01 8.465791e-01 8.569490e-01 7.217273e-01 6.724387e-01 6.017323e-01 6.105231e-01 5.911837e-01 4.985984e-01 5.542644e-01
<GCONST> 1.289987e+02
<STATE> 3
<MEAN> 39
 -2.402914e+00 2.979052e+00 9.293880e+00 6.473732e-01 -5.389364e+00 -7.888414e+00 -6.654930e+00 -2.472177e+00 -2.040015e+00 -4.808930e-01 -2.939713e+00 -1.652436e-01 7.327040e+01 2.439274e+00 2.670023e-01 1.994337e+00 -1.338493e+00 -3.412619e+00 -2.067856e+00 -2.843968e+00 -2.684710e+00 -2.182119e+00 -1.670747e+00 -1.072321e+00 -9.607065e-01 2.641797e+00 -1.330098e-01 -1.611795e-01 -2.745176e-01 -4.916623e-01 -2.398132e-01 6.131611e-01 2.021321e-01 1.186600e-01 3.196329e-01 2.333604e-01 5.090060e-01 1.308903e-01 -3.249952e-01
<VARIANCE> 39
 5.064321e+01 3.104701e+01 6.545659e+01 4.104111e+01 3.852394e+01 4.687870e+01 3.682446e+01 3.409085e+01 3.384756e+01 2.546395e+01 2.389790e+01 2.165064e+01 2.538661e+01 1.770101e+00 4.363085e+00 6.694036e+00 6.089439e+00 5.846081e+00 7.586400e+00 5.253742e+00 4.383224e+00 4.376551e+00 4.869878e+00 4.316265e+00 3.757683e+00 2.676425e+00 4.147379e-01 4.701864e-01 3.963792e-01 4.568450e-01 7.522559e-01 7.426518e-01 6.211582e-01 5.588841e-01 5.272417e-01 5.088357e-01 5.387216e-01 4.467381e-01 3.004498e-01
<GCONST> 1.283943e+02
<STATE> 4
<MEAN> 39
 8.616660e-01 1.639655e-01 1.049555e+01 -4.584941e+00 -1.265404e+01 -1.021465e+01 -1.060759e+01 -5.571299e+00 -3.044440e+00 -7.548388e-01 -2.601679e+00 -1.124807e+00 7.823162e+01 1.071104e+00 -6.210712e-01 1.028945e+00 -1.923177e+00 -2.645100e+00 -6.050989e-01 -1.621089e+00 -1.419991e+00 -8.169637e-01 -6.768355e-01 -2.279783e-01 -5.593276e-01 1.842127e+00 -7.552267e-01 -8.829032e-02 -4.899628e-01 1.647869e-01 8.371433e-01 7.967147e-01 7.931566e-01 7.301229e-01 5.813171e-01 3.518849e-01 3.641225e-01 2.626618e-01 -6.834844e-01
<VARIANCE> 39
 4.431325e+01 4.583970e+01 9.840968e+01 6.920399e+01 5.007527e+01 8.642222e+01 5.051702e+01 3.729979e+01 5.355782e+01 4.547470e+01 4.451455e+01 3.689779e+01 2.233125e+01 1.597216e+00 3.115783e+00 3.689301e+00 4.348931e+00 4.855571e+00 5.687249e+00 4.915535e+00 3.778637e+00 3.824259e+00 4.587338e+00 4.745251e+00 3.632943e+00 1.183130e+00 1.836395e-01 3.968405e-01 4.696043e-01 5.131817e-01 5.319940e-01 7.495080e-01 5.281717e-01 4.985096e-01 4.991123e-01 4.558814e-01 4.371028e-01 3.700939e-01 2.292772e-01
<GCONST> 1.277712e+02
<TRANSP> 5
 0.000000e+00 1.000000e+00 0.000000e+00 0.000000e+00 0.000000e+00
 0.000000e+00 7.380421e-01 2.619579e-01 0.000000e+00 0.000000e+00
 0.000000e+00 0.000000e+00 2.821423e-01 7.178577e-01 0.000000e+00
 0.000000e+00 0.000000e+00 0.000000e+00 2.622268e-01 7.377732e-01
 0.000000e+00 0.000000e+00 0.000000e+00 0.000000e+00 0.000000e+00
<ENDHMM>
~h "s"
<BEGINHMM>
<NUMSTATES> 5
<STATE> 2
<MEAN> 39
 -1.883311e+01 5.454731e+00 9.263206e-01 -3.207847e+00 2.607722e+00 -4.036962e+00 1.135118e+00 3.917237e+00 4.779652e+00 5.262952e+00 3.024851e+00 3.259688e+00 7.409084e+01 -5.333725e-01 -4.996338e-02 -1.469772e-01 -5.225509e-02 7.127911e-02 1.453267e-01 1.186654e-01 1.507549e-01 2.742566e-01 2.569008e-01 2.046370e-01 1.880362e-01 1.308702e-01 3.757506e-01 -4.623030e-02 1.679255e-01 3.533510e-02 -9.166864e-02 -1.394526e-02 -1.467458e-01 -1.466253e-01 -1.218219e-01 -1.412207e-01 -1.396314e-01 -1.186388e-01 -7.243150e-02
<VARIANCE> 39
 2.898602e+01 1.620132e+01 3.500991e+01 3.166677e+01 3.299525e+01 3.867639e+01 4.220887e+01 3.881739e+01 3.169165e+01 2.945822e+01 2.911713e+01 3.480981e+01 2.713083e+01 1.083472e+00 6.839254e-01 1.014808e+00 9.903445e-01 1.238712e+00 1.402181e+00 1.545975e+00 1.710848e+00 1.720043e+00 1.741089e+00 1.723146e+00 1.460179e+00 5.198487e-01 1.655382e-01 1.266162e-01 1.672991e-01 2.063779e-01 2.551748e-01 3.156870e-01 3.470658e-01 3.720829e-01 3.753693e-01 3.713329e-01 3.582526e-01 3.087061e-01 4.982528e-02
<GCONST> 1.000809e+02
<STATE> 3
<MEAN> 39
 -1.681706e+01 3.975563e+00 3.292379e+00 -2.617533e+00 3.145946e+00 -2.450607e+00 1.367147e+00 3.966465e+00 5.575025e+00 5.422431e+00 2.500266e+00 3.522011e+00 7.255718e+01 3.319534e+00 2.958277e-01 1.439658e+00 -9.025669e-02 -1.376004e+00 -1.248402e+00 -2.328278e+00 -2.072160e+00 -1.764851e+00 -1.614808e+00 -1.597504e+00 -1.445609e+00 3.328946e-01 1.046837e+00 -4.005667e-03 1.489436e-01 -2.664468e-01 -8.684767e-01 -5.168062e-01 -9.493459e-01 -7.300451e-01 -6.291577e-01 -4.583289e-01 -3.450648e-01 -4.049167e-01 4.943370e-01
<VARIANCE> 39
 3.926724e+01 1.467685e+01 3.557263e+01 3.062879e+01 2.786635e+01 3.839582e+01 4.506428e+01 3.500684e+01 3.336762e+01 3.016035e+01 3.039120e+01 3.411611e+01 2.273553e+01 2.900225e+00 1.548432e+00 2.612669e+00 2.715091e+00 3.340734e+00 4.332122e+00 4.137067e+00 3.554783e+00 3.085860e+00 2.797721e+00 2.519363e+00 2.437702e+00 8.660287e-01 2.479035e-01 3.191943e-01 4.345990e-01 5.112616e-01 4.026718e-01 7.192760e-01 6.145590e-01 5.641547e-01 5.640005e-01 5.446029e-01 5.819988e-01 4.699420e-01 1.052636e-01
<GCONST> 1.179296e+02
<STATE> 4
<MEAN> 39
 -2.618006e+00 4.886078e+00 6.860302e+00 -4.520357e+00 -5.754956e+00 -9.751553e+00 -1.040268e+01 -5.635230e+00 -2.145552e+00 -8.815770e-01 -3.643489e+00 -2.681941e+00 7.674800e+01 3.752503e+00 -1.188717e+00 7.460565e-01 -1.459897e+00 -3.187938e+00 -1.201342e+00 -2.902939e+00 -2.016286e+00 -1.651657e+00 -1.287712e+00 -8.999338e-01 -1.256418e+00 1.856638e+00 -9.880955e-01 -3.910642e-01 -3.620476e-01 -1.393697e-01 3.005317e-01 6.873752e-01 8.869534e-01 7.432576e-01 4.941117e-01 4.247224e-01 6.538514e-01 4.990121e-01 -5.182629e-02
<VARIANCE> 39
 5.690392e+01 3.069397e+01 7.784024e+01 4.150135e+01 6.493894e+01 7.796861e+01 4.094087e+01 3.559592e+01 3.836798e+01 3.918073e+01 2.995970e+01 3.290211e+01 2.929499e+01 2.596679e+00 3.216538e+00 5.502726e+00 4.926875e+00 4.376841e+00 7.422135e+00 6.120224e+00 5.192707e+00 4.808787e+00 5.063219e+00 5.018835e+00 3.511664e+00 7.282216e-01 3.346512e-01 2.894033e-01 2.521730e-01 4.069790e-01 6.803760e-01 6.087820e-01 6.345682e-01 4.809078e-01 4.281594e-01 5.052413e-01 4.392767e-01 4.105750e-01 2.087310e-01
<GCONST> 1.272400e+02
<TRANSP> 5
 0.000000e+00 1.000000e+00 0.000000e+00 0.000000e+00 0.000000e+00
 0.000000e+00 8.994260e-01 1.005741e-01 0.000000e+00 0.000000e+00
 0.000000e+00 0.000000e+00 6.124892e-01 3.875108e-01 0.000000e+00
 0.000000e+00 0.000000e+00 0.000000e+00 5.871219e-01 4.128781e-01
 0.000000e+00 0.000000e+00 0.000000e+00 0.000000e+00 0.000000e+00
<ENDHMM>
~h "t"
<BEGINHMM>
<NUMSTATES> 5
<STATE> 2
<MEAN> 39
 -1.088087e+01 3.835839e+00 1.138545e+00 -3.252743e+00 2.128761e+00 -1.148521e+00 -2.973799e-01 3.274730e+00 4.814579e+00 5.019888e+00 3.283664e+00 3.164511e+00 7.008127e+01 1.335850e-01 -3.872079e-01 3.878577e-01 -5.490314e-01 -3.593001e-01 -1.163161e+00 -1.125590e+00 -5.433371e-01 -2.228944e-01 -7.457920e-01 -9.644178e-01 -5.155410e-01 2.011687e+00 7.816298e-01 -1.132854e-01 2.434314e-01 -1.034895e-01 -5.216892e-01 -1.780726e-01 -4.630581e-01 -4.229170e-01 -2.742352e-01 -3.711180e-01 -4.216227e-01 -4.125401e-01 1.707637e-01
<VARIANCE> 39
 3.896175e+01 2.214035e+01 3.160277e+01 3.595100e+01 4.318038e+01 4.067391e+01 3.542223e+01 3.520220e+01 3.016153e+01 2.968670e+01 2.610791e+01 2.843840e+01 4.648944e+01 4.610744e+00 2.272909e+00 3.390810e+00 3.297602e+00 4.813961e+00 4.586806e+00 4.107257e+00 3.939982e+00 3.724721e+00 3.622132e+00 3.560348e+00 3.079753e+00 3.823700e+00 5.214916e-01 4.559350e-01 4.891876e-01 6.390947e-01 6.941621e-01 8.421504e-01 6.947225e-01 6.630755e-01 6.541136e-01 5.771256e-01 6.451275e-01 5.480921e-01 4.759534e-01
<GCONST> 1.276315e+02
<STATE> 3
<MEAN> 39
 -3.647943e+00 4.377843e+00 4.666720e+00 -4.463833e+00 -3.968728e+00 -8.150150e+00 -8.068570e+00 -2.553007e+00 1.023879e+00 -8.078374e-01 -4.032766e+00 -1.915647e+00 7.592279e+01 3.484165e+00 -1.475541e+00 7.972575e-01 -1.452654e+00 -2.812592e+00 -1.308797e+00 -2.745726e+00 -1.896617e+00 -7.860361e-01 -1.447314e+00 -2.214093e+00 -2.052994e+00 2.548689e+00 -9.131858e-02 -4.882173e-01 -2.976727e-01 -8.986568e-02 1.242923e-01 8.767700e-01 5.555510e-01 2.989519e-01 1.886263e-01 3.633567e-01 4.979279e-01 1.667353e-01 -3.875065e-01
<VARIANCE> 39
 5.504948e+01 2.714895e+01 5.837782e+01 3.225035e+01 4.940438e+01 4.993460e+01 3.522720e+01 3.612667e+01 4.483337e+01 3.281900e+01 2.547638e+01 3.794864e+01 2.465447e+01 1.367825e+00 3.739264e+00 6.110320e+00 5.986803e+00 5.864737e+00 7.451113e+00 5.436238e+00 5.625500e+00 7.150063e+00 5.009336e+00 6.314409e+00 5.659919e+00 1.929948e+00 4.699742e-01 2.901626e-01 3.245770e-01 4.173740e-01 7.276133e-01 6.020213e-01 6.017239e-01 5.793717e-01 4.744141e-01 5.516242e-01 5.187140e-01 5.051813e-01 3.529989e-01
<GCONST> 1.295096e+02
<STATE> 4
<MEAN> 39
 7.313601e-01 -2.547794e+00 3.538898e+00 -8.670915e+00 -8.098096e+00 -6.551787e+00 -1.064044e+01 -3.197793e+00 2.749022e+00 -1.065130e+00 -4.949039e+00 -4.710734e+00 8.082568e+01 1.839977e+00 -2.267909e+00 -2.553572e-01 -1.362852e+00 -1.380982e+00 6.504590e-01 -7.036985e-01 -7.109055e-01 -2.342210e-01 -6.358513e-01 -6.076516e-01 -1.066692e+00 1.723401e+00 -9.257981e-01 2.723096e-01 -3.394010e-01 4.045497e-01 8.263398e-01 6.282348e-01 1.022744e+00 4.589097e-01 6.769726e-03 3.764802e-01 7.181578e-01 6.168181e-01 -7.483550e-01
<VARIANCE> 39
 4.847501e+01 4.534468e+01 9.569888e+01 5.132743e+01 5.995631e+01 8.835584e+01 4.932047e+01 5.028526e+01 8.949819e+01 5.705631e+01 6.002063e+01 7.039379e+01 2.173643e+01 1.599337e+00 2.793070e+00 3.794426e+00 3.046955e+00 6.581963e+00 5.277011e+00 4.609597e+00 4.133903e+00 3.877891e+00 4.230825e+00 5.068868e+00 3.959604e+00 9.014310e-01 1.649840e-01 4.085174e-01 4.085868e-01 5.804380e-01 4.866546e-01 8.011978e-01 6.841816e-01 6.794563e-01 8.299714e-01 6.054776e-01 6.529848e-01 6.125479e-01 2.045612e-01
<GCONST> 1.313264e+02
<TRANSP> 5
 0.000000e+00 1.000000e+00 0.000000e+00 0.000000e+00 0.000000e+00
 0.000000e+00 7.757813e-01 2.242187e-01 0.000000e+00 0.000000e+00
 0.000000e+00 0.000000e+00 3.398302e-01 6.601698e-01 0.000000e+00
 0.000000e+00 0.000000e+00 0.000000e+00 2.305806e-01 7.694194e-01
 0.000000e+00 0.000000e+00 0.000000e+00 0.000000e+00 0.000000e+00
<ENDHMM>
~h "u"
<BEGINHMM>
<NUMSTATES> 5
<STATE> 2
<MEAN> 39
 5.365914e+00 8.324990e+00 8.628767e-01 -1.068645e+01 -9.110107e+00 -3.693116e+00 -9.840652e+00 -1.034653e+01 -1.027189e+01 -4.042211e+00 -5.400223e+00 -3.928371e+00 7.318183e+01 -8.320959e-02 -2.602147e-01 7.940301e-02 4.160548e-01 1.863276e-01 9.193165e-02 -3.861175e-01 -4.073132e-01 -3.018020e-01 2.706622e-02 2.842451e-01 -1.329866e-01 -1.128474e-01 -2.821097e-01 -8.399345e-02 1.779148e-01 4.568154e-01 3.593173e-01 -8.661146e-02 -1.010980e-02 2.907030e-01 4.190542e-01 1.833002e-01 4.158837e-03 -4.067851e-02 -1.320621e-01
<VARIANCE> 39
 2.216790e+01 2.746800e+01 3.286572e+01 4.129811e+01 4.982041e+01 4.916832e+01 4.144648e+01 4.901887e+01 3.241126e+01 5.508871e+01 5.084823e+01 3.769477e+01 1.769176e+01 3.340223e-01 1.066931e+00 9.068804e-01 2.089536e+00 1.818508e+00 1.824777e+00 2.790922e+00 2.590207e+00 2.329051e+00 2.476814e+00 2.321755e+00 1.835778e+00 4.264471e-01 1.114066e-01 1.836488e-01 1.857917e-01 3.134890e-01 3.670047e-01 3.266121e-01 4.064234e-01 6.259378e-01 4.741919e-01 4.852531e-01 4.709032e-01 3.502015e-01 5.916683e-02
<GCONST> 1.074547e+02
<STATE> 3
<MEAN> 39
 2.244490e+00 4.707634e+00 5.767953e+00 -3.572851e+00 -4.277900e+00 -5.856401e+00 -1.539261e+01 -1.083448e+01 -6.458392e+00 -9.185143e-01 -5.337007e+00 -4.860291e+00 7.421803e+01 -1.181003e+00 5.138029e-01 1.317087e+00 1.564780e+00 7.205305e-01 -5.148116e-01 8.259511e-01 1.781583e+00 1.261278e+00 -3.786902e-01 -3.881395e-01 -3.596360e-01 -7.283780e-01 -1.871764e-01 3.981326e-01 -1.561316e-01 -2.768629e-01 -6.245691e-02 1.627428e-01 7.476127e-01 4.438516e-01 -1.073967e-02 -1.513969e-01 1.227943e-01 2.548377e-01 -2.388315e-01
<VARIANCE> 39
 2.777853e+01 3.661435e+01 4.310539e+01 4.956786e+01 4.329154e+01 7.817722e+01 5.434163e+01 5.004338e+01 4.092743e+01 5.134222e+01 5.942397e+01 2.816088e+01 2.691191e+01 1.774040e+00 2.780336e+00 2.344436e+00 2.195546e+00 4.216992e+00 2.633697e+00 5.370548e+00 4.715391e+00 3.768478e+00 4.287726e+00 3.219208e+00 2.535409e+00 1.101413e+00 1.772278e-01 3.799902e-01 4.765766e-01 4.361056e-01 5.824355e-01 5.450694e-01 7.807758e-01 8.915504e-01 7.507797e-01 7.818237e-01 6.208616e-01 4.910768e-01 1.181971e-01
<GCONST> 1.248871e+02
<STATE> 4
<MEAN> 39
 -1.028299e+00 9.411836e+00 5.851727e+00 -2.852834e+00 -5.021862e+00 -4.504028e+00 -5.940622e+00 -3.219881e+00 -3.185516e+00 -2.168327e+00 -3.294040e+00 -2.657238e+00 6.815224e+01 -1.282830e+00 -2.462727e-02 -1.257620e-01 3.429157e-01 5.890403e-01 3.296144e-01 9.759720e-01 1.087767e+00 9.922084e-01 7.179850e-01 8.834172e-01 6.813085e-01 -8.006634e-01 1.227066e-02 -2.307183e-01 -1.331277e-01 -1.068021e-01 -9.962699e-02 -7.450764e-03 -1.357515e-01 -2.156534e-01 -3.594392e-02 1.731598e-01 8.199032e-02 6.026467e-02 2.180121e-01
<VARIANCE> 39
 3.716008e+01 4.303655e+01 2.963798e+01 2.694077e+01 2.884873e+01 3.482076e+01 3.266690e+01 2.895923e+01 2.798117e+01 3.076928e+01 3.014977e+01 3.030936e+01 4.226923e+01 1.295464e+00 1.817877e+00 9.841421e-01 1.700222e+00 1.655019e+00 1.967881e+00 2.403899e+00 2.552980e+00 2.331836e+00 2.638200e+00 2.483478e+00 1.964687e+00 6.012958e-01 1.780067e-01 2.262843e-01 2.387779e-01 3.456541e-01 3.596751e-01 3.476535e-01 3.683568e-01 4.745985e-01 3.869186e-01 5.104672e-01 4.623227e-01 3.567587e-01 9.454909e-02
<GCONST> 1.087687e+02
<TRANSP> 5
 0.000000e+00 1.000000e+00 0.000000e+00 0.000000e+00 0.000000e+00
 0.000000e+00 8.046866e-01 1.953134e-01 0.000000e+00 0.000000e+00
 0.000000e+00 0.000000e+00 6.447782e-01 3.552218e-01 0.000000e+00
 0.000000e+00 0.000000e+00 0.000000e+00 7.225288e-01 2.774712e-01
 0.000000e+00 0.000000e+00 0.000000e+00 0.000000e+00 0.000000e+00
<ENDHMM>
~h "v"
<BEGINHMM>
<NUMSTATES> 5
<STATE> 2
<MEAN> 39
 -1.025026e+00 6.523369e+00 7.534860e+00 4.766787e+00 -1.896891e+00 -7.907271e+00 -9.033815e+00 -3.745626e+00 -4.955717e-01 7.132069e-01 -4.040896e+00 -2.030986e+00 7.149150e+01 1.692483e-02 -5.368420e-02 2.587987e-01 -2.050767e-02 -2.954239e-01 -5.540484e-01 -3.297667e-01 -4.235157e-01 -2.922906e-01 -1.514361e-01 -7.625664e-02 9.282801e-02 8.067408e-01 -1.371208e-02 -3.364604e-01 -2.143468e-02 -2.328559e-01 -2.406764e-01 4.812680e-02 1.668627e-01 6.617957e-02 7.130440e-02 5.789201e-02 2.276340e-01 1.780983e-01 6.519567e-02
<VARIANCE> 39
 3.309536e+01 2.481285e+01 1.899056e+01 2.232308e+01 2.282783e+01 3.563472e+01 2.956496e+01 2.149443e+01 2.761086e+01 2.698931e+01 2.366751e+01 2.398956e+01 2.656413e+01 2.021302e+00 1.735880e+00 1.197415e+00 1.159306e+00 2.467335e+00 3.689102e+00 3.000715e+00 1.636892e+00 1.626915e+00 1.672231e+00 1.791834e+00 1.687488e+00 1.362187e+00 4.302579e-01 3.324932e-01 2.569088e-01 2.560557e-01 6.130495e-01 6.529636e-01 6.003687e-01 3.355754e-01 3.291112e-01 4.272488e-01 3.270598e-01 3.195631e-01 2.130499e-01
<GCONST> 1.086780e+02
<STATE> 3
<MEAN> 39
 -4.621140e-01 2.733173e+00 8.246877e+00 2.320794e+00 -6.839530e+00 -1.169738e+01 -9.760345e+00 -5.065958e+00 -1.689956e+00 -1.767937e-01 -2.667714e+00 -1.808308e-02 7.619053e+01 1.010976e+00 -1.762029e+00 3.029008e-01 -1.615167e+00 -2.286001e+00 -5.964063e-01 -4.560133e-01 -4.906816e-01 5.508620e-02 -8.359776e-02 8.394078e-01 3.613585e-01 1.326938e+00 1.779399e-02 -8.912881e-02 2.671103e-02 -3.956618e-01 -1.968763e-01 3.684654e-01 5.170864e-02 1.155434e-01 8.174569e-02 -7.327814e-02 2.350001e-02 -1.669247e-01 1.613352e-02
<VARIANCE> 39
 3.576681e+01 1.746785e+01 4.373383e+01 3.150808e+01 3.073119e+01 5.106792e+01 2.646539e+01 1.965109e+01 3.134275e+01 1.983868e+01 2.375436e+01 2.144670e+01 1.911666e+01 9.854630e-01 1.724338e+00 2.972113e+00 2.046274e+00 3.886592e+00 3.758720e+00 2.113484e+00 2.217618e+00 1.712863e+00 3.754023e+00 1.535136e+00 1.520935e+00 7.705671e-01 1.751746e-01 2.091302e-01 1.714304e-01 1.947962e-01 3.460511e-01 3.792514e-01 3.887777e-01 2.824515e-01 3.263989e-01 3.576602e-01 3.444328e-01 2.003586e-01 8.134162e-02
<GCONST> 1.053058e+02
<STATE> 4
<MEAN> 39
 -8.005971e-01 -1.001632e+00 9.127555e+00 -7.308794e+00 -1.258234e+01 -1.372664e+01 -9.158421e+00 -5.952317e+00 -2.714792e+00 3.032475e+00 -2.624999e+00 -1.166527e-01 8.007034e+01 1.688665e-01 -8.784608e-01 2.156848e-01 -1.654878e+00 -1.170203e+00 3.146134e-01 1.188335e-01 -1.121630e-02 2.546013e-01 -3.010076e-02 1.356420e-01 -2.592646e-01 7.736523e-01 -2.068398e-01 2.819079e-01 -9.408978e-02 2.230237e-01 3.810297e-01 2.763339e-01 1.505941e-01 1.600851e-01 -3.824856e-02 -2.555822e-01 -1.350852e-01 -1.531589e-01 -2.199807e-01
<VARIANCE> 39
 3.590984e+01 1.905911e+01 4.792164e+01 7.878197e+01 4.826649e+01 7.353582e+01 2.537519e+01 2.819223e+01 4.184468e+01 4.089113e+01 2.551518e+01 2.589475e+01 1.726224e+01 8.876287e-01 8.713660e-01 1.918278e+00 2.044635e+00 2.508965e+00 2.037916e+00 2.455881e+00 1.450450e+00 1.546825e+00 2.660824e+00 1.802251e+00 1.317073e+00 4.129970e-01 7.903567e-02 1.827027e-01 1.213572e-01 1.986285e-01 3.351859e-01 2.654536e-01 2.762631e-01 3.180103e-01 2.128094e-01 3.223150e-01 2.090631e-01 2.034705e-01 7.072664e-02
<GCONST> 1.020825e+02
<TRANSP> 5
 0.000000e+00 1.000000e+00 0.000000e+00 0.000000e+00 0.000000e+00
 0.000000e+00 8.170100e-01 1.829900e-01 0.000000e+00 0.000000e+00
 0.000000e+00 0.000000e+00 5.780973e-01 4.219027e-01 0.000000e+00
 0.000000e+00 0.000000e+00 0.000000e+00 5.391763e-01 4.608237e-01
 0.000000e+00 0.000000e+00 0.000000e+00 0.000000e+00 0.000000e+00
<ENDHMM>
~h "y"
<BEGINHMM>
<NUMSTATES> 5
<STATE> 2
<MEAN> 39
 1.122557e+00 -8.940417e-02 1.419725e+01 1.116987e+01 -1.199089e+01 -1.647895e+01 -1.469200e+01 -2.821095e+00 -6.404280e+00 -5.903249e+00 -3.638443e+00 1.397437e+00 7.537729e+01 3.388973e-01 -6.467876e-01 -2.847770e-01 -1.128216e-01 -9.353423e-01 -3.044078e-01 -1.158793e+00 -1.328344e-01 -2.130453e-01 1.740388e-01 -9.313352e-02 1.319633e-01 5.691268e-01 -1.497709e-01 1.132958e-01 -2.694497e-01 -3.001001e-01 4.191017e-01 4.882237e-01 2.914418e-01 -5.966883e-02 2.554684e-01 4.413593e-01 -8.670846e-02 -3.321606e-01 -2.153878e-01
<VARIANCE> 39
 1.888673e+01 1.787115e+01 3.043393e+01 5.388925e+01 2.868907e+01 2.926732e+01 5.514616e+01 2.320112e+01 3.474169e+01 6.618643e+01 2.684962e+01 2.147524e+01 1.702961e+01 5.852539e-01 4.913493e-01 1.643575e+00 1.471394e+00 2.709991e+00 1.748817e+00 1.650548e+00 1.944102e+00 3.471459e+00 3.821807e+00 2.019518e+00 1.882465e+00 3.465593e-01 1.549541e-01 1.358942e-01 2.033078e-01 1.549986e-01 3.570216e-01 3.425572e-01 2.685141e-01 2.850483e-01 4.012649e-01 4.825986e-01 3.944729e-01 3.227360e-01 5.766682e-02
<GCONST> 1.023956e+02
<STATE> 3
<MEAN> 39
 3.594674e-01 -3.498123e+00 8.830448e+00 3.190055e+00 -1.281828e+01 -1.602532e+01 -1.499408e+01 -4.362343e+00 -8.015794e+00 1.033585e+00 -7.327044e+00 -2.709158e+00 7.860081e+01 2.116860e-01 2.639834e-02 -9.090986e-01 -1.057162e+00 5.975749e-01 8.073401e-01 3.848899e-01 -8.167158e-01 5.506823e-01 9.668473e-01 5.780305e-02 -2.644708e-01 -1.763069e-01 -7.199579e-02 3.341595e-01 3.774747e-02 -5.713569e-02 1.913945e-01 1.909094e-01 3.904455e-01 -6.388523e-02 -8.441490e-02 -2.168455e-01 1.451759e-01 2.394585e-01 -2.604014e-01
<VARIANCE> 39
 2.428135e+01 2.071742e+01 4.718831e+01 6.910979e+01 3.197348e+01 5.834640e+01 7.490367e+01 5.327411e+01 9.250845e+01 9.065917e+01 3.681722e+01 3.338485e+01 1.779724e+01 2.839226e-01 7.928624e-01 1.347386e+00 1.876477e+00 1.034384e+00 2.382851e+00 2.680785e+00 2.595034e+00 2.342505e+00 3.748030e+00 2.192644e+00 2.577993e+00 4.801451e-01 5.621488e-02 1.225304e-01 1.566125e-01 2.700184e-01 2.030562e-01 3.993384e-01 4.380312e-01 4.634964e-01 4.289726e-01 6.046397e-01 4.188488e-01 4.687215e-01 3.573703e-02
<GCONST> 1.077304e+02
<STATE> 4
<MEAN> 39
 -2.873958e-01 3.151778e+00 9.628138e+00 4.012951e+00 -1.032421e+01 -1.224705e+01 -7.536461e+00 -5.201655e+00 -7.615684e+00 -2.289196e+00 -6.624808e-01 2.365744e-01 6.993552e+01 -4.570424e-01 7.028590e-01 -8.464847e-01 -6.184242e-01 1.037301e+00 1.257648e+00 1.187963e+00 5.065658e-01 6.171052e-01 2.430255e-01 2.899435e-01 4.013275e-01 -1.116046e+00 -8.628545e-02 -1.044690e-01 2.979828e-02 5.012173e-02 1.242191e-02 6.128658e-02 -4.544777e-02 2.370398e-01 1.893258e-01 -4.803057e-02 5.351606e-03 2.141137e-02 3.942481e-02
<VARIANCE> 39
 2.440913e+01 3.216952e+01 4.186287e+01 5.032849e+01 3.182627e+01 7.301822e+01 3.570989e+01 5.433541e+01 3.474992e+01 5.161819e+01 3.912549e+01 2.505475e+01 3.450863e+01 6.220912e-01 1.474289e+00 9.137337e-01 2.131390e+00 1.893838e+00 3.106331e+00 2.674184e+00 2.763276e+00 3.197637e+00 3.098979e+00 2.926236e+00 2.701569e+00 4.052450e-01 8.121942e-02 1.967222e-01 1.883130e-01 2.606366e-01 3.042084e-01 5.396544e-01 4.156883e-01 5.845693e-01 5.290218e-01 5.293335e-01 5.197868e-01 5.605797e-01 6.601352e-02
<GCONST> 1.114525e+02
<TRANSP> 5
 0.000000e+00 1.000000e+00 0.000000e+00 0.000000e+00 0.000000e+00
 0.000000e+00 7.370420e-01 2.629580e-01 0.000000e+00 0.000000e+00
 0.000000e+00 0.000000e+00 7.453149e-01 2.546850e-01 0.000000e+00
 0.000000e+00 0.000000e+00 0.000000e+00 7.930014e-01 2.069986e-01
 0.000000e+00 0.000000e+00 0.000000e+00 0.000000e+00 0.000000e+00
<ENDHMM>
~h "sp"
<BEGINHMM>
<NUMSTATES> 3
<STATE> 2
~s "silst"
<TRANSP> 3
 0.000000e+00 2.711598e-01 7.288402e-01
 0.000000e+00 4.339031e-01 5.660970e-01
 0.000000e+00 0.000000e+00 0.000000e+00
<ENDHMM>
~h "sil"
<BEGINHMM>
<NUMSTATES> 5
<STATE> 2
<MEAN> 39
 -5.699522e+00 4.584492e+00 1.240823e+00 -5.002381e-01 -2.319480e-01 2.086425e+00 1.503823e+00 3.239861e+00 4.179411e+00 5.541374e+00 5.067637e+00 3.557207e+00 6.193865e+01 -2.306464e-01 -1.296869e-02 -3.232053e-02 1.438208e-01 2.018642e-01 9.536169e-02 1.128649e-01 2.096428e-01 2.106786e-01 2.155198e-01 1.902999e-01 1.728954e-01 -1.990503e-01 5.854173e-02 8.032041e-03 3.915698e-02 -5.888235e-03 -1.087920e-02 -3.557258e-02 -5.958752e-02 -7.950926e-02 -8.447148e-02 -9.583395e-02 -1.148586e-01 -8.018804e-02 1.043687e-01
<VARIANCE> 39
 1.052730e+01 2.800148e+01 2.764703e+01 3.571378e+01 3.787991e+01 3.696424e+01 2.705961e+01 2.557971e+01 2.549702e+01 2.678559e+01 2.653319e+01 2.942836e+01 2.756868e+01 3.026431e-01 3.571929e-01 5.751870e-01 7.797394e-01 9.826767e-01 1.179716e+00 1.305301e+00 1.442159e+00 1.538126e+00 1.592313e+00 1.595997e+00 1.409930e+00 2.662335e-01 4.258799e-02 5.679062e-02 9.246784e-02 1.237380e-01 1.569607e-01 1.884749e-01 2.190095e-01 2.328652e-01 2.600806e-01 2.641490e-01 2.619489e-01 2.391420e-01 2.566340e-02
<GCONST> 8.658088e+01
<STATE> 3
~s "silst"
<STATE> 4
<MEAN> 39
 -6.560917e+00 4.150080e+00 2.114738e+00 5.199896e-01 1.490703e+00 1.981622e+00 8.328933e-01 2.774027e+00 3.609446e+00 4.381458e+00 3.071468e+00 2.121567e+00 6.271975e+01 3.505440e-01 1.141996e-01 2.702734e-01 -2.065315e-01 -1.951018e-01 -8.284986e-01 -7.638068e-01 -6.234676e-01 -5.465174e-01 -4.833178e-01 -6.664220e-01 -4.324650e-01 1.049895e+00 1.135063e-01 -1.658623e-02 -1.815213e-02 -1.523298e-01 -2.021285e-01 -2.184187e-01 -1.764457e-01 -1.240043e-01 -5.154736e-02 1.373785e-03 -2.953863e-02 -2.038026e-02 2.900632e-01
<VARIANCE> 39
 1.463770e+01 2.855919e+01 2.744187e+01 3.576297e+01 3.546737e+01 3.549759e+01 2.859086e+01 2.919404e+01 2.857150e+01 3.066785e+01 2.922540e+01 3.016341e+01 2.782188e+01 3.020193e+00 1.922969e+00 1.869859e+00 2.016549e+00 2.238517e+00 3.065248e+00 3.378344e+00 3.669029e+00 3.394233e+00 3.029973e+00 2.788491e+00 2.518895e+00 1.865550e+00 2.160706e-01 1.513512e-01 1.864137e-01 2.336140e-01 2.781079e-01 3.790300e-01 3.395432e-01 3.047352e-01 3.093858e-01 3.214900e-01 2.899215e-01 2.625516e-01 2.263778e-01
<GCONST> 1.103417e+02
<TRANSP> 5
 0.000000e+00 1.000000e+00 0.000000e+00 0.000000e+00 0.000000e+00
 0.000000e+00 6.910702e-01 1.078446e-01 2.010851e-01 0.000000e+00
 0.000000e+00 0.000000e+00 4.840831e-01 5.159168e-01 0.000000e+00
 0.000000e+00 1.272591e-02 0.000000e+00 2.543502e-01 7.329239e-01
 0.000000e+00 0.000000e+00 0.000000e+00 0.000000e+00 0.000000e+00
<ENDHMM>
