~o
<STREAMINFO> 1 39
<VECSIZE> 39<NULLD><MFCC_D_A_0><DIAGC>
~h "A"
<BEGINHMM>
<NUMSTATES> 5
<STATE> 2
<MEAN> 39
 4.812244e+00 -2.007471e+00 -6.950007e+00 -1.250619e+01 -3.120824e+00 2.351245e+00 -5.227142e+00 -6.212802e+00 -5.542495e+00 -6.525399e+00 -2.201317e+00 -6.837066e+00 7.923709e+01 4.033460e-01 1.488601e-01 -4.030002e-01 -2.167039e-01 -2.349516e-01 3.944395e-01 1.008303e+00 1.820555e-01 -1.003925e+00 -1.138110e+00 8.466915e-02 -8.669449e-02 -2.088906e-01 -3.279977e-01 2.793866e-01 3.728265e-01 4.249836e-01 4.094390e-02 -3.434868e-01 4.133087e-02 1.573287e-01 1.002606e-01 2.124173e-01 -5.669132e-02 7.999669e-02 -2.725995e-01
<VARIANCE> 39
 3.429259e+01 2.316425e+01 2.572947e+01 3.144061e+01 3.860726e+01 5.214981e+01 5.266386e+01 4.378261e+01 7.766675e+01 6.537101e+01 4.177486e+01 4.251564e+01 2.184391e+01 8.409889e-01 1.325213e+00 1.792938e+00 2.276910e+00 1.723995e+00 2.788497e+00 2.705968e+00 2.631253e+00 2.672367e+00 2.908819e+00 2.383572e+00 2.001906e+00 6.174322e-01 2.684847e-01 1.886427e-01 2.336995e-01 3.171989e-01 2.901869e-01 4.265126e-01 5.556728e-01 6.068201e-01 4.761709e-01 4.895688e-01 4.584757e-01 4.173427e-01 8.968818e-02
<GCONST> 1.133966e+02
<STATE> 3
<MEAN> 39
 5.104153e+00 7.938545e-01 -5.608924e+00 -1.016077e+01 -4.008478e+00 1.040501e+00 -2.275962e+00 -5.730171e+00 -8.408411e+00 -8.587524e+00 -3.408130e+00 -7.168339e+00 7.670004e+01 -1.895536e-01 8.707056e-01 5.768339e-01 7.034986e-01 -3.558547e-02 -2.976719e-01 4.083086e-01 4.958704e-03 -3.517788e-01 5.815556e-02 -2.632131e-01 1.947004e-02 -8.677602e-01 -1.631489e-01 6.897880e-02 1.241702e-01 9.940146e-02 1.037863e-01 5.575456e-05 -1.015848e-01 5.474258e-03 1.802318e-01 2.589085e-01 3.863663e-02 9.013803e-02 -1.265483e-01
<VARIANCE> 39
 3.080566e+01 2.572705e+01 2.410084e+01 3.158936e+01 3.610923e+01 3.878728e+01 4.867887e+01 5.375354e+01 7.758636e+01 5.337284e+01 3.793557e+01 3.615813e+01 2.304780e+01 4.950119e-01 8.633969e-01 1.354933e+00 1.722869e+00 1.367156e+00 1.792316e+00 2.258376e+00 2.676807e+00 2.197827e+00 2.120843e+00 1.757336e+00 1.657887e+00 3.756974e-01 8.107412e-02 1.527674e-01 2.534949e-01 2.840046e-01 2.313557e-01 3.515247e-01 4.045691e-01 5.142223e-01 4.021807e-01 3.774267e-01 3.451525e-01 3.330635e-01 5.089952e-02
<GCONST> 1.049867e+02
<STATE> 4
<MEAN> 39
 2.502900e+00 5.896437e+00 -2.183523e+00 -6.004280e+00 -2.633527e+00 2.246849e+00 8.749259e-01 -3.430668e+00 -6.114596e+00 -5.125012e+00 -2.848691e+00 -3.986643e+00 6.965630e+01 -1.019541e+00 3.678795e-01 2.982357e-01 3.836047e-01 4.098689e-01 2.485392e-01 4.224291e-01 7.271233e-01 7.695712e-01 8.744800e-01 5.171148e-01 7.012271e-01 -1.069223e+00 -1.055157e-01 -1.867091e-01 -6.878079e-02 -6.620462e-02 2.571364e-02 -1.348583e-03 -3.209104e-02 1.351840e-01 1.828659e-01 1.147448e-01 1.276266e-01 9.103365e-02 1.120799e-01
<VARIANCE> 39
 3.759379e+01 3.410915e+01 2.485999e+01 4.416704e+01 2.907305e+01 2.591969e+01 3.800812e+01 4.858340e+01 5.148502e+01 4.633691e+01 3.614848e+01 2.915160e+01 3.282754e+01 1.092208e+00 1.232744e+00 1.420703e+00 1.605776e+00 1.524125e+00 1.901694e+00 2.424888e+00 3.267205e+00 3.121223e+00 2.145315e+00 2.338464e+00 2.042811e+00 6.767265e-01 1.480656e-01 1.899367e-01 2.811132e-01 2.992953e-01 2.810699e-01 3.835844e-01 4.500688e-01 5.810626e-01 4.986500e-01 3.868591e-01 4.306650e-01 3.686691e-01 1.226966e-01
<GCONST> 1.103414e+02
<TRANSP> 5
 0.000000e+00 1.000000e+00 0.000000e+00 0.000000e+00 0.000000e+00
 0.000000e+00 7.150239e-01 2.849761e-01 0.000000e+00 0.000000e+00
 0.000000e+00 0.000000e+00 7.604291e-01 2.395709e-01 0.000000e+00
 0.000000e+00 0.000000e+00 0.000000e+00 8.442732e-01 1.557268e-01
 0.000000e+00 0.000000e+00 0.000000e+00 0.000000e+00 0.000000e+00
<ENDHMM>
~h "E"
<BEGINHMM>
<NUMSTATES> 5
<STATE> 2
<MEAN> 39
 -9.316688e-01 -3.944484e+00 5.586536e+00 -5.544470e+00 -1.242795e+01 -1.557044e+01 -9.071676e+00 1.039755e+00 2.321422e+00 -4.859709e-01 -2.618718e+00 -3.798767e+00 8.183575e+01 1.568629e+00 -2.551797e+00 -2.722481e-01 -9.834764e-01 -1.209302e+00 -1.613577e-01 -5.605340e-01 8.102342e-01 4.026431e-01 -5.564542e-01 -6.077842e-01 -9.137111e-01 1.549871e+00 -1.030478e+00 3.194482e-01 -3.987296e-01 2.378850e-01 1.002270e+00 9.790684e-01 8.083451e-01 3.217661e-01 2.394597e-01 2.394127e-01 2.470269e-01 3.062220e-01 -4.760696e-01
<VARIANCE> 39
 4.612005e+01 3.042534e+01 2.974113e+01 3.483160e+01 3.016558e+01 5.834486e+01 7.449087e+01 2.824228e+01 5.147332e+01 1.670034e+01 3.842609e+01 5.839391e+01 2.062719e+01 3.142453e+00 2.231826e+00 1.866240e+00 2.146774e+00 6.127336e+00 3.804236e+00 5.887596e+00 2.020277e+00 2.708891e+00 1.772946e+00 3.605642e+00 2.164543e+00 1.478234e+00 3.446127e-01 4.075400e-01 3.199936e-01 4.512917e-01 4.425561e-01 4.513075e-01 9.792306e-01 5.361765e-01 3.705879e-01 3.702058e-01 5.630540e-01 4.464597e-01 1.358635e-01
<GCONST> 1.199495e+02
<STATE> 3
<MEAN> 39
 -4.169145e-01 -7.945828e+00 2.240598e+00 -5.901243e+00 -1.022539e+01 -1.275967e+01 -7.485125e+00 3.420232e+00 3.309860e+00 -2.535000e+00 -4.937824e+00 -7.093934e+00 8.227867e+01 -2.358790e-01 -1.874246e-01 -5.292063e-01 1.295237e-01 1.678128e+00 1.356143e+00 1.657788e-01 1.977413e-01 2.519446e-01 -3.617267e-02 -3.196712e-01 5.987100e-02 -3.392369e-01 -3.647169e-01 5.497423e-01 6.488106e-02 1.150188e-01 4.605128e-01 2.001192e-01 -8.037299e-03 -2.906919e-03 -2.131966e-02 2.502909e-01 2.763599e-01 2.898521e-01 -3.791737e-01
<VARIANCE> 39
 3.744793e+01 1.544418e+01 3.190035e+01 2.914666e+01 5.992545e+01 9.853005e+01 5.844827e+01 2.800525e+01 7.860473e+01 3.164621e+01 4.656094e+01 8.825404e+01 2.769070e+01 1.275692e+00 2.892915e+00 1.564011e+00 1.295449e+00 5.300784e+00 1.786942e+00 4.323815e+00 2.411732e+00 2.718673e+00 2.607674e+00 2.209419e+00 2.205874e+00 9.299411e-01 2.132974e-01 2.677135e-01 3.220067e-01 2.951837e-01 5.773873e-01 3.383200e-01 8.198476e-01 5.181792e-01 4.304222e-01 5.163019e-01 4.675053e-01 3.591017e-01 9.655670e-02
<GCONST> 1.171605e+02
<STATE> 4
<MEAN> 39
 -2.691809e+00 -5.606000e+00 1.133319e+00 -4.502635e+00 -5.373095e+00 -8.286928e+00 -5.418924e+00 4.989495e+00 4.504647e+00 -3.517222e-01 -5.680067e+00 -3.535922e+00 7.828330e+01 -5.064332e-01 3.534847e-01 -3.236942e-01 1.108663e-01 1.025642e+00 7.968469e-01 9.130079e-02 2.840410e-01 2.562270e-01 4.717635e-01 2.367689e-01 1.620476e-01 -6.465292e-01 -2.018446e-02 5.408092e-02 2.381562e-03 3.828504e-02 -8.611502e-02 -7.999918e-02 2.399483e-02 -6.165120e-02 -5.443180e-03 -1.018906e-02 5.324427e-02 -4.686221e-03 -2.034308e-02
<VARIANCE> 39
 6.694440e+01 1.368346e+01 3.503008e+01 2.674848e+01 8.377073e+01 6.885309e+01 5.462923e+01 3.341591e+01 5.265936e+01 4.571171e+01 3.842088e+01 4.164287e+01 2.346535e+01 1.044299e+00 1.117108e+00 9.863687e-01 1.006889e+00 2.304932e+00 2.115613e+00 2.858443e+00 1.973712e+00 2.506732e+00 2.915494e+00 1.936168e+00 1.914783e+00 3.846048e-01 1.280753e-01 1.715496e-01 2.172228e-01 1.624918e-01 4.153355e-01 3.258507e-01 5.201797e-01 3.316327e-01 4.687788e-01 4.726263e-01 3.198912e-01 3.141562e-01 5.794105e-02
<GCONST> 1.080624e+02
<TRANSP> 5
 0.000000e+00 1.000000e+00 0.000000e+00 0.000000e+00 0.000000e+00
 0.000000e+00 6.818509e-01 3.181491e-01 0.000000e+00 0.000000e+00
 0.000000e+00 0.000000e+00 6.795171e-01 3.204829e-01 0.000000e+00
 0.000000e+00 0.000000e+00 0.000000e+00 8.876332e-01 1.123668e-01
 0.000000e+00 0.000000e+00 0.000000e+00 0.000000e+00 0.000000e+00
<ENDHMM>
~h "O"
<BEGINHMM>
<NUMSTATES> 5
<STATE> 2
<MEAN> 39
 -5.901783e-01 -1.528584e+00 -4.467752e+00 -8.584343e+00 -2.906583e+00 -2.071555e+00 -7.934175e+00 -6.911057e+00 2.668753e+00 6.481516e+00 -3.326482e+00 -4.713039e+00 7.794221e+01 2.784737e+00 -2.575063e-01 -1.204803e+00 -3.242588e+00 -1.039486e+00 3.416162e-01 -4.015598e-01 -2.324421e+00 -1.064063e+00 -2.687927e-01 -4.350303e-01 -1.519245e+00 1.425811e+00 -6.852239e-01 -2.477484e-01 -6.003427e-02 1.044114e-01 2.128635e-01 1.491574e-01 3.945761e-01 6.217795e-01 3.231293e-01 1.934608e-03 2.181422e-01 3.011641e-01 -3.828524e-02
<VARIANCE> 39
 8.663128e+01 1.947985e+01 2.327285e+01 4.660938e+01 3.261510e+01 4.256029e+01 2.487411e+01 3.582411e+01 4.078405e+01 2.358117e+01 4.925708e+01 2.065902e+01 1.852625e+01 3.669595e+00 2.475914e+00 2.909842e+00 4.341414e+00 2.929206e+00 2.014697e+00 2.155954e+00 4.895849e+00 3.232328e+00 1.380690e+00 5.071406e+00 2.349576e+00 1.149298e+00 7.866130e-01 3.843823e-01 3.252490e-01 9.090112e-01 4.392356e-01 3.240268e-01 2.486523e-01 8.241509e-01 5.097192e-01 3.307675e-01 4.120784e-01 3.984466e-01 2.844551e-01
<GCONST> 1.190326e+02
<STATE> 3
<MEAN> 39
 4.019764e+00 -2.761781e+00 -6.989403e+00 -1.584514e+01 -4.529099e+00 9.863198e-01 -6.743823e+00 -9.163317e+00 1.429621e+00 5.209604e+00 -3.125210e+00 -6.821742e+00 8.076895e+01 1.709908e-01 -3.559963e-01 -7.163679e-01 -1.396686e+00 -4.475193e-02 9.073143e-01 7.567547e-01 1.310791e-01 -2.585378e-01 -7.601330e-01 2.260670e-03 -1.955511e-01 3.371605e-01 -5.225353e-01 2.571922e-01 2.087367e-01 7.073032e-01 3.672512e-01 -8.538680e-03 1.990954e-01 4.639544e-01 1.639986e-02 -2.127661e-01 3.776268e-02 3.345022e-01 -5.014750e-01
<VARIANCE> 39
 3.117299e+01 1.531081e+01 3.644299e+01 3.194759e+01 4.534352e+01 5.509484e+01 3.418279e+01 2.563606e+01 4.199434e+01 2.484257e+01 8.841254e+01 2.388489e+01 1.343786e+01 5.642703e-01 1.315622e+00 9.784762e-01 1.712182e+00 1.054442e+00 1.158901e+00 1.699829e+00 1.475143e+00 1.366127e+00 1.624219e+00 1.624854e+00 1.303868e+00 6.442535e-01 2.852824e-01 2.822916e-01 2.680201e-01 3.179263e-01 3.049880e-01 2.404499e-01 2.256400e-01 5.337073e-01 3.175088e-01 2.767313e-01 4.596371e-01 2.181078e-01 8.635317e-02
<GCONST> 1.022611e+02
<STATE> 4
<MEAN> 39
 3.275295e+00 -1.025244e+00 -8.285622e+00 -1.660689e+01 -2.088621e+00 4.347231e+00 -3.625555e+00 -8.920788e+00 -7.741600e-01 8.727064e-01 -3.055810e+00 -5.796651e+00 7.794224e+01 -2.833942e-01 5.947164e-01 1.006794e-01 2.973578e-01 4.016542e-01 4.000227e-01 3.169320e-01 3.011122e-01 -1.677669e-01 -4.547679e-01 3.813701e-02 2.470487e-01 -6.467587e-01 -5.857760e-02 5.576847e-02 1.168296e-01 1.748636e-01 3.385808e-02 -8.436891e-02 -8.770896e-02 4.380460e-02 7.109632e-02 9.589095e-02 1.336736e-02 4.505130e-02 -8.263452e-02
<VARIANCE> 39
 3.575005e+01 2.223676e+01 3.436718e+01 2.701680e+01 5.152900e+01 4.502148e+01 5.045419e+01 4.138073e+01 3.481805e+01 4.194909e+01 6.078012e+01 3.245483e+01 1.772339e+01 5.730929e-01 1.061612e+00 1.038817e+00 1.589098e+00 1.211883e+00 1.483663e+00 1.651742e+00 1.962251e+00 1.446376e+00 1.543870e+00 1.405196e+00 1.534421e+00 4.510888e-01 8.828898e-02 1.601352e-01 1.602327e-01 2.308786e-01 2.449888e-01 2.154375e-01 3.097569e-01 2.783065e-01 2.828259e-01 2.340744e-01 2.599849e-01 3.130852e-01 7.369873e-02
<GCONST> 1.000937e+02
<TRANSP> 5
 0.000000e+00 1.000000e+00 0.000000e+00 0.000000e+00 0.000000e+00
 0.000000e+00 6.754536e-01 3.245464e-01 0.000000e+00 0.000000e+00
 0.000000e+00 0.000000e+00 5.394226e-01 4.605774e-01 0.000000e+00
 0.000000e+00 0.000000e+00 0.000000e+00 8.968099e-01 1.031901e-01
 0.000000e+00 0.000000e+00 0.000000e+00 0.000000e+00 0.000000e+00
<ENDHMM>
~h "R"
<BEGINHMM>
<NUMSTATES> 5
<STATE> 2
<MEAN> 39
 4.459767e-01 1.693536e+00 6.174364e-01 -5.594622e+00 3.546748e-01 -1.792410e+00 -8.159292e+00 -3.911355e+00 2.423620e+00 4.887524e-01 -4.757957e+00 -1.532902e+00 7.459760e+01 6.657388e-01 -1.443494e-01 -1.811181e-01 -9.760014e-01 -4.953043e-01 -3.066683e-01 -3.992628e-01 -5.093375e-01 -1.908541e-01 -2.522097e-01 -2.303092e-01 -1.281095e-01 9.083587e-01 -1.888497e-01 -4.900834e-02 6.458059e-02 1.121899e-01 -7.262781e-02 5.405915e-02 2.887109e-01 1.735036e-01 2.084536e-02 7.242692e-02 2.220888e-01 1.039967e-01 -1.730314e-01
<VARIANCE> 39
 3.879972e+01 4.050775e+01 3.547055e+01 6.139618e+01 7.753351e+01 7.098745e+01 4.447282e+01 4.704256e+01 5.495744e+01 5.150921e+01 3.850245e+01 3.229994e+01 2.929368e+01 2.390199e+00 2.182105e+00 1.631399e+00 3.502543e+00 5.592823e+00 3.693727e+00 3.333961e+00 3.522196e+00 2.918264e+00 2.907502e+00 2.670111e+00 2.218073e+00 2.097252e+00 4.893600e-01 3.857405e-01 2.756645e-01 6.225686e-01 9.239294e-01 5.899794e-01 5.561688e-01 7.326920e-01 5.625698e-01 5.879759e-01 5.246266e-01 4.509188e-01 3.045856e-01
<GCONST> 1.263065e+02
<STATE> 3
<MEAN> 39
 1.947512e+00 1.100041e+00 2.326031e-01 -8.428501e+00 -2.516687e+00 -2.432014e+00 -8.418984e+00 -4.704579e+00 2.096195e+00 -6.447539e-02 -4.618295e+00 -1.515380e+00 7.645936e+01 2.780414e-01 -2.981045e-01 -1.406725e-02 -4.578596e-01 -7.019440e-01 -2.024904e-01 2.515062e-02 -8.401199e-02 -1.387125e-01 -1.631053e-01 1.015890e-01 -1.074870e-01 4.424470e-01 -1.061794e-01 -1.769543e-02 5.850611e-02 1.635420e-01 -2.231233e-02 7.612877e-03 9.754515e-02 7.893465e-02 -5.627343e-02 1.622455e-02 6.884081e-02 -2.209117e-02 -9.693773e-02
<VARIANCE> 39
 3.557442e+01 3.979808e+01 4.133428e+01 6.306535e+01 7.481132e+01 6.808369e+01 4.894053e+01 4.750764e+01 5.994643e+01 4.894149e+01 3.918546e+01 3.437125e+01 2.485301e+01 9.256995e-01 1.673775e+00 1.259788e+00 1.864824e+00 3.391593e+00 2.521194e+00 2.194797e+00 2.381036e+00 1.885139e+00 2.112017e+00 1.804752e+00 1.750908e+00 7.823066e-01 2.003671e-01 2.451846e-01 1.826571e-01 3.277781e-01 5.193285e-01 3.634189e-01 3.853096e-01 4.406778e-01 3.692976e-01 3.935162e-01 3.373416e-01 3.068703e-01 1.488658e-01
<GCONST> 1.134957e+02
<STATE> 4
<MEAN> 39
 2.978048e+00 4.406895e-01 2.222322e-01 -1.053675e+01 -6.603085e+00 -3.247735e+00 -8.923630e+00 -5.011166e+00 7.566478e-01 -3.084910e-01 -4.093533e+00 -2.761114e+00 7.729824e+01 -1.246675e-02 -4.835936e-02 1.726502e-01 3.472057e-02 -3.993410e-01 -1.356573e-01 7.339898e-02 5.094081e-02 -1.728139e-01 -1.182363e-01 1.171355e-01 -1.184522e-01 -1.151967e-02 -6.199202e-02 5.151848e-02 2.394735e-02 9.176028e-02 7.494383e-02 2.363822e-02 4.573046e-02 1.395454e-02 -4.077243e-02 1.567386e-02 4.068980e-02 2.542428e-02 -8.861317e-02
<VARIANCE> 39
 3.493549e+01 4.606537e+01 4.401998e+01 7.380949e+01 8.147926e+01 7.957342e+01 5.537981e+01 4.615393e+01 6.205003e+01 5.108501e+01 4.525266e+01 3.694524e+01 2.388503e+01 5.723495e-01 1.311646e+00 1.022608e+00 1.537430e+00 2.283351e+00 1.918114e+00 1.990635e+00 1.948429e+00 1.649416e+00 1.908347e+00 1.567170e+00 1.519811e+00 7.761251e-01 9.671267e-02 1.842502e-01 1.445236e-01 2.378398e-01 3.364214e-01 2.982956e-01 3.161069e-01 3.253879e-01 2.927120e-01 3.132165e-01 2.705814e-01 2.495561e-01 8.840341e-02
<GCONST> 1.077039e+02
<TRANSP> 5
 0.000000e+00 1.000000e+00 0.000000e+00 0.000000e+00 0.000000e+00
 0.000000e+00 6.418524e-01 3.581475e-01 0.000000e+00 0.000000e+00
 0.000000e+00 0.000000e+00 5.700391e-01 4.299610e-01 0.000000e+00
 0.000000e+00 0.000000e+00 0.000000e+00 7.658391e-01 2.341609e-01
 0.000000e+00 0.000000e+00 0.000000e+00 0.000000e+00 0.000000e+00
<ENDHMM>
~h "S"
<BEGINHMM>
<NUMSTATES> 5
<STATE> 2
<MEAN> 39
 -1.517164e+01 -9.496611e-01 8.625031e+00 -3.311004e+00 -4.251218e+00 -2.704685e+00 -2.005890e+00 2.244161e+00 4.162389e+00 2.144527e+00 1.921939e+00 1.144786e+00 7.742160e+01 -1.748929e-01 -2.387890e-01 -1.829512e-01 2.116587e-01 2.635304e-01 2.129775e-01 -3.211607e-02 -3.297642e-02 4.138553e-01 5.266766e-02 -8.062069e-02 -1.024710e-02 -3.268871e-02 5.153629e-01 4.028230e-02 -1.452373e-01 -2.365454e-02 -4.181167e-02 -8.882250e-02 -1.904816e-01 -1.801307e-01 -1.987539e-01 -9.111499e-02 -1.848869e-01 -1.733899e-01 -7.046674e-02
<VARIANCE> 39
 1.301685e+02 2.093644e+01 3.455233e+01 3.758199e+01 4.528414e+01 4.908510e+01 3.622435e+01 8.204135e+01 8.297746e+01 4.970778e+01 4.137566e+01 4.933000e+01 2.022437e+01 4.002549e+00 8.806125e-01 1.112422e+00 1.394036e+00 1.688971e+00 2.020992e+00 2.242451e+00 2.891075e+00 2.535399e+00 2.241410e+00 2.708981e+00 2.111515e+00 4.992227e-01 3.736017e-01 1.726875e-01 2.020895e-01 2.423513e-01 3.492706e-01 3.686553e-01 4.221491e-01 5.292451e-01 4.408880e-01 4.313410e-01 4.536828e-01 3.979157e-01 8.105564e-02
<GCONST> 1.138049e+02
<STATE> 3
<MEAN> 39
 -5.846766e+00 -7.864769e-01 5.541202e+00 -2.430700e+00 -4.652957e+00 -3.259532e+00 -4.707502e+00 -2.869081e+00 1.436573e+00 4.582674e-01 -1.681365e+00 -2.651254e+00 7.567379e+01 2.745551e+00 2.262290e-01 -1.041952e+00 -1.557084e-01 1.195127e-02 -1.427627e-01 -1.290411e+00 -1.423235e+00 -9.955822e-01 -6.599732e-01 -1.197963e+00 -1.239133e+00 8.980889e-03 2.640190e-01 -1.625500e-02 -3.688426e-01 -3.978808e-01 -1.098644e-01 9.742490e-02 -3.670018e-02 -1.222188e-01 -1.856879e-01 -2.088265e-02 2.055909e-02 -9.904929e-02 2.322349e-01
<VARIANCE> 39
 1.213159e+02 2.658495e+01 2.901213e+01 4.346483e+01 4.611732e+01 4.800185e+01 5.037901e+01 1.000680e+02 1.131728e+02 6.085313e+01 4.295656e+01 5.239356e+01 2.361670e+01 7.990393e+00 1.601930e+00 2.628112e+00 2.624627e+00 2.703423e+00 3.434553e+00 4.515310e+00 4.543605e+00 3.418400e+00 3.043062e+00 3.721911e+00 3.620658e+00 1.191411e+00 6.907307e-01 2.840173e-01 2.798794e-01 3.618775e-01 4.574015e-01 5.227033e-01 6.817461e-01 6.835744e-01 6.004100e-01 5.297327e-01 5.944405e-01 5.423834e-01 2.267427e-01
<GCONST> 1.278157e+02
<STATE> 4
<MEAN> 39
 2.152057e+00 9.233049e-01 1.363335e+00 -4.404186e+00 -5.118381e+00 -3.092568e+00 -7.722647e+00 -6.936183e+00 -3.521874e+00 -2.160237e+00 -4.165536e+00 -6.528035e+00 7.541579e+01 1.238771e+00 -2.668593e-02 -1.198297e+00 -8.211148e-01 5.010816e-02 4.806367e-01 -1.894581e-01 -4.890550e-01 -4.984622e-01 -1.016160e-01 -1.045942e-01 -3.110389e-01 1.972421e-01 -6.246955e-01 -8.354453e-02 7.310388e-02 -9.104504e-02 6.670717e-02 1.559513e-01 4.833052e-01 4.167330e-01 2.143456e-01 1.463248e-01 3.456242e-01 3.753614e-01 -2.973537e-02
<VARIANCE> 39
 4.362721e+01 4.702181e+01 2.926004e+01 4.146519e+01 3.500365e+01 4.450024e+01 5.727467e+01 6.668385e+01 9.735368e+01 6.021502e+01 4.608455e+01 3.830674e+01 4.147598e+01 7.012797e+00 2.776172e+00 3.567712e+00 3.835143e+00 3.090719e+00 3.532939e+00 4.674094e+00 5.632326e+00 5.827045e+00 3.894009e+00 4.119810e+00 4.131057e+00 2.250140e+00 5.717492e-01 3.445720e-01 3.276093e-01 3.499557e-01 4.877275e-01 6.177354e-01 8.673459e-01 6.529057e-01 5.823202e-01 6.028277e-01 6.493831e-01 5.473396e-01 2.213059e-01
<GCONST> 1.307459e+02
<TRANSP> 5
 0.000000e+00 1.000000e+00 0.000000e+00 0.000000e+00 0.000000e+00
 0.000000e+00 8.187270e-01 1.812730e-01 0.000000e+00 0.000000e+00
 0.000000e+00 0.000000e+00 5.277280e-01 4.722720e-01 0.000000e+00
 0.000000e+00 0.000000e+00 0.000000e+00 6.664745e-01 3.335255e-01
 0.000000e+00 0.000000e+00 0.000000e+00 0.000000e+00 0.000000e+00
<ENDHMM>
~h "Z"
<BEGINHMM>
<NUMSTATES> 5
<STATE> 2
<MEAN> 39
 -6.471647e+00 6.645837e+00 1.753730e+01 -1.159553e+00 -7.207339e+00 -7.382362e+00 -7.747912e+00 -3.362930e+00 -5.061921e+00 8.425574e-01 -2.335170e+00 -1.296327e+00 7.599964e+01 -8.937395e-01 9.651968e-01 8.781773e-01 -1.545817e-01 6.818750e-01 -2.543918e-01 -2.858070e-02 -6.852586e-01 -4.274498e-01 -3.102241e-01 -2.791070e-01 4.019325e-02 7.103131e-01 -1.679990e-01 -6.552745e-02 -3.502193e-01 -1.971363e-02 2.457702e-01 3.722418e-01 3.112804e-01 1.371350e-01 2.443330e-01 1.014937e-01 1.398678e-01 4.747882e-03 -2.347882e-01
<VARIANCE> 39
 6.259937e+01 2.513557e+01 2.158657e+01 3.562801e+01 4.633482e+01 3.324729e+01 2.416612e+01 1.874211e+01 4.685579e+01 2.433068e+01 1.995181e+01 3.777601e+01 2.615972e+01 2.268155e+00 1.380686e+00 1.931941e+00 1.074121e+00 4.378788e+00 4.767663e+00 3.939402e+00 1.405984e+00 2.496556e+00 2.208652e+00 1.659342e+00 2.061981e+00 1.646447e+00 4.626972e-01 2.952681e-01 3.413540e-01 2.181022e-01 8.088942e-01 6.276271e-01 8.177912e-01 2.686749e-01 4.587843e-01 4.224144e-01 3.280689e-01 4.285674e-01 1.321129e-01
<GCONST> 1.137167e+02
<STATE> 3
<MEAN> 39
 -1.055388e+01 9.497238e+00 1.903231e+01 -1.625881e+00 -3.644395e+00 -5.772951e+00 -5.835917e+00 -5.041449e+00 -5.296833e+00 -4.930510e-01 -2.434344e+00 -1.650635e+00 7.653469e+01 -6.001700e-01 3.376175e-01 2.465640e-01 -2.330548e-01 3.229424e-01 2.338368e-01 1.547019e-01 -3.423658e-01 5.324666e-02 -3.822478e-02 3.054232e-02 -1.635321e-01 8.360549e-02 2.401135e-01 -1.901555e-01 1.495511e-02 -3.173168e-02 -3.140686e-01 -8.475908e-02 -1.303196e-01 1.345544e-02 3.606098e-02 8.621707e-02 6.072703e-03 7.172930e-02 -1.634705e-02
<VARIANCE> 39
 5.039254e+01 2.044247e+01 1.705149e+01 2.849817e+01 4.315098e+01 2.486772e+01 1.956691e+01 1.793415e+01 3.995152e+01 2.475206e+01 2.525463e+01 2.283341e+01 2.314905e+01 1.804239e+00 8.917136e-01 6.527348e-01 7.152354e-01 2.920150e+00 1.850533e+00 1.829459e+00 1.535960e+00 1.365824e+00 1.569957e+00 1.333707e+00 1.290526e+00 2.492587e-01 1.570860e-01 1.550508e-01 1.348202e-01 1.079727e-01 2.871023e-01 3.667456e-01 3.043010e-01 2.785081e-01 2.725616e-01 2.619426e-01 2.966099e-01 2.515620e-01 4.904687e-02
<GCONST> 9.547236e+01
<STATE> 4
<MEAN> 39
 -6.727030e+00 5.413981e+00 2.114532e+01 -2.737052e+00 -1.115854e+01 -7.019858e+00 -9.153323e+00 -7.407195e+00 -5.656176e+00 -3.824562e-01 -2.554085e+00 -8.693892e-01 7.789371e+01 6.053348e-01 -6.208258e-01 -5.842955e-02 -1.548568e-01 -8.019830e-01 -1.849567e-01 -3.699332e-01 6.237686e-02 -1.111017e-01 -5.918169e-02 -8.887196e-02 1.296763e-01 1.832455e-02 5.009025e-04 -1.124881e-02 -9.465998e-02 3.170065e-02 8.194286e-02 2.042699e-02 2.441751e-02 8.141091e-02 5.309222e-02 -2.192797e-02 -2.601779e-02 3.079438e-02 -4.272444e-02
<VARIANCE> 39
 4.825361e+01 2.715104e+01 2.356171e+01 7.067060e+01 4.427245e+01 2.671535e+01 2.747538e+01 1.767942e+01 3.949159e+01 3.650840e+01 4.194884e+01 2.365951e+01 1.983304e+01 8.302307e-01 1.094561e+00 6.631328e-01 7.741604e-01 1.632590e+00 1.761273e+00 1.720636e+00 1.275141e+00 1.435933e+00 1.637811e+00 1.321061e+00 1.086870e+00 2.523447e-01 1.110634e-01 1.379721e-01 8.219922e-02 1.206483e-01 2.144662e-01 2.882641e-01 2.659304e-01 2.279405e-01 2.600701e-01 2.758443e-01 2.242874e-01 1.953973e-01 3.221165e-02
<GCONST> 9.403848e+01
<TRANSP> 5
 0.000000e+00 1.000000e+00 0.000000e+00 0.000000e+00 0.000000e+00
 0.000000e+00 7.624875e-01 2.375125e-01 0.000000e+00 0.000000e+00
 0.000000e+00 0.000000e+00 7.927272e-01 2.072728e-01 0.000000e+00
 0.000000e+00 0.000000e+00 0.000000e+00 9.196506e-01 8.034939e-02
 0.000000e+00 0.000000e+00 0.000000e+00 0.000000e+00 0.000000e+00
<ENDHMM>
~h "a"
<BEGINHMM>
<NUMSTATES> 5
<STATE> 2
<MEAN> 39
 2.287734e+00 -9.108225e+00 -5.816053e+00 -8.752038e+00 -1.235388e+00 -2.826847e+00 -6.233884e+00 -2.089139e+00 3.728169e+00 -1.666536e+00 -7.621006e+00 -8.348083e+00 8.279642e+01 6.243020e-02 -3.276117e-01 -6.651008e-01 1.261064e-02 6.577851e-01 6.109149e-01 3.751056e-01 -3.165010e-01 -9.000316e-02 -1.708312e-01 -1.165127e-01 -3.901255e-01 2.571410e-02 -1.275855e-01 5.094947e-01 2.842767e-01 2.756393e-01 -3.911898e-03 -6.560472e-02 -3.344075e-02 -8.123273e-02 -1.619705e-01 1.209440e-01 2.679729e-01 2.455826e-01 -4.377883e-01
<VARIANCE> 39
 3.886905e+01 2.450625e+01 2.788588e+01 3.012145e+01 3.484450e+01 7.365552e+01 4.559087e+01 4.304158e+01 7.007654e+01 4.294306e+01 7.725919e+01 6.471539e+01 1.481515e+01 5.047840e-01 2.420326e+00 1.425382e+00 1.406284e+00 1.769270e+00 2.223281e+00 2.119222e+00 2.044288e+00 1.942584e+00 1.816993e+00 2.081752e+00 1.964331e+00 1.157245e+00 1.546591e-01 2.622075e-01 2.110965e-01 2.848985e-01 3.051051e-01 3.995734e-01 3.958711e-01 4.139937e-01 4.272562e-01 3.351507e-01 4.219504e-01 3.580862e-01 1.214770e-01
<GCONST> 1.106004e+02
<STATE> 3
<MEAN> 39
 2.576532e+00 -7.700816e+00 -7.421165e+00 -8.123521e+00 1.442641e+00 -4.524247e-01 -4.959747e+00 -4.453027e+00 3.081429e+00 -1.607209e+00 -6.149415e+00 -8.857181e+00 8.082662e+01 -8.794747e-02 8.326988e-01 -7.050484e-02 3.861151e-01 4.540261e-01 4.590843e-01 2.630180e-01 -1.552334e-01 -2.373773e-01 1.151902e-01 3.898296e-01 2.386986e-01 -1.053396e+00 -1.170726e-01 2.295012e-01 1.433338e-01 8.968370e-02 -6.979698e-02 -2.345593e-02 4.958938e-02 1.453351e-01 1.643240e-02 9.252081e-02 1.362223e-01 1.738402e-01 -2.575786e-01
<VARIANCE> 39
 3.667102e+01 2.874971e+01 2.644151e+01 3.179774e+01 3.677567e+01 7.500616e+01 4.743464e+01 4.187780e+01 4.853007e+01 3.867393e+01 6.425377e+01 5.621868e+01 2.192872e+01 6.360682e-01 1.799062e+00 1.159286e+00 1.195487e+00 1.440787e+00 1.807426e+00 2.010458e+00 1.892169e+00 1.860037e+00 1.584048e+00 1.733623e+00 1.632126e+00 1.136557e+00 1.065136e-01 2.422095e-01 1.919681e-01 2.167321e-01 2.369087e-01 3.182096e-01 3.607521e-01 3.367471e-01 3.247356e-01 2.931396e-01 2.941465e-01 2.785117e-01 1.224971e-01
<GCONST> 1.062254e+02
<STATE> 4
<MEAN> 39
 5.742016e-01 -2.653857e+00 -7.149950e+00 -6.045411e+00 2.879272e+00 2.170465e+00 -1.588379e+00 -1.871356e+00 3.674274e+00 1.130123e+00 -1.986291e+00 -6.162652e+00 7.270644e+01 -6.509267e-01 7.291649e-01 2.418089e-01 3.943281e-01 8.232609e-02 3.955085e-01 5.928127e-01 7.048324e-01 1.986306e-01 6.455625e-01 7.629862e-01 8.049351e-01 -1.318011e+00 -7.883990e-02 -1.055069e-01 6.553733e-02 -3.712174e-02 -9.901418e-02 -1.136244e-01 -1.268664e-02 5.209140e-02 3.189034e-02 4.571912e-02 3.173037e-02 4.546312e-02 1.553295e-01
<VARIANCE> 39
 2.955869e+01 3.076317e+01 2.723698e+01 3.531993e+01 3.374688e+01 5.439224e+01 4.285691e+01 5.237582e+01 4.349116e+01 4.427554e+01 5.062409e+01 5.332030e+01 3.819996e+01 1.082971e+00 1.354371e+00 1.173483e+00 1.415580e+00 1.579102e+00 1.935620e+00 2.516745e+00 2.507768e+00 2.352321e+00 2.246425e+00 2.233886e+00 1.959588e+00 9.896518e-01 1.333730e-01 2.059984e-01 2.217228e-01 2.611123e-01 2.824435e-01 3.366946e-01 4.168507e-01 4.429007e-01 4.131666e-01 4.145989e-01 3.961589e-01 3.583990e-01 1.548412e-01
<GCONST> 1.106103e+02
<TRANSP> 5
 0.000000e+00 1.000000e+00 0.000000e+00 0.000000e+00 0.000000e+00
 0.000000e+00 7.227969e-01 2.772031e-01 0.000000e+00 0.000000e+00
 0.000000e+00 0.000000e+00 7.478836e-01 2.521164e-01 0.000000e+00
 0.000000e+00 0.000000e+00 0.000000e+00 8.112350e-01 1.887650e-01
 0.000000e+00 0.000000e+00 0.000000e+00 0.000000e+00 0.000000e+00
<ENDHMM>
~h "b"
<BEGINHMM>
<NUMSTATES> 5
<STATE> 2
<MEAN> 39
 3.649649e+00 1.168435e+01 6.106805e+00 3.192797e+00 -1.095042e-01 -1.641315e+00 -6.591464e+00 -7.265973e+00 -5.211185e+00 -2.039772e+00 -3.615415e+00 -5.831250e+00 6.634004e+01 3.061523e-01 -3.260409e-01 -2.830775e-01 -4.556579e-01 -2.232853e-01 -2.886670e-01 -5.202004e-01 -1.440819e-01 2.208222e-01 1.012532e-01 -9.414854e-02 -1.096215e-01 7.926598e-01 -1.264266e-01 -6.542603e-01 -3.300197e-01 -4.395439e-01 -1.871843e-01 5.984564e-02 1.083009e-01 2.807937e-01 4.467646e-01 2.629435e-01 1.117287e-01 1.618788e-01 3.900513e-01
<VARIANCE> 39
 1.117963e+01 4.786298e+01 2.273246e+01 3.061277e+01 1.989779e+01 2.428866e+01 2.495887e+01 2.732543e+01 3.302211e+01 3.238224e+01 3.956872e+01 2.518289e+01 2.542497e+01 1.552024e+00 4.542845e+00 1.781157e+00 3.060011e+00 2.197185e+00 2.430745e+00 2.616176e+00 3.080451e+00 3.550705e+00 2.841476e+00 2.329341e+00 2.198829e+00 2.857587e+00 2.463703e-01 4.064030e-01 2.557835e-01 4.088759e-01 4.422102e-01 5.006914e-01 5.408280e-01 5.419269e-01 5.177862e-01 4.816643e-01 4.877979e-01 4.338285e-01 3.666505e-01
<GCONST> 1.154920e+02
<STATE> 3
<MEAN> 39
 3.867679e+00 3.876260e+00 1.825013e+00 -3.617667e+00 -3.309459e+00 -2.847058e+00 -8.509995e+00 -6.953395e+00 -1.378536e+00 4.744235e-01 -3.105562e+00 -5.390926e+00 7.367876e+01 2.059431e-01 -2.636531e+00 -1.456093e+00 -2.476716e+00 -1.312345e+00 -2.366681e-01 -4.277770e-01 5.011140e-01 1.604453e+00 7.840934e-01 -9.176746e-02 -2.674074e-02 2.590776e+00 -6.158571e-02 -8.437654e-02 -1.317967e-03 -6.445590e-02 3.166156e-02 2.193507e-01 3.027285e-01 1.197087e-01 -1.153275e-01 -2.736379e-01 -2.333367e-01 -1.714008e-01 8.680217e-03
<VARIANCE> 39
 2.613627e+01 4.900851e+01 3.289219e+01 5.826496e+01 2.895266e+01 4.736765e+01 2.895391e+01 3.053831e+01 4.546519e+01 4.491417e+01 5.272050e+01 3.110023e+01 3.437788e+01 1.571594e+00 4.803742e+00 3.183201e+00 4.811200e+00 3.345767e+00 4.274267e+00 3.388781e+00 3.479393e+00 4.483950e+00 3.234008e+00 3.381269e+00 4.379316e+00 2.826584e+00 2.118567e-01 6.743628e-01 3.828985e-01 8.078501e-01 6.784637e-01 5.534995e-01 5.580356e-01 4.781827e-01 6.352138e-01 5.715346e-01 5.373491e-01 5.936892e-01 5.011628e-01
<GCONST> 1.269805e+02
<STATE> 4
<MEAN> 39
 3.852365e+00 -1.448818e+00 -1.233531e+00 -1.036666e+01 -6.056293e+00 -1.665327e+00 -8.582448e+00 -6.006738e+00 8.518059e-01 3.347859e-01 -3.503828e+00 -7.100833e+00 7.891380e+01 -1.089151e-01 -1.629377e+00 -8.093129e-01 -1.224324e+00 -3.244884e-01 1.947206e-01 3.231973e-01 5.260872e-01 5.052572e-01 -2.664790e-01 -6.672294e-01 -4.492764e-01 1.438818e+00 -1.038271e-01 4.941205e-01 3.034753e-01 5.838326e-01 3.470877e-01 1.291680e-01 2.166393e-01 -7.702293e-02 -4.831029e-01 -3.337316e-01 -1.129511e-01 2.429066e-02 -5.313478e-01
<VARIANCE> 39
 3.381480e+01 5.227946e+01 4.849149e+01 7.007111e+01 4.293849e+01 7.991298e+01 3.737010e+01 3.967192e+01 6.635979e+01 5.744485e+01 8.480598e+01 5.145570e+01 2.968865e+01 8.139112e-01 2.850454e+00 2.638687e+00 3.618912e+00 3.465036e+00 3.382943e+00 3.117144e+00 2.854964e+00 3.664422e+00 2.886386e+00 3.376727e+00 4.024550e+00 1.860224e+00 1.506373e-01 4.036700e-01 2.818935e-01 6.134537e-01 5.509143e-01 5.806047e-01 4.518662e-01 4.431812e-01 5.526785e-01 5.157596e-01 5.033991e-01 4.710184e-01 2.776833e-01
<GCONST> 1.248012e+02
<TRANSP> 5
 0.000000e+00 1.000000e+00 0.000000e+00 0.000000e+00 0.000000e+00
 0.000000e+00 8.020069e-01 1.979931e-01 0.000000e+00 0.000000e+00
 0.000000e+00 0.000000e+00 4.514722e-01 5.485277e-01 0.000000e+00
 0.000000e+00 0.000000e+00 0.000000e+00 4.666823e-01 5.333177e-01
 0.000000e+00 0.000000e+00 0.000000e+00 0.000000e+00 0.000000e+00
<ENDHMM>
~h "d"
<BEGINHMM>
<NUMSTATES> 5
<STATE> 2
<MEAN> 39
 3.418353e-01 1.293999e+01 8.786357e+00 3.121766e+00 -1.490906e+00 -3.845784e+00 -6.340405e+00 -4.283802e+00 -3.614104e+00 -3.013178e+00 -4.910129e+00 -5.050045e+00 6.633642e+01 -2.184020e-01 -2.444050e-01 3.462937e-01 -1.543097e-01 -5.222334e-01 -8.338903e-01 -4.117002e-01 -1.901679e-01 -6.055373e-02 -2.732829e-01 -6.795141e-02 1.280019e-01 1.093332e+00 -1.623193e-01 -5.307657e-01 9.016488e-03 -1.882810e-01 -3.285655e-01 -6.235619e-02 -7.268533e-02 8.526285e-02 1.845422e-01 1.703633e-01 3.150429e-01 2.870331e-01 2.918778e-01
<VARIANCE> 39
 2.164114e+01 3.715176e+01 1.973484e+01 3.012265e+01 2.745129e+01 2.776788e+01 2.663242e+01 2.607967e+01 2.936690e+01 3.070415e+01 2.255305e+01 2.426927e+01 3.221480e+01 2.867217e+00 3.723983e+00 1.870325e+00 2.192837e+00 4.288496e+00 3.583423e+00 3.723602e+00 3.554941e+00 2.919981e+00 3.094997e+00 2.519326e+00 2.671283e+00 2.875528e+00 4.297891e-01 3.512216e-01 4.258919e-01 4.269764e-01 9.688619e-01 6.806405e-01 7.857226e-01 7.308559e-01 5.440272e-01 5.707244e-01 3.994944e-01 4.053048e-01 4.152978e-01
<GCONST> 1.203392e+02
<STATE> 3
<MEAN> 39
 -3.086397e+00 6.181808e+00 1.033064e+01 3.665717e-01 -6.630342e+00 -9.113112e+00 -9.709350e+00 -5.057490e+00 -2.413092e+00 -2.661914e+00 -2.553474e+00 -1.757643e+00 7.511161e+01 1.720668e-01 -2.367941e+00 1.373851e+00 -1.247554e+00 -3.488741e+00 -1.786910e+00 -1.939868e+00 -3.228028e-01 1.279112e-01 1.854166e-01 1.061729e+00 1.011649e+00 2.595637e+00 3.686860e-01 1.452450e-02 8.506824e-02 -1.965250e-01 -3.198034e-01 3.048588e-01 -6.927267e-03 9.379874e-02 -6.649688e-03 1.226917e-01 1.412250e-03 -1.568901e-01 -2.607094e-01
<VARIANCE> 39
 3.120128e+01 2.876720e+01 3.875343e+01 3.849039e+01 6.118667e+01 4.925754e+01 4.571938e+01 2.693473e+01 3.783042e+01 3.163466e+01 2.526354e+01 3.384674e+01 3.212757e+01 1.854673e+00 2.435721e+00 3.393354e+00 4.735339e+00 6.377356e+00 3.900530e+00 4.362810e+00 3.163848e+00 2.834560e+00 6.655626e+00 2.687932e+00 2.655564e+00 1.868314e+00 2.900263e-01 4.622110e-01 5.043626e-01 5.124346e-01 1.155193e+00 7.510560e-01 7.426150e-01 4.902145e-01 4.273040e-01 4.587592e-01 4.857914e-01 4.370366e-01 4.137229e-01
<GCONST> 1.252943e+02
<STATE> 4
<MEAN> 39
 -1.583904e+00 1.186915e+00 1.395347e+01 -3.523236e+00 -1.592153e+01 -1.076116e+01 -1.361718e+01 -5.347367e+00 -2.593850e+00 -1.903295e+00 -6.078870e-01 -5.111932e-01 7.949028e+01 4.059484e-01 -1.356083e+00 6.966520e-01 -1.072767e+00 -2.130085e+00 -3.590264e-01 -7.100677e-01 6.071062e-02 1.186938e-01 4.285247e-01 4.601836e-01 2.773896e-01 1.072509e+00 -4.060368e-02 4.930888e-01 -3.985475e-01 2.188107e-01 8.006244e-01 4.394447e-01 6.149429e-01 6.048530e-02 -5.735893e-02 4.755554e-02 -2.704998e-01 -2.239869e-01 -5.966620e-01
<VARIANCE> 39
 3.226976e+01 2.515830e+01 4.247746e+01 8.817798e+01 5.470325e+01 5.511506e+01 4.208195e+01 2.492937e+01 5.839666e+01 7.354726e+01 4.531521e+01 3.452742e+01 2.157321e+01 6.961209e-01 1.658665e+00 2.353512e+00 3.436143e+00 5.175382e+00 2.761489e+00 2.998047e+00 2.259746e+00 1.936412e+00 3.836442e+00 2.489768e+00 1.846667e+00 1.372886e+00 1.419015e-01 2.960562e-01 2.945432e-01 4.511247e-01 6.614683e-01 4.892707e-01 5.026934e-01 3.252268e-01 3.711625e-01 6.072425e-01 3.624463e-01 3.677335e-01 1.833915e-01
<GCONST> 1.176901e+02
<TRANSP> 5
 0.000000e+00 1.000000e+00 0.000000e+00 0.000000e+00 0.000000e+00
 0.000000e+00 8.344555e-01 1.655445e-01 0.000000e+00 0.000000e+00
 0.000000e+00 0.000000e+00 4.825341e-01 5.174658e-01 0.000000e+00
 0.000000e+00 0.000000e+00 0.000000e+00 5.758306e-01 4.241695e-01
 0.000000e+00 0.000000e+00 0.000000e+00 0.000000e+00 0.000000e+00
<ENDHMM>
~h "e"
<BEGINHMM>
<NUMSTATES> 5
<STATE> 2
<MEAN> 39
 -1.696738e+00 -2.934007e+00 1.309276e+01 -4.164256e+00 -1.775404e+01 -1.377256e+01 -1.109067e+01 -2.727901e+00 -1.796029e+00 -1.250418e+00 -1.475607e+00 -5.071005e-01 8.133000e+01 -9.191690e-02 -6.639034e-02 3.830855e-01 -2.512175e-01 -6.086159e-01 6.411789e-02 2.431450e-01 -5.187265e-02 -2.275569e-01 9.951533e-02 1.862772e-01 3.267963e-02 2.137104e-02 -1.671725e-01 3.272271e-01 -2.653307e-01 2.036418e-01 5.665416e-01 2.358666e-01 3.075413e-01 5.677843e-02 3.814012e-02 6.087321e-02 -4.098725e-02 -1.509665e-02 -3.922136e-01
<VARIANCE> 39
 3.677812e+01 2.454754e+01 2.919386e+01 6.979214e+01 3.658714e+01 5.192101e+01 5.193135e+01 3.592314e+01 4.928855e+01 6.666882e+01 4.312745e+01 3.324765e+01 2.000547e+01 6.085351e-01 1.575207e+00 1.103813e+00 1.488539e+00 2.969117e+00 1.508471e+00 2.014741e+00 1.386170e+00 1.536985e+00 1.877051e+00 1.529319e+00 1.192489e+00 1.014276e+00 2.035613e-01 2.233332e-01 1.820352e-01 2.619521e-01 4.303235e-01 3.931029e-01 4.588118e-01 3.099014e-01 3.115395e-01 3.820074e-01 3.242262e-01 2.506127e-01 1.177572e-01
<GCONST> 1.075603e+02
<STATE> 3
<MEAN> 39
 -1.777347e+00 -1.215141e+00 1.340498e+01 -4.373207e+00 -1.783598e+01 -1.300534e+01 -8.630997e+00 -3.363394e+00 -2.566019e+00 -3.317845e-01 -1.022104e+00 -2.436171e-01 7.919023e+01 -1.732394e-01 6.761274e-01 -3.564090e-01 3.209634e-01 6.497339e-01 4.131864e-01 7.795665e-01 1.184537e-01 2.660844e-02 2.108318e-01 2.372235e-03 2.561869e-02 -9.951341e-01 -1.018000e-01 1.194572e-01 -2.132158e-01 1.178872e-01 2.994350e-01 1.375186e-01 1.226727e-01 1.107980e-01 1.530521e-01 6.569751e-02 5.393729e-02 5.420005e-02 -2.212195e-01
<VARIANCE> 39
 3.946904e+01 2.453514e+01 2.619273e+01 6.694945e+01 3.334959e+01 4.676044e+01 4.757842e+01 3.874434e+01 4.185672e+01 5.950932e+01 4.362459e+01 2.964003e+01 2.511268e+01 7.918183e-01 1.373716e+00 1.103299e+00 1.524111e+00 2.290877e+00 1.616087e+00 1.984732e+00 1.508262e+00 1.711365e+00 2.017267e+00 1.772337e+00 1.274084e+00 9.519329e-01 1.301816e-01 1.966644e-01 1.688388e-01 2.378902e-01 3.051881e-01 2.811618e-01 3.228102e-01 2.896197e-01 2.865262e-01 3.348479e-01 3.201500e-01 2.398630e-01 1.113413e-01
<GCONST> 1.053045e+02
<STATE> 4
<MEAN> 39
 -3.460446e+00 2.137505e+00 1.017046e+01 -1.825745e+00 -1.298001e+01 -9.732802e+00 -3.985238e+00 -1.242150e+00 -3.400916e-01 1.792333e+00 1.071643e+00 1.272975e+00 7.216299e+01 -6.256992e-01 4.309220e-01 -9.061490e-01 3.870181e-01 1.229317e+00 8.028407e-01 7.617428e-01 6.152252e-01 7.291123e-01 6.179264e-01 6.175081e-01 4.499990e-01 -1.226215e+00 -6.178745e-02 -1.530947e-01 -4.194989e-02 -6.635353e-02 2.733534e-02 1.487141e-02 -1.122707e-01 3.352630e-02 6.336357e-02 4.930117e-02 7.363392e-02 4.666805e-02 1.454316e-01
<VARIANCE> 39
 4.129818e+01 3.482480e+01 2.705194e+01 4.838868e+01 4.074063e+01 4.294280e+01 4.357215e+01 4.065612e+01 3.860125e+01 4.762590e+01 4.502151e+01 3.183400e+01 4.125339e+01 1.316118e+00 1.342781e+00 1.259196e+00 1.634031e+00 2.318032e+00 1.949330e+00 2.265546e+00 2.293832e+00 2.362112e+00 2.619530e+00 2.880542e+00 2.032422e+00 1.116849e+00 1.393003e-01 2.200677e-01 2.063597e-01 2.779478e-01 3.852167e-01 3.525348e-01 3.697788e-01 3.975747e-01 4.080240e-01 4.753079e-01 4.907472e-01 3.605796e-01 1.492642e-01
<GCONST> 1.121923e+02
<TRANSP> 5
 0.000000e+00 1.000000e+00 0.000000e+00 0.000000e+00 0.000000e+00
 0.000000e+00 6.985238e-01 3.014762e-01 0.000000e+00 0.000000e+00
 0.000000e+00 0.000000e+00 7.292956e-01 2.707045e-01 0.000000e+00
 0.000000e+00 0.000000e+00 0.000000e+00 7.823157e-01 2.176843e-01
 0.000000e+00 0.000000e+00 0.000000e+00 0.000000e+00 0.000000e+00
<ENDHMM>
~h "f"
<BEGINHMM>
<NUMSTATES> 5
<STATE> 2
<MEAN> 39
 -1.295607e+01 -9.287613e-01 5.361490e+00 1.208177e+00 -1.429155e+00 -3.593092e+00 9.257572e-01 5.024215e+00 4.936759e+00 5.405462e+00 1.995407e+00 4.699191e+00 7.379611e+01 -2.419142e-01 -2.854093e-01 -1.804902e-01 -6.308970e-02 1.370357e-01 1.606679e-01 1.863625e-01 1.905593e-01 2.220601e-01 3.423698e-01 2.297141e-01 1.674214e-01 -7.026586e-02 4.793697e-01 1.278449e-01 1.537394e-01 -7.123543e-02 -2.851823e-01 -2.013211e-01 -2.885753e-01 -3.383433e-01 -2.709165e-01 -2.162080e-01 -1.806033e-01 -2.069142e-01 1.052002e-02
<VARIANCE> 39
 3.631256e+01 1.374689e+01 3.021453e+01 2.353070e+01 2.421692e+01 2.997395e+01 4.486884e+01 3.000738e+01 3.254832e+01 2.604446e+01 2.528718e+01 2.903248e+01 2.443616e+01 1.901641e+00 8.795192e-01 1.289814e+00 1.040064e+00 1.897272e+00 1.986967e+00 2.137708e+00 2.693660e+00 2.390234e+00 2.242261e+00 1.938275e+00 1.855456e+00 4.443086e-01 2.281330e-01 1.869652e-01 1.762227e-01 2.606920e-01 4.050642e-01 4.061996e-01 4.746011e-01 4.642668e-01 4.271482e-01 4.245453e-01 3.643617e-01 3.373642e-01 8.957274e-02
<GCONST> 1.050515e+02
<STATE> 3
<MEAN> 39
 -1.143502e+01 -9.583914e-01 5.720582e+00 6.458097e-01 -2.326215e+00 -4.289381e+00 -6.686163e-02 3.078141e+00 3.623697e+00 5.104215e+00 1.086090e+00 3.382064e+00 7.307369e+01 3.085686e+00 6.949354e-01 9.559925e-01 -4.423178e-01 -1.811330e+00 -1.627813e+00 -1.980395e+00 -2.072031e+00 -1.540293e+00 -1.317940e+00 -1.199447e+00 -1.248163e+00 5.006523e-01 6.085631e-01 -5.530246e-02 7.349159e-02 -4.372166e-01 -7.485783e-01 -4.181735e-01 -6.106317e-01 -4.298600e-01 -2.924180e-01 -2.561516e-01 -1.300501e-01 -1.743669e-01 5.010550e-01
<VARIANCE> 39
 5.191354e+01 1.640748e+01 3.794802e+01 2.475345e+01 3.221597e+01 4.457240e+01 5.081722e+01 2.905350e+01 3.144872e+01 3.176224e+01 2.614911e+01 3.088312e+01 2.616876e+01 2.769795e+00 2.178028e+00 1.776827e+00 2.559895e+00 4.552773e+00 6.014734e+00 4.763748e+00 3.086029e+00 3.307673e+00 3.178200e+00 2.337383e+00 2.369165e+00 1.596434e+00 5.018381e-01 4.255905e-01 2.402330e-01 4.880697e-01 5.021825e-01 6.403685e-01 7.036821e-01 5.089918e-01 5.750459e-01 5.735468e-01 5.001619e-01 4.279690e-01 1.914934e-01
<GCONST> 1.203915e+02
<STATE> 4
<MEAN> 39
 -1.729072e+00 3.324821e-01 8.213778e+00 -1.286850e+00 -9.389079e+00 -1.046535e+01 -6.673275e+00 -2.882092e+00 -8.530851e-01 1.083346e+00 -2.393228e+00 -1.105546e-01 7.594221e+01 2.966766e+00 -3.373234e-01 7.833332e-01 -1.713746e+00 -3.116201e+00 -1.778936e+00 -2.438818e+00 -1.912540e+00 -1.333767e+00 -1.073752e+00 -7.381929e-01 -1.014866e+00 1.788990e+00 -7.366437e-01 -3.298307e-01 -1.725146e-01 -2.964475e-01 1.430751e-01 5.318857e-01 4.542884e-01 5.248263e-01 3.565969e-01 3.234327e-01 4.123215e-01 3.350807e-01 8.046426e-02
<VARIANCE> 39
 5.513701e+01 2.889308e+01 4.289521e+01 4.012589e+01 6.518205e+01 8.101753e+01 4.500938e+01 2.842933e+01 4.077559e+01 3.422292e+01 2.113454e+01 2.179006e+01 3.264273e+01 2.746544e+00 4.296170e+00 2.257336e+00 4.317454e+00 4.331204e+00 5.706717e+00 5.202925e+00 3.522348e+00 4.246242e+00 4.273576e+00 3.450907e+00 2.591090e+00 1.397721e+00 5.902256e-01 3.539769e-01 1.880632e-01 4.634145e-01 7.347641e-01 7.391317e-01 7.544413e-01 5.502067e-01 4.226373e-01 4.170425e-01 4.017920e-01 3.354659e-01 3.125029e-01
<GCONST> 1.249727e+02
<TRANSP> 5
 0.000000e+00 1.000000e+00 0.000000e+00 0.000000e+00 0.000000e+00
 0.000000e+00 8.533701e-01 1.466299e-01 0.000000e+00 0.000000e+00
 0.000000e+00 0.000000e+00 4.925178e-01 5.074822e-01 0.000000e+00
 0.000000e+00 0.000000e+00 0.000000e+00 4.526503e-01 5.473496e-01
 0.000000e+00 0.000000e+00 0.000000e+00 0.000000e+00 0.000000e+00
<ENDHMM>
~h "g"
<BEGINHMM>
<NUMSTATES> 5
<STATE> 2
<MEAN> 39
 3.811686e-01 7.408036e+00 9.010401e+00 2.140594e+00 -5.727547e+00 -6.602180e+00 -5.013171e+00 -3.782465e+00 -4.705385e+00 -4.518707e-01 -3.681680e+00 -3.056317e+00 6.950934e+01 -2.371203e-01 -5.482496e-01 5.789382e-01 -1.447999e-01 -6.839619e-01 -1.054852e+00 -6.310281e-01 2.038366e-02 -1.698860e-01 1.765897e-01 -8.995299e-02 2.671762e-01 1.160958e+00 -2.338646e-02 -4.949123e-01 -1.484386e-01 -2.834149e-01 -1.588171e-01 2.398627e-02 -4.508764e-02 2.379031e-01 3.699178e-01 1.078753e-01 1.235315e-01 1.125243e-01 2.788351e-01
<VARIANCE> 39
 3.122537e+01 7.879433e+01 3.337123e+01 3.597945e+01 4.507608e+01 4.504002e+01 3.092211e+01 4.285740e+01 3.723647e+01 4.586128e+01 3.951564e+01 2.470914e+01 4.988638e+01 3.602785e+00 6.510497e+00 2.442956e+00 3.829723e+00 7.496603e+00 4.794717e+00 3.860544e+00 4.925549e+00 4.576722e+00 4.427341e+00 3.030886e+00 2.895489e+00 4.479308e+00 6.577626e-01 7.214462e-01 4.703986e-01 6.732996e-01 1.329390e+00 8.490759e-01 6.812983e-01 8.685882e-01 8.033895e-01 8.671792e-01 5.494433e-01 5.303633e-01 5.219485e-01
<GCONST> 1.336729e+02
<STATE> 3
<MEAN> 39
 -7.606901e-01 -4.862121e-01 9.996061e+00 -1.817134e+00 -1.124725e+01 -1.153756e+01 -8.872550e+00 -1.497672e+00 -2.427287e+00 1.779203e+00 -2.519712e+00 -7.417963e-01 7.767480e+01 6.499955e-01 -2.114116e+00 -8.016407e-01 -1.774945e+00 -1.302393e+00 -6.394241e-01 -7.843323e-01 1.225356e+00 1.341401e+00 -1.890330e-02 2.351654e-01 4.994018e-02 1.892464e+00 1.958525e-01 3.351137e-02 -5.971135e-01 -7.893601e-02 5.614238e-01 5.495220e-01 4.281028e-01 1.016171e-01 1.906764e-01 -3.291658e-01 -2.508190e-01 -4.467064e-01 -2.585113e-01
<VARIANCE> 39
 3.231860e+01 4.100755e+01 5.113461e+01 5.984625e+01 8.572536e+01 5.303712e+01 5.913554e+01 4.444204e+01 4.344666e+01 6.712184e+01 5.071114e+01 2.869934e+01 3.025554e+01 1.767848e+00 2.844547e+00 4.256190e+00 3.654461e+00 9.151081e+00 3.560511e+00 4.427327e+00 4.795552e+00 5.581826e+00 6.328765e+00 3.571518e+00 3.639577e+00 1.438036e+00 3.479437e-01 4.974974e-01 6.655471e-01 7.781110e-01 2.179040e+00 7.238067e-01 7.778018e-01 8.407059e-01 8.041274e-01 1.297837e+00 7.861655e-01 7.403395e-01 3.013813e-01
<GCONST> 1.351723e+02
<STATE> 4
<MEAN> 39
 1.320803e+00 -6.808961e+00 4.682317e+00 -6.489144e+00 -1.075859e+01 -1.084683e+01 -7.969846e+00 2.831985e+00 1.281663e+00 -3.242004e-01 -5.050058e+00 -2.736047e+00 8.176756e+01 4.506354e-01 -1.445608e+00 -2.130351e+00 -8.011204e-01 1.592943e+00 9.657744e-01 6.228242e-01 5.420383e-01 9.526316e-01 -6.890592e-01 -1.095560e+00 -1.074992e+00 7.186809e-01 -7.455821e-02 3.826511e-01 -5.292242e-02 3.453337e-01 4.592126e-01 3.359398e-01 1.841458e-01 -5.860049e-01 -3.259478e-01 7.428277e-02 -2.422813e-02 -1.380977e-01 -3.800571e-01
<VARIANCE> 39
 3.652325e+01 3.132310e+01 4.904454e+01 4.791790e+01 6.692380e+01 5.526472e+01 7.334969e+01 5.197196e+01 8.705114e+01 5.820064e+01 6.349670e+01 3.727407e+01 1.726519e+01 4.379292e-01 1.527075e+00 2.625507e+00 2.535280e+00 5.236401e+00 2.321410e+00 3.013679e+00 3.503080e+00 3.401983e+00 4.244761e+00 3.462810e+00 3.762105e+00 7.337179e-01 1.109345e-01 1.964374e-01 4.877991e-01 3.846234e-01 1.202682e+00 4.112258e-01 6.743105e-01 5.668573e-01 5.609517e-01 7.652825e-01 6.375411e-01 5.040653e-01 7.721392e-02
<GCONST> 1.216597e+02
<TRANSP> 5
 0.000000e+00 1.000000e+00 0.000000e+00 0.000000e+00 0.000000e+00
 0.000000e+00 8.272091e-01 1.727910e-01 0.000000e+00 0.000000e+00
 0.000000e+00 0.000000e+00 5.421377e-01 4.578623e-01 0.000000e+00
 0.000000e+00 0.000000e+00 0.000000e+00 6.736014e-01 3.263986e-01
 0.000000e+00 0.000000e+00 0.000000e+00 0.000000e+00 0.000000e+00
<ENDHMM>
~h "i"
<BEGINHMM>
<NUMSTATES> 5
<STATE> 2
<MEAN> 39
 -4.923718e+00 6.105732e+00 1.859229e+01 -4.308403e+00 -1.093069e+01 -6.773170e+00 -1.309556e+01 -7.385169e+00 -6.037920e+00 -5.940862e+00 -3.913275e+00 -7.098897e-01 7.663568e+01 3.408974e-01 6.634608e-02 9.072272e-01 -2.623897e-01 -9.504167e-01 -1.970630e-02 -8.091649e-01 -3.486667e-01 -3.741883e-01 -7.141536e-01 -5.472003e-02 -2.175356e-02 2.864671e-01 -2.342164e-01 -4.779252e-02 -5.249515e-01 1.049225e-01 4.470677e-01 1.546731e-01 5.510539e-01 2.962402e-01 2.776520e-01 3.819677e-01 1.807858e-01 3.479226e-02 -2.762396e-01
<VARIANCE> 39
 3.675533e+01 2.244276e+01 5.138876e+01 7.968952e+01 5.461370e+01 4.511782e+01 5.051991e+01 3.199120e+01 4.639869e+01 4.539056e+01 4.439690e+01 3.319488e+01 2.171075e+01 1.841286e+00 1.710585e+00 2.754997e+00 2.991282e+00 4.826240e+00 3.574207e+00 4.174358e+00 2.603960e+00 2.523734e+00 3.036062e+00 2.250383e+00 1.906172e+00 8.927904e-01 3.137166e-01 3.415850e-01 3.703881e-01 4.858146e-01 7.262237e-01 6.828483e-01 7.220847e-01 5.244333e-01 4.971224e-01 5.078116e-01 4.208479e-01 3.540432e-01 1.169441e-01
<GCONST> 1.207552e+02
<STATE> 3
<MEAN> 39
 -4.601163e+00 6.833505e+00 1.911839e+01 -4.840651e+00 -1.156921e+01 -6.475545e+00 -1.334117e+01 -7.645759e+00 -6.688622e+00 -6.722006e+00 -3.731593e+00 -1.351842e+00 7.583819e+01 9.869099e-02 2.685700e-01 -5.213994e-01 2.670384e-01 3.437912e-01 8.272408e-02 5.611923e-01 1.023346e-01 7.956499e-02 2.299243e-01 1.738825e-01 -5.155943e-03 -6.304906e-01 -5.592674e-02 -3.351379e-03 -3.549707e-01 1.381774e-01 2.867463e-01 6.811828e-02 2.943250e-01 1.151119e-01 1.567704e-01 2.541539e-01 7.650728e-02 3.921936e-02 -2.331358e-01
<VARIANCE> 39
 2.994745e+01 2.253030e+01 4.926184e+01 7.551976e+01 4.503542e+01 4.669217e+01 4.502632e+01 3.079987e+01 4.201778e+01 4.578126e+01 4.696318e+01 3.593126e+01 2.275700e+01 6.528207e-01 1.155892e+00 1.601447e+00 1.981922e+00 2.319144e+00 1.904577e+00 2.292020e+00 1.766568e+00 1.846592e+00 1.950806e+00 1.688622e+00 1.445952e+00 8.088008e-01 1.357352e-01 2.218215e-01 2.518030e-01 3.235987e-01 4.440239e-01 4.147435e-01 4.429817e-01 3.776217e-01 3.392748e-01 3.683705e-01 3.337173e-01 2.859540e-01 8.642581e-02
<GCONST> 1.087682e+02
<STATE> 4
<MEAN> 39
 -4.153562e+00 8.159540e+00 1.414945e+01 -1.817857e+00 -7.665040e+00 -4.825742e+00 -8.509798e+00 -5.838873e+00 -4.520240e+00 -3.663408e+00 -1.582101e+00 -4.558048e-02 6.995187e+01 -2.663206e-01 -1.376286e-01 -1.315489e+00 4.150155e-01 9.863572e-01 5.297162e-01 9.315943e-01 6.018142e-01 7.607620e-01 8.495646e-01 4.429255e-01 2.757331e-01 -1.042786e+00 -8.940734e-02 -1.470141e-01 -4.782629e-02 -2.834393e-02 4.423311e-02 4.761560e-02 -2.124202e-03 8.973357e-02 1.184601e-01 6.891857e-02 3.524625e-02 2.644775e-02 8.799657e-02
<VARIANCE> 39
 2.643430e+01 3.184280e+01 4.984566e+01 5.389243e+01 4.483624e+01 4.818509e+01 4.134544e+01 3.014551e+01 3.416029e+01 4.386487e+01 3.595554e+01 2.969834e+01 4.275224e+01 9.500347e-01 1.326019e+00 1.770976e+00 1.915847e+00 2.270882e+00 2.305587e+00 2.172230e+00 2.371801e+00 2.428061e+00 2.366284e+00 2.071779e+00 1.908660e+00 9.433649e-01 1.252659e-01 2.208270e-01 2.810097e-01 3.199511e-01 4.241085e-01 4.213439e-01 3.773783e-01 4.111835e-01 3.911965e-01 4.200898e-01 3.756036e-01 3.447897e-01 1.560523e-01
<GCONST> 1.116787e+02
<TRANSP> 5
 0.000000e+00 1.000000e+00 0.000000e+00 0.000000e+00 0.000000e+00
 0.000000e+00 6.426751e-01 3.573250e-01 0.000000e+00 0.000000e+00
 0.000000e+00 0.000000e+00 6.901996e-01 3.098004e-01 0.000000e+00
 0.000000e+00 0.000000e+00 0.000000e+00 8.301716e-01 1.698283e-01
 0.000000e+00 0.000000e+00 0.000000e+00 0.000000e+00 0.000000e+00
<ENDHMM>
~h "k"
<BEGINHMM>
<NUMSTATES> 5
<STATE> 2
<MEAN> 39
 -5.086447e+00 5.849829e-01 -2.584266e+00 -3.383898e+00 2.583625e+00 -6.387708e-01 -1.231456e+00 1.039664e+00 6.558967e-02 7.692179e+00 1.433049e+00 2.957867e+00 6.996613e+01 9.132863e-01 -3.731058e-01 -1.744009e-01 -6.300948e-01 -5.174814e-01 -1.028422e+00 -9.375015e-01 -8.853452e-01 -7.973387e-01 -4.921114e-01 -7.135472e-01 -5.691976e-01 1.602378e+00 4.555958e-01 1.919029e-01 3.399892e-01 -8.961889e-02 -5.979175e-01 -1.639281e-01 -1.919874e-01 -2.883198e-01 -8.098956e-02 -5.069935e-01 -1.206225e-01 -2.704705e-01 2.479696e-02
<VARIANCE> 39
 4.140049e+01 3.182519e+01 8.209809e+01 4.874896e+01 6.388701e+01 5.758700e+01 4.809469e+01 4.785162e+01 5.086683e+01 5.008727e+01 4.341184e+01 3.305051e+01 4.678111e+01 4.444703e+00 4.156190e+00 7.293103e+00 5.374481e+00 8.984436e+00 4.486344e+00 4.121288e+00 5.071937e+00 5.381444e+00 7.498827e+00 3.982360e+00 3.533120e+00 2.922142e+00 6.130459e-01 7.121708e-01 1.338747e+00 1.107672e+00 1.285605e+00 7.844253e-01 7.256055e-01 7.760543e-01 9.404204e-01 1.122346e+00 7.366364e-01 5.696941e-01 5.290497e-01
<GCONST> 1.403480e+02
<STATE> 3
<MEAN> 39
 1.895291e+00 1.168734e+00 -2.267787e-01 -7.146765e+00 -5.571906e+00 -6.777572e+00 -6.661438e+00 -4.628342e+00 -4.134737e+00 9.350520e-01 -2.542657e+00 -1.976998e+00 7.632018e+01 2.257131e+00 -2.169908e-01 4.334220e-01 -1.362362e+00 -2.599172e+00 -9.639592e-01 -1.037050e+00 -1.224796e+00 -4.661744e-01 -1.915184e+00 -6.695833e-01 -1.216947e+00 1.566108e+00 -4.582264e-01 -3.190893e-01 -3.894092e-01 -1.321742e-02 5.675105e-01 5.882472e-01 4.007122e-01 3.148646e-01 3.561290e-01 4.815017e-01 2.631122e-01 2.331969e-01 -1.836377e-01
<VARIANCE> 39
 5.010080e+01 4.564056e+01 4.846764e+01 5.266499e+01 7.598426e+01 6.607509e+01 5.955221e+01 6.576736e+01 6.400195e+01 6.561255e+01 5.664403e+01 3.134169e+01 3.145627e+01 2.113511e+00 4.961844e+00 5.016235e+00 5.496816e+00 7.517871e+00 4.291271e+00 3.853705e+00 5.555560e+00 5.559396e+00 4.998742e+00 4.614256e+00 3.281068e+00 1.183369e+00 4.845744e-01 4.930338e-01 5.693316e-01 8.253926e-01 1.342331e+00 6.083462e-01 6.333677e-01 7.392939e-01 6.305558e-01 8.629290e-01 5.670897e-01 4.682858e-01 2.273321e-01
<GCONST> 1.351752e+02
<STATE> 4
<MEAN> 39
 4.051517e+00 -8.068264e-03 -8.087016e-01 -9.677512e+00 -7.984991e+00 -6.751539e+00 -7.318967e+00 -6.034136e+00 -4.680839e+00 -1.210779e+00 -2.545798e+00 -3.942868e+00 7.809927e+01 6.321614e-01 -4.230504e-01 -7.557017e-02 -5.530824e-01 -5.607988e-01 1.988883e-01 -1.765679e-01 -5.260653e-01 5.803626e-02 -5.043406e-01 -1.488574e-01 -4.764119e-01 6.251645e-01 -5.598714e-01 2.630496e-02 -2.084822e-01 2.999302e-01 7.732657e-01 4.569980e-01 3.298291e-01 2.258710e-01 1.604062e-01 4.791225e-01 1.652791e-01 2.536234e-01 -4.123620e-01
<VARIANCE> 39
 3.715121e+01 5.485524e+01 4.045607e+01 5.092341e+01 6.358595e+01 6.323529e+01 5.524679e+01 7.674649e+01 9.019710e+01 8.033057e+01 7.194527e+01 4.179586e+01 2.565296e+01 1.605082e+00 2.644115e+00 3.075254e+00 4.144432e+00 6.413929e+00 2.922100e+00 3.051602e+00 3.533391e+00 3.200202e+00 3.108125e+00 3.085657e+00 2.685650e+00 1.252904e+00 2.498798e-01 5.093744e-01 3.848255e-01 6.098850e-01 7.364680e-01 4.974939e-01 5.598233e-01 7.575340e-01 6.310604e-01 6.626785e-01 5.926988e-01 4.128737e-01 1.609595e-01
<GCONST> 1.281785e+02
<TRANSP> 5
 0.000000e+00 1.000000e+00 0.000000e+00 0.000000e+00 0.000000e+00
 0.000000e+00 8.191901e-01 1.808098e-01 0.000000e+00 0.000000e+00
 0.000000e+00 0.000000e+00 4.067886e-01 5.932115e-01 0.000000e+00
 0.000000e+00 0.000000e+00 0.000000e+00 4.091041e-01 5.908959e-01
 0.000000e+00 0.000000e+00 0.000000e+00 0.000000e+00 0.000000e+00
<ENDHMM>
~h "l"
<BEGINHMM>
<NUMSTATES> 5
<STATE> 2
<MEAN> 39
 1.080825e+00 3.947784e+00 1.027061e+01 1.078281e+00 -5.687547e+00 -1.106328e+01 -1.524715e+01 -2.456497e+00 -1.620990e+00 -2.419578e+00 -2.197865e+00 -2.247864e+00 7.274644e+01 7.110710e-01 -6.900804e-01 5.902803e-01 -5.667191e-01 -9.772612e-01 -1.254938e+00 -1.786915e+00 -2.370709e-01 -2.845190e-01 -3.617240e-01 -1.409378e-01 -1.723385e-01 1.495224e+00 -2.846708e-01 -2.767412e-01 -2.536756e-01 -1.680051e-01 4.138874e-02 5.857677e-01 5.844076e-01 2.435040e-01 2.098394e-01 2.947129e-01 1.724590e-01 1.046841e-01 -1.024003e-01
<VARIANCE> 39
 2.523308e+01 5.277283e+01 3.369219e+01 6.963815e+01 4.575185e+01 6.310068e+01 7.840470e+01 3.166417e+01 5.740725e+01 5.117503e+01 3.745296e+01 4.368598e+01 3.556898e+01 1.814932e+00 2.456398e+00 2.473005e+00 2.955190e+00 3.432962e+00 6.533779e+00 7.708754e+00 3.570940e+00 3.386456e+00 4.027505e+00 3.175157e+00 2.274625e+00 2.002500e+00 2.299562e-01 3.822544e-01 3.048904e-01 4.295700e-01 6.836095e-01 8.454405e-01 1.079564e+00 6.912557e-01 5.776238e-01 5.964729e-01 6.007060e-01 4.237786e-01 2.185521e-01
<GCONST> 1.273081e+02
<STATE> 3
<MEAN> 39
 1.528735e+00 -7.013095e-01 1.134674e+01 -1.826215e+00 -9.313701e+00 -1.128744e+01 -1.773785e+01 -1.952902e+00 -1.964498e+00 -2.613088e+00 -1.696373e+00 -3.327128e+00 7.713824e+01 5.269426e-02 -7.656351e-01 -1.900181e-01 -7.610860e-01 -8.175473e-01 5.407163e-01 2.026053e-01 -1.193923e-01 1.304852e-01 4.811738e-01 -1.126925e-01 -1.949569e-01 7.256736e-01 -4.837880e-02 5.755724e-02 -2.000443e-01 -8.574087e-02 5.347024e-02 2.411103e-01 3.207213e-01 -6.753911e-02 2.373808e-02 2.992190e-02 -4.651096e-02 -1.008792e-02 -6.823689e-02
<VARIANCE> 39
 2.492932e+01 4.179746e+01 4.654236e+01 7.238252e+01 5.246997e+01 5.786610e+01 6.528500e+01 3.327843e+01 7.053757e+01 6.598335e+01 5.720325e+01 4.541794e+01 1.972835e+01 3.739454e-01 1.779762e+00 2.169831e+00 2.270436e+00 3.552976e+00 3.002500e+00 3.538657e+00 2.573705e+00 2.337520e+00 3.383807e+00 2.704562e+00 1.743629e+00 8.101510e-01 6.557984e-02 2.576115e-01 1.912501e-01 3.176537e-01 5.682226e-01 4.537091e-01 5.766428e-01 4.282187e-01 4.292653e-01 5.157468e-01 4.072612e-01 3.007735e-01 1.168594e-01
<GCONST> 1.155225e+02
<STATE> 4
<MEAN> 39
 4.890430e-01 -2.828815e+00 1.072838e+01 -6.671200e+00 -1.327608e+01 -8.593037e+00 -1.484686e+01 -3.215526e+00 -2.257603e+00 -7.182469e-01 -3.557176e+00 -3.526548e+00 7.955962e+01 -2.813355e-02 -6.133166e-02 -4.944812e-01 -4.673972e-01 -8.818397e-02 5.676274e-01 6.737727e-01 -2.424011e-01 -2.371317e-02 2.069521e-02 -1.133476e-01 -4.525598e-02 1.601392e-01 -3.209764e-02 1.925690e-01 -5.469780e-02 1.208371e-01 2.304685e-01 -3.486066e-02 1.266402e-01 -3.124812e-02 -7.672308e-02 -1.247643e-01 2.478854e-02 3.685070e-02 -1.533587e-01
<VARIANCE> 39
 2.974851e+01 3.484269e+01 7.030320e+01 7.785156e+01 5.539962e+01 6.475167e+01 5.686188e+01 5.021384e+01 6.307535e+01 9.514325e+01 7.739398e+01 4.134910e+01 1.567725e+01 2.983599e-01 1.445236e+00 1.628525e+00 2.083055e+00 2.527285e+00 2.321809e+00 2.645537e+00 2.089309e+00 1.989251e+00 2.527700e+00 2.472919e+00 1.538700e+00 6.493215e-01 4.480175e-02 1.811368e-01 1.667446e-01 2.514057e-01 3.656031e-01 3.117429e-01 4.380250e-01 3.715591e-01 3.611871e-01 4.696984e-01 4.499582e-01 2.760834e-01 7.632851e-02
<GCONST> 1.108668e+02
<TRANSP> 5
 0.000000e+00 1.000000e+00 0.000000e+00 0.000000e+00 0.000000e+00
 0.000000e+00 7.268649e-01 2.731351e-01 0.000000e+00 0.000000e+00
 0.000000e+00 0.000000e+00 6.961103e-01 3.038897e-01 0.000000e+00
 0.000000e+00 0.000000e+00 0.000000e+00 7.775488e-01 2.224512e-01
 0.000000e+00 0.000000e+00 0.000000e+00 0.000000e+00 0.000000e+00
<ENDHMM>
~h "m"
<BEGINHMM>
<NUMSTATES> 5
<STATE> 2
<MEAN> 39
 4.615640e+00 5.098875e+00 5.797397e+00 3.804078e+00 -4.194537e+00 -7.956687e+00 -8.472541e+00 -1.196854e+01 -9.656890e+00 -8.536450e-01 -1.449131e+00 -7.168159e+00 7.141078e+01 7.964687e-01 -4.893351e-01 6.027067e-02 2.775082e-01 -4.269525e-01 -9.328624e-01 -6.111397e-01 -1.087715e+00 -1.041702e+00 -1.830698e-01 3.984469e-02 -6.118440e-01 9.889852e-01 -3.020011e-01 -3.115081e-01 -2.664435e-01 -4.759049e-01 3.765683e-02 5.006185e-01 2.926992e-01 6.492766e-01 5.251882e-01 2.869903e-02 4.866755e-02 3.455822e-01 3.125471e-02
<VARIANCE> 39
 2.031016e+01 4.822771e+01 2.313911e+01 5.086304e+01 2.868306e+01 4.156075e+01 4.053559e+01 4.942674e+01 5.432143e+01 5.549640e+01 5.761623e+01 3.064982e+01 3.100869e+01 1.699624e+00 1.770494e+00 2.101567e+00 3.113031e+00 2.475606e+00 4.065747e+00 3.277365e+00 5.317726e+00 4.034825e+00 2.675568e+00 2.481634e+00 2.399151e+00 2.108665e+00 1.807117e-01 2.592037e-01 3.158964e-01 3.120668e-01 3.400485e-01 4.567463e-01 5.405360e-01 7.327043e-01 5.102047e-01 5.165439e-01 4.673023e-01 3.499314e-01 1.639041e-01
<GCONST> 1.191801e+02
<STATE> 3
<MEAN> 39
 5.298603e+00 2.087406e+00 4.173630e+00 1.272432e+00 -5.532556e+00 -8.022902e+00 -9.487350e+00 -1.166824e+01 -1.146872e+01 -2.721383e+00 -1.932522e+00 -8.048037e+00 7.434882e+01 2.990028e-02 -7.834647e-01 -5.817987e-01 -1.174428e+00 -1.962444e-01 6.876783e-01 7.964236e-02 7.965719e-01 5.086662e-01 -5.108142e-01 -1.534746e-01 1.724571e-01 7.353672e-01 -1.071692e-01 -7.944466e-02 -1.218130e-01 -3.866732e-01 -3.396068e-02 2.878509e-01 7.467014e-02 3.165984e-01 2.937073e-01 -1.219937e-01 -1.181354e-01 1.198233e-01 6.995992e-02
<VARIANCE> 39
 1.899499e+01 3.446048e+01 3.358973e+01 6.018831e+01 3.122589e+01 4.560889e+01 4.544054e+01 4.227797e+01 6.622566e+01 5.470001e+01 6.030150e+01 3.500459e+01 2.028599e+01 4.358983e-01 1.295528e+00 3.191032e+00 3.809923e+00 1.829583e+00 2.410510e+00 2.042287e+00 3.934760e+00 3.204784e+00 2.155609e+00 1.749297e+00 1.786339e+00 6.912352e-01 7.462863e-02 1.818423e-01 3.678473e-01 4.194598e-01 3.097356e-01 3.484547e-01 3.307812e-01 5.025949e-01 4.427096e-01 3.483693e-01 3.212016e-01 2.992964e-01 8.841673e-02
<GCONST> 1.108255e+02
<STATE> 4
<MEAN> 39
 3.923583e+00 -1.085324e+00 8.137517e-01 -7.985565e+00 -6.573264e+00 -3.653063e+00 -9.593178e+00 -7.407297e+00 -1.023021e+01 -6.575394e+00 -4.596470e+00 -8.268778e+00 7.724010e+01 -1.784752e-01 -1.658816e-01 -3.217056e-01 -7.924765e-01 -4.592166e-03 6.033890e-01 2.097861e-01 4.734557e-01 5.291688e-01 -3.440915e-01 -2.239819e-01 2.307091e-01 2.307985e-01 -4.236997e-02 1.344296e-01 9.360961e-02 2.311593e-01 4.724139e-02 -9.868863e-02 2.305667e-02 -1.261607e-01 -2.748213e-02 5.707846e-02 2.067805e-02 1.879890e-02 -1.348218e-01
<VARIANCE> 39
 2.284665e+01 4.142253e+01 9.393227e+01 6.751159e+01 6.415432e+01 4.944001e+01 5.939767e+01 3.884541e+01 7.859936e+01 4.993543e+01 6.400339e+01 3.780998e+01 2.178740e+01 3.743272e-01 1.604576e+00 2.611835e+00 3.172595e+00 2.040358e+00 2.270861e+00 1.917358e+00 2.812335e+00 2.587309e+00 1.937340e+00 1.602854e+00 1.619123e+00 7.773463e-01 5.480211e-02 1.628620e-01 3.002746e-01 4.318699e-01 2.944117e-01 3.464776e-01 2.972387e-01 4.324763e-01 3.813837e-01 2.880133e-01 2.488656e-01 2.557215e-01 6.466386e-02
<GCONST> 1.105779e+02
<TRANSP> 5
 0.000000e+00 1.000000e+00 0.000000e+00 0.000000e+00 0.000000e+00
 0.000000e+00 7.262185e-01 2.737815e-01 0.000000e+00 0.000000e+00
 0.000000e+00 0.000000e+00 7.143399e-01 2.856601e-01 0.000000e+00
 0.000000e+00 0.000000e+00 0.000000e+00 7.904642e-01 2.095359e-01
 0.000000e+00 0.000000e+00 0.000000e+00 0.000000e+00 0.000000e+00
<ENDHMM>
~h "n"
<BEGINHMM>
<NUMSTATES> 5
<STATE> 2
<MEAN> 39
 4.254628e+00 7.316722e+00 8.475738e+00 2.521267e+00 -8.843489e+00 -7.943426e+00 -5.479557e+00 -1.058891e+01 -7.887138e+00 6.740320e-01 -4.134305e+00 -5.307944e+00 7.121722e+01 5.536622e-01 -2.882006e-01 2.698025e-02 -4.449390e-02 -5.826564e-01 -7.145221e-01 -3.560885e-01 -7.291512e-01 -4.170670e-01 -1.339511e-01 -3.715183e-01 -2.249742e-01 8.075285e-01 -3.242965e-01 -3.590642e-01 -2.227975e-01 -2.253496e-01 2.930143e-01 2.308166e-01 1.429004e-01 6.582254e-01 4.259368e-01 -6.303462e-02 8.185896e-02 2.187666e-01 6.868512e-02
<VARIANCE> 39
 2.352751e+01 4.713275e+01 2.275140e+01 4.665324e+01 3.093182e+01 2.668409e+01 2.292670e+01 4.523613e+01 7.929069e+01 4.083644e+01 3.073881e+01 4.571451e+01 2.566269e+01 1.597316e+00 1.770956e+00 1.593992e+00 1.911794e+00 3.062794e+00 2.939942e+00 3.078867e+00 5.876561e+00 2.836451e+00 2.289188e+00 2.300911e+00 2.054857e+00 1.889348e+00 1.533274e-01 2.841996e-01 3.158885e-01 3.454698e-01 3.360351e-01 5.174858e-01 6.003709e-01 5.628790e-01 4.621717e-01 4.961602e-01 4.146448e-01 3.749096e-01 2.016714e-01
<GCONST> 1.160814e+02
<STATE> 3
<MEAN> 39
 3.017664e+00 2.974419e+00 6.174913e+00 -9.962761e-01 -9.118573e+00 -9.679720e+00 -6.920101e+00 -7.385321e+00 -8.500555e+00 -2.421293e+00 -6.271206e+00 -5.424267e+00 7.528706e+01 -3.313034e-01 -1.150824e+00 -6.582197e-01 -9.666305e-01 5.660909e-01 1.594570e-01 -3.412577e-01 1.539653e+00 7.630374e-01 -8.082950e-01 -4.463791e-01 4.986933e-02 1.009155e+00 -8.113538e-02 -3.179397e-01 -1.662634e-01 -2.424202e-01 8.931674e-02 2.954587e-01 3.545339e-02 1.708797e-01 3.073908e-01 -1.303019e-01 -1.021914e-01 2.037166e-02 1.602854e-01
<VARIANCE> 39
 2.183640e+01 2.882152e+01 3.112765e+01 6.652711e+01 3.767755e+01 3.214837e+01 2.395748e+01 4.832443e+01 9.830341e+01 4.068880e+01 4.063344e+01 4.268002e+01 1.741628e+01 4.564663e-01 2.298434e+00 2.330361e+00 2.805662e+00 2.064408e+00 2.725525e+00 2.579137e+00 4.259923e+00 3.731689e+00 3.591109e+00 2.914760e+00 1.463598e+00 1.152331e+00 7.882335e-02 2.292645e-01 2.861287e-01 3.944016e-01 3.314950e-01 5.137334e-01 4.994919e-01 8.123806e-01 4.509525e-01 4.939149e-01 4.586644e-01 2.505036e-01 1.347405e-01
<GCONST> 1.142215e+02
<STATE> 4
<MEAN> 39
 1.597149e+00 -5.073950e+00 2.459097e+00 -7.400118e+00 -7.940549e+00 -6.791798e+00 -8.317159e+00 -2.570535e+00 -5.623395e+00 -7.247312e+00 -9.429419e+00 -6.645958e+00 7.997656e+01 -1.442760e-01 -1.033211e+00 -6.345320e-01 -3.592218e-01 5.251675e-01 6.864910e-01 1.377958e-01 1.921488e-01 9.398798e-01 -4.924145e-01 -4.001958e-01 9.099666e-02 5.178133e-01 6.234872e-02 2.607613e-01 3.602527e-02 2.492227e-01 -4.709889e-02 -4.567797e-02 1.418356e-01 -3.312074e-01 -1.255861e-01 2.176098e-01 1.578640e-01 -2.537917e-02 -2.350028e-01
<VARIANCE> 39
 2.919961e+01 4.286425e+01 7.043831e+01 6.070119e+01 6.383866e+01 5.066046e+01 5.167656e+01 4.273380e+01 1.252788e+02 6.530608e+01 6.582881e+01 4.687456e+01 2.363906e+01 3.578078e-01 2.723215e+00 1.903144e+00 2.336890e+00 2.190383e+00 2.422371e+00 2.878905e+00 2.792876e+00 2.870995e+00 3.142583e+00 2.091599e+00 1.609290e+00 1.160755e+00 4.819578e-02 2.957488e-01 2.553291e-01 3.375214e-01 2.437700e-01 3.666539e-01 4.536411e-01 5.667070e-01 4.260567e-01 5.065763e-01 3.168277e-01 2.688650e-01 9.517371e-02
<GCONST> 1.151173e+02
<TRANSP> 5
 0.000000e+00 1.000000e+00 0.000000e+00 0.000000e+00 0.000000e+00
 0.000000e+00 8.069339e-01 1.930662e-01 0.000000e+00 0.000000e+00
 0.000000e+00 0.000000e+00 7.128328e-01 2.871671e-01 0.000000e+00
 0.000000e+00 0.000000e+00 0.000000e+00 8.134263e-01 1.865737e-01
 0.000000e+00 0.000000e+00 0.000000e+00 0.000000e+00 0.000000e+00
<ENDHMM>
~h "o"
<BEGINHMM>
<NUMSTATES> 5
<STATE> 2
<MEAN> 39
 5.042318e+00 3.984704e+00 -1.753984e+00 -1.549756e+01 -7.821262e+00 -8.390599e-02 -1.065246e+01 -1.091701e+01 -4.120910e+00 3.032062e+00 -5.678979e-01 -4.500898e-01 7.685394e+01 3.922975e-01 1.945396e-01 -2.931605e-01 -1.091237e+00 -6.177381e-01 5.106864e-01 2.193132e-01 -3.817377e-01 -5.042430e-01 -2.077101e-01 1.058628e-01 3.626138e-01 4.485297e-02 -3.346959e-01 1.606862e-02 8.334408e-02 4.821939e-01 3.917173e-01 -8.969855e-02 2.567542e-01 4.218608e-01 1.574458e-01 -8.496406e-02 -6.444682e-02 1.961196e-02 -3.050892e-01
<VARIANCE> 39
 3.210146e+01 2.885975e+01 3.538982e+01 4.835607e+01 6.793033e+01 6.251517e+01 5.337240e+01 4.202303e+01 4.352811e+01 7.630826e+01 4.048468e+01 3.434845e+01 2.039595e+01 9.914867e-01 1.196887e+00 1.089793e+00 3.554977e+00 3.184850e+00 1.861920e+00 2.543440e+00 2.811446e+00 2.256963e+00 2.437138e+00 2.069233e+00 1.778898e+00 9.413258e-01 2.435002e-01 2.481533e-01 2.075381e-01 4.642985e-01 5.196815e-01 3.452515e-01 5.066730e-01 5.768679e-01 4.410627e-01 5.433699e-01 4.125673e-01 3.471004e-01 1.191383e-01
<GCONST> 1.150107e+02
<STATE> 3
<MEAN> 39
 5.848773e+00 5.254397e+00 -2.190985e+00 -1.674610e+01 -9.109262e+00 1.106447e+00 -8.878086e+00 -1.012762e+01 -5.334808e+00 1.303599e+00 -7.467092e-01 5.598225e-01 7.542941e+01 -1.141888e-01 3.743385e-01 -3.724212e-02 2.441626e-01 1.866434e-01 7.297649e-02 5.656452e-01 4.086144e-01 -1.199134e-01 -2.580055e-01 2.395196e-02 1.568740e-01 -6.860994e-01 -1.701059e-01 1.661208e-02 6.449183e-02 3.702735e-01 2.082120e-01 -1.232062e-01 8.967757e-02 2.002607e-01 1.281317e-01 6.827902e-02 5.656161e-02 -4.562586e-02 -1.927998e-01
<VARIANCE> 39
 2.952611e+01 2.568097e+01 3.542194e+01 4.319041e+01 6.039849e+01 4.995719e+01 4.036472e+01 3.810245e+01 4.194774e+01 5.940282e+01 3.441429e+01 3.592881e+01 1.932224e+01 4.471737e-01 9.002128e-01 7.958011e-01 2.382679e+00 2.129405e+00 1.415331e+00 1.970844e+00 1.897802e+00 1.766633e+00 2.005492e+00 1.852655e+00 1.640586e+00 8.561757e-01 8.513053e-02 1.356952e-01 1.523825e-01 3.051699e-01 3.355153e-01 2.427561e-01 3.227832e-01 3.477108e-01 3.478978e-01 3.576781e-01 3.399107e-01 3.076369e-01 8.366748e-02
<GCONST> 1.042203e+02
<STATE> 4
<MEAN> 39
 3.314054e+00 7.400265e+00 -1.917493e+00 -1.229668e+01 -7.071425e+00 6.023195e-01 -4.818063e+00 -5.820762e+00 -3.791726e+00 1.953473e+00 2.107961e+00 2.410923e+00 6.948598e+01 -8.461894e-01 4.700746e-02 9.821328e-02 1.016358e+00 5.280065e-01 -1.550154e-01 7.019053e-01 9.488944e-01 6.202182e-01 4.082136e-01 6.546410e-01 3.214715e-01 -1.020197e+00 -1.016248e-01 -1.490117e-01 4.374844e-02 6.808792e-02 2.895330e-02 -3.469497e-02 -5.291829e-02 3.118112e-02 1.126239e-01 8.846347e-02 3.195144e-04 -5.263402e-03 9.885632e-02
<VARIANCE> 39
 2.905036e+01 3.280744e+01 2.364492e+01 4.855254e+01 3.854739e+01 3.293953e+01 3.746407e+01 4.400584e+01 3.950885e+01 4.595222e+01 3.967558e+01 3.492055e+01 3.061101e+01 9.847950e-01 9.375601e-01 1.079892e+00 2.002539e+00 1.836658e+00 1.603284e+00 1.903890e+00 2.389298e+00 2.628007e+00 2.524087e+00 2.496816e+00 2.143437e+00 8.104565e-01 1.211299e-01 1.572998e-01 1.865581e-01 3.396652e-01 3.266668e-01 2.940153e-01 3.334622e-01 3.890037e-01 4.256642e-01 4.553268e-01 4.626973e-01 3.832991e-01 1.271762e-01
<GCONST> 1.084047e+02
<TRANSP> 5
 0.000000e+00 1.000000e+00 0.000000e+00 0.000000e+00 0.000000e+00
 0.000000e+00 6.503210e-01 3.496790e-01 0.000000e+00 0.000000e+00
 0.000000e+00 0.000000e+00 7.152225e-01 2.847775e-01 0.000000e+00
 0.000000e+00 0.000000e+00 0.000000e+00 8.245473e-01 1.754527e-01
 0.000000e+00 0.000000e+00 0.000000e+00 0.000000e+00 0.000000e+00
<ENDHMM>
~h "p"
<BEGINHMM>
<NUMSTATES> 5
<STATE> 2
<MEAN> 39
 -5.886755e+00 1.617183e+00 4.683158e+00 3.654861e-01 -1.880226e+00 -2.436699e+00 -1.301519e+00 2.500062e+00 3.373086e+00 3.756496e+00 1.441435e+00 2.482908e+00 6.819224e+01 5.415323e-01 -6.237489e-01 1.577787e+00 -7.777978e-02 -1.312940e+00 -1.724775e+00 -1.416548e+00 -9.050132e-01 -9.270885e-01 -8.472112e-01 -9.566275e-01 -3.515279e-01 2.259718e+00 4.464007e-01 1.689960e-01 2.563562e-01 -3.146587e-01 -5.379882e-01 -1.079934e-01 -4.076626e-01 -5.004012e-01 -3.941757e-01 -2.673912e-01 -1.084380e-01 -2.226301e-01 1.999539e-01
<VARIANCE> 39
 3.444952e+01 3.506562e+01 4.392218e+01 3.649114e+01 3.818713e+01 4.809435e+01 4.164630e+01 3.933536e+01 3.926043e+01 3.306911e+01 3.249987e+01 3.079457e+01 5.170247e+01 4.470059e+00 4.091731e+00 5.218164e+00 4.316422e+00 6.913446e+00 6.400765e+00 5.479705e+00 5.488911e+00 5.227000e+00 4.276972e+00 3.768352e+00 3.278688e+00 3.723126e+00 4.991413e-01 7.184498e-01 6.309040e-01 6.565977e-01 9.192519e-01 1.050579e+00 8.196514e-01 8.017100e-01 7.574282e-01 6.919488e-01 7.120600e-01 5.383333e-01 6.133971e-01
<GCONST> 1.347884e+02
<STATE> 3
<MEAN> 39
 -2.064379e+00 6.528993e-01 1.009927e+01 -1.817716e+00 -9.066656e+00 -8.718777e+00 -8.355074e+00 -3.543929e+00 -1.958190e+00 -4.252470e-02 -2.393528e+00 -3.624333e-01 7.582421e+01 1.558979e+00 1.869931e-02 1.588448e+00 -1.502392e+00 -2.720588e+00 -1.144842e+00 -2.181565e+00 -2.004839e+00 -1.465362e+00 -1.086228e+00 -7.341410e-01 -7.467014e-01 2.065514e+00 -2.667022e-01 5.353662e-02 -4.117217e-01 -2.079725e-01 3.327806e-01 6.436594e-01 4.153112e-01 2.962180e-01 3.407337e-01 2.003919e-01 3.411581e-01 1.298295e-01 -5.104871e-01
<VARIANCE> 39
 5.585005e+01 3.768225e+01 7.677885e+01 5.848998e+01 5.970404e+01 7.025605e+01 5.364502e+01 4.093041e+01 4.648267e+01 3.838913e+01 3.453459e+01 2.855915e+01 3.032230e+01 2.613259e+00 4.026333e+00 5.124479e+00 5.131845e+00 6.177172e+00 6.932495e+00 5.148340e+00 4.690734e+00 4.389062e+00 4.847967e+00 4.728508e+00 3.634525e+00 1.896610e+00 5.930300e-01 5.414517e-01 4.828243e-01 6.404720e-01 9.729850e-01 8.675640e-01 8.652995e-01 7.816747e-01 6.828961e-01 5.864118e-01 5.440995e-01 4.487038e-01 3.301410e-01
<GCONST> 1.343699e+02
<STATE> 4
<MEAN> 39
 -8.785756e-01 2.029620e-01 1.155174e+01 -4.484256e+00 -1.202729e+01 -8.988832e+00 -1.026903e+01 -5.287173e+00 -2.927302e+00 -9.553532e-01 -2.705041e+00 -9.346409e-01 7.803510e+01 6.444141e-01 -4.697414e-02 6.419954e-01 -1.369724e+00 -1.465446e+00 -1.270555e-01 -1.054346e+00 -9.887885e-01 -5.932308e-01 -6.268470e-01 -1.850561e-01 -3.503751e-01 1.162776e+00 -4.858458e-01 4.039151e-02 -4.754300e-01 2.295418e-01 7.243273e-01 4.942978e-01 6.424278e-01 5.570784e-01 3.909356e-01 2.481134e-01 2.706944e-01 1.966748e-01 -6.047052e-01
<VARIANCE> 39
 5.058036e+01 4.508735e+01 1.006424e+02 7.269015e+01 6.391104e+01 8.484414e+01 5.494372e+01 3.664423e+01 5.019556e+01 5.230969e+01 4.812409e+01 3.395540e+01 2.720047e+01 2.087650e+00 3.083729e+00 3.165038e+00 3.728212e+00 4.379406e+00 4.144019e+00 4.188748e+00 3.375455e+00 3.379786e+00 3.736038e+00 3.382971e+00 2.772503e+00 1.409354e+00 3.393464e-01 4.286452e-01 4.342173e-01 6.022558e-01 7.527112e-01 7.874562e-01 6.549316e-01 5.663987e-01 5.206223e-01 5.420809e-01 5.221467e-01 3.913925e-01 2.271981e-01
<GCONST> 1.289648e+02
<TRANSP> 5
 0.000000e+00 1.000000e+00 0.000000e+00 0.000000e+00 0.000000e+00
 0.000000e+00 7.365167e-01 2.634834e-01 0.000000e+00 0.000000e+00
 0.000000e+00 0.000000e+00 2.719544e-01 7.280456e-01 0.000000e+00
 0.000000e+00 0.000000e+00 0.000000e+00 1.649209e-01 8.350791e-01
 0.000000e+00 0.000000e+00 0.000000e+00 0.000000e+00 0.000000e+00
<ENDHMM>
~h "s"
<BEGINHMM>
<NUMSTATES> 5
<STATE> 2
<MEAN> 39
 -1.885034e+01 5.583735e+00 8.702575e-01 -3.273746e+00 2.380484e+00 -4.425516e+00 1.015349e+00 3.623327e+00 4.699146e+00 5.065202e+00 2.660813e+00 2.908866e+00 7.480051e+01 -4.452815e-01 -6.061030e-02 -6.560408e-02 -6.012443e-02 9.248999e-02 1.263435e-01 1.011246e-01 1.524582e-01 2.456349e-01 2.366654e-01 1.904195e-01 1.689271e-01 1.788227e-02 4.704182e-01 -5.715518e-02 1.629505e-01 -9.393550e-03 -1.830853e-01 -8.199604e-02 -2.535447e-01 -2.265446e-01 -1.831649e-01 -1.825747e-01 -1.836978e-01 -1.640834e-01 -1.638228e-02
<VARIANCE> 39
 3.673593e+01 1.627642e+01 3.576372e+01 3.037510e+01 3.216994e+01 3.924833e+01 4.305356e+01 3.864608e+01 3.138978e+01 3.069566e+01 3.093654e+01 3.359398e+01 2.386426e+01 2.223341e+00 8.070455e-01 1.312453e+00 1.093622e+00 1.494270e+00 1.666611e+00 2.106135e+00 2.182781e+00 2.080909e+00 2.176431e+00 2.182513e+00 1.773650e+00 4.727123e-01 2.434378e-01 1.582560e-01 2.090848e-01 2.378048e-01 3.265107e-01 3.821192e-01 4.618159e-01 4.463628e-01 4.358988e-01 4.223450e-01 4.125219e-01 3.420894e-01 6.978689e-02
<GCONST> 1.058759e+02
<STATE> 3
<MEAN> 39
 -1.639463e+01 4.103973e+00 3.167092e+00 -3.156232e+00 2.406894e+00 -3.573190e+00 -1.610305e-01 2.927141e+00 4.629062e+00 4.681972e+00 1.577891e+00 2.315965e+00 7.343685e+01 3.579792e+00 1.466473e-01 1.255189e+00 -2.883756e-01 -1.576605e+00 -1.276587e+00 -2.512791e+00 -2.239484e+00 -1.792070e+00 -1.547784e+00 -1.633419e+00 -1.558660e+00 4.983773e-01 8.436151e-01 -8.681072e-02 8.297980e-02 -2.651238e-01 -7.433406e-01 -3.660067e-01 -7.340446e-01 -5.619322e-01 -4.788164e-01 -3.356869e-01 -2.101925e-01 -2.915308e-01 4.664048e-01
<VARIANCE> 39
 5.219775e+01 1.670451e+01 3.663332e+01 3.100130e+01 3.072557e+01 4.444615e+01 5.199448e+01 4.074024e+01 3.778004e+01 3.254292e+01 3.189941e+01 3.713999e+01 2.434505e+01 3.436405e+00 1.690788e+00 3.047518e+00 3.023800e+00 3.676641e+00 5.156699e+00 4.590982e+00 3.964528e+00 3.436397e+00 3.205831e+00 3.007345e+00 2.708588e+00 1.031138e+00 4.118133e-01 3.277114e-01 4.376323e-01 4.894647e-01 4.930238e-01 7.694910e-01 7.980522e-01 6.525900e-01 6.133161e-01 5.923131e-01 5.937765e-01 4.987164e-01 1.287492e-01
<GCONST> 1.226517e+02
<STATE> 4
<MEAN> 39
 -4.346578e+00 4.607512e+00 5.802804e+00 -4.899951e+00 -4.264928e+00 -8.598467e+00 -9.398947e+00 -4.838529e+00 -1.394855e+00 -1.147509e-03 -3.319196e+00 -2.657486e+00 7.635419e+01 3.897141e+00 -9.060549e-01 8.184844e-01 -1.297872e+00 -3.009328e+00 -1.255548e+00 -2.980402e+00 -2.203449e+00 -1.815790e+00 -1.423583e+00 -1.066288e+00 -1.361320e+00 1.682215e+00 -7.775384e-01 -3.427036e-01 -2.511340e-01 -1.352164e-01 1.039468e-01 5.129899e-01 6.677276e-01 6.003935e-01 3.607396e-01 2.882766e-01 5.740361e-01 4.535005e-01 4.615154e-02
<VARIANCE> 39
 7.460939e+01 2.787743e+01 6.749297e+01 4.179823e+01 6.281052e+01 8.391762e+01 5.344501e+01 4.292367e+01 3.889481e+01 4.028543e+01 3.245393e+01 3.655256e+01 3.118677e+01 2.534266e+00 3.491216e+00 5.643914e+00 5.193329e+00 4.741043e+00 7.745605e+00 6.409885e+00 5.067963e+00 4.636826e+00 5.031655e+00 4.805042e+00 3.356966e+00 9.807119e-01 6.077639e-01 3.085007e-01 2.799137e-01 4.257860e-01 7.960188e-01 7.822441e-01 9.484452e-01 6.523196e-01 5.380452e-01 5.951003e-01 5.306040e-01 4.756086e-01 2.290323e-01
<GCONST> 1.312543e+02
<TRANSP> 5
 0.000000e+00 1.000000e+00 0.000000e+00 0.000000e+00 0.000000e+00
 0.000000e+00 8.882237e-01 1.117763e-01 0.000000e+00 0.000000e+00
 0.000000e+00 0.000000e+00 4.777262e-01 5.222738e-01 0.000000e+00
 0.000000e+00 0.000000e+00 0.000000e+00 5.290550e-01 4.709450e-01
 0.000000e+00 0.000000e+00 0.000000e+00 0.000000e+00 0.000000e+00
<ENDHMM>
~h "t"
<BEGINHMM>
<NUMSTATES> 5
<STATE> 2
<MEAN> 39
 -8.626299e+00 3.516844e+00 1.147431e+00 -3.647097e+00 3.463557e-01 -2.715528e+00 -1.993205e+00 2.199020e+00 4.281263e+00 3.869333e+00 1.902308e+00 2.002460e+00 7.120428e+01 7.443302e-01 -8.341390e-01 2.147294e-01 -9.262518e-01 -8.019147e-01 -1.225365e+00 -1.484573e+00 -7.070137e-01 -1.969239e-01 -8.581737e-01 -1.310244e+00 -9.681757e-01 2.338627e+00 6.564009e-01 -2.181023e-01 1.255682e-01 -1.384099e-01 -3.754107e-01 6.780313e-02 -2.698459e-01 -3.027953e-01 -1.738022e-01 -2.207411e-01 -2.820506e-01 -3.568457e-01 6.716204e-02
<VARIANCE> 39
 5.320764e+01 2.468484e+01 3.254186e+01 3.586062e+01 4.544199e+01 5.104749e+01 4.731198e+01 4.036395e+01 3.460134e+01 3.613300e+01 3.813031e+01 3.987267e+01 4.863560e+01 6.272062e+00 3.121851e+00 3.797610e+00 4.103845e+00 5.953698e+00 5.998647e+00 5.640436e+00 4.809226e+00 4.753258e+00 4.294317e+00 5.275365e+00 4.924594e+00 4.165883e+00 7.094675e-01 5.281464e-01 5.504935e-01 6.530424e-01 8.332228e-01 1.126773e+00 9.910991e-01 7.822147e-01 6.969957e-01 7.123730e-01 8.506871e-01 6.938279e-01 5.969097e-01
<GCONST> 1.357973e+02
<STATE> 3
<MEAN> 39
 -3.125222e+00 -8.212513e-02 2.197410e+00 -7.406329e+00 -3.960989e+00 -5.964027e+00 -8.431212e+00 -1.594551e+00 2.936852e+00 3.891622e-01 -3.651144e+00 -3.005563e+00 7.820745e+01 2.287639e+00 -1.477731e+00 2.933330e-01 -1.108028e+00 -1.432973e+00 -1.813568e-01 -1.376425e+00 -1.219888e+00 -5.211427e-01 -9.616850e-01 -1.428117e+00 -1.430967e+00 1.773395e+00 -2.726120e-01 5.931708e-02 -1.315451e-01 2.531179e-01 2.472676e-01 5.391682e-01 6.307989e-01 1.506662e-01 -6.788248e-02 1.917021e-01 4.977151e-01 3.400218e-01 -5.282106e-01
<VARIANCE> 39
 7.294317e+01 4.203117e+01 5.666111e+01 4.159819e+01 6.872009e+01 7.913129e+01 5.277505e+01 4.691435e+01 6.126304e+01 4.791750e+01 5.279216e+01 6.151284e+01 3.325202e+01 3.223721e+00 4.416062e+00 4.993708e+00 4.614640e+00 7.394482e+00 7.227608e+00 5.770504e+00 5.387401e+00 5.703492e+00 4.597104e+00 6.026288e+00 4.320761e+00 1.819040e+00 7.752701e-01 4.601445e-01 4.470589e-01 5.957608e-01 9.938285e-01 1.000343e+00 9.899911e-01 7.692859e-01 6.691374e-01 7.374780e-01 7.414320e-01 6.599532e-01 3.689449e-01
<GCONST> 1.387432e+02
<STATE> 4
<MEAN> 39
 -2.094354e+00 -1.686976e+00 2.057880e+00 -8.257696e+00 -4.446791e+00 -4.849806e+00 -8.216302e+00 -2.608529e+00 2.587182e+00 1.219103e-01 -4.016451e+00 -3.559261e+00 7.940376e+01 1.103444e+00 -9.576680e-01 8.000295e-02 -5.439079e-01 -7.571236e-01 4.180183e-01 -1.158043e-01 -7.270925e-01 -5.933506e-01 -5.782943e-01 -3.568555e-01 -5.309604e-01 8.863735e-01 -5.097720e-01 3.128136e-01 -9.556201e-02 3.174753e-01 3.055155e-01 2.111134e-01 5.067116e-01 2.347326e-01 -5.531923e-02 1.778323e-01 4.817020e-01 4.338651e-01 -5.017132e-01
<VARIANCE> 39
 7.253424e+01 5.267329e+01 7.744682e+01 4.736679e+01 8.209831e+01 8.797752e+01 5.033711e+01 5.232931e+01 7.901288e+01 5.997747e+01 6.425498e+01 6.309106e+01 3.352225e+01 2.617553e+00 3.273048e+00 4.065852e+00 3.084296e+00 6.135485e+00 4.816420e+00 4.917216e+00 4.029189e+00 3.488923e+00 3.898770e+00 3.585936e+00 2.638451e+00 1.312772e+00 5.270315e-01 4.760375e-01 4.104591e-01 5.262519e-01 8.798491e-01 8.711816e-01 8.115675e-01 7.265674e-01 7.491963e-01 6.668974e-01 7.831047e-01 5.593112e-01 2.747317e-01
<GCONST> 1.348356e+02
<TRANSP> 5
 0.000000e+00 1.000000e+00 0.000000e+00 0.000000e+00 0.000000e+00
 0.000000e+00 7.473356e-01 2.526645e-01 0.000000e+00 0.000000e+00
 0.000000e+00 0.000000e+00 2.962632e-01 7.037368e-01 0.000000e+00
 0.000000e+00 0.000000e+00 0.000000e+00 2.094426e-01 7.905574e-01
 0.000000e+00 0.000000e+00 0.000000e+00 0.000000e+00 0.000000e+00
<ENDHMM>
~h "u"
<BEGINHMM>
<NUMSTATES> 5
<STATE> 2
<MEAN> 39
 4.448838e+00 8.028214e+00 1.710363e+00 -8.952723e+00 -6.758424e+00 -3.941636e+00 -1.050834e+01 -1.006477e+01 -8.822518e+00 -1.969111e+00 -5.674790e+00 -3.327815e+00 7.331573e+01 3.605400e-02 7.102713e-04 2.763374e-01 3.075934e-01 -6.002377e-02 -1.836889e-01 -3.990746e-01 -2.653074e-01 -2.667785e-01 -2.001043e-01 3.874545e-02 -2.167763e-01 -4.509661e-02 -2.658615e-01 -3.788446e-02 9.542382e-02 2.884986e-01 2.429479e-01 -5.012784e-02 1.317827e-01 3.490853e-01 3.309486e-01 6.741738e-02 5.200282e-03 1.873910e-02 -1.076661e-01
<VARIANCE> 39
 2.787399e+01 3.195471e+01 3.202013e+01 4.736329e+01 4.830702e+01 5.671960e+01 5.624315e+01 6.042488e+01 3.800484e+01 5.721058e+01 4.719049e+01 2.912940e+01 1.918399e+01 1.189153e+00 1.714368e+00 1.505960e+00 2.954049e+00 3.231483e+00 2.409280e+00 3.731841e+00 3.874754e+00 3.802032e+00 2.950506e+00 2.512087e+00 2.064878e+00 5.904846e-01 2.243299e-01 3.191313e-01 2.417241e-01 4.242852e-01 4.865376e-01 4.115635e-01 7.131101e-01 8.644655e-01 6.797919e-01 6.190187e-01 5.088588e-01 4.228377e-01 9.183715e-02
<GCONST> 1.183743e+02
<STATE> 3
<MEAN> 39
 3.595574e+00 8.617970e+00 4.260964e+00 -5.160601e+00 -6.143032e+00 -5.082594e+00 -1.091599e+01 -8.791689e+00 -7.613277e+00 -2.979285e+00 -5.604844e+00 -4.590510e+00 7.192696e+01 -8.622655e-01 4.316358e-01 6.177804e-01 1.060706e+00 6.303794e-01 -2.285637e-01 5.480722e-01 1.008362e+00 7.247973e-01 -7.205889e-02 1.496752e-01 -5.529982e-02 -6.739150e-01 -2.391951e-01 2.646992e-02 -2.504176e-02 -4.215666e-02 3.687916e-02 4.360166e-02 2.502686e-01 2.328430e-01 1.800341e-01 1.130658e-01 1.281110e-01 1.804445e-01 -7.394264e-02
<VARIANCE> 39
 2.874699e+01 3.672821e+01 3.308186e+01 4.099399e+01 3.751958e+01 5.270650e+01 5.078451e+01 4.738984e+01 3.281276e+01 4.022527e+01 4.375257e+01 2.585062e+01 2.320505e+01 1.371722e+00 2.028893e+00 1.665102e+00 2.181829e+00 2.596673e+00 2.020352e+00 3.568192e+00 4.470995e+00 2.973382e+00 3.224852e+00 2.651977e+00 2.220352e+00 7.943034e-01 1.283202e-01 3.362961e-01 2.943144e-01 3.837217e-01 4.216255e-01 4.150515e-01 6.358548e-01 6.860303e-01 5.481706e-01 5.577511e-01 4.792197e-01 4.148033e-01 1.223824e-01
<GCONST> 1.163342e+02
<STATE> 4
<MEAN> 39
 -6.355698e-01 1.002212e+01 5.857882e+00 -2.308818e+00 -4.431412e+00 -5.044401e+00 -7.303174e+00 -4.237466e+00 -3.861015e+00 -2.029063e+00 -3.470978e+00 -2.974818e+00 6.865612e+01 -1.373730e+00 -8.601404e-02 1.406249e-01 5.766606e-01 4.949225e-01 1.330519e-01 8.927519e-01 1.139807e+00 9.904118e-01 5.174849e-01 7.477297e-01 6.522420e-01 -6.120099e-01 -2.512984e-02 -2.484547e-01 -8.848520e-02 -1.242531e-01 -1.300259e-01 2.746954e-02 -1.279787e-02 -1.290678e-01 -5.934566e-02 1.125466e-01 6.465359e-02 1.155694e-01 2.042325e-01
<VARIANCE> 39
 4.027750e+01 4.408465e+01 2.954208e+01 3.246904e+01 2.934682e+01 3.805603e+01 4.224426e+01 3.450774e+01 2.952305e+01 3.214918e+01 3.504498e+01 2.990570e+01 4.424039e+01 1.431075e+00 1.953354e+00 1.389421e+00 1.693620e+00 1.851374e+00 1.898665e+00 2.613382e+00 3.346316e+00 2.431854e+00 2.824330e+00 2.758871e+00 2.044854e+00 9.154409e-01 1.846904e-01 3.020130e-01 3.096112e-01 3.818276e-01 4.145562e-01 3.960690e-01 4.707854e-01 5.419094e-01 4.428888e-01 5.291949e-01 5.121744e-01 4.164962e-01 1.390088e-01
<GCONST> 1.136427e+02
<TRANSP> 5
 0.000000e+00 1.000000e+00 0.000000e+00 0.000000e+00 0.000000e+00
 0.000000e+00 8.009598e-01 1.990402e-01 0.000000e+00 0.000000e+00
 0.000000e+00 0.000000e+00 6.684020e-01 3.315980e-01 0.000000e+00
 0.000000e+00 0.000000e+00 0.000000e+00 7.039329e-01 2.960671e-01
 0.000000e+00 0.000000e+00 0.000000e+00 0.000000e+00 0.000000e+00
<ENDHMM>
~h "v"
<BEGINHMM>
<NUMSTATES> 5
<STATE> 2
<MEAN> 39
 -7.589899e-01 5.294571e+00 8.310738e+00 4.264680e+00 -3.323158e+00 -9.664219e+00 -9.318810e+00 -3.772735e+00 -6.318221e-01 7.251233e-03 -4.170472e+00 -1.131660e+00 7.284035e+01 1.352299e-01 -3.346288e-01 3.595540e-01 -1.153063e-01 -5.693592e-01 -7.301700e-01 -3.728421e-01 -4.052520e-01 -1.937449e-01 -1.671284e-01 2.078925e-02 1.299980e-01 8.290457e-01 -7.645358e-02 -2.515755e-01 1.177024e-02 -2.035034e-01 -1.888862e-01 1.437666e-01 1.764382e-01 9.504269e-02 7.894630e-02 4.979115e-02 1.773017e-01 9.640300e-02 2.239210e-02
<VARIANCE> 39
 2.993872e+01 2.832303e+01 2.225166e+01 2.719088e+01 2.862594e+01 4.041191e+01 2.794822e+01 1.926079e+01 2.780452e+01 2.535967e+01 2.163620e+01 2.383227e+01 2.920019e+01 1.871867e+00 2.288424e+00 1.233407e+00 1.538155e+00 3.409118e+00 3.853063e+00 2.722254e+00 1.534744e+00 1.608540e+00 1.876493e+00 1.835381e+00 1.665718e+00 1.486444e+00 3.918547e-01 3.300597e-01 2.099582e-01 2.438657e-01 6.065046e-01 6.816124e-01 5.899111e-01 3.000683e-01 3.209657e-01 3.744521e-01 3.244401e-01 3.056306e-01 2.092102e-01
<GCONST> 1.094377e+02
<STATE> 3
<MEAN> 39
 -9.246521e-01 1.706065e+00 9.763843e+00 1.218854e+00 -8.243321e+00 -1.293157e+01 -1.024091e+01 -4.890368e+00 -1.419476e+00 -2.280498e-01 -3.601912e+00 1.755511e-01 7.720612e+01 2.463163e-01 -7.743167e-01 2.464643e-01 -9.507845e-01 -1.158550e+00 -1.536728e-01 -1.233315e-01 -1.968067e-01 -2.319104e-02 8.248515e-02 3.953923e-01 6.721665e-02 6.910074e-01 -2.007079e-02 2.303732e-02 -4.607697e-02 -1.912424e-01 -3.913573e-02 2.125713e-01 5.504714e-02 5.820220e-02 2.419788e-02 -4.443436e-02 1.099490e-03 -9.999870e-02 -2.145201e-02
<VARIANCE> 39
 3.266763e+01 2.408691e+01 3.690427e+01 4.741727e+01 4.283329e+01 4.959169e+01 3.098326e+01 2.052552e+01 3.130271e+01 2.686981e+01 2.513943e+01 2.118220e+01 2.433637e+01 8.881462e-01 1.814486e+00 1.473921e+00 2.223143e+00 3.921026e+00 2.277551e+00 1.775224e+00 1.462366e+00 1.430195e+00 2.466881e+00 1.474038e+00 1.189284e+00 8.872750e-01 1.666649e-01 2.661738e-01 1.694597e-01 2.385843e-01 4.475599e-01 3.504994e-01 2.871203e-01 2.472663e-01 2.478617e-01 3.000846e-01 2.692389e-01 2.240475e-01 1.089348e-01
<GCONST> 1.041984e+02
<STATE> 4
<MEAN> 39
 -7.029805e-01 -5.354406e-01 1.026676e+01 -6.134675e+00 -1.371351e+01 -1.243882e+01 -9.431127e+00 -4.948855e+00 -3.156544e+00 8.336252e-01 -3.104222e+00 -1.149473e+00 7.918027e+01 -1.718183e-02 -1.331033e-01 -7.243077e-02 -6.651741e-01 -3.255004e-01 3.911351e-01 2.615662e-01 -3.026710e-02 5.959371e-02 -9.371255e-02 9.722601e-02 -2.444737e-01 1.174165e-01 -2.788290e-02 1.614456e-01 -1.014840e-01 1.494576e-01 2.169037e-01 1.050156e-01 8.813556e-02 3.237146e-02 1.001511e-02 -8.766832e-02 -3.412095e-02 -3.767680e-02 -1.642436e-01
<VARIANCE> 39
 3.583015e+01 2.857020e+01 4.563868e+01 8.005735e+01 5.307824e+01 6.396917e+01 3.196656e+01 2.460063e+01 4.782291e+01 4.626871e+01 3.066404e+01 2.412457e+01 2.181404e+01 5.727344e-01 1.277344e+00 1.188750e+00 2.049771e+00 2.365694e+00 1.485929e+00 1.510448e+00 1.377847e+00 1.280819e+00 1.933828e+00 1.244897e+00 1.021980e+00 6.909593e-01 8.076663e-02 1.861552e-01 1.414131e-01 2.686512e-01 3.402824e-01 2.645217e-01 2.399265e-01 2.435756e-01 2.218366e-01 2.974992e-01 2.151532e-01 1.867574e-01 7.400350e-02
<GCONST> 1.010951e+02
<TRANSP> 5
 0.000000e+00 1.000000e+00 0.000000e+00 0.000000e+00 0.000000e+00
 0.000000e+00 7.968978e-01 2.031022e-01 0.000000e+00 0.000000e+00
 0.000000e+00 0.000000e+00 6.886220e-01 3.113780e-01 0.000000e+00
 0.000000e+00 0.000000e+00 0.000000e+00 7.910242e-01 2.089758e-01
 0.000000e+00 0.000000e+00 0.000000e+00 0.000000e+00 0.000000e+00
<ENDHMM>
~h "y"
<BEGINHMM>
<NUMSTATES> 5
<STATE> 2
<MEAN> 39
 -5.928744e-02 -1.200358e+00 1.263971e+01 8.157700e+00 -1.155495e+01 -1.667508e+01 -1.437281e+01 -3.598715e+00 -6.915075e+00 -3.324174e+00 -4.865910e+00 -5.615691e-01 7.655793e+01 5.340523e-01 -7.717344e-01 -3.573237e-01 -2.154114e-01 -9.456242e-01 -4.638069e-01 -1.138079e+00 -2.603233e-01 -1.556674e-01 2.211221e-01 -1.153327e-01 9.566706e-02 7.468342e-01 -1.647813e-01 9.612781e-02 -2.419413e-01 -2.506787e-01 3.529576e-01 5.185028e-01 3.237962e-01 -4.764188e-03 1.973112e-01 3.055084e-01 2.768479e-03 -1.669716e-01 -2.407221e-01
<VARIANCE> 39
 2.160134e+01 2.029864e+01 3.334295e+01 6.278217e+01 3.492033e+01 3.731201e+01 6.767870e+01 2.605580e+01 5.471411e+01 7.073370e+01 2.871346e+01 2.790219e+01 1.947123e+01 1.072698e+00 8.622046e-01 2.172711e+00 2.332777e+00 3.364393e+00 3.639115e+00 2.723658e+00 2.456194e+00 3.868730e+00 5.328551e+00 2.582440e+00 3.291865e+00 4.872600e-01 2.668503e-01 2.385339e-01 2.751449e-01 2.536620e-01 4.868894e-01 4.467513e-01 4.361383e-01 3.887834e-01 6.865185e-01 7.369977e-01 4.419086e-01 5.639468e-01 7.322672e-02
<GCONST> 1.149668e+02
<STATE> 3
<MEAN> 39
 8.188188e-01 -2.569134e+00 9.922532e+00 5.490973e+00 -1.224605e+01 -1.576277e+01 -1.424572e+01 -4.535306e+00 -7.225090e+00 -1.263954e+00 -6.293865e+00 -1.397842e+00 7.762417e+01 1.890207e-01 4.982576e-02 -7.594154e-01 -7.714218e-01 3.807470e-01 5.576086e-01 2.652693e-01 -5.385840e-01 3.681065e-01 4.944802e-01 5.361928e-02 6.569032e-02 -1.322208e-01 -1.193255e-01 2.783801e-01 3.687667e-03 -1.016987e-01 1.727726e-01 1.808028e-01 3.174757e-01 -3.552463e-03 3.636753e-02 -3.497560e-02 1.357679e-01 1.295809e-01 -2.156592e-01
<VARIANCE> 39
 2.173559e+01 2.703165e+01 5.150793e+01 8.166824e+01 3.199793e+01 5.332529e+01 6.394577e+01 4.162429e+01 8.296980e+01 9.627397e+01 4.013683e+01 3.238989e+01 2.153058e+01 3.450201e-01 1.113956e+00 1.322184e+00 2.008622e+00 1.716006e+00 2.430157e+00 3.298784e+00 2.740453e+00 2.764589e+00 3.738305e+00 2.471161e+00 2.196608e+00 5.533376e-01 7.674472e-02 1.464484e-01 1.668218e-01 2.742122e-01 2.882026e-01 4.056727e-01 4.533681e-01 4.863767e-01 4.782861e-01 6.883648e-01 4.336427e-01 4.125144e-01 4.134940e-02
<GCONST> 1.107882e+02
<STATE> 4
<MEAN> 39
 1.392242e-01 1.393016e+00 9.887563e+00 3.535863e+00 -1.097452e+01 -1.366561e+01 -9.184401e+00 -4.953833e+00 -6.523118e+00 -2.074987e+00 -2.755305e+00 2.041778e-01 7.275036e+01 -3.084272e-01 5.746115e-01 -6.745815e-01 -6.393897e-01 7.055169e-01 1.004632e+00 8.323946e-01 2.194868e-01 5.682273e-01 1.556794e-01 3.196488e-01 1.974644e-01 -8.438307e-01 -8.099417e-02 -4.244522e-02 6.380782e-03 2.116670e-02 4.134363e-02 1.099968e-01 2.175412e-02 1.395308e-01 1.104369e-01 -2.673369e-02 4.405375e-02 -1.901515e-03 -2.872634e-02
<VARIANCE> 39
 2.169509e+01 3.228086e+01 4.834088e+01 7.208480e+01 2.944128e+01 5.852020e+01 4.298336e+01 4.659465e+01 5.546292e+01 6.414148e+01 4.412796e+01 2.651930e+01 4.157886e+01 5.382047e-01 1.151459e+00 9.937521e-01 1.899978e+00 1.892463e+00 2.773097e+00 2.240790e+00 2.341476e+00 2.566563e+00 2.956877e+00 2.230921e+00 1.960821e+00 5.370594e-01 5.808800e-02 1.925815e-01 1.570695e-01 2.613613e-01 2.843382e-01 4.356185e-01 3.854773e-01 4.373288e-01 4.728122e-01 5.302779e-01 4.555252e-01 4.329085e-01 6.854098e-02
<GCONST> 1.095196e+02
<TRANSP> 5
 0.000000e+00 1.000000e+00 0.000000e+00 0.000000e+00 0.000000e+00
 0.000000e+00 7.651247e-01 2.348754e-01 0.000000e+00 0.000000e+00
 0.000000e+00 0.000000e+00 7.068405e-01 2.931595e-01 0.000000e+00
 0.000000e+00 0.000000e+00 0.000000e+00 8.317817e-01 1.682183e-01
 0.000000e+00 0.000000e+00 0.000000e+00 0.000000e+00 0.000000e+00
<ENDHMM>
~h "sil"
<BEGINHMM>
<NUMSTATES> 5
<STATE> 2
<MEAN> 39
 -5.507698e+00 5.121766e+00 1.709373e+00 -1.578351e-01 5.721045e-02 2.195146e+00 1.560709e+00 3.080387e+00 3.951310e+00 5.108019e+00 4.484749e+00 3.378700e+00 6.226911e+01 -3.832882e-01 -3.461732e-02 -1.084787e-01 1.250612e-01 2.642362e-01 1.040567e-01 2.003423e-01 3.698664e-01 3.508025e-01 3.341395e-01 3.097842e-01 2.588575e-01 -2.492057e-01 8.702087e-02 -5.891411e-03 5.818857e-02 -3.755693e-02 -5.238162e-02 -6.507523e-02 -1.085951e-01 -1.180358e-01 -1.062107e-01 -9.500681e-02 -1.113312e-01 -8.388468e-02 1.512757e-01
<VARIANCE> 39
 1.834486e+01 2.696341e+01 3.012285e+01 3.631289e+01 4.016909e+01 3.665950e+01 2.733976e+01 2.750641e+01 2.672921e+01 2.789138e+01 2.695253e+01 2.904852e+01 2.747036e+01 5.519252e-01 4.903000e-01 8.122147e-01 9.398474e-01 1.196431e+00 1.356123e+00 1.505032e+00 1.739799e+00 1.798977e+00 1.889449e+00 1.880773e+00 1.596428e+00 5.640019e-01 7.402737e-02 8.518215e-02 1.268401e-01 1.577484e-01 1.920942e-01 2.223565e-01 2.549535e-01 2.738040e-01 2.997957e-01 3.039737e-01 2.988170e-01 2.730910e-01 5.838512e-02
<GCONST> 9.447079e+01
<STATE> 3
<MEAN> 39
 -6.863380e+00 4.442450e+00 1.637134e+00 2.874901e-01 1.044725e+00 2.164351e+00 1.495102e+00 3.549463e+00 4.563386e+00 5.519293e+00 4.480319e+00 3.417577e+00 6.222854e+01 -2.312949e-02 2.877557e-02 1.170232e-01 5.252000e-02 1.481963e-01 -2.243332e-01 -2.426475e-01 -1.438276e-01 -1.330508e-01 -1.390727e-01 -2.670391e-01 -1.607747e-01 4.060056e-01 1.963710e-01 2.805567e-02 7.576250e-02 -6.807450e-02 -1.385165e-01 -2.154403e-01 -2.338904e-01 -2.284438e-01 -2.048844e-01 -1.830454e-01 -2.075269e-01 -1.614905e-01 2.899911e-01
<VARIANCE> 39
 1.573919e+01 2.547523e+01 2.566495e+01 3.364925e+01 3.541861e+01 3.462534e+01 2.798341e+01 2.786426e+01 2.730481e+01 2.888504e+01 2.804027e+01 2.989471e+01 2.967901e+01 1.312966e+00 1.031837e+00 1.230746e+00 1.446569e+00 1.546036e+00 2.073608e+00 2.158167e+00 2.377750e+00 2.456560e+00 2.503290e+00 2.367073e+00 2.102778e+00 1.157812e+00 2.066556e-01 1.773871e-01 2.108367e-01 2.470305e-01 2.846058e-01 3.954836e-01 4.070132e-01 4.238305e-01 4.445102e-01 4.385034e-01 3.972284e-01 3.569379e-01 1.812230e-01
<GCONST> 1.067445e+02
<STATE> 4
<MEAN> 39
 -5.891070e+00 4.829634e+00 2.498382e+00 2.310015e-01 1.048945e+00 1.340428e+00 9.859562e-02 2.191161e+00 3.609057e+00 4.441298e+00 2.792282e+00 2.219648e+00 6.403669e+01 4.810375e-01 5.751134e-02 2.214139e-01 -2.112520e-01 -2.976860e-01 -7.261445e-01 -7.526625e-01 -5.708105e-01 -4.589324e-01 -4.300115e-01 -5.803469e-01 -3.838582e-01 1.002672e+00 1.554547e-01 -4.473745e-02 1.281944e-02 -1.137799e-01 -1.817059e-01 -1.549699e-01 -1.369820e-01 -1.143519e-01 -9.496833e-02 -6.186572e-02 -5.179571e-02 -4.267281e-02 1.899666e-01
<VARIANCE> 39
 3.096369e+01 3.689940e+01 3.143267e+01 3.994260e+01 3.835376e+01 4.047673e+01 3.293039e+01 3.357468e+01 3.369645e+01 3.255511e+01 3.379859e+01 3.341175e+01 3.436407e+01 2.709477e+00 1.702961e+00 1.682938e+00 1.956344e+00 2.303370e+00 3.134829e+00 3.274788e+00 3.417855e+00 3.171443e+00 2.741654e+00 2.672167e+00 2.362720e+00 2.087527e+00 2.563915e-01 2.010829e-01 2.155905e-01 2.611644e-01 3.470438e-01 4.131485e-01 3.847743e-01 3.759410e-01 3.611857e-01 3.485999e-01 3.489729e-01 2.997577e-01 2.275494e-01
<GCONST> 1.141024e+02
<TRANSP> 5
 0.000000e+00 1.000000e+00 0.000000e+00 0.000000e+00 0.000000e+00
 0.000000e+00 7.383657e-01 2.616344e-01 0.000000e+00 0.000000e+00
 0.000000e+00 0.000000e+00 3.937372e-01 6.062628e-01 0.000000e+00
 0.000000e+00 0.000000e+00 0.000000e+00 3.283927e-01 6.716073e-01
 0.000000e+00 0.000000e+00 0.000000e+00 0.000000e+00 0.000000e+00
<ENDHMM>
