~o
<STREAMINFO> 1 39
<VECSIZE> 39<NULLD><MFCC_D_A_0><DIAGC>
~h "A"
<BEGINHMM>
<NUMSTATES> 5
<STATE> 2
<MEAN> 39
 1.962735e+00 1.495461e+00 -3.247430e+00 -7.819104e+00 -2.873396e+00 1.656415e-01 -3.208433e+00 -4.453378e+00 -4.750134e+00 -4.647800e+00 -2.436917e+00 -5.042177e+00 7.575198e+01 2.203041e-01 1.995127e-01 -1.463726e-01 -8.806891e-02 -2.726421e-02 2.188938e-01 3.008739e-01 5.950443e-02 -2.215812e-01 -2.024766e-01 -8.427345e-02 -6.457331e-02 -2.914525e-01 -1.084385e-01 4.059363e-02 7.780638e-02 6.904111e-02 2.037484e-02 -2.746570e-02 1.382551e-02 4.308546e-02 5.861849e-02 7.946157e-02 3.861981e-02 6.275900e-02 -7.542194e-02
<VARIANCE> 39
 7.952322e+01 3.858348e+01 4.151608e+01 5.256656e+01 3.967529e+01 5.320107e+01 5.554150e+01 5.643321e+01 8.677570e+01 6.852319e+01 4.338566e+01 4.613726e+01 3.971677e+01 2.980066e+00 1.578464e+00 2.258047e+00 2.772637e+00 1.966148e+00 2.725718e+00 3.152645e+00 3.608366e+00 3.335675e+00 2.994881e+00 2.494646e+00 2.426836e+00 1.213266e+00 3.445420e-01 2.202458e-01 3.156504e-01 3.853161e-01 3.251618e-01 4.581710e-01 5.491478e-01 6.222801e-01 4.988706e-01 4.587370e-01 4.581802e-01 4.225780e-01 1.391261e-01
<GCONST> 1.221099e+02
<STATE> 3
<MEAN> 39
 2.174222e+00 2.231558e+00 -3.357962e+00 -7.770099e+00 -2.844871e+00 6.677413e-01 -2.311942e+00 -4.143829e+00 -5.168650e+00 -4.932083e+00 -2.551237e+00 -5.001981e+00 7.466373e+01 -9.820160e-02 2.766389e-01 5.821681e-02 8.978465e-02 3.718474e-02 1.437013e-01 3.256502e-01 1.883533e-01 -1.952344e-02 4.992388e-02 4.119313e-02 1.268048e-01 -4.790823e-01 -1.046003e-01 4.447180e-03 5.877646e-02 4.826671e-02 2.033461e-02 -2.280165e-02 3.153468e-04 4.760259e-02 7.997088e-02 9.083562e-02 5.051702e-02 6.742426e-02 -4.974286e-02
<VARIANCE> 39
 6.473248e+01 4.063358e+01 3.705737e+01 4.964816e+01 3.871875e+01 4.773305e+01 5.466475e+01 5.552773e+01 8.074377e+01 6.469305e+01 4.139051e+01 4.332460e+01 4.620807e+01 2.561154e+00 1.541532e+00 2.081578e+00 2.468967e+00 1.925273e+00 2.612687e+00 2.999569e+00 3.445031e+00 3.300160e+00 2.911612e+00 2.481150e+00 2.375750e+00 1.250273e+00 2.880432e-01 2.241526e-01 3.062822e-01 3.600387e-01 3.227369e-01 4.419583e-01 5.238839e-01 5.970579e-01 4.902179e-01 4.431997e-01 4.494408e-01 4.130630e-01 1.432848e-01
<GCONST> 1.205085e+02
<STATE> 4
<MEAN> 39
 1.393031e+00 3.202535e+00 -2.851689e+00 -7.199917e+00 -2.555228e+00 1.022714e+00 -1.304682e+00 -3.254798e+00 -4.913696e+00 -4.436211e+00 -2.203746e+00 -4.277569e+00 7.286604e+01 -3.822620e-01 2.200219e-01 1.976417e-01 1.867407e-01 8.166913e-02 7.820913e-02 3.024451e-01 3.261933e-01 2.481893e-01 3.247536e-01 1.939606e-01 3.207927e-01 -5.597126e-01 -5.765073e-02 -3.748012e-02 2.531894e-02 1.134987e-02 1.245305e-03 -1.874442e-02 -1.858381e-02 3.223290e-02 7.194233e-02 6.621888e-02 4.193239e-02 4.492821e-02 1.588723e-03
<VARIANCE> 39
 5.742157e+01 4.111161e+01 3.646283e+01 4.917517e+01 4.004169e+01 4.617167e+01 5.494463e+01 5.703365e+01 7.473602e+01 6.121421e+01 3.981348e+01 4.295256e+01 5.419268e+01 2.170960e+00 1.566066e+00 1.894885e+00 2.191310e+00 2.024285e+00 2.552289e+00 2.953430e+00 3.331048e+00 3.304948e+00 2.830660e+00 2.534809e+00 2.350235e+00 1.403346e+00 2.625606e-01 2.317781e-01 2.980597e-01 3.447752e-01 3.399310e-01 4.365934e-01 5.100591e-01 5.797291e-01 5.005423e-01 4.470166e-01 4.539009e-01 4.159186e-01 1.584091e-01
<GCONST> 1.201006e+02
<TRANSP> 5
 0.000000e+00 1.000000e+00 0.000000e+00 0.000000e+00 0.000000e+00
 0.000000e+00 6.540710e-01 3.459291e-01 0.000000e+00 0.000000e+00
 0.000000e+00 0.000000e+00 6.540703e-01 3.459297e-01 0.000000e+00
 0.000000e+00 0.000000e+00 0.000000e+00 7.599236e-01 2.400763e-01
 0.000000e+00 0.000000e+00 0.000000e+00 0.000000e+00 0.000000e+00
<ENDHMM>
~h "E"
<BEGINHMM>
<NUMSTATES> 5
<STATE> 2
<MEAN> 39
 -4.785604e+00 -2.604544e+00 2.672666e+00 -4.169882e+00 -6.356659e+00 -9.320358e+00 -4.395695e+00 3.065500e+00 3.038593e+00 6.324629e-01 -2.298005e+00 -2.010350e+00 7.846973e+01 5.326328e-01 -4.592315e-01 -1.162945e-01 -1.152500e-01 1.383345e-01 1.570585e-01 -1.435425e-01 2.042373e-01 9.220553e-02 -1.631708e-01 -3.381422e-01 -2.008429e-01 1.439686e-01 -1.455752e-01 1.090710e-01 -3.266105e-02 3.708694e-02 1.393007e-01 9.138270e-02 7.900631e-02 2.799276e-02 2.651419e-02 7.566511e-02 7.090128e-02 6.302755e-02 -9.339923e-02
<VARIANCE> 39
 8.491191e+01 4.644193e+01 3.397420e+01 3.529043e+01 9.189654e+01 7.872504e+01 6.592058e+01 3.262093e+01 5.527338e+01 4.156335e+01 5.903271e+01 6.402141e+01 4.029554e+01 4.520555e+00 2.868926e+00 1.689443e+00 1.784179e+00 5.919621e+00 3.880194e+00 4.899823e+00 2.447048e+00 2.853497e+00 2.943581e+00 3.327139e+00 2.434693e+00 1.610716e+00 5.929465e-01 3.632273e-01 2.964089e-01 2.845382e-01 7.774291e-01 5.879479e-01 8.906201e-01 4.840767e-01 4.557335e-01 5.206513e-01 5.126240e-01 4.173139e-01 1.918622e-01
<GCONST> 1.269961e+02
<STATE> 3
<MEAN> 39
 -3.925489e+00 -3.418716e+00 2.286576e+00 -4.356974e+00 -5.507516e+00 -8.584854e+00 -4.425212e+00 3.720926e+00 3.384234e+00 4.885000e-01 -2.939979e+00 -2.303014e+00 7.849847e+01 1.124620e-01 -1.391272e-01 -1.782783e-01 -2.250948e-02 4.624890e-01 3.578168e-01 5.656123e-02 2.586684e-01 1.506704e-01 4.435975e-02 -1.293058e-01 -2.475036e-02 -1.045605e-01 -1.527831e-01 1.167755e-01 -1.434279e-02 3.090649e-02 1.035227e-01 5.489615e-02 6.370991e-02 1.407246e-02 2.059719e-02 7.604809e-02 7.863982e-02 6.061319e-02 -8.630987e-02
<VARIANCE> 39
 7.624477e+01 3.796220e+01 3.373230e+01 3.305554e+01 1.062018e+02 7.705785e+01 6.236583e+01 3.128806e+01 5.923175e+01 4.306330e+01 5.609740e+01 5.844418e+01 3.631474e+01 3.753047e+00 2.583910e+00 1.477415e+00 1.598964e+00 5.228356e+00 3.316136e+00 4.400648e+00 2.322559e+00 2.931291e+00 3.016303e+00 3.060729e+00 2.290117e+00 1.358973e+00 4.568492e-01 3.165638e-01 2.709098e-01 2.575690e-01 7.061762e-01 5.134712e-01 8.061304e-01 4.533553e-01 4.758949e-01 5.393459e-01 4.687052e-01 4.023434e-01 1.607793e-01
<GCONST> 1.240514e+02
<STATE> 4
<MEAN> 39
 -4.059050e+00 -3.366572e+00 1.852759e+00 -4.344050e+00 -3.825637e+00 -7.236387e+00 -3.861663e+00 4.612841e+00 3.840624e+00 8.935347e-01 -3.008206e+00 -2.067847e+00 7.770830e+01 -2.701843e-01 1.639016e-01 -1.821480e-01 6.298764e-02 6.383016e-01 4.532897e-01 1.650214e-01 2.493645e-01 1.930626e-01 2.213090e-01 5.954137e-02 1.211864e-01 -3.074156e-01 -9.787984e-02 7.620725e-02 5.930041e-03 2.110789e-02 3.534665e-02 1.166278e-02 1.202565e-02 -1.176328e-02 1.486372e-02 5.046380e-02 5.380778e-02 3.301203e-02 -5.068904e-02
<VARIANCE> 39
 8.123827e+01 3.340203e+01 3.269929e+01 3.227946e+01 1.130481e+02 7.300524e+01 6.138849e+01 3.079040e+01 5.978405e+01 4.658192e+01 5.235093e+01 5.146461e+01 3.260623e+01 2.799735e+00 1.963111e+00 1.265368e+00 1.442487e+00 4.111823e+00 2.821479e+00 3.823448e+00 2.233070e+00 2.901453e+00 2.883061e+00 2.623921e+00 2.079118e+00 9.742608e-01 3.466003e-01 2.544618e-01 2.368091e-01 2.320578e-01 5.818997e-01 4.469845e-01 6.965247e-01 4.158736e-01 4.821085e-01 5.236310e-01 4.088849e-01 3.733762e-01 1.223730e-01
<GCONST> 1.198472e+02
<TRANSP> 5
 0.000000e+00 1.000000e+00 0.000000e+00 0.000000e+00 0.000000e+00
 0.000000e+00 6.391379e-01 3.608621e-01 0.000000e+00 0.000000e+00
 0.000000e+00 0.000000e+00 6.391379e-01 3.608621e-01 0.000000e+00
 0.000000e+00 0.000000e+00 0.000000e+00 7.422037e-01 2.577964e-01
 0.000000e+00 0.000000e+00 0.000000e+00 0.000000e+00 0.000000e+00
<ENDHMM>
~h "O"
<BEGINHMM>
<NUMSTATES> 5
<STATE> 2
<MEAN> 39
 -3.357513e-01 -1.202650e+00 -4.664177e+00 -1.013769e+01 -2.026329e+00 6.973310e-01 -4.682298e+00 -5.031839e+00 1.755583e+00 3.760414e+00 -1.852942e+00 -3.209876e+00 7.688999e+01 8.588683e-01 2.033673e-01 -3.985524e-01 -8.116744e-01 -1.095570e-01 3.846778e-01 -2.366742e-02 -6.682107e-01 -4.972772e-01 -4.157047e-01 -2.033931e-01 -4.419467e-01 7.218966e-02 -7.421130e-02 1.891834e-02 4.534789e-02 9.181456e-02 1.538054e-02 -1.643174e-02 3.025056e-02 6.500635e-02 1.163422e-02 -2.100831e-02 1.987443e-02 3.094561e-02 -4.987808e-02
<VARIANCE> 39
 8.230071e+01 2.344685e+01 4.187142e+01 8.589809e+01 4.289449e+01 5.044588e+01 4.413351e+01 6.695556e+01 5.822585e+01 4.628437e+01 5.784573e+01 4.043733e+01 2.521008e+01 3.353520e+00 1.670349e+00 1.664467e+00 4.128855e+00 2.418822e+00 1.983359e+00 2.019270e+00 3.951816e+00 2.494947e+00 2.057788e+00 2.399567e+00 2.227535e+00 1.307225e+00 5.119274e-01 2.937849e-01 2.566634e-01 6.005005e-01 4.237089e-01 3.000698e-01 3.279981e-01 6.719204e-01 4.553165e-01 3.564582e-01 3.780735e-01 3.870675e-01 1.992388e-01
<GCONST> 1.201678e+02
<STATE> 3
<MEAN> 39
 1.677100e+00 -5.935323e-01 -5.562303e+00 -1.195052e+01 -2.252980e+00 1.729870e+00 -4.683518e+00 -6.623971e+00 4.368192e-01 2.513089e+00 -2.284059e+00 -4.285065e+00 7.688673e+01 5.859443e-01 2.362716e-01 -2.264054e-01 -4.771206e-01 -4.941422e-02 3.168160e-01 4.994506e-02 -4.545418e-01 -4.337071e-01 -4.374044e-01 -1.158268e-01 -3.247664e-01 -6.499107e-02 -1.096574e-01 3.486415e-03 6.399683e-02 1.355694e-01 3.056427e-02 -2.875034e-02 2.008410e-02 7.785509e-02 2.492177e-02 6.502457e-03 3.612255e-02 4.883700e-02 -4.780526e-02
<VARIANCE> 39
 6.250514e+01 2.695005e+01 3.873531e+01 7.381692e+01 4.477069e+01 5.181645e+01 4.815794e+01 6.018063e+01 5.798610e+01 4.940993e+01 5.842486e+01 3.741533e+01 2.536009e+01 2.741691e+00 1.616309e+00 1.659828e+00 4.043912e+00 2.196554e+00 2.048632e+00 2.050208e+00 3.716132e+00 2.359952e+00 1.920998e+00 2.200381e+00 2.153715e+00 1.202358e+00 3.952872e-01 2.623640e-01 2.401583e-01 5.231834e-01 3.874065e-01 2.961769e-01 3.449306e-01 6.133081e-01 4.332331e-01 3.403005e-01 3.540695e-01 3.665534e-01 1.713030e-01
<GCONST> 1.180687e+02
<STATE> 4
<MEAN> 39
 3.086617e+00 1.435411e-01 -6.007045e+00 -1.267476e+01 -2.060256e+00 2.671935e+00 -4.728888e+00 -7.852062e+00 -1.146349e+00 9.349809e-01 -2.600949e+00 -5.041632e+00 7.623550e+01 2.073656e-01 2.148060e-01 -1.373924e-02 -1.530860e-02 9.429125e-02 2.113590e-01 6.571104e-02 -1.904106e-01 -3.314819e-01 -3.653113e-01 9.569565e-03 -1.378510e-01 -1.950016e-01 -1.063895e-01 -1.850398e-02 5.201584e-02 1.267561e-01 4.668274e-02 -2.998852e-02 -2.141449e-03 7.006955e-02 3.189583e-02 3.255091e-02 3.789515e-02 5.432202e-02 -2.727235e-02
<VARIANCE> 39
 4.414153e+01 3.113641e+01 3.639359e+01 6.549511e+01 4.807327e+01 5.142485e+01 5.309569e+01 5.764853e+01 6.428896e+01 5.257131e+01 5.559868e+01 3.601742e+01 2.695040e+01 2.005323e+00 1.575210e+00 1.682829e+00 3.732277e+00 2.065247e+00 2.044816e+00 2.167682e+00 3.543226e+00 2.373718e+00 1.862142e+00 1.943902e+00 2.040756e+00 9.935539e-01 2.707373e-01 2.304753e-01 2.440115e-01 4.604894e-01 3.595387e-01 2.918682e-01 3.753836e-01 5.604938e-01 4.198464e-01 3.261617e-01 3.195260e-01 3.434886e-01 1.309687e-01
<GCONST> 1.158612e+02
<TRANSP> 5
 0.000000e+00 1.000000e+00 0.000000e+00 0.000000e+00 0.000000e+00
 0.000000e+00 6.403813e-01 3.596187e-01 0.000000e+00 0.000000e+00
 0.000000e+00 0.000000e+00 6.403813e-01 3.596187e-01 0.000000e+00
 0.000000e+00 0.000000e+00 0.000000e+00 7.474676e-01 2.525323e-01
 0.000000e+00 0.000000e+00 0.000000e+00 0.000000e+00 0.000000e+00
<ENDHMM>
~h "R"
<BEGINHMM>
<NUMSTATES> 5
<STATE> 2
<MEAN> 39
 6.674287e-01 9.872187e-01 8.816569e-01 -6.634581e+00 -2.843894e+00 -2.295023e+00 -7.051705e+00 -3.659307e+00 1.170753e+00 -8.800507e-02 -3.572738e+00 -1.836834e+00 7.557333e+01 3.109272e-01 -6.932196e-02 -3.841269e-02 -3.691100e-01 -3.705143e-01 -1.848005e-01 -1.376855e-01 -1.771813e-01 -1.252070e-01 -1.734201e-01 -9.154677e-02 -1.101898e-01 3.722401e-01 -5.598718e-02 -1.931871e-03 2.083356e-02 3.953269e-02 -1.484033e-02 4.032956e-03 5.135407e-02 3.556763e-02 6.593190e-03 3.356739e-02 5.612979e-02 2.105833e-02 -6.444756e-02
<VARIANCE> 39
 4.823232e+01 5.164724e+01 6.092138e+01 7.435566e+01 9.051309e+01 7.945526e+01 5.720146e+01 5.269285e+01 5.956834e+01 5.144841e+01 4.386104e+01 4.362424e+01 4.364743e+01 1.816818e+00 1.893350e+00 1.618434e+00 2.596530e+00 4.160178e+00 2.776371e+00 2.853074e+00 2.990696e+00 2.527311e+00 2.693004e+00 2.402151e+00 2.069809e+00 1.617005e+00 2.930364e-01 2.819015e-01 2.318876e-01 4.048313e-01 6.054429e-01 4.346133e-01 4.685643e-01 5.250417e-01 4.351315e-01 4.619665e-01 4.144202e-01 3.608242e-01 2.009981e-01
<GCONST> 1.227263e+02
<STATE> 3
<MEAN> 39
 1.226921e+00 7.600957e-01 8.465369e-01 -7.440769e+00 -3.909913e+00 -2.777207e+00 -7.217905e+00 -3.965439e+00 8.722265e-01 -4.212865e-01 -3.572209e+00 -2.064666e+00 7.630611e+01 1.434693e-01 -5.725896e-02 1.720756e-02 -2.229568e-01 -3.696027e-01 -1.543420e-01 -4.276367e-03 -7.945587e-02 -1.161162e-01 -9.205157e-02 4.147990e-02 -7.062858e-02 1.732109e-01 -5.623408e-02 9.608381e-03 1.403295e-02 5.462234e-02 1.295923e-02 1.639665e-02 4.210292e-02 3.275197e-02 3.220191e-03 2.769652e-02 4.139237e-02 1.426733e-02 -7.118642e-02
<VARIANCE> 39
 4.867702e+01 5.346735e+01 6.680155e+01 7.439218e+01 9.200627e+01 7.977985e+01 5.741111e+01 5.260080e+01 6.209494e+01 5.153675e+01 4.400822e+01 4.588920e+01 3.716745e+01 1.514844e+00 1.794672e+00 1.532308e+00 2.398520e+00 3.795921e+00 2.543591e+00 2.659414e+00 2.790800e+00 2.355977e+00 2.521435e+00 2.185349e+00 1.957620e+00 1.370939e+00 2.358197e-01 2.597201e-01 2.182115e-01 3.599911e-01 5.417188e-01 4.022997e-01 4.346430e-01 4.827202e-01 4.054938e-01 4.296738e-01 3.827150e-01 3.375444e-01 1.641416e-01
<GCONST> 1.203653e+02
<STATE> 4
<MEAN> 39
 1.415770e+00 6.926806e-01 9.474258e-01 -7.788733e+00 -5.033916e+00 -3.147509e+00 -7.074265e+00 -4.012133e+00 4.382900e-01 -6.099911e-01 -3.198341e+00 -2.213778e+00 7.637960e+01 -4.810019e-02 1.214989e-02 5.998869e-02 -1.485324e-02 -2.577667e-01 -8.691042e-02 1.132589e-01 2.837312e-02 -9.660117e-02 -1.159354e-02 1.461545e-01 -2.293125e-02 -6.412908e-02 -4.978626e-02 2.314452e-02 4.637978e-03 5.505021e-02 4.255840e-02 2.370355e-02 3.117641e-02 2.991486e-02 9.203572e-03 2.512179e-02 2.770340e-02 1.910092e-02 -6.742802e-02
<VARIANCE> 39
 5.348617e+01 5.514605e+01 7.340113e+01 7.546301e+01 9.338490e+01 7.989086e+01 5.923412e+01 5.369076e+01 6.414365e+01 5.255051e+01 4.600932e+01 4.826100e+01 3.739295e+01 1.398161e+00 1.756465e+00 1.502962e+00 2.284651e+00 3.405219e+00 2.421024e+00 2.643295e+00 2.723170e+00 2.324153e+00 2.466624e+00 2.147435e+00 1.945241e+00 1.281647e+00 1.943997e-01 2.471012e-01 2.166834e-01 3.340134e-01 4.729923e-01 3.864864e-01 4.258013e-01 4.555781e-01 3.953096e-01 4.154242e-01 3.733978e-01 3.293890e-01 1.446647e-01
<GCONST> 1.195211e+02
<TRANSP> 5
 0.000000e+00 1.000000e+00 0.000000e+00 0.000000e+00 0.000000e+00
 0.000000e+00 6.517131e-01 3.482869e-01 0.000000e+00 0.000000e+00
 0.000000e+00 0.000000e+00 6.517146e-01 3.482855e-01 0.000000e+00
 0.000000e+00 0.000000e+00 0.000000e+00 7.585188e-01 2.414812e-01
 0.000000e+00 0.000000e+00 0.000000e+00 0.000000e+00 0.000000e+00
<ENDHMM>
~h "S"
<BEGINHMM>
<NUMSTATES> 5
<STATE> 2
<MEAN> 39
 -6.295782e+00 1.382332e-01 4.822462e+00 -4.156632e+00 -4.944844e+00 -2.918796e+00 -3.659563e+00 -1.774355e+00 4.584730e-01 3.654208e-01 -6.844211e-01 -1.814275e+00 7.596188e+01 3.839346e-01 -3.257923e-02 -3.242999e-01 -7.040268e-02 1.019352e-01 9.261668e-02 -1.306148e-01 -2.835788e-01 -1.002734e-01 -1.622828e-01 -1.748773e-01 -2.276523e-01 5.585300e-02 9.387735e-02 1.360288e-02 -6.499095e-02 -2.408705e-02 2.067968e-02 6.901988e-03 -8.812753e-03 2.427838e-03 -2.808218e-02 3.926444e-03 -7.785262e-03 -6.657708e-03 -4.508262e-02
<VARIANCE> 39
 1.543397e+02 3.618960e+01 5.678080e+01 5.271194e+01 5.273762e+01 5.393641e+01 5.119110e+01 8.498840e+01 1.015988e+02 6.277626e+01 5.153897e+01 5.556868e+01 3.267898e+01 4.887028e+00 1.602396e+00 2.085389e+00 2.389844e+00 2.796273e+00 2.533074e+00 3.204827e+00 3.688414e+00 3.503471e+00 2.988507e+00 2.949687e+00 2.704034e+00 1.132959e+00 5.674626e-01 2.672876e-01 2.932162e-01 3.672590e-01 4.700441e-01 4.519399e-01 5.595904e-01 5.993562e-01 5.255467e-01 5.144508e-01 5.130115e-01 4.536408e-01 1.639110e-01
<GCONST> 1.261589e+02
<STATE> 3
<MEAN> 39
 -4.758926e+00 9.728169e-02 3.612347e+00 -4.496137e+00 -4.613983e+00 -2.663419e+00 -4.084801e+00 -2.589745e+00 1.680574e-02 -1.029638e-01 -1.235036e+00 -2.526689e+00 7.597837e+01 5.783800e-01 -7.266961e-04 -4.627154e-01 -1.511102e-01 1.311372e-01 1.088678e-01 -1.333281e-01 -2.581789e-01 -1.637645e-01 -1.448092e-01 -1.714556e-01 -2.371068e-01 -3.397413e-02 3.738787e-02 9.748530e-03 -3.681487e-02 -2.792951e-02 8.737999e-03 7.711630e-03 1.181504e-02 2.489053e-02 -1.132175e-02 1.479494e-02 1.094497e-02 3.340865e-03 -2.772046e-02
<VARIANCE> 39
 1.455156e+02 4.058467e+01 5.488674e+01 5.256744e+01 4.888646e+01 5.378211e+01 5.176788e+01 8.229815e+01 9.899670e+01 6.079667e+01 5.218677e+01 5.407397e+01 3.636848e+01 5.035018e+00 1.792136e+00 2.173423e+00 2.561489e+00 2.627680e+00 2.629707e+00 3.415624e+00 3.939062e+00 3.716325e+00 3.069522e+00 3.069392e+00 2.863304e+00 1.293863e+00 5.995043e-01 2.868079e-01 3.060196e-01 3.845076e-01 4.503793e-01 4.644256e-01 5.986161e-01 6.266471e-01 5.419458e-01 5.177698e-01 5.260406e-01 4.770628e-01 1.888348e-01
<GCONST> 1.273498e+02
<STATE> 4
<MEAN> 39
 -2.626880e+00 1.644681e-01 1.878930e+00 -5.147635e+00 -4.122428e+00 -2.231325e+00 -4.437648e+00 -3.215189e+00 -6.699890e-01 -6.420095e-01 -1.710365e+00 -3.286795e+00 7.572432e+01 5.444824e-01 4.218348e-02 -4.859917e-01 -2.045313e-01 1.527789e-01 1.548324e-01 -3.688351e-02 -1.430687e-01 -1.560163e-01 -7.690343e-02 -9.119134e-02 -1.790932e-01 -1.173652e-01 -4.088500e-02 8.464304e-03 9.065493e-03 -6.547025e-03 5.785681e-03 1.349766e-02 3.650202e-02 4.706684e-02 1.777861e-02 2.804492e-02 3.043670e-02 2.526682e-02 -2.494450e-02
<VARIANCE> 39
 1.232781e+02 4.688272e+01 5.302285e+01 5.352590e+01 4.694820e+01 5.384515e+01 5.276033e+01 7.336564e+01 9.034071e+01 5.783646e+01 5.252596e+01 5.134108e+01 4.363451e+01 4.760457e+00 2.044550e+00 2.260215e+00 2.703714e+00 2.567994e+00 2.699869e+00 3.563427e+00 4.029293e+00 3.853419e+00 3.114486e+00 3.107282e+00 2.960960e+00 1.508550e+00 5.627635e-01 3.109986e-01 3.170418e-01 4.028603e-01 4.427873e-01 4.678554e-01 6.192071e-01 6.315039e-01 5.506276e-01 5.142815e-01 5.281908e-01 4.912287e-01 2.090270e-01
<GCONST> 1.279350e+02
<TRANSP> 5
 0.000000e+00 1.000000e+00 0.000000e+00 0.000000e+00 0.000000e+00
 0.000000e+00 6.523464e-01 3.476535e-01 0.000000e+00 0.000000e+00
 0.000000e+00 0.000000e+00 6.523474e-01 3.476526e-01 0.000000e+00
 0.000000e+00 0.000000e+00 0.000000e+00 7.578549e-01 2.421451e-01
 0.000000e+00 0.000000e+00 0.000000e+00 0.000000e+00 0.000000e+00
<ENDHMM>
~h "Z"
<BEGINHMM>
<NUMSTATES> 5
<STATE> 2
<MEAN> 39
 -8.302564e+00 7.257440e+00 1.809089e+01 -1.637488e+00 -6.757298e+00 -5.838789e+00 -7.349260e+00 -4.434509e+00 -4.429360e+00 2.039672e-01 -2.318886e+00 -1.249024e+00 7.628066e+01 -2.601158e-01 3.003845e-01 5.222078e-01 -1.777983e-01 2.724935e-02 -2.066608e-01 -1.336496e-01 -3.748201e-01 -2.349501e-01 -1.856391e-01 -1.046163e-01 -2.964600e-02 3.487459e-01 5.105508e-02 -8.382702e-02 -8.919590e-02 -2.082549e-04 -1.346482e-02 4.395356e-02 3.463578e-02 4.522083e-02 4.201449e-02 4.301561e-02 2.965233e-02 2.552002e-02 -7.252951e-02
<VARIANCE> 39
 5.468002e+01 2.881221e+01 3.176794e+01 4.859925e+01 5.599612e+01 3.253399e+01 3.260191e+01 2.359134e+01 4.468657e+01 2.790950e+01 2.938905e+01 2.782101e+01 3.319390e+01 2.184112e+00 1.580585e+00 1.437254e+00 9.697127e-01 3.775570e+00 3.059711e+00 3.147641e+00 1.539919e+00 2.066998e+00 1.916351e+00 1.766040e+00 1.528503e+00 1.067698e+00 2.687163e-01 2.235563e-01 2.356091e-01 1.582571e-01 5.259170e-01 5.097398e-01 5.328475e-01 2.724071e-01 3.589999e-01 3.209005e-01 3.125314e-01 2.968292e-01 1.144057e-01
<GCONST> 1.098486e+02
<STATE> 3
<MEAN> 39
 -8.771217e+00 7.607697e+00 1.918095e+01 -2.163426e+00 -6.863938e+00 -6.139800e+00 -7.584133e+00 -5.266212e+00 -4.894068e+00 -9.409034e-02 -2.455085e+00 -1.222962e+00 7.689479e+01 -4.217314e-02 1.232459e-02 3.163818e-01 -1.699109e-01 -1.524137e-01 -1.202353e-01 -1.138500e-01 -2.537012e-01 -1.427366e-01 -7.540531e-02 -4.350210e-02 4.270452e-02 1.666965e-01 8.168074e-02 -9.447657e-02 -6.682511e-02 3.968820e-03 -6.780219e-02 1.744186e-02 -4.676814e-03 4.028405e-02 3.030548e-02 2.676894e-02 1.691802e-02 2.370869e-02 -5.760958e-02
<VARIANCE> 39
 5.257522e+01 2.661484e+01 2.767162e+01 5.060879e+01 5.270916e+01 2.881086e+01 2.953244e+01 2.140868e+01 4.250912e+01 2.860347e+01 3.142692e+01 2.585476e+01 2.546580e+01 2.027596e+00 1.543060e+00 1.061731e+00 9.113108e-01 3.318674e+00 2.518183e+00 2.575651e+00 1.523967e+00 1.917652e+00 1.779104e+00 1.763619e+00 1.396537e+00 6.595044e-01 2.263390e-01 2.043981e-01 1.802383e-01 1.414616e-01 4.351721e-01 4.391533e-01 4.310800e-01 2.740661e-01 3.274991e-01 2.961848e-01 3.136898e-01 2.686743e-01 8.088217e-02
<GCONST> 1.054367e+02
<STATE> 4
<MEAN> 39
 -7.990872e+00 6.864148e+00 1.977903e+01 -2.879351e+00 -8.162379e+00 -6.360332e+00 -8.162543e+00 -5.842874e+00 -5.228834e+00 -3.311242e-01 -2.540179e+00 -9.539405e-01 7.700292e+01 2.694758e-01 -2.833091e-01 9.146008e-02 -1.289728e-01 -4.453937e-01 -1.244301e-01 -1.896487e-01 -1.173545e-01 -2.895348e-02 -3.245355e-02 -1.606644e-02 1.182402e-01 3.060087e-02 7.043634e-02 -5.914120e-02 -6.925230e-02 1.667525e-02 -4.742495e-02 -2.634604e-03 -1.611924e-02 3.534018e-02 3.461652e-02 3.184400e-03 4.012380e-03 2.016686e-02 -3.793364e-02
<VARIANCE> 39
 5.127694e+01 3.016948e+01 2.937146e+01 5.893618e+01 5.573483e+01 2.998536e+01 3.020574e+01 2.128656e+01 4.340269e+01 3.193238e+01 3.759183e+01 2.488050e+01 2.370864e+01 1.747582e+00 1.477497e+00 1.046833e+00 9.841461e-01 2.938364e+00 2.232608e+00 2.292255e+00 1.553692e+00 1.947515e+00 1.810756e+00 1.843665e+00 1.355580e+00 4.637458e-01 1.988955e-01 2.034679e-01 1.581029e-01 1.433153e-01 3.785058e-01 3.972323e-01 3.673325e-01 2.766630e-01 3.278164e-01 3.054817e-01 3.115579e-01 2.553749e-01 5.872608e-02
<GCONST> 1.043006e+02
<TRANSP> 5
 0.000000e+00 1.000000e+00 0.000000e+00 0.000000e+00 0.000000e+00
 0.000000e+00 6.616256e-01 3.383745e-01 0.000000e+00 0.000000e+00
 0.000000e+00 0.000000e+00 6.616256e-01 3.383744e-01 0.000000e+00
 0.000000e+00 0.000000e+00 0.000000e+00 7.683845e-01 2.316155e-01
 0.000000e+00 0.000000e+00 0.000000e+00 0.000000e+00 0.000000e+00
<ENDHMM>
~h "a"
<BEGINHMM>
<NUMSTATES> 5
<STATE> 2
<MEAN> 39
 1.222056e+00 -4.271565e+00 -4.077359e+00 -6.201034e+00 -1.172390e-01 -1.617486e+00 -4.686745e+00 -2.534543e+00 2.349145e+00 -4.775735e-01 -4.537096e+00 -6.246706e+00 7.793032e+01 -2.173968e-02 9.882219e-03 -3.172510e-01 -3.888522e-02 2.474402e-01 3.685513e-01 2.198879e-01 5.600210e-02 7.837244e-02 4.820118e-02 8.930489e-02 1.892461e-03 -2.576088e-01 -5.912074e-02 1.046421e-01 6.859410e-02 5.333402e-02 -6.368774e-03 8.960936e-03 2.313017e-02 1.745505e-02 -1.183140e-02 4.234933e-02 7.385087e-02 6.870605e-02 -1.214095e-01
<VARIANCE> 39
 5.455079e+01 5.210258e+01 5.021111e+01 4.480273e+01 4.757149e+01 7.259921e+01 5.594616e+01 5.421403e+01 6.578642e+01 4.690469e+01 6.858929e+01 6.140442e+01 4.637333e+01 1.722759e+00 3.040474e+00 2.017378e+00 2.229982e+00 2.367972e+00 2.636972e+00 2.762000e+00 2.826837e+00 2.828818e+00 2.472025e+00 2.850151e+00 2.526053e+00 2.413571e+00 2.349376e-01 3.696842e-01 2.907830e-01 3.666447e-01 4.057304e-01 4.425203e-01 4.696895e-01 4.795254e-01 4.762962e-01 4.308331e-01 4.551985e-01 3.884352e-01 2.478257e-01
<GCONST> 1.229745e+02
<STATE> 3
<MEAN> 39
 9.668610e-01 -3.900582e+00 -4.702380e+00 -6.120438e+00 5.386276e-01 -6.126411e-01 -4.053465e+00 -2.367235e+00 2.522906e+00 -2.176722e-01 -4.061215e+00 -6.028658e+00 7.689098e+01 -1.687413e-01 2.599678e-01 -1.207195e-01 8.274344e-02 1.942109e-01 3.524900e-01 2.604753e-01 1.136628e-01 5.718663e-02 1.576868e-01 2.697374e-01 1.786421e-01 -5.286233e-01 -4.797742e-02 6.719686e-02 7.354296e-02 3.089772e-02 -3.603029e-02 -2.163196e-02 1.192322e-02 2.986497e-02 -4.693582e-04 3.699148e-02 5.635958e-02 6.170512e-02 -7.075787e-02
<VARIANCE> 39
 5.393412e+01 4.965649e+01 4.686634e+01 4.318600e+01 4.692630e+01 7.308746e+01 5.647187e+01 5.470030e+01 6.218173e+01 4.694698e+01 6.555150e+01 6.024278e+01 4.914438e+01 1.566857e+00 2.609009e+00 1.945228e+00 2.029055e+00 2.267402e+00 2.500151e+00 2.734455e+00 2.833736e+00 2.721055e+00 2.431295e+00 2.649436e+00 2.405267e+00 2.151102e+00 2.080003e-01 3.326650e-01 2.763717e-01 3.390473e-01 3.792735e-01 4.142199e-01 4.580882e-01 4.725385e-01 4.600462e-01 4.213151e-01 4.305331e-01 3.801876e-01 2.304032e-01
<GCONST> 1.212466e+02
<STATE> 4
<MEAN> 39
 2.952888e-01 -2.806281e+00 -4.695983e+00 -5.700198e+00 9.879899e-01 3.304214e-01 -3.293082e+00 -1.939983e+00 2.599458e+00 3.188004e-01 -3.023587e+00 -5.177692e+00 7.503763e+01 -2.747711e-01 3.865058e-01 8.944099e-02 1.308497e-01 4.893147e-02 2.503979e-01 2.684836e-01 1.995645e-01 6.525367e-02 2.457646e-01 3.907419e-01 3.283770e-01 -6.370739e-01 -1.812712e-02 9.395391e-03 5.829389e-02 -6.057601e-05 -5.319217e-02 -3.926419e-02 -4.940931e-03 2.407900e-02 1.438049e-03 1.642170e-02 2.020687e-02 3.379443e-02 1.382504e-03
<VARIANCE> 39
 5.439920e+01 4.876917e+01 4.930856e+01 4.389435e+01 4.932372e+01 7.257868e+01 5.771743e+01 5.641412e+01 6.012746e+01 4.859303e+01 6.101041e+01 5.989616e+01 5.340710e+01 1.493590e+00 2.136292e+00 1.886593e+00 1.899459e+00 2.317363e+00 2.467489e+00 2.825543e+00 2.940142e+00 2.679909e+00 2.507264e+00 2.518370e+00 2.308838e+00 1.932152e+00 1.982931e-01 2.930956e-01 2.696638e-01 3.214813e-01 3.767214e-01 4.031389e-01 4.618107e-01 4.795145e-01 4.524283e-01 4.306294e-01 4.215544e-01 3.825983e-01 2.128165e-01
<GCONST> 1.206043e+02
<TRANSP> 5
 0.000000e+00 1.000000e+00 0.000000e+00 0.000000e+00 0.000000e+00
 0.000000e+00 6.379743e-01 3.620256e-01 0.000000e+00 0.000000e+00
 0.000000e+00 0.000000e+00 6.379803e-01 3.620197e-01 0.000000e+00
 0.000000e+00 0.000000e+00 0.000000e+00 7.418345e-01 2.581654e-01
 0.000000e+00 0.000000e+00 0.000000e+00 0.000000e+00 0.000000e+00
<ENDHMM>
~h "b"
<BEGINHMM>
<NUMSTATES> 5
<STATE> 2
<MEAN> 39
 2.379350e+00 4.766829e+00 2.797261e+00 -2.765467e+00 -2.695873e+00 -2.082046e+00 -6.513604e+00 -6.051950e+00 -2.396045e+00 -1.085996e+00 -3.521562e+00 -5.487304e+00 7.253601e+01 1.503505e-01 -3.541981e-01 -2.041725e-01 -3.967818e-01 -2.135853e-01 -1.357592e-01 -1.975987e-01 -8.263685e-02 7.245531e-02 3.157225e-03 -1.932389e-01 -1.496078e-01 6.160302e-01 -5.712825e-02 -9.958445e-02 -6.296171e-02 -5.603196e-02 -3.102529e-03 4.850779e-02 6.192726e-02 8.329653e-02 7.629953e-02 3.564360e-02 2.900853e-02 5.171707e-02 1.404494e-02
<VARIANCE> 39
 3.017043e+01 9.021398e+01 6.240073e+01 8.629202e+01 4.855151e+01 5.486073e+01 4.386243e+01 4.546255e+01 5.969395e+01 4.758970e+01 5.607463e+01 4.745268e+01 7.286957e+01 1.324079e+00 3.949617e+00 2.151156e+00 3.499180e+00 2.685900e+00 2.724006e+00 2.904835e+00 3.023906e+00 3.453924e+00 2.830464e+00 2.582407e+00 2.612909e+00 2.886612e+00 1.933875e-01 5.228785e-01 3.031273e-01 5.210596e-01 4.614768e-01 4.889091e-01 5.073091e-01 4.937746e-01 5.737811e-01 5.046361e-01 4.668156e-01 4.331059e-01 3.787047e-01
<GCONST> 1.260558e+02
<STATE> 3
<MEAN> 39
 2.557388e+00 3.292353e+00 1.979817e+00 -4.099884e+00 -3.306069e+00 -2.239175e+00 -6.739273e+00 -5.938607e+00 -1.868151e+00 -9.485513e-01 -3.936035e+00 -5.661398e+00 7.426982e+01 1.641608e-02 -5.433835e-01 -3.234099e-01 -4.878016e-01 -1.905639e-01 2.035797e-03 -3.111550e-02 9.703841e-02 2.149080e-01 5.668395e-02 -1.306096e-01 -2.470543e-02 5.729344e-01 -3.849764e-02 -3.132085e-02 -2.668771e-02 -6.399402e-03 1.732511e-02 4.651616e-02 5.451956e-02 4.910760e-02 3.091534e-02 7.415344e-03 2.323203e-02 3.842203e-02 -4.394951e-02
<VARIANCE> 39
 3.300324e+01 9.363482e+01 7.268174e+01 8.795912e+01 5.229804e+01 6.152982e+01 4.581385e+01 4.497692e+01 6.326102e+01 4.984551e+01 6.078119e+01 5.177167e+01 6.701273e+01 1.097612e+00 3.946239e+00 2.167425e+00 3.516452e+00 2.767652e+00 2.618112e+00 2.726817e+00 2.677167e+00 3.243325e+00 2.667103e+00 2.470032e+00 2.481966e+00 2.888065e+00 1.654982e-01 5.331632e-01 3.099920e-01 5.405542e-01 4.695141e-01 4.701038e-01 4.806350e-01 4.467784e-01 5.532641e-01 4.830762e-01 4.484794e-01 4.153753e-01 3.786112e-01
<GCONST> 1.257608e+02
<STATE> 4
<MEAN> 39
 2.511810e+00 1.453840e+00 9.222515e-01 -5.621140e+00 -3.850883e+00 -2.022191e+00 -6.477562e+00 -5.369840e+00 -1.094064e+00 -8.545535e-01 -4.225097e+00 -5.406842e+00 7.572243e+01 -8.453354e-02 -4.559654e-01 -3.172811e-01 -3.940142e-01 -8.955438e-02 1.147200e-01 1.054108e-01 1.815965e-01 2.279898e-01 6.208011e-02 -4.664855e-02 8.270504e-02 3.082438e-01 -2.734128e-02 5.717605e-02 1.251261e-02 4.919495e-02 3.660200e-02 2.956097e-02 3.632447e-02 1.988431e-02 -3.683783e-03 4.576739e-03 3.515428e-02 3.039966e-02 -1.027951e-01
<VARIANCE> 39
 4.026004e+01 8.726015e+01 8.318629e+01 8.288326e+01 5.932932e+01 6.930566e+01 5.072987e+01 4.795039e+01 6.847771e+01 5.206439e+01 6.438409e+01 5.732967e+01 5.602544e+01 9.679689e-01 3.753798e+00 2.116598e+00 3.340280e+00 2.733442e+00 2.503282e+00 2.608915e+00 2.486155e+00 3.016747e+00 2.518979e+00 2.443371e+00 2.330404e+00 2.769536e+00 1.449175e-01 4.862590e-01 3.036722e-01 5.081759e-01 4.543890e-01 4.429017e-01 4.572965e-01 4.195715e-01 5.159646e-01 4.503588e-01 4.302607e-01 3.936782e-01 3.278117e-01
<GCONST> 1.249160e+02
<TRANSP> 5
 0.000000e+00 1.000000e+00 0.000000e+00 0.000000e+00 0.000000e+00
 0.000000e+00 6.479331e-01 3.520669e-01 0.000000e+00 0.000000e+00
 0.000000e+00 0.000000e+00 6.479306e-01 3.520693e-01 0.000000e+00
 0.000000e+00 0.000000e+00 0.000000e+00 7.532267e-01 2.467733e-01
 0.000000e+00 0.000000e+00 0.000000e+00 0.000000e+00 0.000000e+00
<ENDHMM>
~h "d"
<BEGINHMM>
<NUMSTATES> 5
<STATE> 2
<MEAN> 39
 -9.464866e-01 7.449237e+00 8.873209e+00 -4.457166e-01 -5.645163e+00 -6.057169e+00 -8.304999e+00 -4.375253e+00 -2.583155e+00 -1.843988e+00 -3.223269e+00 -3.224066e+00 7.167953e+01 2.137634e-02 -3.103729e-01 3.954683e-01 -2.126789e-01 -7.399197e-01 -5.344667e-01 -3.732664e-01 -9.814613e-02 -8.077954e-02 -4.947418e-02 1.853899e-02 9.806348e-02 7.122293e-01 -4.472307e-02 -1.141113e-01 -3.218014e-02 -3.873328e-02 -4.143350e-02 4.170738e-02 4.474346e-02 4.392315e-02 4.654924e-02 7.384624e-02 8.025132e-02 7.114828e-02 4.162310e-03
<VARIANCE> 39
 3.397995e+01 6.475845e+01 4.574726e+01 6.278886e+01 7.819836e+01 6.461514e+01 5.224434e+01 3.779390e+01 4.386965e+01 5.095191e+01 3.855133e+01 3.709892e+01 7.248296e+01 1.959689e+00 3.355921e+00 2.056284e+00 2.670017e+00 5.033360e+00 3.261657e+00 3.867931e+00 3.145273e+00 2.647313e+00 3.446431e+00 2.569031e+00 2.497482e+00 2.724195e+00 3.217436e-01 4.537935e-01 3.524556e-01 4.087107e-01 8.538400e-01 5.858924e-01 6.950253e-01 5.720592e-01 4.777250e-01 5.277123e-01 4.419218e-01 4.313317e-01 3.818678e-01
<GCONST> 1.271939e+02
<STATE> 3
<MEAN> 39
 -1.112968e+00 6.049155e+00 9.817812e+00 -1.216835e+00 -7.858843e+00 -7.330322e+00 -9.069742e+00 -4.485735e+00 -2.604642e+00 -1.651961e+00 -2.793399e+00 -2.635742e+00 7.364513e+01 -7.044600e-02 -5.432104e-01 2.994702e-01 -2.877768e-01 -7.913848e-01 -3.991216e-01 -2.213156e-01 -2.006343e-02 1.108121e-02 1.139809e-01 1.974418e-01 2.413661e-01 6.540896e-01 -2.228409e-02 -4.900837e-02 -4.050924e-02 -1.010554e-02 1.052101e-02 5.651447e-02 6.241420e-02 2.123504e-02 2.426544e-02 4.208944e-02 4.765431e-02 3.148758e-02 -4.794368e-02
<VARIANCE> 39
 3.590781e+01 6.493047e+01 4.940178e+01 6.844221e+01 9.090434e+01 6.670450e+01 5.145784e+01 3.557449e+01 4.414177e+01 5.703129e+01 4.077962e+01 3.812152e+01 6.769144e+01 1.640683e+00 3.121195e+00 2.150599e+00 2.777887e+00 5.531361e+00 3.188626e+00 3.754985e+00 2.719168e+00 2.316793e+00 3.314068e+00 2.385777e+00 2.271857e+00 2.838534e+00 2.812122e-01 4.456147e-01 3.531076e-01 4.177070e-01 9.008189e-01 5.670627e-01 6.580726e-01 4.964297e-01 4.230958e-01 5.033335e-01 4.286131e-01 4.086619e-01 3.866705e-01
<GCONST> 1.265405e+02
<STATE> 4
<MEAN> 39
 -1.385784e+00 4.071594e+00 1.056831e+01 -2.240496e+00 -1.036012e+01 -8.253977e+00 -9.285141e+00 -4.506091e+00 -2.509633e+00 -1.114998e+00 -1.870384e+00 -1.700765e+00 7.538096e+01 -1.067072e-01 -5.170018e-01 1.360205e-01 -2.397621e-01 -6.106849e-01 -2.068078e-01 8.486576e-03 2.686718e-02 5.637611e-02 1.887835e-01 2.662077e-01 2.578042e-01 3.813934e-01 -7.927643e-03 3.681039e-02 -5.689115e-02 2.875219e-02 8.477700e-02 6.302200e-02 7.064081e-02 1.744721e-02 1.245112e-02 1.266786e-02 8.956779e-03 -6.751576e-03 -1.019146e-01
<VARIANCE> 39
 4.071836e+01 5.572697e+01 5.640691e+01 7.530061e+01 9.732047e+01 6.760741e+01 5.304273e+01 3.650323e+01 4.726088e+01 6.271272e+01 4.490290e+01 3.953892e+01 5.694166e+01 1.410906e+00 2.799548e+00 2.196882e+00 2.769214e+00 5.744984e+00 3.007959e+00 3.526301e+00 2.439853e+00 2.168750e+00 3.079079e+00 2.294715e+00 2.049999e+00 2.850405e+00 2.373409e-01 4.004264e-01 3.347699e-01 4.036958e-01 8.598469e-01 5.206231e-01 5.919688e-01 4.325537e-01 3.890198e-01 4.719864e-01 4.158553e-01 3.705896e-01 3.415176e-01
<GCONST> 1.251522e+02
<TRANSP> 5
 0.000000e+00 1.000000e+00 0.000000e+00 0.000000e+00 0.000000e+00
 0.000000e+00 6.511185e-01 3.488815e-01 0.000000e+00 0.000000e+00
 0.000000e+00 0.000000e+00 6.511170e-01 3.488829e-01 0.000000e+00
 0.000000e+00 0.000000e+00 0.000000e+00 7.566718e-01 2.433282e-01
 0.000000e+00 0.000000e+00 0.000000e+00 0.000000e+00 0.000000e+00
<ENDHMM>
~h "e"
<BEGINHMM>
<NUMSTATES> 5
<STATE> 2
<MEAN> 39
 -2.834891e+00 5.551372e-01 1.024454e+01 -2.888141e+00 -1.251007e+01 -1.020783e+01 -7.195013e+00 -2.271442e+00 -1.108506e+00 1.577343e-01 -9.322029e-01 -1.382294e-01 7.681928e+01 -4.497406e-02 -1.653340e-03 3.130743e-02 -2.589999e-02 -1.842961e-01 2.912490e-02 1.307549e-01 1.996154e-02 3.836274e-02 1.084114e-01 1.516349e-01 8.805108e-02 -1.265303e-01 -3.197162e-02 4.681554e-02 -8.866068e-02 2.672376e-02 1.300145e-01 7.653075e-02 5.615555e-02 2.940379e-02 3.691212e-02 2.808901e-02 1.799080e-02 8.414056e-03 -9.992830e-02
<VARIANCE> 39
 6.204947e+01 3.874046e+01 4.933952e+01 6.424500e+01 7.798210e+01 5.974043e+01 6.300854e+01 4.389442e+01 5.509457e+01 5.667557e+01 4.743676e+01 3.782000e+01 4.512771e+01 1.954001e+00 2.049730e+00 2.093819e+00 2.177548e+00 4.643793e+00 2.922650e+00 3.293973e+00 2.448907e+00 2.402123e+00 2.749208e+00 2.439316e+00 1.877216e+00 2.029194e+00 2.683749e-01 2.943952e-01 2.642367e-01 3.277235e-01 6.022727e-01 4.579991e-01 5.173026e-01 4.127875e-01 3.934310e-01 4.492259e-01 4.210202e-01 3.258923e-01 2.215306e-01
<GCONST> 1.219173e+02
<STATE> 3
<MEAN> 39
 -3.073218e+00 7.197703e-01 1.003416e+01 -2.853462e+00 -1.256750e+01 -9.874465e+00 -6.641627e+00 -2.112060e+00 -8.685053e-01 5.560007e-01 -4.612348e-01 1.321542e-01 7.615012e+01 -1.218122e-01 1.102172e-01 -2.122507e-01 3.757928e-02 1.693595e-01 2.208142e-01 2.637753e-01 1.062261e-01 1.435666e-01 1.832866e-01 2.003888e-01 1.173694e-01 -3.771063e-01 -2.055655e-02 2.402359e-02 -8.061693e-02 1.437567e-02 1.139586e-01 6.002294e-02 3.444290e-02 2.912800e-02 3.824071e-02 2.271531e-02 1.876665e-02 1.127669e-02 -7.116994e-02
<VARIANCE> 39
 6.155302e+01 3.743813e+01 4.896959e+01 6.240072e+01 7.412952e+01 5.819008e+01 6.218838e+01 4.521614e+01 5.360407e+01 5.641760e+01 4.890074e+01 3.829153e+01 4.795997e+01 1.822960e+00 1.880364e+00 2.000578e+00 2.066577e+00 4.117238e+00 2.636845e+00 3.023807e+00 2.435830e+00 2.429028e+00 2.732591e+00 2.520782e+00 1.922301e+00 1.905636e+00 2.435333e-01 2.763515e-01 2.562014e-01 3.150433e-01 5.374174e-01 4.208592e-01 4.825914e-01 4.093336e-01 3.961869e-01 4.511689e-01 4.293649e-01 3.316097e-01 2.071618e-01
<GCONST> 1.207550e+02
<STATE> 4
<MEAN> 39
 -3.472896e+00 1.215446e+00 8.990267e+00 -2.683768e+00 -1.147969e+01 -8.818846e+00 -5.599970e+00 -1.628105e+00 -2.809240e-01 1.184757e+00 2.164782e-01 5.392551e-01 7.462943e+01 -1.433411e-01 1.420710e-01 -4.184057e-01 5.361331e-02 4.522176e-01 3.640007e-01 3.185782e-01 1.807959e-01 2.411369e-01 2.296764e-01 2.460756e-01 1.464896e-01 -5.262885e-01 5.851572e-03 -7.579573e-03 -4.289204e-02 -6.557569e-03 5.620067e-02 3.101688e-02 -1.323260e-03 1.294836e-02 2.025550e-02 5.696460e-03 1.013311e-02 3.189654e-03 -1.598050e-02
<VARIANCE> 39
 6.208256e+01 3.791673e+01 5.152163e+01 5.977292e+01 7.397313e+01 5.890318e+01 6.151745e+01 4.816389e+01 5.324146e+01 5.580598e+01 5.069763e+01 4.103529e+01 5.418298e+01 1.789073e+00 1.700731e+00 1.854200e+00 2.013035e+00 3.490536e+00 2.415735e+00 2.803407e+00 2.514241e+00 2.528890e+00 2.818187e+00 2.695750e+00 2.054947e+00 1.750529e+00 2.313876e-01 2.568742e-01 2.557163e-01 3.083117e-01 4.892259e-01 3.999483e-01 4.583718e-01 4.216163e-01 4.133312e-01 4.677413e-01 4.519100e-01 3.509198e-01 1.935940e-01
<GCONST> 1.204619e+02
<TRANSP> 5
 0.000000e+00 1.000000e+00 0.000000e+00 0.000000e+00 0.000000e+00
 0.000000e+00 6.482747e-01 3.517253e-01 0.000000e+00 0.000000e+00
 0.000000e+00 0.000000e+00 6.482711e-01 3.517289e-01 0.000000e+00
 0.000000e+00 0.000000e+00 0.000000e+00 7.538490e-01 2.461510e-01
 0.000000e+00 0.000000e+00 0.000000e+00 0.000000e+00 0.000000e+00
<ENDHMM>
~h "f"
<BEGINHMM>
<NUMSTATES> 5
<STATE> 2
<MEAN> 39
 -8.511137e+00 -4.352853e-01 6.329858e+00 -7.717586e-01 -5.254014e+00 -5.611142e+00 -2.582340e+00 1.451082e+00 2.351148e+00 3.436634e+00 2.962786e-01 2.496052e+00 7.480499e+01 2.495586e-01 -7.617943e-02 3.712294e-02 -2.365122e-01 -2.566715e-01 -1.934306e-01 -2.040050e-01 -1.795814e-01 -1.021719e-01 -3.426376e-02 -2.425935e-02 -7.869277e-02 2.166887e-01 1.210710e-01 3.119587e-02 2.643183e-02 -4.704022e-02 -7.236297e-02 -2.301523e-02 -5.865420e-02 -7.053416e-02 -5.936638e-02 -4.099275e-02 -2.646589e-02 -4.001036e-02 -6.600146e-03
<VARIANCE> 39
 7.446629e+01 2.220127e+01 4.977945e+01 4.728798e+01 6.825306e+01 6.176671e+01 6.662683e+01 4.827262e+01 5.058122e+01 4.268997e+01 3.524536e+01 3.752188e+01 3.406699e+01 3.650353e+00 1.679856e+00 1.624810e+00 2.387038e+00 4.129802e+00 3.445821e+00 3.848424e+00 3.400876e+00 2.989733e+00 2.894398e+00 2.373052e+00 2.122810e+00 1.232444e+00 4.791679e-01 2.886269e-01 2.094800e-01 3.600146e-01 5.617289e-01 5.340931e-01 6.186700e-01 5.493369e-01 4.793715e-01 4.835123e-01 4.001736e-01 3.515001e-01 1.722689e-01
<GCONST> 1.220189e+02
<STATE> 3
<MEAN> 39
 -7.340090e+00 -5.243645e-01 6.518881e+00 -1.626358e+00 -6.270689e+00 -6.222810e+00 -3.370473e+00 6.809533e-01 1.826598e+00 3.169925e+00 1.116204e-01 2.109694e+00 7.535652e+01 5.295358e-01 9.420764e-03 8.223774e-02 -3.585218e-01 -4.362636e-01 -2.210423e-01 -3.251617e-01 -3.438264e-01 -2.466370e-01 -1.418232e-01 -9.559342e-02 -1.714417e-01 1.963498e-01 6.939708e-02 3.174685e-02 5.040821e-03 -3.110920e-02 -4.094234e-02 3.127004e-03 -1.908821e-02 -3.574052e-02 -3.690166e-02 -2.840533e-02 -1.845521e-02 -2.072673e-02 -1.696303e-02
<VARIANCE> 39
 7.804133e+01 2.517825e+01 5.666778e+01 5.470596e+01 7.483243e+01 6.907860e+01 7.046503e+01 5.059786e+01 5.026241e+01 4.591323e+01 3.595050e+01 3.806198e+01 3.381966e+01 3.731456e+00 1.823477e+00 1.698670e+00 2.611209e+00 4.282553e+00 3.568834e+00 4.043303e+00 3.408613e+00 3.009884e+00 2.936837e+00 2.446984e+00 2.130703e+00 1.358474e+00 5.236315e-01 3.083004e-01 2.205133e-01 3.946097e-01 6.060607e-01 5.535385e-01 6.556080e-01 5.619164e-01 4.843901e-01 4.891435e-01 4.131428e-01 3.528858e-01 2.039111e-01
<GCONST> 1.240981e+02
<STATE> 4
<MEAN> 39
 -5.126756e+00 -2.990410e-01 6.749744e+00 -3.000371e+00 -7.901515e+00 -6.768926e+00 -4.439837e+00 -6.071206e-01 7.788152e-01 2.499621e+00 -3.325230e-01 1.420477e+00 7.575036e+01 6.195912e-01 1.073242e-01 3.867448e-02 -4.017888e-01 -4.746968e-01 -1.414255e-01 -3.011407e-01 -3.733776e-01 -2.900008e-01 -1.974666e-01 -1.223594e-01 -1.981097e-01 1.002296e-01 -7.322306e-03 2.662378e-02 -2.374530e-02 5.601751e-03 1.922829e-02 3.291370e-02 3.152920e-02 1.744370e-02 8.082826e-03 -9.705103e-04 4.597898e-03 6.604970e-03 -4.291930e-02
<VARIANCE> 39
 7.995082e+01 3.117760e+01 6.815402e+01 6.540446e+01 8.182954e+01 7.631869e+01 7.109543e+01 5.332349e+01 5.255581e+01 5.037981e+01 3.879444e+01 3.883871e+01 3.572863e+01 3.440237e+00 1.957956e+00 1.789850e+00 2.761970e+00 4.328709e+00 3.407078e+00 3.998264e+00 3.283828e+00 2.910839e+00 2.865027e+00 2.512657e+00 2.079241e+00 1.555768e+00 5.042683e-01 3.234977e-01 2.368636e-01 4.159658e-01 6.225652e-01 5.270197e-01 6.369395e-01 5.486273e-01 4.698542e-01 4.783637e-01 4.262715e-01 3.466574e-01 2.273440e-01
<GCONST> 1.254610e+02
<TRANSP> 5
 0.000000e+00 1.000000e+00 0.000000e+00 0.000000e+00 0.000000e+00
 0.000000e+00 6.594832e-01 3.405169e-01 0.000000e+00 0.000000e+00
 0.000000e+00 0.000000e+00 6.594827e-01 3.405173e-01 0.000000e+00
 0.000000e+00 0.000000e+00 0.000000e+00 7.664443e-01 2.335557e-01
 0.000000e+00 0.000000e+00 0.000000e+00 0.000000e+00 0.000000e+00
<ENDHMM>
~h "g"
<BEGINHMM>
<NUMSTATES> 5
<STATE> 2
<MEAN> 39
 2.537818e-01 2.612479e+00 7.021180e+00 -1.161528e+00 -6.957528e+00 -7.231976e+00 -6.481781e+00 -2.841688e+00 -2.549441e+00 -6.686270e-02 -3.202700e+00 -3.151063e+00 7.374706e+01 1.228750e-01 -4.687158e-01 -5.136976e-02 -3.630348e-01 -2.839409e-01 -3.625160e-01 -2.252265e-01 6.413328e-02 1.014638e-01 -3.279759e-03 -1.193949e-01 -1.153334e-01 6.843824e-01 -1.935534e-02 -1.143967e-01 -9.670180e-02 -5.571508e-02 4.820572e-02 8.590705e-02 5.763819e-02 4.705854e-02 9.410738e-02 1.876832e-02 3.350688e-02 1.352340e-02 1.310841e-02
<VARIANCE> 39
 3.625456e+01 9.570773e+01 6.373015e+01 6.420057e+01 6.968932e+01 6.025470e+01 5.685280e+01 5.316031e+01 6.150474e+01 5.708016e+01 5.310196e+01 4.090569e+01 7.619067e+01 2.156327e+00 4.264022e+00 2.902228e+00 3.169459e+00 5.888002e+00 3.886165e+00 3.683985e+00 4.032879e+00 3.945821e+00 3.834054e+00 2.788371e+00 2.937150e+00 2.957137e+00 3.821619e-01 5.597284e-01 4.309023e-01 5.313849e-01 1.082115e+00 6.548694e-01 6.368794e-01 7.252824e-01 6.809002e-01 7.281597e-01 5.130753e-01 5.060307e-01 3.690105e-01
<GCONST> 1.336725e+02
<STATE> 3
<MEAN> 39
 5.352206e-01 7.490668e-01 6.405881e+00 -2.429620e+00 -7.507869e+00 -7.812870e+00 -6.792077e+00 -2.462679e+00 -1.884113e+00 2.075011e-02 -3.395793e+00 -3.390354e+00 7.566632e+01 1.004025e-01 -7.105137e-01 -3.324461e-01 -4.664409e-01 -1.021190e-01 -9.610744e-02 -6.263909e-02 1.347892e-01 3.043095e-01 1.312697e-02 -7.019135e-02 -1.029380e-01 6.529166e-01 -8.991339e-04 -4.781350e-02 -8.960160e-02 -1.247267e-02 7.161100e-02 9.606883e-02 5.388347e-02 6.228942e-03 5.041615e-02 -8.455664e-04 1.419995e-02 -3.926107e-03 -3.847726e-02
<VARIANCE> 39
 3.755313e+01 9.747258e+01 7.321570e+01 6.905015e+01 7.075771e+01 5.820634e+01 5.635863e+01 5.458956e+01 6.373190e+01 5.669799e+01 5.730993e+01 4.558016e+01 6.738103e+01 1.790454e+00 3.997078e+00 3.052164e+00 3.067391e+00 6.242797e+00 3.660963e+00 3.431591e+00 3.767285e+00 3.741459e+00 3.831330e+00 2.826036e+00 2.957419e+00 2.747378e+00 3.232159e-01 5.294701e-01 4.509296e-01 5.153134e-01 1.138226e+00 6.060155e-01 6.075921e-01 6.787133e-01 6.557127e-01 7.293446e-01 5.268687e-01 5.094146e-01 3.395807e-01
<GCONST> 1.331112e+02
<STATE> 4
<MEAN> 39
 1.059747e+00 -1.775027e+00 4.761568e+00 -3.998961e+00 -7.400379e+00 -7.582063e+00 -6.681780e+00 -2.072873e+00 -8.796538e-01 -5.108505e-02 -3.661726e+00 -3.733814e+00 7.744122e+01 1.137463e-01 -6.441684e-01 -5.518392e-01 -3.844854e-01 1.665224e-01 1.680250e-01 5.761275e-02 8.138137e-02 3.434501e-01 -1.136628e-02 -6.736957e-02 -1.263447e-01 4.051593e-01 -1.290828e-03 5.814259e-02 -3.913775e-02 4.573556e-02 7.146896e-02 6.898000e-02 3.086829e-02 -2.194042e-02 -3.938305e-03 -3.032787e-03 1.129605e-02 -4.025037e-03 -9.815194e-02
<VARIANCE> 39
 4.101275e+01 8.642020e+01 8.525311e+01 6.764400e+01 7.485558e+01 6.005074e+01 5.592381e+01 5.706222e+01 6.959910e+01 5.394987e+01 6.312880e+01 5.241109e+01 5.336364e+01 1.387421e+00 3.615136e+00 2.991504e+00 2.783693e+00 5.974311e+00 3.274060e+00 3.064186e+00 3.612734e+00 3.521173e+00 3.550647e+00 2.920206e+00 2.864751e+00 2.490613e+00 2.426076e-01 4.432490e-01 4.418693e-01 4.436493e-01 1.064816e+00 5.267647e-01 5.434368e-01 6.235790e-01 6.047693e-01 6.628863e-01 5.311869e-01 4.895721e-01 2.717773e-01
<GCONST> 1.308904e+02
<TRANSP> 5
 0.000000e+00 1.000000e+00 0.000000e+00 0.000000e+00 0.000000e+00
 0.000000e+00 6.542755e-01 3.457244e-01 0.000000e+00 0.000000e+00
 0.000000e+00 0.000000e+00 6.542752e-01 3.457248e-01 0.000000e+00
 0.000000e+00 0.000000e+00 0.000000e+00 7.598344e-01 2.401656e-01
 0.000000e+00 0.000000e+00 0.000000e+00 0.000000e+00 0.000000e+00
<ENDHMM>
~h "i"
<BEGINHMM>
<NUMSTATES> 5
<STATE> 2
<MEAN> 39
 -5.957554e+00 6.219504e+00 1.367008e+01 -3.375319e+00 -7.600050e+00 -5.308516e+00 -8.690284e+00 -5.202756e+00 -4.014615e+00 -2.982326e+00 -1.970577e+00 -5.062120e-01 7.368259e+01 1.938349e-01 6.822477e-02 8.620350e-02 9.023368e-03 -1.185915e-01 -1.735101e-02 -1.528910e-01 -1.126504e-01 -1.058514e-01 -1.124179e-01 -2.667876e-02 -9.798914e-03 -1.223287e-01 -5.778023e-03 -3.083544e-02 -1.193385e-01 2.497255e-02 5.891812e-02 1.921621e-02 6.859151e-02 5.089851e-02 6.015835e-02 6.436998e-02 3.445765e-02 1.853376e-02 -4.778581e-02
<VARIANCE> 39
 5.983893e+01 3.069548e+01 8.124380e+01 6.790650e+01 6.618308e+01 4.988269e+01 7.071795e+01 4.590289e+01 5.747678e+01 5.781165e+01 4.631034e+01 3.919085e+01 4.089618e+01 2.023309e+00 1.761652e+00 3.543797e+00 2.578232e+00 3.937317e+00 3.231531e+00 4.218332e+00 3.004784e+00 3.114502e+00 3.361901e+00 2.415706e+00 1.998952e+00 1.529532e+00 2.913244e-01 3.065234e-01 4.190051e-01 4.062941e-01 6.300328e-01 5.715283e-01 6.565655e-01 5.228255e-01 5.010370e-01 5.228097e-01 4.241036e-01 3.508278e-01 1.888345e-01
<GCONST> 1.250451e+02
<STATE> 3
<MEAN> 39
 -5.401353e+00 6.323890e+00 1.357307e+01 -3.274341e+00 -7.787703e+00 -5.328168e+00 -8.955360e+00 -5.376637e+00 -4.139657e+00 -3.119545e+00 -1.962852e+00 -4.918193e-01 7.325074e+01 1.640793e-01 -2.009565e-02 -2.400803e-01 6.401619e-02 4.416813e-02 4.042730e-02 3.867807e-02 2.754891e-02 6.746937e-02 7.071172e-02 6.543960e-02 4.761716e-02 -2.350082e-01 -1.594491e-02 -4.157639e-02 -1.068395e-01 1.210441e-02 5.682954e-02 2.549496e-02 6.895766e-02 4.884538e-02 6.591024e-02 6.383710e-02 3.199340e-02 1.833323e-02 -3.130466e-02
<VARIANCE> 39
 5.251711e+01 3.275304e+01 7.805569e+01 6.726833e+01 6.407427e+01 5.174555e+01 6.613000e+01 4.318350e+01 5.404398e+01 5.669362e+01 4.483994e+01 3.871030e+01 4.530323e+01 1.817603e+00 1.715328e+00 3.339864e+00 2.475880e+00 3.800608e+00 3.078434e+00 3.892735e+00 2.863919e+00 3.032178e+00 3.267059e+00 2.346180e+00 1.995424e+00 1.634942e+00 2.639484e-01 2.890309e-01 3.998625e-01 3.902816e-01 5.973226e-01 5.367487e-01 6.034983e-01 4.951049e-01 4.804800e-01 5.069802e-01 4.092303e-01 3.483703e-01 1.887736e-01
<GCONST> 1.237022e+02
<STATE> 4
<MEAN> 39
 -4.790149e+00 6.144038e+00 1.250459e+01 -3.077133e+00 -7.533291e+00 -5.081532e+00 -8.624802e+00 -5.141123e+00 -3.754406e+00 -2.753590e+00 -1.658449e+00 -3.073450e-01 7.243439e+01 1.119240e-01 -1.381864e-01 -5.187586e-01 7.709314e-02 1.954016e-01 1.305611e-01 2.377292e-01 1.634167e-01 2.573484e-01 2.400374e-01 1.468823e-01 9.683246e-02 -3.053035e-01 -1.395783e-02 -4.193468e-02 -5.739886e-02 -6.671311e-03 3.234040e-02 2.783766e-02 4.881461e-02 3.427024e-02 4.869772e-02 3.756370e-02 2.102008e-02 6.979437e-03 -5.450610e-03
<VARIANCE> 39
 4.745865e+01 3.687542e+01 7.713576e+01 6.541944e+01 6.322884e+01 5.460342e+01 6.251084e+01 4.262060e+01 5.262644e+01 5.651191e+01 4.388039e+01 3.887050e+01 5.238163e+01 1.671488e+00 1.668465e+00 2.976431e+00 2.451982e+00 3.714981e+00 2.974561e+00 3.495350e+00 2.805415e+00 2.972909e+00 3.156392e+00 2.298137e+00 2.034111e+00 1.759259e+00 2.426518e-01 2.749017e-01 3.828300e-01 3.789926e-01 5.745549e-01 5.057956e-01 5.485846e-01 4.818079e-01 4.748940e-01 5.003429e-01 3.991726e-01 3.529445e-01 1.876857e-01
<GCONST> 1.228740e+02
<TRANSP> 5
 0.000000e+00 1.000000e+00 0.000000e+00 0.000000e+00 0.000000e+00
 0.000000e+00 6.429234e-01 3.570767e-01 0.000000e+00 0.000000e+00
 0.000000e+00 0.000000e+00 6.429251e-01 3.570748e-01 0.000000e+00
 0.000000e+00 0.000000e+00 0.000000e+00 7.475029e-01 2.524971e-01
 0.000000e+00 0.000000e+00 0.000000e+00 0.000000e+00 0.000000e+00
<ENDHMM>
~h "k"
<BEGINHMM>
<NUMSTATES> 5
<STATE> 2
<MEAN> 39
 -1.041287e+00 1.112534e+00 -6.917171e-01 -5.535449e+00 -2.650374e+00 -2.976825e+00 -3.837675e+00 -2.333074e+00 -1.782159e+00 3.211839e+00 -2.786252e-01 -2.797502e-01 7.278495e+01 5.787293e-01 -1.807642e-01 -8.058076e-02 -3.856615e-01 -4.528549e-01 -3.632180e-01 -3.691188e-01 -4.751647e-01 -2.463090e-01 -3.853814e-01 -2.730035e-01 -3.430343e-01 6.747392e-01 1.437229e-02 3.287749e-02 4.096873e-02 2.496977e-02 -2.426783e-02 4.682846e-02 1.107481e-02 -1.249412e-02 2.337603e-02 -4.616588e-02 2.095718e-03 -2.157539e-02 -5.346559e-02
<VARIANCE> 39
 5.551844e+01 4.973013e+01 6.882062e+01 6.147955e+01 8.047530e+01 6.429872e+01 5.943408e+01 6.937196e+01 7.054128e+01 7.454036e+01 5.687705e+01 5.172563e+01 5.837265e+01 3.213140e+00 3.078033e+00 4.219210e+00 4.174362e+00 6.732750e+00 3.862788e+00 3.731188e+00 4.489248e+00 4.301641e+00 5.228995e+00 3.591383e+00 3.087144e+00 3.055278e+00 5.281695e-01 5.375918e-01 7.763936e-01 7.539659e-01 1.148617e+00 6.481100e-01 6.296564e-01 7.107326e-01 7.164958e-01 9.293332e-01 6.202708e-01 5.081674e-01 3.830703e-01
<GCONST> 1.379062e+02
<STATE> 3
<MEAN> 39
 3.299961e-01 7.675650e-01 -8.541837e-01 -6.369885e+00 -3.696102e+00 -3.616693e+00 -4.617218e+00 -3.452843e+00 -2.289121e+00 2.187414e+00 -9.145645e-01 -1.146922e+00 7.417825e+01 4.937197e-01 -8.673264e-02 -3.851001e-02 -2.813019e-01 -3.666674e-01 -1.706598e-01 -2.579599e-01 -4.233410e-01 -1.701128e-01 -3.857022e-01 -2.233391e-01 -3.299854e-01 4.500430e-01 -5.697364e-02 4.055709e-02 8.607049e-03 5.339906e-02 5.881626e-02 8.393317e-02 6.033823e-02 3.748171e-02 3.512177e-02 2.191302e-02 3.192930e-02 2.112811e-02 -1.110024e-01
<VARIANCE> 39
 5.607877e+01 5.379512e+01 6.203777e+01 6.234243e+01 7.714056e+01 6.450861e+01 5.822442e+01 7.198113e+01 7.514910e+01 7.537461e+01 5.997204e+01 5.408229e+01 5.323258e+01 2.886466e+00 2.913545e+00 3.593450e+00 3.871082e+00 6.378648e+00 3.614054e+00 3.523149e+00 4.242329e+00 3.986742e+00 4.691627e+00 3.384320e+00 2.921424e+00 2.655725e+00 4.686764e-01 5.034757e-01 6.409197e-01 6.861383e-01 1.067979e+00 6.038862e-01 5.942762e-01 6.892545e-01 6.704578e-01 8.378124e-01 5.835800e-01 4.764408e-01 3.281880e-01
<GCONST> 1.357370e+02
<STATE> 4
<MEAN> 39
 1.392511e+00 7.875048e-01 -1.002552e+00 -6.884838e+00 -4.334895e+00 -3.605067e+00 -4.907632e+00 -4.341077e+00 -2.653366e+00 1.225177e+00 -1.355486e+00 -1.885845e+00 7.475729e+01 2.552568e-01 4.595580e-02 -3.496132e-02 -1.078533e-01 -1.250899e-01 4.695075e-02 -5.783935e-02 -2.570891e-01 -6.233641e-02 -2.383483e-01 -1.093167e-01 -2.096429e-01 1.016248e-01 -8.263680e-02 3.869892e-02 1.686241e-03 5.761340e-02 7.572870e-02 5.826272e-02 6.269049e-02 6.250699e-02 3.879497e-02 5.350914e-02 4.343327e-02 4.714744e-02 -1.138866e-01
<VARIANCE> 39
 5.410204e+01 5.803206e+01 5.815609e+01 6.340471e+01 7.214017e+01 6.334129e+01 5.558309e+01 7.112320e+01 7.898279e+01 7.142006e+01 6.114444e+01 5.596589e+01 4.929372e+01 2.441530e+00 2.612857e+00 2.920559e+00 3.419487e+00 5.386659e+00 3.124796e+00 3.195954e+00 3.886496e+00 3.601404e+00 3.955773e+00 3.078810e+00 2.706417e+00 2.322660e+00 3.787818e-01 4.428144e-01 5.012897e-01 5.890171e-01 8.899855e-01 5.298556e-01 5.420560e-01 6.418243e-01 6.068290e-01 7.021614e-01 5.297114e-01 4.378411e-01 2.792749e-01
<GCONST> 1.320384e+02
<TRANSP> 5
 0.000000e+00 1.000000e+00 0.000000e+00 0.000000e+00 0.000000e+00
 0.000000e+00 6.263193e-01 3.736807e-01 0.000000e+00 0.000000e+00
 0.000000e+00 0.000000e+00 6.263157e-01 3.736843e-01 0.000000e+00
 0.000000e+00 0.000000e+00 0.000000e+00 7.278950e-01 2.721050e-01
 0.000000e+00 0.000000e+00 0.000000e+00 0.000000e+00 0.000000e+00
<ENDHMM>
~h "l"
<BEGINHMM>
<NUMSTATES> 5
<STATE> 2
<MEAN> 39
 1.449544e-01 7.984387e-01 9.488808e+00 -2.309452e+00 -7.946514e+00 -8.884119e+00 -1.281654e+01 -2.288903e+00 -1.485078e+00 -1.394627e+00 -2.401207e+00 -2.457910e+00 7.560761e+01 3.242304e-01 -2.777365e-01 4.371353e-02 -3.833391e-01 -4.827175e-01 -2.456654e-01 -3.926874e-01 -2.489212e-01 -1.486185e-01 -1.176452e-01 -1.778537e-01 -1.495354e-01 6.759215e-01 -7.641359e-02 -9.879163e-03 -9.459163e-02 -2.476750e-02 4.535586e-02 1.450784e-01 1.727940e-01 3.224595e-02 4.503019e-02 6.141246e-02 4.838899e-02 3.605831e-02 -7.065222e-02
<VARIANCE> 39
 3.551560e+01 5.679840e+01 6.708772e+01 8.079922e+01 6.532664e+01 7.182104e+01 8.474261e+01 4.234848e+01 6.285323e+01 6.781168e+01 5.502142e+01 4.801290e+01 4.978265e+01 1.359283e+00 2.194796e+00 2.278569e+00 2.434844e+00 3.424147e+00 4.593086e+00 5.617286e+00 2.881817e+00 2.730560e+00 3.359982e+00 2.771956e+00 2.006075e+00 1.688605e+00 1.854528e-01 3.202196e-01 2.618704e-01 3.494782e-01 5.570725e-01 6.762487e-01 8.296079e-01 5.300839e-01 4.753046e-01 5.390931e-01 4.863434e-01 3.449491e-01 1.803459e-01
<GCONST> 1.255979e+02
<STATE> 3
<MEAN> 39
 6.152294e-01 -6.108284e-04 9.162187e+00 -3.464941e+00 -9.017994e+00 -8.787981e+00 -1.297258e+01 -2.821760e+00 -1.686616e+00 -1.415872e+00 -2.664105e+00 -2.710669e+00 7.704821e+01 1.017518e-01 -2.277953e-01 -1.956844e-01 -3.952441e-01 -3.046785e-01 1.519795e-01 9.628194e-02 -1.764304e-01 -5.073328e-02 3.004276e-02 -5.431288e-02 -6.981982e-02 4.015611e-01 -7.168716e-02 3.447482e-02 -7.372227e-02 1.066121e-02 7.076696e-02 1.171980e-01 1.542639e-01 2.220748e-02 2.689716e-02 4.059672e-02 4.296503e-02 2.470277e-02 -1.065143e-01
<VARIANCE> 39
 3.780800e+01 5.490036e+01 8.210181e+01 8.294582e+01 6.397416e+01 6.936102e+01 7.660464e+01 4.472034e+01 6.523128e+01 7.102347e+01 5.944356e+01 4.874928e+01 3.562426e+01 1.015224e+00 2.172207e+00 2.111174e+00 2.358643e+00 3.383437e+00 3.616056e+00 4.537517e+00 2.657675e+00 2.519817e+00 3.174406e+00 2.682462e+00 1.884148e+00 1.452748e+00 1.366904e-01 2.970748e-01 2.431546e-01 3.354121e-01 5.231293e-01 5.536153e-01 6.953808e-01 4.842332e-01 4.430856e-01 5.274789e-01 4.679943e-01 3.261701e-01 1.428679e-01
<GCONST> 1.228102e+02
<STATE> 4
<MEAN> 39
 5.084608e-01 -4.165082e-01 8.063675e+00 -4.690157e+00 -9.467600e+00 -7.576920e+00 -1.163532e+01 -3.284762e+00 -1.796737e+00 -1.144961e+00 -2.567335e+00 -2.801989e+00 7.760819e+01 -1.028411e-01 -1.610351e-02 -3.689845e-01 -2.661918e-01 -3.129214e-02 3.829970e-01 4.627323e-01 -1.100848e-01 5.123675e-03 1.115383e-01 7.510976e-02 7.224952e-03 2.481292e-02 -5.070438e-02 6.529653e-02 -3.684968e-02 4.857738e-02 8.073317e-02 3.711060e-02 7.578964e-02 2.438279e-02 1.628058e-02 1.976436e-02 3.970157e-02 2.530701e-02 -1.103053e-01
<VARIANCE> 39
 4.673561e+01 5.420018e+01 1.008961e+02 7.907853e+01 6.868196e+01 7.212682e+01 7.617052e+01 4.806015e+01 6.686596e+01 7.137238e+01 6.380267e+01 4.981272e+01 3.079772e+01 9.191205e-01 2.128534e+00 1.926205e+00 2.377438e+00 3.304731e+00 2.774753e+00 3.497608e+00 2.590983e+00 2.449208e+00 2.998157e+00 2.688890e+00 1.885623e+00 1.312837e+00 1.208428e-01 2.773093e-01 2.405035e-01 3.249566e-01 4.837761e-01 4.492039e-01 5.765413e-01 4.503945e-01 4.246921e-01 5.130888e-01 4.607232e-01 3.232141e-01 1.259145e-01
<GCONST> 1.213565e+02
<TRANSP> 5
 0.000000e+00 1.000000e+00 0.000000e+00 0.000000e+00 0.000000e+00
 0.000000e+00 6.420039e-01 3.579961e-01 0.000000e+00 0.000000e+00
 0.000000e+00 0.000000e+00 6.420009e-01 3.579991e-01 0.000000e+00
 0.000000e+00 0.000000e+00 0.000000e+00 7.464750e-01 2.535249e-01
 0.000000e+00 0.000000e+00 0.000000e+00 0.000000e+00 0.000000e+00
<ENDHMM>
~h "m"
<BEGINHMM>
<NUMSTATES> 5
<STATE> 2
<MEAN> 39
 3.075520e+00 2.044705e+00 3.921595e+00 -9.039006e-01 -4.773595e+00 -5.351462e+00 -7.827832e+00 -8.223274e+00 -6.874373e+00 -2.554951e+00 -1.859330e+00 -5.993232e+00 7.432079e+01 3.275705e-01 -2.756581e-01 -1.433598e-01 -3.399938e-01 -2.140521e-01 -1.289505e-01 -1.912382e-01 -1.618691e-01 -2.637218e-01 -3.376947e-01 -1.730559e-01 -1.990064e-01 6.331567e-01 -8.895074e-02 -3.144144e-02 -5.476184e-02 -9.502422e-02 2.356475e-02 1.138262e-01 7.927775e-02 1.379690e-01 1.155657e-01 2.504877e-02 1.510210e-02 8.385030e-02 -3.307541e-02
<VARIANCE> 39
 3.532473e+01 5.768671e+01 6.575672e+01 7.812084e+01 5.650501e+01 6.323162e+01 5.334433e+01 5.897836e+01 7.734660e+01 5.935813e+01 5.637315e+01 4.529601e+01 5.237782e+01 1.472721e+00 1.863156e+00 2.604756e+00 3.395691e+00 2.575851e+00 3.652707e+00 2.889383e+00 4.643102e+00 3.794974e+00 2.385014e+00 2.173484e+00 2.346741e+00 1.483658e+00 1.764623e-01 2.640774e-01 3.567113e-01 4.676631e-01 3.836348e-01 5.352401e-01 4.538409e-01 7.167028e-01 5.481546e-01 3.968703e-01 3.746691e-01 3.631820e-01 1.503130e-01
<GCONST> 1.235876e+02
<STATE> 3
<MEAN> 39
 3.497404e+00 1.151641e+00 3.326595e+00 -2.238415e+00 -5.219543e+00 -5.106120e+00 -7.927366e+00 -8.042970e+00 -7.024276e+00 -3.363689e+00 -2.259578e+00 -6.145965e+00 7.579828e+01 5.838492e-02 -2.905860e-01 -2.398259e-01 -5.241607e-01 -1.157032e-01 1.909720e-01 4.206051e-02 1.702714e-01 4.738995e-02 -2.656637e-01 -1.439567e-01 6.499995e-03 4.456464e-01 -8.530737e-02 1.641052e-02 -2.002753e-02 -3.406855e-02 3.460922e-02 9.256221e-02 7.418609e-02 9.182104e-02 9.147257e-02 2.818622e-02 1.018967e-02 5.979970e-02 -8.520919e-02
<VARIANCE> 39
 3.465156e+01 5.740115e+01 7.969066e+01 8.200346e+01 6.164284e+01 6.410749e+01 5.317380e+01 5.288270e+01 7.761221e+01 5.885672e+01 5.779609e+01 4.545286e+01 4.100593e+01 1.082438e+00 1.844096e+00 2.615912e+00 3.341660e+00 2.477085e+00 3.081161e+00 2.487348e+00 3.814247e+00 3.301452e+00 2.244581e+00 1.988494e+00 2.083627e+00 1.339247e+00 1.300312e-01 2.501630e-01 3.610359e-01 4.843011e-01 3.706350e-01 4.799416e-01 3.983876e-01 6.163685e-01 5.047793e-01 3.684343e-01 3.475725e-01 3.356484e-01 1.263770e-01
<GCONST> 1.209540e+02
<STATE> 4
<MEAN> 39
 3.254636e+00 4.614203e-01 2.632967e+00 -4.028710e+00 -5.428569e+00 -4.028210e+00 -7.449324e+00 -7.052940e+00 -6.536755e+00 -4.179628e+00 -2.741207e+00 -5.827033e+00 7.654478e+01 -1.625115e-01 -1.276290e-01 -2.162130e-01 -4.585658e-01 5.271204e-03 3.462224e-01 2.215301e-01 3.124602e-01 2.379581e-01 -1.424636e-01 -1.012478e-01 1.287249e-01 1.056427e-01 -5.148251e-02 5.848781e-02 1.389236e-02 4.952484e-02 3.349440e-02 1.852448e-02 4.188360e-02 2.173642e-02 3.777129e-02 4.612759e-02 2.235572e-02 2.833746e-02 -1.105159e-01
<VARIANCE> 39
 4.017683e+01 5.613582e+01 9.566547e+01 7.849297e+01 7.267659e+01 6.622884e+01 5.729946e+01 5.002482e+01 8.036051e+01 5.769686e+01 5.806130e+01 4.779238e+01 3.624915e+01 8.179929e-01 1.880438e+00 2.474081e+00 3.247944e+00 2.405392e+00 2.577909e+00 2.239445e+00 3.034468e+00 2.847317e+00 2.216992e+00 1.952376e+00 1.891219e+00 1.293487e+00 1.082798e-01 2.393110e-01 3.439968e-01 4.693576e-01 3.695196e-01 4.326782e-01 3.695295e-01 5.106934e-01 4.627191e-01 3.519076e-01 3.328556e-01 3.162599e-01 1.159031e-01
<GCONST> 1.191856e+02
<TRANSP> 5
 0.000000e+00 1.000000e+00 0.000000e+00 0.000000e+00 0.000000e+00
 0.000000e+00 6.403107e-01 3.596893e-01 0.000000e+00 0.000000e+00
 0.000000e+00 0.000000e+00 6.403092e-01 3.596908e-01 0.000000e+00
 0.000000e+00 0.000000e+00 0.000000e+00 7.446688e-01 2.553312e-01
 0.000000e+00 0.000000e+00 0.000000e+00 0.000000e+00 0.000000e+00
<ENDHMM>
~h "n"
<BEGINHMM>
<NUMSTATES> 5
<STATE> 2
<MEAN> 39
 1.709003e+00 1.746870e+00 5.605128e+00 -1.363385e+00 -7.373160e+00 -7.684909e+00 -6.521073e+00 -6.049680e+00 -5.671091e+00 -2.096226e+00 -4.876812e+00 -5.195302e+00 7.535759e+01 2.687380e-01 -4.410438e-01 -2.069887e-01 -2.577791e-01 -1.174740e-01 -1.860340e-01 -1.692570e-01 -7.848525e-02 -4.632130e-02 -3.244377e-01 -4.129789e-01 -1.441149e-01 6.243507e-01 -8.790433e-02 -8.750626e-02 -8.147690e-02 -3.415069e-02 8.603624e-02 9.152187e-02 7.228468e-02 1.509414e-01 1.254559e-01 1.762252e-02 4.808011e-02 6.247424e-02 -2.763848e-02
<VARIANCE> 39
 3.510551e+01 7.097266e+01 5.283609e+01 6.384501e+01 5.907207e+01 5.443966e+01 4.059222e+01 6.167434e+01 9.263382e+01 5.788465e+01 5.249236e+01 5.154264e+01 5.542934e+01 1.412160e+00 2.600676e+00 1.933448e+00 2.285234e+00 2.928094e+00 3.309981e+00 3.005920e+00 5.240927e+00 3.504827e+00 2.875649e+00 2.686337e+00 2.065760e+00 1.745760e+00 1.898387e-01 3.511674e-01 2.783286e-01 3.843408e-01 3.786661e-01 5.309915e-01 5.401193e-01 7.972461e-01 5.097525e-01 4.963176e-01 4.538139e-01 3.379960e-01 2.049742e-01
<GCONST> 1.242005e+02
<STATE> 3
<MEAN> 39
 2.013579e+00 2.956462e-02 4.693810e+00 -2.253978e+00 -7.245596e+00 -7.751853e+00 -6.674974e+00 -5.509189e+00 -5.177867e+00 -2.937817e+00 -5.813818e+00 -5.296685e+00 7.695179e+01 3.184500e-02 -6.160985e-01 -3.789200e-01 -3.266624e-01 1.328651e-01 8.732265e-02 4.513785e-03 2.643692e-01 2.797714e-01 -2.769620e-01 -2.806447e-01 -6.053675e-03 4.953265e-01 -6.311256e-02 -2.818301e-02 -4.346690e-02 -9.988550e-03 6.873355e-02 8.424612e-02 5.439675e-02 8.190922e-02 8.642256e-02 2.056308e-02 4.615252e-02 3.710676e-02 -6.030853e-02
<VARIANCE> 39
 3.310474e+01 7.244390e+01 6.252898e+01 6.585984e+01 6.353542e+01 5.259056e+01 4.029636e+01 5.951500e+01 9.974699e+01 5.884343e+01 5.635787e+01 5.183730e+01 4.498883e+01 9.400468e-01 2.582795e+00 2.014729e+00 2.259848e+00 2.558460e+00 2.954171e+00 2.795536e+00 4.676584e+00 3.279913e+00 2.930103e+00 2.568670e+00 1.847611e+00 1.639370e+00 1.356917e-01 3.457493e-01 2.903255e-01 3.902597e-01 3.361376e-01 4.796315e-01 5.035651e-01 7.740217e-01 5.071920e-01 4.921502e-01 4.391514e-01 3.105986e-01 1.899519e-01
<GCONST> 1.224085e+02
<STATE> 4
<MEAN> 39
 1.899520e+00 -2.140538e+00 3.318095e+00 -3.407593e+00 -6.421467e+00 -6.997815e+00 -6.474124e+00 -4.229911e+00 -3.919295e+00 -3.887445e+00 -6.560146e+00 -5.055088e+00 7.805215e+01 -9.830204e-02 -5.150743e-01 -4.063941e-01 -2.669666e-01 2.813192e-01 3.066393e-01 1.269926e-01 3.165190e-01 4.470943e-01 -1.722266e-01 -1.085950e-01 6.885222e-02 2.054103e-01 -2.103608e-02 6.047199e-02 5.842145e-03 3.176341e-02 2.240334e-02 4.389272e-02 3.276134e-02 -7.969305e-03 1.799764e-02 4.106579e-02 5.380499e-02 1.862834e-02 -9.866429e-02
<VARIANCE> 39
 3.373879e+01 6.667085e+01 7.449226e+01 6.425509e+01 7.915021e+01 5.957320e+01 4.564021e+01 5.380623e+01 1.081700e+02 5.862299e+01 6.101222e+01 5.163849e+01 4.135220e+01 6.598709e-01 2.781657e+00 1.993112e+00 2.226505e+00 2.299582e+00 2.607226e+00 2.750828e+00 3.849611e+00 3.071803e+00 3.018261e+00 2.469836e+00 1.770488e+00 1.783375e+00 1.071625e-01 3.361454e-01 2.779188e-01 3.803398e-01 3.206486e-01 4.308871e-01 4.750507e-01 6.715447e-01 5.006368e-01 4.865564e-01 4.137838e-01 2.945885e-01 1.832769e-01
<GCONST> 1.212892e+02
<TRANSP> 5
 0.000000e+00 1.000000e+00 0.000000e+00 0.000000e+00 0.000000e+00
 0.000000e+00 6.607045e-01 3.392955e-01 0.000000e+00 0.000000e+00
 0.000000e+00 0.000000e+00 6.607046e-01 3.392954e-01 0.000000e+00
 0.000000e+00 0.000000e+00 0.000000e+00 7.677366e-01 2.322634e-01
 0.000000e+00 0.000000e+00 0.000000e+00 0.000000e+00 0.000000e+00
<ENDHMM>
~h "o"
<BEGINHMM>
<NUMSTATES> 5
<STATE> 2
<MEAN> 39
 2.631085e+00 4.678131e+00 -9.379716e-01 -1.160321e+01 -6.032523e+00 -6.570871e-01 -7.606373e+00 -6.971657e+00 -2.901466e+00 2.098459e+00 -5.165491e-02 1.480106e-01 7.393456e+01 1.554304e-01 1.266025e-01 -2.223068e-02 -1.354702e-01 -1.977126e-01 6.502572e-02 8.193836e-02 -8.449700e-02 -1.412160e-01 -8.435334e-02 9.231307e-02 8.260725e-02 -1.802089e-01 -8.687803e-02 -9.843512e-03 1.817038e-02 1.062927e-01 6.572697e-02 -1.712388e-02 6.503157e-02 9.398866e-02 4.865825e-02 1.271796e-02 2.842351e-02 1.693203e-02 -7.049747e-02
<VARIANCE> 39
 6.004621e+01 3.821296e+01 3.881522e+01 7.846613e+01 6.946698e+01 5.944049e+01 5.771659e+01 6.204571e+01 5.947149e+01 6.153008e+01 4.484779e+01 4.121096e+01 3.676773e+01 2.231094e+00 1.574917e+00 1.664302e+00 3.696527e+00 3.593579e+00 2.331186e+00 3.260212e+00 3.960831e+00 2.916439e+00 2.930076e+00 2.595119e+00 2.189227e+00 1.537464e+00 2.792622e-01 2.558258e-01 2.757797e-01 5.019444e-01 5.701105e-01 3.996304e-01 5.252518e-01 5.913932e-01 4.780340e-01 5.141691e-01 4.616094e-01 3.853919e-01 1.828664e-01
<GCONST> 1.232545e+02
<STATE> 3
<MEAN> 39
 2.797318e+00 5.021211e+00 -9.522557e-01 -1.166451e+01 -6.375991e+00 -5.388508e-01 -7.186527e+00 -6.912679e+00 -3.154019e+00 1.919126e+00 2.743446e-01 4.461120e-01 7.323552e+01 -8.514003e-02 8.231626e-02 2.620020e-02 1.454915e-01 -2.260939e-02 3.408350e-03 2.417743e-01 1.760996e-01 8.728546e-03 -3.253906e-02 1.758677e-01 1.276749e-01 -3.423548e-01 -8.350602e-02 -2.819346e-02 1.692984e-02 9.171128e-02 5.805544e-02 -2.205333e-02 4.479516e-02 8.879277e-02 6.374396e-02 2.439405e-02 2.891427e-02 1.155737e-02 -4.127516e-02
<VARIANCE> 39
 5.191762e+01 3.868132e+01 3.752779e+01 7.480711e+01 6.372938e+01 5.608469e+01 5.572364e+01 6.045445e+01 5.742879e+01 5.951571e+01 4.581488e+01 4.308131e+01 4.019161e+01 2.007432e+00 1.497475e+00 1.585298e+00 3.410960e+00 3.197403e+00 2.247220e+00 3.013417e+00 3.677031e+00 2.914587e+00 2.871251e+00 2.667490e+00 2.211791e+00 1.541201e+00 2.427879e-01 2.370750e-01 2.587663e-01 4.661316e-01 5.070355e-01 3.827746e-01 4.891385e-01 5.461067e-01 4.697587e-01 4.985058e-01 4.643233e-01 3.880014e-01 1.761633e-01
<GCONST> 1.216102e+02
<STATE> 4
<MEAN> 39
 2.274147e+00 5.258557e+00 -7.990580e-01 -1.091936e+01 -6.249828e+00 -5.413811e-01 -6.229492e+00 -5.957832e+00 -2.866334e+00 1.870904e+00 9.292626e-01 9.465685e-01 7.196458e+01 -3.058269e-01 -1.897073e-02 7.641074e-02 3.712311e-01 1.179330e-01 -6.142387e-02 3.371816e-01 4.065178e-01 1.974943e-01 5.588585e-02 2.544345e-01 1.541231e-01 -4.130773e-01 -4.844366e-02 -3.834324e-02 1.523756e-02 4.576714e-02 2.739324e-02 -1.234377e-02 9.320339e-03 4.852907e-02 5.406718e-02 2.453461e-02 1.389486e-02 2.894897e-04 2.289807e-03
<VARIANCE> 39
 4.693398e+01 4.020591e+01 3.843377e+01 7.174118e+01 5.800309e+01 5.334036e+01 5.631501e+01 6.137035e+01 5.613335e+01 5.654742e+01 4.783814e+01 4.625621e+01 4.663792e+01 1.791276e+00 1.465383e+00 1.590958e+00 2.996958e+00 2.917112e+00 2.212299e+00 2.771572e+00 3.329898e+00 2.929181e+00 2.885439e+00 2.748999e+00 2.263321e+00 1.587829e+00 2.245565e-01 2.273008e-01 2.526824e-01 4.333532e-01 4.680265e-01 3.764278e-01 4.565735e-01 5.121459e-01 4.732150e-01 4.917215e-01 4.683822e-01 3.957307e-01 1.711773e-01
<GCONST> 1.206881e+02
<TRANSP> 5
 0.000000e+00 1.000000e+00 0.000000e+00 0.000000e+00 0.000000e+00
 0.000000e+00 6.444865e-01 3.555135e-01 0.000000e+00 0.000000e+00
 0.000000e+00 0.000000e+00 6.444877e-01 3.555123e-01 0.000000e+00
 0.000000e+00 0.000000e+00 0.000000e+00 7.495086e-01 2.504914e-01
 0.000000e+00 0.000000e+00 0.000000e+00 0.000000e+00 0.000000e+00
<ENDHMM>
~h "p"
<BEGINHMM>
<NUMSTATES> 5
<STATE> 2
<MEAN> 39
 -2.660601e+00 1.581525e+00 6.053323e+00 -3.080176e+00 -6.273829e+00 -4.440815e+00 -5.193262e+00 -2.186116e+00 -8.488591e-02 9.037637e-01 -7.404180e-01 -2.692697e-01 7.233536e+01 1.728226e-01 -1.244662e-01 4.833410e-01 -2.599089e-01 -5.860401e-01 -4.444177e-01 -4.520347e-01 -3.175533e-01 -2.791954e-01 -2.196494e-01 -1.905886e-01 -7.017788e-02 6.720079e-01 6.352720e-03 3.447113e-02 -1.396275e-02 -1.900862e-03 8.408239e-03 4.532754e-02 1.286594e-02 -1.194506e-02 -1.926939e-02 -6.168683e-03 8.283898e-03 -7.571266e-03 -4.422560e-02
<VARIANCE> 39
 4.553537e+01 4.685022e+01 9.330030e+01 6.506009e+01 7.419172e+01 7.416138e+01 6.535770e+01 5.565187e+01 5.948714e+01 5.396410e+01 4.651360e+01 4.364636e+01 6.897518e+01 2.637651e+00 2.691869e+00 3.533354e+00 3.301630e+00 4.986195e+00 4.615300e+00 4.487382e+00 4.151892e+00 3.780927e+00 3.535357e+00 3.227113e+00 2.593055e+00 3.897216e+00 4.109134e-01 4.508353e-01 4.589341e-01 5.300912e-01 7.800384e-01 7.411344e-01 7.123055e-01 6.927844e-01 6.173486e-01 5.697985e-01 5.481912e-01 4.310114e-01 4.559995e-01
<GCONST> 1.337179e+02
<STATE> 3
<MEAN> 39
 -2.337827e+00 1.410894e+00 7.171462e+00 -3.666761e+00 -7.582626e+00 -5.301990e+00 -6.150061e+00 -2.930178e+00 -7.767743e-01 4.014653e-01 -1.117493e+00 -4.254813e-01 7.369861e+01 1.228144e-01 -2.259986e-02 3.784841e-01 -2.062248e-01 -4.532697e-01 -2.762898e-01 -3.380689e-01 -2.785511e-01 -2.730760e-01 -1.899744e-01 -1.393784e-01 -6.260480e-02 4.495452e-01 -2.899836e-02 4.095543e-02 -5.753694e-02 3.234848e-02 7.136840e-02 7.115084e-02 6.274764e-02 3.146075e-02 1.637853e-02 2.253901e-02 2.873478e-02 9.446097e-03 -1.096819e-01
<VARIANCE> 39
 4.773788e+01 4.800761e+01 1.033201e+02 6.874018e+01 7.908634e+01 7.761668e+01 6.700577e+01 5.415277e+01 5.940554e+01 5.611100e+01 4.826104e+01 4.365847e+01 6.300628e+01 2.364212e+00 2.454663e+00 3.377809e+00 3.200473e+00 4.850439e+00 4.184293e+00 4.325663e+00 3.889718e+00 3.523262e+00 3.407048e+00 3.022532e+00 2.412975e+00 3.279428e+00 3.768681e-01 4.108631e-01 4.325788e-01 5.106671e-01 7.492554e-01 6.758857e-01 6.890160e-01 6.533731e-01 5.794291e-01 5.539089e-01 5.240229e-01 4.056717e-01 3.863863e-01
<GCONST> 1.322517e+02
<STATE> 4
<MEAN> 39
 -2.177997e+00 1.590060e+00 7.946425e+00 -4.054193e+00 -8.456842e+00 -5.672496e+00 -6.671103e+00 -3.481565e+00 -1.430620e+00 -1.158750e-02 -1.273635e+00 -4.885102e-01 7.429305e+01 1.879295e-02 8.296581e-02 1.819821e-01 -8.703238e-02 -2.023794e-01 -8.333100e-02 -1.402395e-01 -1.504514e-01 -1.819257e-01 -9.943277e-02 -4.229401e-02 -1.555641e-02 1.235536e-01 -3.316350e-02 2.977545e-02 -7.357734e-02 3.784769e-02 8.385178e-02 5.955618e-02 7.021835e-02 4.796865e-02 3.910721e-02 3.736977e-02 3.829234e-02 1.914077e-02 -1.107686e-01
<VARIANCE> 39
 5.160415e+01 4.851633e+01 1.077994e+02 7.156662e+01 8.152971e+01 7.858404e+01 6.688649e+01 5.232025e+01 5.842555e+01 5.691401e+01 4.921109e+01 4.362768e+01 5.787463e+01 2.017009e+00 2.158856e+00 3.097696e+00 2.923666e+00 4.330961e+00 3.602713e+00 3.964965e+00 3.482253e+00 3.211046e+00 3.182533e+00 2.797877e+00 2.199165e+00 2.693030e+00 3.233463e-01 3.594572e-01 3.879147e-01 4.686496e-01 6.654094e-01 5.871644e-01 6.268352e-01 5.884085e-01 5.258154e-01 5.214728e-01 4.893393e-01 3.747948e-01 3.147971e-01
<GCONST> 1.294577e+02
<TRANSP> 5
 0.000000e+00 1.000000e+00 0.000000e+00 0.000000e+00 0.000000e+00
 0.000000e+00 6.278350e-01 3.721649e-01 0.000000e+00 0.000000e+00
 0.000000e+00 0.000000e+00 6.278348e-01 3.721652e-01 0.000000e+00
 0.000000e+00 0.000000e+00 0.000000e+00 7.300466e-01 2.699534e-01
 0.000000e+00 0.000000e+00 0.000000e+00 0.000000e+00 0.000000e+00
<ENDHMM>
~h "s"
<BEGINHMM>
<NUMSTATES> 5
<STATE> 2
<MEAN> 39
 -1.311858e+01 4.389967e+00 2.548426e+00 -3.850164e+00 -2.188034e-01 -4.622376e+00 -1.895958e+00 1.412378e+00 2.609576e+00 3.277616e+00 1.024794e+00 1.468692e+00 7.477293e+01 3.584829e-01 -9.116223e-02 1.413782e-01 -1.885653e-01 -3.216160e-01 -9.627514e-02 -3.391183e-01 -3.070019e-01 -2.312619e-01 -1.970485e-01 -1.342876e-01 -1.907217e-01 2.377287e-01 1.750842e-01 -3.793915e-02 5.458168e-02 -1.351641e-02 -8.056887e-02 -1.043253e-02 -7.029150e-02 -6.541009e-02 -6.027893e-02 -5.997365e-02 -3.761430e-02 -4.339159e-02 -1.695990e-02
<VARIANCE> 39
 1.045323e+02 2.499213e+01 5.714867e+01 4.333678e+01 6.657223e+01 5.736478e+01 7.114292e+01 5.628428e+01 5.514941e+01 4.833255e+01 4.378765e+01 4.732912e+01 3.159197e+01 4.594375e+00 1.542507e+00 2.052138e+00 2.074620e+00 3.436253e+00 2.996255e+00 4.180110e+00 3.393277e+00 3.083035e+00 2.987440e+00 2.849165e+00 2.391562e+00 9.193709e-01 5.247188e-01 2.380886e-01 2.701485e-01 3.237140e-01 4.947964e-01 5.185957e-01 6.811628e-01 5.730475e-01 5.051696e-01 4.946100e-01 4.943235e-01 4.104123e-01 1.339627e-01
<GCONST> 1.235164e+02
<STATE> 3
<MEAN> 39
 -1.137403e+01 3.972531e+00 3.201343e+00 -4.441486e+00 -1.469448e+00 -4.981200e+00 -3.133602e+00 2.780921e-01 1.695619e+00 2.461141e+00 4.926770e-01 7.504073e-01 7.537099e+01 7.610113e-01 -1.635286e-01 2.701515e-01 -2.156811e-01 -5.179917e-01 -1.401166e-01 -4.913369e-01 -4.600665e-01 -3.817972e-01 -3.453768e-01 -2.217154e-01 -2.829623e-01 2.097684e-01 1.049334e-01 -1.332897e-02 3.217649e-02 7.109204e-04 -4.963982e-02 -9.388565e-03 -3.113041e-02 -3.687279e-02 -4.003610e-02 -3.787390e-02 -1.880984e-02 -1.919220e-02 -1.613728e-02
<VARIANCE> 39
 1.183684e+02 2.808901e+01 6.853245e+01 4.685624e+01 7.368212e+01 6.507384e+01 7.693443e+01 6.092320e+01 6.064362e+01 5.352306e+01 4.537321e+01 4.906160e+01 3.148840e+01 4.627478e+00 1.670032e+00 2.286700e+00 2.273754e+00 3.749715e+00 3.351172e+00 4.606551e+00 3.654027e+00 3.246840e+00 3.164639e+00 2.936676e+00 2.470157e+00 1.033679e+00 5.989051e-01 2.604756e-01 2.940987e-01 3.467011e-01 5.520449e-01 5.679224e-01 7.634934e-01 6.253852e-01 5.331615e-01 5.236363e-01 5.156648e-01 4.279338e-01 1.562553e-01
<GCONST> 1.267401e+02
<STATE> 4
<MEAN> 39
 -8.176342e+00 3.366728e+00 4.313715e+00 -5.132441e+00 -3.480066e+00 -5.434154e+00 -4.901480e+00 -1.415453e+00 1.212798e-01 1.041512e+00 -3.028721e-01 -2.784323e-01 7.588793e+01 8.972464e-01 -1.383997e-01 2.919533e-01 -1.595401e-01 -5.623796e-01 -1.242403e-01 -4.653927e-01 -4.872446e-01 -4.360345e-01 -3.907231e-01 -2.280025e-01 -2.783791e-01 1.198407e-01 -4.095220e-03 1.748850e-02 -1.131121e-02 2.518281e-02 1.495884e-02 1.469622e-02 3.303137e-02 1.514298e-02 4.915992e-03 7.227010e-03 1.209677e-02 1.653114e-02 -3.784205e-02
<VARIANCE> 39
 1.235831e+02 3.302720e+01 8.410637e+01 5.186937e+01 8.109115e+01 7.349935e+01 7.886419e+01 6.470544e+01 6.614198e+01 6.008439e+01 4.686897e+01 4.910792e+01 3.326563e+01 4.280357e+00 1.843468e+00 2.462956e+00 2.472269e+00 4.005909e+00 3.520256e+00 4.825126e+00 3.743746e+00 3.304086e+00 3.256348e+00 2.939191e+00 2.440218e+00 1.223203e+00 5.939546e-01 2.845131e-01 3.109012e-01 3.664212e-01 5.929103e-01 5.848218e-01 7.891432e-01 6.414998e-01 5.394914e-01 5.390360e-01 5.203352e-01 4.245745e-01 1.766547e-01
<GCONST> 1.289274e+02
<TRANSP> 5
 0.000000e+00 1.000000e+00 0.000000e+00 0.000000e+00 0.000000e+00
 0.000000e+00 6.599679e-01 3.400320e-01 0.000000e+00 0.000000e+00
 0.000000e+00 0.000000e+00 6.599675e-01 3.400324e-01 0.000000e+00
 0.000000e+00 0.000000e+00 0.000000e+00 7.667033e-01 2.332966e-01
 0.000000e+00 0.000000e+00 0.000000e+00 0.000000e+00 0.000000e+00
<ENDHMM>
~h "t"
<BEGINHMM>
<NUMSTATES> 5
<STATE> 2
<MEAN> 39
 -3.718494e+00 1.533076e+00 1.778436e+00 -5.440427e+00 -3.149333e+00 -3.394955e+00 -4.656878e+00 -1.111962e+00 1.538655e+00 8.976990e-01 -1.084723e+00 -1.396679e+00 7.415055e+01 3.817194e-01 -3.839883e-01 -3.238038e-02 -3.449140e-01 -2.904859e-01 -2.488667e-01 -3.382294e-01 -2.210485e-01 -1.008559e-01 -2.496437e-01 -4.048098e-01 -3.018322e-01 7.000388e-01 3.631304e-02 1.495924e-02 1.173656e-02 3.573612e-02 3.347580e-03 5.952331e-02 3.619150e-02 -1.038717e-02 -2.487075e-02 3.379613e-03 1.337801e-02 -5.818063e-04 -8.822078e-02
<VARIANCE> 39
 6.275828e+01 5.087111e+01 6.978282e+01 5.555683e+01 7.304003e+01 6.867212e+01 6.005379e+01 5.501826e+01 6.908721e+01 5.769016e+01 5.637183e+01 6.204913e+01 6.913200e+01 3.632420e+00 3.007583e+00 2.854418e+00 3.216930e+00 4.574594e+00 4.475526e+00 4.752810e+00 3.828760e+00 3.716167e+00 3.663809e+00 4.133623e+00 3.497818e+00 4.159435e+00 5.723569e-01 4.670334e-01 4.065107e-01 5.091785e-01 7.056751e-01 7.699716e-01 7.923353e-01 6.406789e-01 5.844827e-01 5.927889e-01 6.854631e-01 5.692165e-01 4.569775e-01
<GCONST> 1.355882e+02
<STATE> 3
<MEAN> 39
 -2.822525e+00 7.145997e-01 1.712177e+00 -6.102761e+00 -3.720060e+00 -3.736789e+00 -5.249531e+00 -1.613422e+00 1.265622e+00 3.790624e-01 -1.939569e+00 -2.041805e+00 7.541383e+01 3.559552e-01 -2.522267e-01 -1.332098e-02 -2.061518e-01 -2.072120e-01 -7.918040e-02 -1.895109e-01 -2.095357e-01 -1.358883e-01 -1.940552e-01 -2.874341e-01 -2.333408e-01 3.841271e-01 -2.640691e-02 6.634719e-02 4.125686e-03 5.821113e-02 3.870457e-02 6.319196e-02 6.578988e-02 1.219429e-02 -9.327278e-03 3.048155e-02 5.835333e-02 3.703288e-02 -1.361787e-01
<VARIANCE> 39
 6.301126e+01 5.359996e+01 8.054824e+01 5.651935e+01 7.779281e+01 7.257793e+01 6.055143e+01 5.618231e+01 7.151013e+01 5.954082e+01 5.989307e+01 6.357807e+01 6.296321e+01 3.297368e+00 2.944111e+00 2.707249e+00 2.984431e+00 4.470403e+00 4.071675e+00 4.444989e+00 3.722326e+00 3.527855e+00 3.525589e+00 3.899874e+00 3.200127e+00 3.441070e+00 5.165623e-01 4.446926e-01 3.841642e-01 4.736130e-01 6.804188e-01 7.132866e-01 7.442920e-01 6.291390e-01 5.623131e-01 5.737918e-01 6.506049e-01 5.225644e-01 3.835948e-01
<GCONST> 1.342659e+02
<STATE> 4
<MEAN> 39
 -2.066357e+00 4.843147e-01 1.709099e+00 -6.402966e+00 -4.013943e+00 -3.592453e+00 -5.390831e+00 -2.097092e+00 8.057660e-01 -4.613340e-03 -2.343870e+00 -2.370782e+00 7.565617e+01 2.120136e-01 -2.170946e-02 1.210527e-02 -3.800932e-02 -8.795004e-02 6.129996e-02 -2.684881e-02 -1.573144e-01 -1.327318e-01 -9.491760e-02 -8.919904e-02 -9.521002e-02 2.132425e-02 -4.517542e-02 6.822597e-02 2.928582e-03 4.583956e-02 3.405604e-02 3.949835e-02 5.029678e-02 2.204821e-02 3.427469e-03 3.419013e-02 6.149928e-02 4.375210e-02 -1.104176e-01
<VARIANCE> 39
 6.350313e+01 5.405195e+01 9.102426e+01 5.793511e+01 8.150334e+01 7.384552e+01 6.105328e+01 5.765403e+01 7.214319e+01 6.110653e+01 6.076176e+01 6.274223e+01 5.789730e+01 2.836347e+00 2.657613e+00 2.495200e+00 2.695397e+00 4.103837e+00 3.572824e+00 3.973465e+00 3.582061e+00 3.271891e+00 3.300813e+00 3.482219e+00 2.800107e+00 2.778592e+00 4.357005e-01 3.943620e-01 3.525352e-01 4.318631e-01 6.187332e-01 6.301038e-01 6.650533e-01 6.092016e-01 5.314806e-01 5.429698e-01 5.896981e-01 4.664171e-01 3.159270e-01
<GCONST> 1.317242e+02
<TRANSP> 5
 0.000000e+00 1.000000e+00 0.000000e+00 0.000000e+00 0.000000e+00
 0.000000e+00 6.343136e-01 3.656864e-01 0.000000e+00 0.000000e+00
 0.000000e+00 0.000000e+00 6.343123e-01 3.656877e-01 0.000000e+00
 0.000000e+00 0.000000e+00 0.000000e+00 7.374120e-01 2.625881e-01
 0.000000e+00 0.000000e+00 0.000000e+00 0.000000e+00 0.000000e+00
<ENDHMM>
~h "u"
<BEGINHMM>
<NUMSTATES> 5
<STATE> 2
<MEAN> 39
 1.024052e+00 7.334855e+00 3.731683e+00 -6.176558e+00 -5.397930e+00 -4.196651e+00 -8.639623e+00 -6.181274e+00 -5.004605e+00 -1.267518e+00 -4.313139e+00 -2.567034e+00 7.276776e+01 -1.221672e-01 9.299089e-02 2.913491e-01 2.149733e-01 -8.635890e-02 -2.058661e-01 -7.191266e-02 3.520954e-02 -5.669134e-02 -1.425008e-01 2.007909e-02 -1.070955e-01 -9.107131e-02 -9.350367e-02 -2.572864e-02 1.335265e-02 5.155728e-02 3.513414e-02 1.026576e-02 7.259589e-02 7.410832e-02 6.633210e-02 3.265075e-02 4.841070e-02 5.145040e-02 -3.134672e-02
<VARIANCE> 39
 6.918977e+01 4.512191e+01 4.020554e+01 6.534679e+01 6.332102e+01 6.133326e+01 6.121932e+01 6.281135e+01 5.792151e+01 5.459341e+01 4.477090e+01 3.724126e+01 3.195606e+01 2.447132e+00 2.137981e+00 1.790533e+00 2.967747e+00 3.366388e+00 2.488116e+00 3.984924e+00 4.808542e+00 3.894368e+00 3.215052e+00 2.748003e+00 2.322211e+00 1.120197e+00 2.824208e-01 3.585599e-01 3.048752e-01 4.817598e-01 5.506223e-01 4.509211e-01 6.498610e-01 7.611630e-01 6.391109e-01 5.862364e-01 4.872738e-01 4.174297e-01 1.593966e-01
<GCONST> 1.252404e+02
<STATE> 3
<MEAN> 39
 3.106654e-01 7.496746e+00 4.583405e+00 -5.390546e+00 -5.493404e+00 -4.767276e+00 -8.553911e+00 -5.782301e+00 -4.935591e+00 -1.520608e+00 -4.085438e+00 -2.650552e+00 7.241090e+01 -3.620849e-01 2.960745e-03 3.292190e-01 3.233125e-01 -2.785300e-02 -1.854234e-01 1.138149e-01 2.191472e-01 1.208473e-01 -2.929319e-02 1.591873e-01 5.834751e-02 -1.452089e-01 -7.296886e-02 -4.683461e-02 1.119253e-02 2.336964e-02 5.080150e-03 9.173531e-03 5.159415e-02 4.791725e-02 5.932432e-02 4.718837e-02 4.937739e-02 6.135174e-02 -4.110924e-03
<VARIANCE> 39
 6.995500e+01 4.497370e+01 4.254959e+01 6.255786e+01 5.995564e+01 5.853459e+01 6.005405e+01 6.028122e+01 5.231266e+01 5.163165e+01 4.587979e+01 3.750579e+01 3.767064e+01 2.265446e+00 2.245635e+00 1.757390e+00 2.761100e+00 3.426868e+00 2.515257e+00 3.819818e+00 4.405538e+00 3.618571e+00 3.220898e+00 2.751322e+00 2.335088e+00 1.323209e+00 2.671059e-01 3.640899e-01 3.027087e-01 4.517494e-01 5.510561e-01 4.444787e-01 6.302339e-01 7.097495e-01 5.959874e-01 5.699609e-01 4.776493e-01 4.183578e-01 1.778589e-01
<GCONST> 1.247872e+02
<STATE> 4
<MEAN> 39
 -1.243547e+00 7.282944e+00 5.736738e+00 -4.239603e+00 -5.568641e+00 -5.304942e+00 -7.870669e+00 -4.767978e+00 -4.267744e+00 -1.455633e+00 -3.310873e+00 -2.092707e+00 7.190416e+01 -5.176168e-01 -1.606063e-01 3.737246e-01 3.418423e-01 -6.826600e-02 -1.527935e-01 2.188039e-01 3.115022e-01 2.559856e-01 1.089991e-01 2.920142e-01 2.354191e-01 -1.124797e-01 -1.651027e-02 -5.034560e-02 1.285885e-02 -1.188763e-02 -3.086333e-02 1.072760e-02 6.085017e-03 2.960293e-03 2.531935e-02 3.285060e-02 2.827883e-02 3.838469e-02 2.340044e-02
<VARIANCE> 39
 7.365282e+01 4.477660e+01 4.719458e+01 5.799649e+01 6.015892e+01 5.562761e+01 6.041342e+01 5.791275e+01 4.981469e+01 5.115857e+01 4.761948e+01 3.969442e+01 4.693712e+01 2.027984e+00 2.341620e+00 1.786165e+00 2.555501e+00 3.658197e+00 2.569058e+00 3.574204e+00 3.829625e+00 3.311640e+00 3.250672e+00 2.725714e+00 2.265351e+00 1.570142e+00 2.562154e-01 3.679920e-01 2.986237e-01 4.191201e-01 5.686968e-01 4.413115e-01 5.993662e-01 6.361645e-01 5.535936e-01 5.545931e-01 4.699821e-01 4.133482e-01 1.932498e-01
<GCONST> 1.245371e+02
<TRANSP> 5
 0.000000e+00 1.000000e+00 0.000000e+00 0.000000e+00 0.000000e+00
 0.000000e+00 6.432003e-01 3.567998e-01 0.000000e+00 0.000000e+00
 0.000000e+00 0.000000e+00 6.431993e-01 3.568007e-01 0.000000e+00
 0.000000e+00 0.000000e+00 0.000000e+00 7.484270e-01 2.515730e-01
 0.000000e+00 0.000000e+00 0.000000e+00 0.000000e+00 0.000000e+00
<ENDHMM>
~h "v"
<BEGINHMM>
<NUMSTATES> 5
<STATE> 2
<MEAN> 39
 -6.368268e-01 2.694638e+00 7.913533e+00 3.224962e-01 -6.716245e+00 -8.934319e+00 -8.377424e+00 -3.871669e+00 -8.211561e-01 -1.916699e-01 -3.060541e+00 -1.032287e+00 7.487411e+01 1.617936e-01 -1.491461e-01 1.183592e-01 -2.929589e-01 -3.646496e-01 -2.693219e-01 -1.381864e-01 -2.309802e-01 -1.673118e-01 -1.306289e-01 1.551451e-03 -7.390213e-02 4.748269e-01 -3.864644e-02 -3.384277e-02 -2.937611e-02 -6.667478e-02 -4.978606e-03 7.658739e-02 6.868210e-02 4.348920e-02 2.382507e-02 9.682324e-03 5.487525e-02 2.481055e-02 -3.134174e-02
<VARIANCE> 39
 3.926711e+01 4.219071e+01 5.294798e+01 6.678810e+01 6.450820e+01 7.168219e+01 4.382786e+01 2.893553e+01 4.363377e+01 3.839457e+01 3.004170e+01 3.045611e+01 5.119236e+01 1.583609e+00 2.118939e+00 1.691625e+00 2.314075e+00 3.444336e+00 3.302473e+00 2.867227e+00 1.980432e+00 1.848838e+00 2.403150e+00 1.937868e+00 1.694892e+00 1.493406e+00 2.573280e-01 3.053412e-01 2.198103e-01 2.973640e-01 5.004062e-01 5.047818e-01 4.751734e-01 3.320558e-01 3.164627e-01 3.850496e-01 3.305524e-01 2.961694e-01 1.615389e-01
<GCONST> 1.161024e+02
<STATE> 3
<MEAN> 39
 -3.823457e-01 2.103284e+00 8.066011e+00 -8.310819e-01 -7.788406e+00 -9.285016e+00 -8.420999e+00 -4.252054e+00 -1.180442e+00 -5.179366e-01 -2.805909e+00 -1.117556e+00 7.602623e+01 4.907363e-02 -1.850744e-01 2.763847e-02 -4.307003e-01 -3.575025e-01 -3.952733e-02 6.013107e-02 -9.027134e-02 -1.014147e-01 -1.238489e-01 1.182528e-01 -2.905410e-02 3.353942e-01 -3.635878e-02 6.802714e-03 -3.216280e-02 -2.643776e-02 1.134927e-02 7.284091e-02 6.218935e-02 4.482510e-02 2.070026e-02 5.514175e-05 3.020696e-02 1.109093e-02 -5.925472e-02
<VARIANCE> 39
 4.299825e+01 4.020704e+01 6.139956e+01 7.521472e+01 6.545676e+01 7.448329e+01 4.323129e+01 2.917174e+01 4.495462e+01 4.300808e+01 3.162217e+01 3.133387e+01 4.087566e+01 1.368344e+00 2.168305e+00 1.722349e+00 2.331774e+00 3.574886e+00 2.887185e+00 2.573546e+00 1.927095e+00 1.824688e+00 2.459186e+00 1.848407e+00 1.563966e+00 1.322675e+00 2.154640e-01 3.075474e-01 2.209010e-01 3.105809e-01 5.061804e-01 4.426863e-01 4.290058e-01 3.333586e-01 3.088742e-01 3.855434e-01 3.265353e-01 2.775340e-01 1.424810e-01
<GCONST> 1.153223e+02
<STATE> 4
<MEAN> 39
 -3.497977e-01 1.603134e+00 7.833251e+00 -2.451130e+00 -8.895723e+00 -8.848006e+00 -7.836016e+00 -4.146338e+00 -1.471561e+00 -9.993533e-01 -2.296320e+00 -1.161059e+00 7.663089e+01 -7.445094e-02 -5.962810e-02 -9.688023e-02 -3.949983e-01 -2.259784e-01 1.754773e-01 2.316025e-01 5.543063e-02 -2.575875e-02 -1.147063e-01 1.634849e-01 -1.348787e-02 7.705734e-02 -3.468696e-02 4.785870e-02 -3.437018e-02 3.052925e-02 5.105817e-02 4.895588e-02 4.225187e-02 3.596408e-02 2.219992e-02 1.368101e-02 1.049432e-02 1.033916e-02 -8.319645e-02
<VARIANCE> 39
 5.220422e+01 4.031592e+01 7.361475e+01 7.880164e+01 6.951025e+01 8.201300e+01 4.959573e+01 3.293784e+01 5.052914e+01 4.883171e+01 3.552559e+01 3.341043e+01 3.720919e+01 1.293930e+00 2.215385e+00 1.752971e+00 2.306662e+00 3.683801e+00 2.525760e+00 2.471773e+00 1.997860e+00 1.905933e+00 2.557508e+00 1.917360e+00 1.538702e+00 1.262404e+00 1.822616e-01 3.031203e-01 2.271751e-01 3.125979e-01 4.997240e-01 3.955437e-01 4.006168e-01 3.533486e-01 3.138672e-01 3.920576e-01 3.358891e-01 2.716553e-01 1.294264e-01
<GCONST> 1.160740e+02
<TRANSP> 5
 0.000000e+00 1.000000e+00 0.000000e+00 0.000000e+00 0.000000e+00
 0.000000e+00 6.585755e-01 3.414245e-01 0.000000e+00 0.000000e+00
 0.000000e+00 0.000000e+00 6.585757e-01 3.414243e-01 0.000000e+00
 0.000000e+00 0.000000e+00 0.000000e+00 7.655316e-01 2.344684e-01
 0.000000e+00 0.000000e+00 0.000000e+00 0.000000e+00 0.000000e+00
<ENDHMM>
~h "y"
<BEGINHMM>
<NUMSTATES> 5
<STATE> 2
<MEAN> 39
 -2.106357e-01 1.332991e-01 9.719650e+00 3.962572e+00 -1.033099e+01 -1.300923e+01 -1.090749e+01 -4.598133e+00 -5.102931e+00 -9.677941e-01 -4.624796e+00 -1.149866e+00 7.519708e+01 1.971614e-01 -7.343569e-02 -2.345653e-01 -3.444195e-01 -1.129211e-01 7.766034e-02 -1.056211e-01 -1.630680e-01 9.480655e-02 3.853676e-02 -3.766214e-02 1.117213e-01 1.241122e-01 -4.855844e-02 5.574895e-02 -2.786203e-02 -6.930162e-02 4.826874e-02 8.828004e-02 1.213197e-01 4.363007e-02 2.821221e-02 -2.088805e-03 6.060755e-02 1.334121e-02 -8.873223e-02
<VARIANCE> 39
 3.871564e+01 3.959369e+01 6.106542e+01 9.440025e+01 4.343950e+01 6.433618e+01 6.631116e+01 4.528450e+01 6.857600e+01 7.867918e+01 4.586604e+01 3.135810e+01 3.848650e+01 1.369387e+00 1.801218e+00 1.829114e+00 2.325135e+00 2.856504e+00 3.646997e+00 3.263148e+00 2.709211e+00 3.341071e+00 4.141747e+00 2.593819e+00 2.441108e+00 1.079994e+00 2.206684e-01 2.705994e-01 2.469258e-01 3.008919e-01 4.605044e-01 5.287042e-01 4.884253e-01 4.761671e-01 5.664675e-01 6.592270e-01 4.458642e-01 4.724104e-01 1.199143e-01
<GCONST> 1.215996e+02
<STATE> 3
<MEAN> 39
 1.897030e-01 1.913207e-01 8.996508e+00 2.808708e+00 -1.051877e+01 -1.254443e+01 -1.076434e+01 -4.862240e+00 -4.830101e+00 -9.620287e-01 -4.524723e+00 -7.745551e-01 7.521950e+01 7.839306e-02 7.882896e-02 -3.054608e-01 -5.123347e-01 -1.832992e-04 2.864647e-01 2.075782e-01 -1.557298e-02 1.679735e-01 5.786502e-03 1.251225e-01 1.474385e-01 -1.176650e-01 -5.128666e-02 4.218204e-02 -1.406917e-02 -4.875108e-02 3.636384e-02 7.566903e-02 1.124285e-01 5.843982e-02 2.397885e-02 -9.111780e-03 6.190867e-02 1.382418e-02 -8.018203e-02
<VARIANCE> 39
 3.559055e+01 4.007525e+01 6.521670e+01 1.097288e+02 4.180099e+01 6.705117e+01 6.492058e+01 4.879856e+01 7.033554e+01 7.319346e+01 4.540808e+01 3.005249e+01 4.139885e+01 1.080118e+00 1.634482e+00 1.688981e+00 2.235047e+00 2.736729e+00 3.297732e+00 3.089861e+00 2.799537e+00 2.982210e+00 3.764830e+00 2.550441e+00 2.312012e+00 1.027037e+00 1.655635e-01 2.425814e-01 2.189493e-01 3.013434e-01 4.248153e-01 4.701056e-01 4.621724e-01 4.844850e-01 5.139899e-01 6.071453e-01 4.426967e-01 4.512612e-01 1.039362e-01
<GCONST> 1.196974e+02
<STATE> 4
<MEAN> 39
 3.868570e-01 8.537095e-01 7.926254e+00 9.315212e-01 -1.041456e+01 -1.120904e+01 -9.559281e+00 -4.623304e+00 -4.358158e+00 -1.212787e+00 -3.812886e+00 -2.370880e-01 7.430392e+01 -6.526856e-02 1.843167e-01 -3.510351e-01 -6.127366e-01 1.033427e-01 4.904816e-01 4.989353e-01 1.804773e-01 2.446681e-01 3.486685e-05 2.763013e-01 1.873878e-01 -3.386591e-01 -4.224027e-02 1.137616e-02 1.553938e-03 -6.524282e-03 1.998767e-02 5.432136e-02 6.567401e-02 4.851439e-02 2.062690e-02 5.004517e-03 4.254097e-02 1.174060e-02 -4.698269e-02
<VARIANCE> 39
 3.385208e+01 4.434954e+01 6.584114e+01 1.268951e+02 4.414706e+01 7.644242e+01 6.456651e+01 5.216661e+01 6.669106e+01 6.210839e+01 4.590851e+01 2.952635e+01 5.217916e+01 8.544537e-01 1.471046e+00 1.531702e+00 2.111490e+00 2.663217e+00 3.005146e+00 2.803796e+00 2.831054e+00 2.754229e+00 3.429318e+00 2.469886e+00 2.190257e+00 9.454924e-01 1.209817e-01 2.156876e-01 1.940419e-01 2.966070e-01 3.837633e-01 4.345571e-01 4.321453e-01 4.847399e-01 4.724817e-01 5.448561e-01 4.432707e-01 4.297387e-01 9.572635e-02
<GCONST> 1.179785e+02
<TRANSP> 5
 0.000000e+00 1.000000e+00 0.000000e+00 0.000000e+00 0.000000e+00
 0.000000e+00 6.346831e-01 3.653169e-01 0.000000e+00 0.000000e+00
 0.000000e+00 0.000000e+00 6.346833e-01 3.653167e-01 0.000000e+00
 0.000000e+00 0.000000e+00 0.000000e+00 7.377659e-01 2.622341e-01
 0.000000e+00 0.000000e+00 0.000000e+00 0.000000e+00 0.000000e+00
<ENDHMM>
~h "sil"
<BEGINHMM>
<NUMSTATES> 5
<STATE> 2
<MEAN> 39
 -4.816112e+00 3.910447e+00 2.376436e+00 -1.568117e+00 -1.216683e+00 4.975491e-01 -8.010671e-01 8.195300e-01 2.109042e+00 3.284245e+00 2.222138e+00 1.327718e+00 6.544608e+01 -2.104189e-01 9.238818e-02 -7.678029e-02 4.949476e-02 1.712942e-01 -5.592093e-02 7.246666e-02 1.506516e-01 1.334668e-01 1.613126e-01 1.075042e-01 1.190508e-01 -1.256119e-01 2.047024e-02 -2.380455e-02 1.682051e-02 -2.446358e-02 -2.553815e-02 -5.016530e-02 -6.317730e-02 -3.650448e-02 -2.503267e-02 -2.002975e-02 -3.414539e-02 -3.102840e-02 1.111387e-01
<VARIANCE> 39
 3.510890e+01 3.637574e+01 5.210726e+01 5.365318e+01 6.460451e+01 5.575421e+01 4.757537e+01 4.543881e+01 4.335350e+01 4.319142e+01 3.928979e+01 3.943525e+01 5.993099e+01 1.355826e+00 1.049777e+00 1.441766e+00 1.589705e+00 1.886424e+00 2.145264e+00 2.428304e+00 2.469456e+00 2.403453e+00 2.347503e+00 2.311614e+00 1.978363e+00 1.789597e+00 1.603274e-01 1.526067e-01 1.975181e-01 2.336269e-01 2.781692e-01 3.142323e-01 3.461781e-01 3.602853e-01 3.589048e-01 3.541668e-01 3.394179e-01 3.058189e-01 1.421593e-01
<GCONST> 1.122272e+02
<STATE> 3
<MEAN> 39
 -5.135554e+00 4.092111e+00 2.257933e+00 -1.587518e+00 -9.930372e-01 8.916855e-03 -9.878819e-01 9.536641e-01 2.268768e+00 3.541183e+00 2.288639e+00 1.444053e+00 6.569298e+01 -5.823601e-02 7.011341e-03 -7.475691e-03 -2.904315e-02 2.511489e-02 -2.070967e-01 -1.373532e-01 2.246261e-03 2.527328e-02 5.529795e-02 -1.233092e-02 4.238653e-03 2.096070e-01 7.540525e-02 -2.881846e-02 3.114974e-02 -2.881148e-02 -6.590148e-02 -5.076326e-02 -7.643455e-02 -6.547868e-02 -5.335915e-02 -5.663203e-02 -5.675016e-02 -5.020710e-02 1.194383e-01
<VARIANCE> 39
 3.812443e+01 3.757554e+01 4.886456e+01 5.104035e+01 5.760398e+01 5.594242e+01 4.874157e+01 4.551809e+01 4.451195e+01 4.315993e+01 4.100864e+01 4.068566e+01 5.323303e+01 1.854105e+00 1.292842e+00 1.643278e+00 1.863366e+00 2.306381e+00 2.630237e+00 2.830771e+00 2.865257e+00 2.740627e+00 2.634532e+00 2.582159e+00 2.214046e+00 2.255388e+00 2.388457e-01 2.068727e-01 2.495497e-01 2.963604e-01 3.698589e-01 4.234842e-01 4.436964e-01 4.587527e-01 4.447127e-01 4.370879e-01 4.167965e-01 3.721253e-01 1.968364e-01
<GCONST> 1.177420e+02
<STATE> 4
<MEAN> 39
 -4.583440e+00 3.948872e+00 2.414576e+00 -1.931687e+00 -1.531591e+00 -9.151428e-01 -1.886986e+00 5.565314e-01 1.959825e+00 3.270685e+00 1.963066e+00 1.189520e+00 6.696164e+01 1.528634e-01 -1.090567e-01 4.772312e-02 -1.110667e-01 -1.714312e-01 -2.395426e-01 -2.487149e-01 -1.157798e-01 -7.976642e-02 -7.851005e-02 -1.054925e-01 -8.433533e-02 3.930281e-01 5.373391e-02 -2.586132e-02 1.117591e-02 -2.342979e-02 -5.007508e-02 -1.904869e-03 -1.953900e-02 -3.056931e-02 -3.083565e-02 -4.006837e-02 -2.915153e-02 -2.548238e-02 3.843276e-02
<VARIANCE> 39
 4.613010e+01 4.270743e+01 5.131668e+01 5.262862e+01 5.640062e+01 6.043830e+01 5.556962e+01 4.876034e+01 5.079550e+01 4.737302e+01 4.750281e+01 4.450843e+01 5.929170e+01 1.988446e+00 1.483728e+00 1.645460e+00 2.031167e+00 2.748521e+00 2.812514e+00 2.953239e+00 2.896156e+00 2.755957e+00 2.707100e+00 2.577922e+00 2.215386e+00 2.087608e+00 2.719269e-01 2.307563e-01 2.453700e-01 3.055615e-01 4.169978e-01 4.380561e-01 4.552547e-01 4.544500e-01 4.272048e-01 4.238268e-01 4.021899e-01 3.516849e-01 2.032880e-01
<GCONST> 1.198031e+02
<TRANSP> 5
 0.000000e+00 1.000000e+00 0.000000e+00 0.000000e+00 0.000000e+00
 0.000000e+00 6.457549e-01 3.542451e-01 0.000000e+00 0.000000e+00
 0.000000e+00 0.000000e+00 6.457528e-01 3.542472e-01 0.000000e+00
 0.000000e+00 0.000000e+00 0.000000e+00 7.509125e-01 2.490876e-01
 0.000000e+00 0.000000e+00 0.000000e+00 0.000000e+00 0.000000e+00
<ENDHMM>
