~o
<STREAMINFO> 1 39
<VECSIZE> 39<NULLD><MFCC_D_A_0><DIAGC>
~h "A"
<BEGINHMM>
<NUMSTATES> 5
<STATE> 2
<MEAN> 39
 4.584406e+00 -3.255628e+00 -7.460888e+00 -1.304907e+01 -2.835090e+00 3.100718e+00 -5.434504e+00 -6.516172e+00 -3.819710e+00 -4.979908e+00 -1.841264e+00 -6.267235e+00 8.026832e+01 3.603682e-01 -3.161445e-02 -6.151502e-01 -4.744678e-01 -1.519414e-01 7.767355e-01 1.323237e+00 3.709168e-01 -1.020266e+00 -1.495305e+00 3.633051e-01 1.281573e-01 -1.373817e-01 -3.708362e-01 4.089800e-01 4.821839e-01 5.515833e-01 1.845859e-02 -5.208693e-01 4.746697e-02 1.906177e-01 4.897238e-02 1.796877e-01 -9.814484e-02 5.893794e-02 -3.646719e-01
<VARIANCE> 39
 3.364978e+01 2.271806e+01 2.279021e+01 2.721576e+01 3.786625e+01 5.386327e+01 5.159481e+01 3.719584e+01 6.690324e+01 6.736656e+01 4.302914e+01 4.216463e+01 1.974777e+01 4.285882e-01 1.205269e+00 1.265231e+00 1.626520e+00 1.715811e+00 2.587651e+00 2.486473e+00 2.340378e+00 2.547305e+00 2.582705e+00 2.338920e+00 1.908780e+00 4.856376e-01 2.473425e-01 1.661631e-01 1.846026e-01 2.647233e-01 3.313665e-01 3.857828e-01 5.380290e-01 5.878215e-01 4.999366e-01 5.194570e-01 4.675988e-01 4.384932e-01 7.331876e-02
<GCONST> 1.098329e+02
<STATE> 3
<MEAN> 39
 5.237058e+00 5.287621e-01 -5.787776e+00 -1.035964e+01 -4.382032e+00 4.991173e-01 -2.414879e+00 -5.115128e+00 -8.785707e+00 -9.222163e+00 -3.464226e+00 -7.639100e+00 7.667645e+01 -1.462562e-01 8.633265e-01 6.603853e-01 7.504091e-01 -9.035721e-02 -4.316130e-01 1.798550e-01 -1.377901e-01 -2.887288e-01 2.018895e-01 -3.283965e-01 -9.666549e-02 -8.558176e-01 -1.218661e-01 7.079071e-02 1.240263e-01 1.094063e-01 1.251381e-01 6.021953e-02 -1.179038e-01 -7.594259e-02 1.216188e-01 2.358411e-01 3.177403e-02 9.595715e-02 -1.244464e-01
<VARIANCE> 39
 2.811556e+01 2.369822e+01 2.356984e+01 3.150634e+01 4.058495e+01 3.840077e+01 5.112450e+01 5.480220e+01 8.306377e+01 5.012846e+01 3.745708e+01 3.786782e+01 2.131200e+01 2.513599e-01 7.001727e-01 1.160774e+00 1.485121e+00 1.180421e+00 1.551722e+00 1.891192e+00 2.235341e+00 1.889438e+00 1.752435e+00 1.516696e+00 1.488189e+00 3.200861e-01 5.107657e-02 1.080640e-01 2.028144e-01 2.314339e-01 2.115122e-01 2.851038e-01 3.575439e-01 4.280137e-01 3.622086e-01 3.393888e-01 2.915698e-01 2.910697e-01 3.592812e-02
<GCONST> 9.962274e+01
<STATE> 4
<MEAN> 39
 1.943759e+00 6.671906e+00 -1.358671e+00 -5.250110e+00 -2.174896e+00 2.457462e+00 8.030939e-01 -3.504596e+00 -6.116966e+00 -4.549698e+00 -2.742150e+00 -3.651138e+00 6.844170e+01 -1.223997e+00 2.509004e-01 1.824215e-01 3.270530e-01 5.661564e-01 4.554222e-01 5.599083e-01 9.346364e-01 9.653459e-01 9.668270e-01 7.153911e-01 8.772781e-01 -1.125073e+00 -1.094274e-01 -2.499494e-01 -1.445335e-01 -1.292697e-01 -2.302920e-02 -2.542958e-02 2.188882e-02 2.047054e-01 2.303454e-01 1.115634e-01 1.556754e-01 1.048931e-01 1.694303e-01
<VARIANCE> 39
 3.245829e+01 3.380568e+01 2.386001e+01 4.588508e+01 2.754710e+01 2.537641e+01 3.834292e+01 4.902399e+01 5.058713e+01 4.292366e+01 3.593110e+01 2.783144e+01 2.972335e+01 1.168977e+00 1.350521e+00 1.496130e+00 1.713803e+00 1.604687e+00 1.872054e+00 2.607415e+00 3.466814e+00 3.286349e+00 2.270131e+00 2.377383e+00 2.062240e+00 6.535504e-01 1.725959e-01 2.013942e-01 2.916468e-01 3.240927e-01 2.936144e-01 4.010463e-01 4.762794e-01 6.117063e-01 5.238698e-01 4.008304e-01 4.627173e-01 3.897528e-01 1.205690e-01
<GCONST> 1.111416e+02
<TRANSP> 5
 0.000000e+00 1.000000e+00 0.000000e+00 0.000000e+00 0.000000e+00
 0.000000e+00 6.931525e-01 3.068475e-01 0.000000e+00 0.000000e+00
 0.000000e+00 0.000000e+00 8.385990e-01 1.614010e-01 0.000000e+00
 0.000000e+00 0.000000e+00 0.000000e+00 8.259232e-01 1.740768e-01
 0.000000e+00 0.000000e+00 0.000000e+00 0.000000e+00 0.000000e+00
<ENDHMM>
~h "E"
<BEGINHMM>
<NUMSTATES> 5
<STATE> 2
<MEAN> 39
 -6.149473e-01 -3.395895e+00 6.324365e+00 -5.286707e+00 -1.354626e+01 -1.616088e+01 -9.349847e+00 8.671731e-01 1.953986e+00 1.907017e-01 -2.401509e+00 -2.937112e+00 8.154149e+01 1.420166e+00 -2.877482e+00 -2.730289e-02 -1.383888e+00 -1.492457e+00 -2.161521e-01 -2.631215e-01 1.242461e+00 5.267603e-01 -2.692983e-01 -1.116880e-01 -8.209519e-01 1.752796e+00 -1.234629e+00 2.795072e-01 -4.959316e-01 2.983630e-01 1.137423e+00 1.143608e+00 1.129685e+00 4.162636e-01 2.936088e-01 1.452728e-01 2.905148e-01 2.828101e-01 -5.487560e-01
<VARIANCE> 39
 4.132399e+01 1.840358e+01 3.054877e+01 3.756583e+01 2.570821e+01 4.864936e+01 7.044490e+01 2.385809e+01 5.576912e+01 1.657389e+01 4.281092e+01 5.622574e+01 1.598078e+01 2.166690e+00 1.187297e+00 1.564104e+00 1.368286e+00 3.509378e+00 3.405318e+00 4.023086e+00 1.533773e+00 2.628794e+00 1.555496e+00 2.943398e+00 1.530708e+00 8.067939e-01 1.418957e-01 2.836984e-01 2.598032e-01 4.623918e-01 4.036342e-01 3.966309e-01 5.541727e-01 4.057468e-01 3.880674e-01 3.161314e-01 6.070162e-01 4.716333e-01 9.699487e-02
<GCONST> 1.116688e+02
<STATE> 3
<MEAN> 39
 -7.353142e-01 -8.929819e+00 1.482800e+00 -6.581817e+00 -1.059191e+01 -1.414378e+01 -6.825977e+00 3.837759e+00 3.978428e+00 -3.085765e+00 -4.257370e+00 -8.996511e+00 8.329171e+01 -2.890240e-02 -1.545616e-01 -7.321037e-01 3.002281e-01 1.659966e+00 1.424194e+00 1.375028e-01 -8.947158e-02 8.548462e-02 -1.806989e-01 -5.410838e-01 -1.786748e-02 -3.705145e-01 -3.041172e-01 6.273625e-01 1.071757e-01 1.494608e-01 4.859613e-01 2.237660e-01 -1.686848e-01 -8.427704e-02 -6.898581e-02 2.192340e-01 1.773893e-01 3.237031e-01 -4.110892e-01
<VARIANCE> 39
 3.845234e+01 1.431938e+01 3.138377e+01 2.697684e+01 3.944574e+01 9.692186e+01 6.322122e+01 2.710186e+01 8.086842e+01 2.918674e+01 4.452150e+01 1.031774e+02 2.450741e+01 7.702085e-01 2.454144e+00 1.519936e+00 1.032121e+00 3.858853e+00 1.630618e+00 4.456385e+00 2.228762e+00 2.701464e+00 2.349813e+00 1.985015e+00 2.118476e+00 8.234776e-01 1.742308e-01 2.611938e-01 3.100238e-01 2.682013e-01 4.132100e-01 2.127798e-01 7.390375e-01 4.890654e-01 4.228093e-01 5.222210e-01 4.597008e-01 3.534656e-01 8.022696e-02
<GCONST> 1.132584e+02
<STATE> 4
<MEAN> 39
 -2.013494e+00 -5.158803e+00 1.654189e+00 -4.530666e+00 -5.940701e+00 -6.786949e+00 -4.416228e+00 4.592315e+00 3.690027e+00 -1.290576e-01 -5.641574e+00 -2.593422e+00 7.722720e+01 -4.651151e-01 3.046147e-01 -2.691731e-01 1.709609e-01 1.078115e+00 7.766263e-01 -9.472727e-02 2.291263e-01 2.856534e-01 3.628953e-01 2.322321e-01 2.074239e-01 -6.641930e-01 -1.367388e-02 1.619767e-02 6.471199e-03 5.190562e-02 -2.119045e-02 -9.064445e-02 2.589300e-03 -5.480979e-02 1.205079e-03 6.395143e-03 4.479868e-02 -3.230061e-02 -1.825763e-02
<VARIANCE> 39
 6.509735e+01 1.262511e+01 3.252509e+01 3.259251e+01 6.694932e+01 5.782567e+01 5.997644e+01 3.037831e+01 5.727071e+01 4.343415e+01 4.164837e+01 2.094708e+01 1.972237e+01 9.140533e-01 1.002040e+00 9.118968e-01 1.155173e+00 2.190053e+00 1.764158e+00 2.500566e+00 1.761070e+00 2.090563e+00 2.545904e+00 1.804505e+00 1.619584e+00 3.179239e-01 1.160804e-01 1.309177e-01 1.959081e-01 1.620285e-01 3.184532e-01 3.160852e-01 4.575085e-01 2.703311e-01 3.736094e-01 3.683218e-01 2.840951e-01 2.609899e-01 4.255317e-02
<GCONST> 1.033277e+02
<TRANSP> 5
 0.000000e+00 1.000000e+00 0.000000e+00 0.000000e+00 0.000000e+00
 0.000000e+00 5.711457e-01 4.288544e-01 0.000000e+00 0.000000e+00
 0.000000e+00 0.000000e+00 7.572764e-01 2.427236e-01 0.000000e+00
 0.000000e+00 0.000000e+00 0.000000e+00 8.968111e-01 1.031890e-01
 0.000000e+00 0.000000e+00 0.000000e+00 0.000000e+00 0.000000e+00
<ENDHMM>
~h "O"
<BEGINHMM>
<NUMSTATES> 5
<STATE> 2
<MEAN> 39
 3.963863e+00 -1.687593e-01 -5.164426e+00 -1.122816e+01 -4.188785e+00 -1.886321e+00 -8.940235e+00 -1.015336e+01 7.705972e-01 5.566279e+00 -2.980981e+00 -5.674207e+00 7.863896e+01 2.929398e+00 -8.104376e-01 -1.582163e+00 -4.159632e+00 -1.632007e+00 3.555889e-01 -3.973442e-01 -2.313823e+00 -8.274501e-01 -9.099439e-02 -3.928522e-01 -1.770747e+00 2.045643e+00 -1.300290e+00 -4.966505e-01 3.045823e-03 4.377913e-01 4.166869e-01 2.953678e-01 6.349579e-01 1.225815e+00 6.830766e-01 1.484113e-01 2.789724e-01 5.034841e-01 -1.766731e-01
<VARIANCE> 39
 3.495327e+01 1.055654e+01 2.263787e+01 2.465450e+01 2.849725e+01 4.843612e+01 2.755631e+01 1.146684e+01 2.085512e+01 1.606093e+01 5.853370e+01 1.731783e+01 1.443236e+01 1.923671e+00 2.163017e+00 3.308535e+00 2.637975e+00 2.713899e+00 2.010204e+00 1.904189e+00 3.570923e+00 3.234693e+00 1.266521e+00 7.054281e+00 2.065681e+00 5.437384e-01 8.462653e-02 2.383650e-01 2.722293e-01 5.177351e-01 3.417481e-01 3.358880e-01 2.251070e-01 2.602691e-01 2.187248e-01 3.466361e-01 3.116981e-01 2.268231e-01 1.244930e-01
<GCONST> 1.048119e+02
<STATE> 3
<MEAN> 39
 4.286365e+00 -3.018428e+00 -7.229841e+00 -1.572053e+01 -4.730365e+00 8.916992e-01 -6.998026e+00 -9.018716e+00 9.337201e-01 5.552174e+00 -3.404456e+00 -7.041708e+00 8.075646e+01 2.231112e-02 -5.431960e-01 -6.213570e-01 -1.276082e+00 -1.109900e-02 9.657590e-01 7.729465e-01 2.414433e-01 -2.121689e-01 -7.322526e-01 -6.319822e-02 -2.249465e-01 3.708767e-01 -5.183830e-01 3.305434e-01 2.398195e-01 7.638704e-01 4.191865e-01 2.270665e-03 1.848973e-01 4.724789e-01 -2.777660e-02 -2.626090e-01 4.565782e-02 3.430077e-01 -5.425662e-01
<VARIANCE> 39
 2.980300e+01 1.345504e+01 3.453471e+01 3.091710e+01 4.437963e+01 5.106844e+01 3.102498e+01 2.747199e+01 4.695533e+01 2.419199e+01 9.177494e+01 2.012416e+01 1.266283e+01 2.215938e-01 1.083440e+00 6.728518e-01 1.153596e+00 9.689592e-01 1.037400e+00 1.638483e+00 1.276502e+00 1.273059e+00 1.594544e+00 1.367184e+00 1.024092e+00 4.732686e-01 2.308313e-01 2.308168e-01 2.608498e-01 2.990057e-01 3.161048e-01 2.231809e-01 1.766973e-01 4.721928e-01 2.944760e-01 2.432988e-01 5.180186e-01 1.947370e-01 7.585457e-02
<GCONST> 9.744569e+01
<STATE> 4
<MEAN> 39
 2.784558e+00 -1.229069e+00 -8.352163e+00 -1.704799e+01 -2.194921e+00 4.744621e+00 -2.918859e+00 -8.448578e+00 -5.045149e-01 9.708932e-01 -2.163974e+00 -5.485396e+00 7.802717e+01 -2.697491e-01 7.247241e-01 5.209776e-02 3.016140e-01 3.885075e-01 3.582021e-01 4.033476e-01 3.621950e-01 -2.010997e-01 -3.971873e-01 -8.576963e-03 3.552189e-01 -6.990783e-01 -5.609419e-02 6.644089e-02 1.180025e-01 1.687719e-01 1.650153e-02 -7.626802e-02 -7.635458e-02 3.358004e-02 9.447964e-02 9.089980e-02 2.385519e-02 3.130371e-02 -8.927932e-02
<VARIANCE> 39
 4.532604e+01 2.104992e+01 3.606796e+01 2.309592e+01 5.432318e+01 4.582964e+01 5.375898e+01 3.875054e+01 3.142576e+01 3.888497e+01 6.218773e+01 3.443858e+01 1.655258e+01 5.159385e-01 9.200625e-01 8.352036e-01 1.368533e+00 1.090245e+00 1.512659e+00 1.362950e+00 1.833365e+00 1.424458e+00 1.547345e+00 1.299192e+00 1.409712e+00 4.076306e-01 8.016432e-02 1.371692e-01 1.341202e-01 1.805423e-01 2.115171e-01 2.278780e-01 3.042164e-01 2.703983e-01 2.587829e-01 2.114914e-01 2.189954e-01 3.154265e-01 5.574247e-02
<GCONST> 9.738522e+01
<TRANSP> 5
 0.000000e+00 1.000000e+00 0.000000e+00 0.000000e+00 0.000000e+00
 0.000000e+00 4.194573e-01 5.805427e-01 0.000000e+00 0.000000e+00
 0.000000e+00 0.000000e+00 6.653545e-01 3.346454e-01 0.000000e+00
 0.000000e+00 0.000000e+00 0.000000e+00 8.886775e-01 1.113225e-01
 0.000000e+00 0.000000e+00 0.000000e+00 0.000000e+00 0.000000e+00
<ENDHMM>
~h "R"
<BEGINHMM>
<NUMSTATES> 5
<STATE> 2
<MEAN> 39
 -3.892181e-01 1.642347e+00 6.414644e-01 -4.862807e+00 8.190967e-01 -1.955066e+00 -7.911757e+00 -3.551484e+00 2.281054e+00 6.157837e-01 -4.814624e+00 -1.628907e+00 7.423875e+01 6.289103e-01 2.733454e-03 -2.566839e-01 -9.104118e-01 -2.266150e-01 -2.075195e-01 -3.704012e-01 -5.474191e-01 -2.505659e-01 -1.530096e-01 -2.148485e-01 -5.345434e-02 8.183496e-01 -1.676521e-01 -4.087347e-02 6.719054e-02 2.934398e-02 -1.190184e-01 3.110087e-02 3.101535e-01 1.749273e-01 -9.119563e-03 5.974285e-02 2.695914e-01 1.379519e-01 -1.588283e-01
<VARIANCE> 39
 4.314981e+01 4.372542e+01 3.561716e+01 6.193581e+01 7.494065e+01 7.632642e+01 4.822158e+01 4.938336e+01 5.598792e+01 5.243884e+01 3.962316e+01 3.171355e+01 3.365777e+01 2.867248e+00 2.441924e+00 2.034036e+00 3.987952e+00 6.374915e+00 4.540181e+00 4.109752e+00 4.134267e+00 3.622686e+00 3.511030e+00 3.120843e+00 2.632344e+00 2.599891e+00 5.590682e-01 4.404702e-01 3.321410e-01 7.008516e-01 1.010671e+00 7.118598e-01 6.471900e-01 8.686097e-01 6.881195e-01 7.142599e-01 6.115718e-01 5.302384e-01 3.238921e-01
<GCONST> 1.310970e+02
<STATE> 3
<MEAN> 39
 1.651850e+00 2.161850e+00 4.225768e-01 -7.241506e+00 -6.422489e-01 -1.640266e+00 -7.971929e+00 -4.512175e+00 2.348189e+00 3.291805e-01 -4.252928e+00 -6.515967e-01 7.540112e+01 3.718082e-01 -3.534315e-01 -8.896522e-02 -5.191798e-01 -8.201224e-01 -2.998145e-01 9.034061e-02 -5.140412e-02 -1.066451e-01 -1.631060e-01 1.271289e-01 -8.854152e-02 5.007519e-01 -3.180029e-02 -1.196164e-01 4.573634e-02 1.197847e-01 -1.282986e-01 -8.991994e-03 5.537881e-02 2.841445e-02 -3.113218e-02 -2.093576e-03 1.619264e-02 -9.047665e-02 -1.896570e-02
<VARIANCE> 39
 3.417653e+01 3.496489e+01 3.926374e+01 5.880799e+01 6.221732e+01 6.482962e+01 4.846444e+01 4.527270e+01 6.042779e+01 4.932829e+01 3.603942e+01 3.617694e+01 2.525890e+01 1.034389e+00 1.722703e+00 1.324224e+00 1.755122e+00 3.353862e+00 2.439721e+00 2.173673e+00 2.460875e+00 1.896510e+00 2.082207e+00 1.881708e+00 1.915416e+00 6.686780e-01 2.273500e-01 2.424336e-01 1.892109e-01 3.242863e-01 5.300388e-01 3.684095e-01 3.794555e-01 4.619628e-01 3.624279e-01 3.889011e-01 3.414179e-01 3.143830e-01 1.485388e-01
<GCONST> 1.131969e+02
<STATE> 4
<MEAN> 39
 3.346061e+00 1.265808e+00 1.398250e-02 -1.018569e+01 -6.603180e+00 -3.228464e+00 -8.423769e+00 -4.886113e+00 9.011245e-01 3.087288e-01 -3.741411e+00 -2.572692e+00 7.671617e+01 3.917226e-02 -1.669254e-01 1.788283e-01 -5.028847e-02 -5.271804e-01 -1.405058e-01 2.325464e-02 4.463280e-02 -9.809654e-02 -1.630602e-01 9.048657e-02 -1.493811e-01 6.957828e-02 -7.645161e-02 2.922269e-02 3.563629e-02 7.936249e-02 8.028849e-02 5.701640e-02 1.794112e-02 -3.910740e-03 -4.543397e-02 -5.602002e-03 4.231873e-02 3.031769e-02 -6.980658e-02
<VARIANCE> 39
 3.174809e+01 5.142582e+01 3.761828e+01 7.133117e+01 6.640282e+01 7.561527e+01 5.594671e+01 4.532298e+01 6.087722e+01 5.011876e+01 4.532232e+01 3.698005e+01 2.566024e+01 5.332246e-01 1.309560e+00 9.815363e-01 1.477079e+00 2.062836e+00 1.845561e+00 2.010065e+00 1.900468e+00 1.573998e+00 1.853985e+00 1.567800e+00 1.462348e+00 7.977810e-01 7.777507e-02 1.648010e-01 1.315966e-01 2.131954e-01 2.791909e-01 2.805639e-01 2.978032e-01 2.972233e-01 2.804414e-01 2.924995e-01 2.531365e-01 2.317484e-01 8.089134e-02
<GCONST> 1.056330e+02
<TRANSP> 5
 0.000000e+00 1.000000e+00 0.000000e+00 0.000000e+00 0.000000e+00
 0.000000e+00 7.213528e-01 2.786472e-01 0.000000e+00 0.000000e+00
 0.000000e+00 0.000000e+00 6.392123e-01 3.607878e-01 0.000000e+00
 0.000000e+00 0.000000e+00 0.000000e+00 7.713026e-01 2.286974e-01
 0.000000e+00 0.000000e+00 0.000000e+00 0.000000e+00 0.000000e+00
<ENDHMM>
~h "S"
<BEGINHMM>
<NUMSTATES> 5
<STATE> 2
<MEAN> 39
 -1.506556e+01 -9.189653e-01 8.853774e+00 -2.608183e+00 -4.643702e+00 -2.981753e+00 -1.569244e+00 1.892438e+00 4.435956e+00 2.472714e+00 2.402039e+00 1.296513e+00 7.714491e+01 -4.375002e-01 -2.393926e-01 -2.225479e-01 1.459466e-01 2.622118e-01 2.023115e-01 7.964088e-02 8.307706e-02 4.957441e-01 1.898538e-01 1.111636e-01 1.390044e-01 -1.016682e-02 4.775385e-01 5.512770e-02 -8.443931e-02 3.263142e-02 -2.736442e-02 -8.862485e-02 -1.731305e-01 -1.346193e-01 -1.863037e-01 -9.283071e-02 -1.818068e-01 -1.532770e-01 -1.172580e-01
<VARIANCE> 39
 1.197807e+02 2.029484e+01 3.207722e+01 3.909453e+01 4.383945e+01 5.152283e+01 3.873449e+01 7.538560e+01 6.641354e+01 4.652320e+01 3.754964e+01 4.456252e+01 2.232390e+01 2.271310e+00 7.045228e-01 8.625419e-01 1.161457e+00 1.322861e+00 1.620008e+00 1.677010e+00 2.247558e+00 2.138039e+00 1.944941e+00 2.148813e+00 1.632879e+00 5.031913e-01 2.678965e-01 1.438397e-01 1.736508e-01 1.977577e-01 3.092480e-01 3.230805e-01 3.550197e-01 4.500588e-01 3.732638e-01 3.858424e-01 3.927625e-01 3.402753e-01 5.072702e-02
<GCONST> 1.077312e+02
<STATE> 3
<MEAN> 39
 -8.642924e+00 -1.344469e+00 6.659653e+00 -9.402869e-01 -2.887005e+00 -2.685830e+00 -3.929032e+00 -2.752197e-01 3.990073e+00 1.899452e+00 -6.424590e-01 -9.487851e-01 7.459719e+01 3.743859e+00 4.689296e-01 -1.264846e+00 -2.445508e-01 -1.828585e-01 -4.371290e-01 -1.852632e+00 -1.841534e+00 -1.524115e+00 -1.062299e+00 -1.717339e+00 -1.799344e+00 3.675017e-02 4.906846e-01 -7.213113e-02 -5.153643e-01 -5.976958e-01 -2.826083e-01 8.291151e-02 -1.569501e-01 -3.162687e-01 -3.002318e-01 -1.134021e-01 -8.749909e-02 -2.260629e-01 4.419795e-01
<VARIANCE> 39
 1.009814e+02 2.355507e+01 2.540073e+01 4.358857e+01 4.402512e+01 4.997448e+01 4.756633e+01 8.362061e+01 9.018753e+01 5.251921e+01 3.921792e+01 4.760351e+01 2.273170e+01 6.859634e+00 1.756664e+00 2.592068e+00 2.647282e+00 3.128629e+00 4.199015e+00 4.443289e+00 4.529845e+00 3.154212e+00 2.999627e+00 3.440583e+00 3.277757e+00 1.196162e+00 6.145041e-01 3.313717e-01 2.927932e-01 3.468845e-01 4.842913e-01 5.364572e-01 6.655526e-01 6.351689e-01 6.672407e-01 5.610054e-01 6.090850e-01 5.243480e-01 2.017473e-01
<GCONST> 1.265943e+02
<STATE> 4
<MEAN> 39
 3.179925e+00 2.062339e+00 1.363556e+00 -4.524884e+00 -5.578901e+00 -3.386383e+00 -8.352884e+00 -7.954825e+00 -5.245118e+00 -3.513012e+00 -5.113234e+00 -6.899864e+00 7.473505e+01 9.203578e-01 -4.718233e-02 -1.027247e+00 -7.036011e-01 1.194513e-01 4.472450e-01 -1.558771e-01 -3.122935e-01 -2.955671e-01 7.582224e-02 -5.901293e-02 -2.187728e-01 1.124306e-01 -6.734338e-01 -1.305167e-01 5.851834e-02 -7.284458e-02 1.312999e-01 1.903459e-01 4.998217e-01 4.701265e-01 3.299928e-01 2.235518e-01 4.160152e-01 4.186177e-01 -4.833505e-02
<VARIANCE> 39
 3.202042e+01 4.930084e+01 2.596290e+01 3.639925e+01 3.522009e+01 4.421636e+01 5.482817e+01 6.674181e+01 1.018511e+02 6.217774e+01 4.433073e+01 3.396026e+01 4.224216e+01 6.441979e+00 2.822094e+00 3.664443e+00 4.058206e+00 3.333992e+00 3.132422e+00 3.867158e+00 5.495654e+00 5.595316e+00 3.867928e+00 3.860393e+00 3.751296e+00 2.412242e+00 5.094295e-01 3.159081e-01 2.895661e-01 2.888613e-01 4.868871e-01 6.187921e-01 8.612896e-01 6.080381e-01 5.032892e-01 5.472047e-01 6.022654e-01 5.126861e-01 1.714664e-01
<GCONST> 1.285100e+02
<TRANSP> 5
 0.000000e+00 1.000000e+00 0.000000e+00 0.000000e+00 0.000000e+00
 0.000000e+00 8.594511e-01 1.405489e-01 0.000000e+00 0.000000e+00
 0.000000e+00 0.000000e+00 5.007368e-01 4.992633e-01 0.000000e+00
 0.000000e+00 0.000000e+00 0.000000e+00 7.012587e-01 2.987412e-01
 0.000000e+00 0.000000e+00 0.000000e+00 0.000000e+00 0.000000e+00
<ENDHMM>
~h "Z"
<BEGINHMM>
<NUMSTATES> 5
<STATE> 2
<MEAN> 39
 -6.493122e+00 7.468656e+00 1.711204e+01 -1.135046e+00 -6.410623e+00 -7.820991e+00 -7.894128e+00 -3.379279e+00 -4.649775e+00 8.786138e-01 -3.189312e+00 -8.683674e-01 7.498884e+01 -9.835052e-01 1.022478e+00 1.078275e+00 -1.580045e-01 5.303533e-01 -6.776851e-01 -2.086529e-01 -8.516051e-01 -4.140959e-01 -3.886459e-01 -1.980735e-01 3.064889e-01 1.077913e+00 -2.675786e-01 -1.273172e-01 -4.790843e-01 -3.177731e-02 3.447306e-01 5.678633e-01 4.491747e-01 1.560232e-01 1.828995e-01 1.150411e-01 2.022477e-01 -1.033573e-01 -2.410789e-01
<VARIANCE> 39
 4.121575e+01 1.652032e+01 2.552465e+01 3.825777e+01 3.170780e+01 3.165172e+01 2.487869e+01 1.936711e+01 4.837479e+01 2.369003e+01 1.970353e+01 4.037449e+01 2.172969e+01 2.897800e+00 1.467802e+00 2.097069e+00 1.469318e+00 5.685434e+00 5.044728e+00 5.107651e+00 1.470454e+00 2.822268e+00 2.614592e+00 2.326190e+00 1.779822e+00 1.552894e+00 4.854140e-01 3.601562e-01 3.152057e-01 2.847196e-01 8.699512e-01 6.087271e-01 9.691749e-01 3.373577e-01 5.361400e-01 4.611334e-01 2.976336e-01 4.654123e-01 1.988154e-01
<GCONST> 1.158825e+02
<STATE> 3
<MEAN> 39
 -1.239203e+01 1.005696e+01 1.876697e+01 -1.470335e+00 -2.323988e+00 -5.110193e+00 -5.045526e+00 -4.986567e+00 -4.448071e+00 -6.150876e-01 -2.480312e+00 -1.584304e+00 7.681120e+01 -4.764754e-01 1.038038e-01 1.744159e-01 -2.702890e-01 9.689207e-02 2.352283e-01 8.166768e-02 -2.011677e-01 1.662656e-01 8.437878e-02 2.483253e-02 -1.091342e-01 1.391725e-01 3.464387e-01 -1.977532e-01 5.391669e-02 -2.056276e-02 -4.084938e-01 -1.718501e-01 -2.239962e-01 -3.958346e-02 1.005524e-02 7.671999e-02 -8.030453e-03 8.373623e-02 -1.869106e-02
<VARIANCE> 39
 4.274368e+01 1.449553e+01 1.755017e+01 2.753010e+01 2.476597e+01 2.346409e+01 1.899548e+01 2.071034e+01 3.514170e+01 2.238855e+01 2.328437e+01 2.499540e+01 2.493985e+01 1.552108e+00 6.007261e-01 6.327976e-01 6.398801e-01 2.547478e+00 1.767971e+00 1.675844e+00 1.608328e+00 1.382081e+00 1.451025e+00 1.265747e+00 1.341298e+00 2.106753e-01 1.004701e-01 1.306273e-01 1.172777e-01 9.702209e-02 2.245471e-01 3.146262e-01 2.689033e-01 3.162976e-01 2.737141e-01 2.672557e-01 3.076316e-01 2.236671e-01 3.729811e-02
<GCONST> 9.156305e+01
<STATE> 4
<MEAN> 39
 -6.123844e+00 4.769361e+00 2.197204e+01 -2.129218e+00 -1.232166e+01 -7.433822e+00 -9.870766e+00 -7.670337e+00 -5.516283e+00 -8.250120e-02 -1.797720e+00 -3.443089e-01 7.809210e+01 8.445869e-01 -8.614488e-01 -1.620723e-02 -9.788676e-02 -9.488899e-01 -2.888249e-01 -4.763829e-01 9.280726e-03 -2.453721e-01 -1.849901e-01 -9.880695e-02 1.261116e-01 3.535182e-02 -5.765890e-02 -9.298202e-03 -1.110442e-01 6.628830e-03 1.583349e-01 8.589321e-02 7.473034e-02 1.164908e-01 4.757440e-02 -4.136285e-02 -5.851730e-02 -8.625740e-03 -3.570982e-02
<VARIANCE> 39
 4.374838e+01 2.507372e+01 2.321384e+01 6.850497e+01 3.545813e+01 2.597865e+01 2.461808e+01 1.748908e+01 3.424747e+01 4.207093e+01 4.252191e+01 2.100520e+01 2.026278e+01 6.354492e-01 9.711720e-01 6.660954e-01 7.656864e-01 1.339136e+00 1.747261e+00 1.787911e+00 1.201640e+00 1.347694e+00 1.697766e+00 1.375919e+00 1.025258e+00 2.132311e-01 1.084910e-01 1.319208e-01 8.789498e-02 1.184305e-01 1.822894e-01 2.822673e-01 2.809033e-01 1.930530e-01 2.518947e-01 2.967065e-01 2.174892e-01 2.097191e-01 2.537601e-02
<GCONST> 9.205304e+01
<TRANSP> 5
 0.000000e+00 1.000000e+00 0.000000e+00 0.000000e+00 0.000000e+00
 0.000000e+00 7.114626e-01 2.885374e-01 0.000000e+00 0.000000e+00
 0.000000e+00 0.000000e+00 8.577071e-01 1.422929e-01 0.000000e+00
 0.000000e+00 0.000000e+00 0.000000e+00 8.897935e-01 1.102065e-01
 0.000000e+00 0.000000e+00 0.000000e+00 0.000000e+00 0.000000e+00
<ENDHMM>
~h "a"
<BEGINHMM>
<NUMSTATES> 5
<STATE> 2
<MEAN> 39
 2.350096e+00 -9.742710e+00 -5.621376e+00 -8.961917e+00 -1.947171e+00 -2.794335e+00 -6.300078e+00 -1.194403e+00 3.686914e+00 -1.963526e+00 -7.996129e+00 -8.111089e+00 8.334203e+01 2.081403e-02 -4.481266e-01 -6.602712e-01 -3.645571e-02 6.765545e-01 5.658691e-01 3.489060e-01 -3.429280e-01 -8.499001e-02 -1.851898e-01 -1.269226e-01 -3.846907e-01 1.331091e-01 -1.068493e-01 6.172959e-01 3.472680e-01 3.396727e-01 -1.658494e-02 -1.484643e-01 -9.350439e-02 -1.675765e-01 -1.991118e-01 1.612020e-01 3.130287e-01 2.533449e-01 -4.858248e-01
<VARIANCE> 39
 3.775768e+01 1.961336e+01 2.735555e+01 2.993697e+01 3.249548e+01 7.438565e+01 4.548184e+01 4.112752e+01 7.796189e+01 4.347290e+01 7.962938e+01 6.739525e+01 1.195876e+01 3.308128e-01 1.848792e+00 1.395035e+00 1.163034e+00 1.869822e+00 2.312862e+00 2.111672e+00 1.992970e+00 1.777943e+00 1.762525e+00 1.916346e+00 1.817559e+00 6.796728e-01 1.313753e-01 1.913476e-01 1.880790e-01 2.745421e-01 3.041080e-01 3.648493e-01 3.758398e-01 4.043992e-01 4.425708e-01 3.313735e-01 4.251534e-01 3.601394e-01 9.536780e-02
<GCONST> 1.075367e+02
<STATE> 3
<MEAN> 39
 2.980095e+00 -7.752218e+00 -8.069271e+00 -8.410194e+00 2.221826e+00 -3.259302e-01 -5.015726e+00 -5.653574e+00 2.547564e+00 -1.905610e+00 -5.785940e+00 -8.935235e+00 8.090254e+01 1.220004e-02 9.094617e-01 -2.315771e-02 4.490467e-01 4.195013e-01 3.917675e-01 7.392430e-02 -2.433691e-01 -3.202342e-01 8.182635e-02 3.592943e-01 2.318677e-01 -1.058763e+00 -1.128543e-01 2.509297e-01 1.437742e-01 1.074287e-01 -4.901223e-02 3.551457e-02 7.717133e-02 1.841765e-01 9.666169e-03 7.149915e-02 8.510998e-02 1.528550e-01 -2.936523e-01
<VARIANCE> 39
 3.574460e+01 2.511486e+01 2.491320e+01 3.113840e+01 3.901305e+01 7.489256e+01 5.275779e+01 3.780285e+01 4.640751e+01 3.881579e+01 6.158085e+01 5.185155e+01 1.738970e+01 3.941428e-01 1.591027e+00 1.085756e+00 1.075871e+00 1.284234e+00 1.527174e+00 1.673764e+00 1.574577e+00 1.684117e+00 1.350574e+00 1.419484e+00 1.365731e+00 8.699548e-01 8.634028e-02 1.450615e-01 1.597445e-01 1.827524e-01 2.181291e-01 2.866265e-01 3.301272e-01 2.763926e-01 2.696877e-01 2.604234e-01 2.436314e-01 2.382175e-01 7.788848e-02
<GCONST> 1.006703e+02
<STATE> 4
<MEAN> 39
 1.202944e-01 -1.747842e+00 -6.677153e+00 -5.482963e+00 2.793428e+00 2.662488e+00 -1.229175e+00 -9.730592e-01 3.705492e+00 1.583155e+00 -1.508944e+00 -5.383444e+00 7.088244e+01 -8.460435e-01 7.183799e-01 2.668346e-01 4.045076e-01 9.580972e-02 4.566746e-01 8.542989e-01 9.562666e-01 3.579365e-01 7.718687e-01 8.739557e-01 9.062917e-01 -1.430045e+00 -8.186381e-02 -2.032402e-01 -3.543943e-04 -9.798557e-02 -9.244691e-02 -1.150190e-01 -1.598591e-02 4.428049e-02 6.384344e-02 4.230472e-02 3.522793e-02 2.233636e-02 2.555060e-01
<VARIANCE> 39
 2.252137e+01 2.938581e+01 2.727689e+01 3.593388e+01 3.334607e+01 5.429576e+01 4.072077e+01 4.817453e+01 4.440315e+01 4.561552e+01 5.067815e+01 5.327869e+01 3.059058e+01 1.241884e+00 1.513335e+00 1.191204e+00 1.587155e+00 1.732497e+00 2.120252e+00 2.704492e+00 2.574844e+00 2.492845e+00 2.429114e+00 2.555209e+00 2.168313e+00 1.055508e+00 1.581128e-01 2.166326e-01 2.362316e-01 2.768936e-01 3.026035e-01 3.634102e-01 4.462664e-01 4.860935e-01 4.493633e-01 4.559420e-01 4.493470e-01 4.062377e-01 1.222063e-01
<GCONST> 1.119299e+02
<TRANSP> 5
 0.000000e+00 1.000000e+00 0.000000e+00 0.000000e+00 0.000000e+00
 0.000000e+00 7.234358e-01 2.765643e-01 0.000000e+00 0.000000e+00
 0.000000e+00 0.000000e+00 7.872820e-01 2.127180e-01 0.000000e+00
 0.000000e+00 0.000000e+00 0.000000e+00 8.102822e-01 1.897178e-01
 0.000000e+00 0.000000e+00 0.000000e+00 0.000000e+00 0.000000e+00
<ENDHMM>
~h "b"
<BEGINHMM>
<NUMSTATES> 5
<STATE> 2
<MEAN> 39
 3.530984e+00 1.276060e+01 6.647598e+00 3.919336e+00 2.215847e-01 -1.504649e+00 -6.220715e+00 -6.713403e+00 -5.109896e+00 -2.168850e+00 -3.423835e+00 -5.678074e+00 6.544610e+01 2.748341e-01 -1.187695e-01 -1.170126e-01 -2.340699e-01 -1.022675e-01 -2.915770e-01 -4.383085e-01 -1.612516e-01 4.470858e-02 -3.989935e-03 -9.522288e-02 -3.819875e-02 6.026723e-01 -1.414287e-01 -6.643950e-01 -3.187632e-01 -4.236421e-01 -2.046515e-01 2.288127e-02 7.515205e-02 2.466367e-01 4.384423e-01 2.972588e-01 1.486107e-01 2.220044e-01 3.882021e-01
<VARIANCE> 39
 9.528401e+00 3.922136e+01 1.956096e+01 2.329482e+01 1.682486e+01 2.192930e+01 2.295322e+01 2.484325e+01 2.797610e+01 2.814251e+01 3.773729e+01 2.432784e+01 1.931795e+01 1.465095e+00 3.261883e+00 1.365116e+00 1.812892e+00 1.741487e+00 2.158889e+00 2.474487e+00 2.807563e+00 2.822784e+00 2.366931e+00 2.061628e+00 1.900937e+00 1.854028e+00 2.320571e-01 3.404861e-01 2.533615e-01 3.781627e-01 4.131121e-01 4.716052e-01 4.990538e-01 5.003566e-01 4.753971e-01 4.193236e-01 4.286053e-01 3.722326e-01 3.468438e-01
<GCONST> 1.096331e+02
<STATE> 3
<MEAN> 39
 3.147193e+00 3.413648e+00 1.937499e+00 -2.692743e+00 -2.381788e+00 -3.561414e+00 -8.560730e+00 -6.878972e+00 -1.146341e+00 1.189184e+00 -2.556811e+00 -4.124511e+00 7.377094e+01 3.646218e-01 -3.189517e+00 -1.762726e+00 -3.134098e+00 -1.945337e+00 -6.477531e-01 -8.639272e-01 3.346407e-01 1.977357e+00 1.287036e+00 1.389956e-01 2.233583e-01 3.306560e+00 2.797685e-02 -1.054637e-01 -4.290441e-02 -2.689040e-01 -8.691496e-02 3.810539e-01 3.578652e-01 1.565589e-01 -5.958474e-02 -3.049341e-01 -3.051342e-01 -3.755766e-01 5.922372e-02
<VARIANCE> 39
 3.104107e+01 2.794972e+01 2.733315e+01 4.622286e+01 2.335696e+01 4.215939e+01 2.912860e+01 2.995811e+01 3.414153e+01 3.904872e+01 4.333775e+01 2.627588e+01 2.325995e+01 2.274906e+00 4.287690e+00 3.638778e+00 4.565909e+00 3.246172e+00 5.021976e+00 3.775216e+00 4.196927e+00 4.818186e+00 3.543354e+00 3.643740e+00 4.631612e+00 1.952504e+00 2.513180e-01 6.087710e-01 3.817695e-01 6.212345e-01 6.347176e-01 5.159816e-01 6.168680e-01 5.140678e-01 6.062509e-01 5.355825e-01 5.968425e-01 5.901291e-01 3.658388e-01
<GCONST> 1.248477e+02
<STATE> 4
<MEAN> 39
 4.219937e+00 -2.605276e+00 -1.637311e+00 -1.047627e+01 -6.432187e+00 -2.000643e+00 -8.497114e+00 -5.607452e+00 2.643624e+00 2.331501e+00 -3.037567e+00 -6.546137e+00 7.976812e+01 -7.887039e-02 -2.044783e+00 -1.024268e+00 -1.731243e+00 -5.446104e-01 4.902725e-01 4.922862e-01 7.613010e-01 8.500171e-01 -3.620383e-01 -9.263965e-01 -8.300016e-01 1.860883e+00 -1.674010e-01 6.518653e-01 3.885497e-01 7.835951e-01 5.868711e-01 2.185975e-01 3.411193e-01 -3.217680e-02 -6.626107e-01 -5.501097e-01 -2.244169e-01 -2.740663e-02 -7.248935e-01
<VARIANCE> 39
 3.764183e+01 3.703818e+01 4.830596e+01 6.133627e+01 3.957502e+01 9.975462e+01 3.633568e+01 4.142973e+01 5.767765e+01 4.494574e+01 8.746858e+01 4.974922e+01 2.160448e+01 9.840590e-01 2.752092e+00 2.957968e+00 3.181091e+00 4.025809e+00 3.677078e+00 3.652338e+00 3.201663e+00 3.726057e+00 3.062819e+00 3.988891e+00 4.777490e+00 1.409056e+00 1.736663e-01 3.480839e-01 2.794606e-01 5.558811e-01 4.632387e-01 6.514638e-01 4.912179e-01 5.199993e-01 5.335283e-01 4.759738e-01 5.398228e-01 5.084629e-01 2.141834e-01
<GCONST> 1.245021e+02
<TRANSP> 5
 0.000000e+00 1.000000e+00 0.000000e+00 0.000000e+00 0.000000e+00
 0.000000e+00 8.195997e-01 1.804002e-01 0.000000e+00 0.000000e+00
 0.000000e+00 0.000000e+00 4.323054e-01 5.676947e-01 0.000000e+00
 0.000000e+00 0.000000e+00 0.000000e+00 4.367605e-01 5.632395e-01
 0.000000e+00 0.000000e+00 0.000000e+00 0.000000e+00 0.000000e+00
<ENDHMM>
~h "d"
<BEGINHMM>
<NUMSTATES> 5
<STATE> 2
<MEAN> 39
 9.088293e-01 1.359501e+01 9.064328e+00 3.560781e+00 -1.134420e+00 -3.303988e+00 -5.933570e+00 -4.074640e+00 -3.504588e+00 -2.930014e+00 -5.068110e+00 -5.207604e+00 6.528651e+01 -2.662248e-01 -5.882671e-02 1.807887e-01 -8.041804e-02 -1.289456e-01 -5.500251e-01 -1.513993e-01 -6.789564e-02 -2.636359e-02 -2.275836e-01 -1.197882e-01 5.533953e-02 8.204552e-01 -2.657716e-01 -5.606109e-01 -3.676931e-02 -1.900473e-01 -2.545153e-01 -8.736251e-02 -4.190466e-02 9.216880e-02 2.048936e-01 1.844663e-01 3.255653e-01 3.339023e-01 3.496271e-01
<VARIANCE> 39
 1.487163e+01 3.177086e+01 1.688318e+01 2.783402e+01 2.332067e+01 2.344510e+01 2.132114e+01 2.399466e+01 2.840285e+01 3.024520e+01 2.117098e+01 2.226443e+01 2.373507e+01 2.626081e+00 2.908201e+00 1.428828e+00 1.688731e+00 2.725787e+00 2.851915e+00 2.844919e+00 3.164464e+00 2.560212e+00 2.333124e+00 2.195914e+00 2.329956e+00 2.101727e+00 3.091210e-01 2.796506e-01 3.441999e-01 3.836982e-01 8.604309e-01 6.216387e-01 7.004361e-01 6.744561e-01 5.059965e-01 5.254126e-01 3.553066e-01 3.391510e-01 3.888814e-01
<GCONST> 1.136987e+02
<STATE> 3
<MEAN> 39
 -4.732443e+00 6.361483e+00 8.979905e+00 3.507949e-01 -4.531407e+00 -8.852810e+00 -8.223965e+00 -4.958385e+00 -2.227965e+00 -2.321874e+00 -2.572205e+00 -1.571134e+00 7.532376e+01 1.214951e-01 -2.538818e+00 1.510063e+00 -1.247201e+00 -3.972884e+00 -2.393464e+00 -2.322426e+00 -5.971391e-01 1.781968e-01 1.650516e-01 1.182719e+00 1.192232e+00 3.100841e+00 6.045159e-01 -7.965540e-02 2.897952e-01 -2.208524e-01 -6.762177e-01 2.373828e-01 -2.659223e-01 7.989102e-02 -2.242585e-02 8.011530e-02 2.651201e-02 -2.100081e-01 -2.545864e-01
<VARIANCE> 39
 3.322746e+01 1.642784e+01 4.194862e+01 3.128674e+01 5.189222e+01 4.819221e+01 4.325400e+01 2.975823e+01 3.319303e+01 2.567759e+01 2.172126e+01 3.300594e+01 2.203786e+01 2.242117e+00 2.396518e+00 3.470151e+00 4.923146e+00 4.741434e+00 3.662037e+00 3.982305e+00 3.252231e+00 3.344702e+00 7.373110e+00 2.682957e+00 2.874797e+00 1.565028e+00 2.583123e-01 4.468716e-01 5.539066e-01 5.604479e-01 9.175296e-01 8.029763e-01 7.072471e-01 5.810665e-01 4.826060e-01 5.063977e-01 5.396351e-01 4.550987e-01 2.725244e-01
<GCONST> 1.235539e+02
<STATE> 4
<MEAN> 39
 -1.497601e+00 8.935318e-01 1.436515e+01 -2.457693e+00 -1.620050e+01 -1.140405e+01 -1.422125e+01 -5.273014e+00 -1.761601e+00 -2.339805e+00 3.738857e-01 1.521175e-01 7.997284e+01 6.257588e-01 -1.693738e+00 9.726951e-01 -1.412253e+00 -2.794996e+00 -3.233798e-01 -1.154747e+00 1.433931e-01 1.473944e-01 4.874685e-01 6.492935e-01 2.073799e-01 1.342503e+00 -7.669574e-02 6.081671e-01 -5.181209e-01 1.809451e-01 1.017064e+00 6.057458e-01 8.012032e-01 1.269175e-01 -1.038440e-01 1.052825e-01 -3.740554e-01 -3.140897e-01 -7.341039e-01
<VARIANCE> 39
 3.391665e+01 2.091965e+01 4.280409e+01 7.990685e+01 4.258059e+01 5.225677e+01 4.223493e+01 2.342735e+01 6.059955e+01 7.854892e+01 4.587041e+01 3.802923e+01 1.792735e+01 6.362055e-01 1.143525e+00 2.348023e+00 3.423012e+00 3.880405e+00 2.855090e+00 2.824161e+00 2.644481e+00 2.124011e+00 4.533442e+00 2.864216e+00 1.994134e+00 7.442327e-01 1.205728e-01 2.191142e-01 2.586484e-01 4.303417e-01 4.585084e-01 4.529347e-01 4.442393e-01 3.281655e-01 4.221147e-01 6.769930e-01 3.472691e-01 3.983467e-01 1.311330e-01
<GCONST> 1.151074e+02
<TRANSP> 5
 0.000000e+00 1.000000e+00 0.000000e+00 0.000000e+00 0.000000e+00
 0.000000e+00 8.365235e-01 1.634765e-01 0.000000e+00 0.000000e+00
 0.000000e+00 0.000000e+00 5.541461e-01 4.458539e-01 0.000000e+00
 0.000000e+00 0.000000e+00 0.000000e+00 4.895938e-01 5.104061e-01
 0.000000e+00 0.000000e+00 0.000000e+00 0.000000e+00 0.000000e+00
<ENDHMM>
~h "e"
<BEGINHMM>
<NUMSTATES> 5
<STATE> 2
<MEAN> 39
 -2.047899e+00 -4.007605e+00 1.304331e+01 -4.373557e+00 -1.823940e+01 -1.399454e+01 -1.185654e+01 -1.999505e+00 -9.249109e-01 -1.574493e+00 -1.013438e+00 -7.123204e-01 8.236996e+01 -1.434499e-01 -1.443280e-01 4.435892e-01 -3.732245e-01 -6.450195e-01 9.082272e-02 2.125975e-01 -3.944814e-02 -3.243309e-01 1.435954e-01 2.267966e-01 -2.664492e-03 8.347478e-02 -1.190884e-01 3.990383e-01 -2.836143e-01 2.523177e-01 6.280338e-01 2.003053e-01 3.206215e-01 -3.694061e-03 -2.695683e-02 5.196837e-02 -1.056264e-01 -3.588883e-02 -4.417653e-01
<VARIANCE> 39
 3.545262e+01 2.252367e+01 2.981412e+01 6.690982e+01 3.112297e+01 5.526759e+01 5.345203e+01 3.637432e+01 4.960931e+01 7.071132e+01 4.479750e+01 3.703596e+01 1.694204e+01 3.190732e-01 9.644180e-01 8.479989e-01 1.089620e+00 1.662943e+00 1.112117e+00 1.396442e+00 1.186504e+00 1.310093e+00 1.560802e+00 1.248899e+00 1.041834e+00 5.620879e-01 1.553021e-01 1.793222e-01 1.625287e-01 2.306191e-01 3.266921e-01 3.651830e-01 4.163243e-01 2.870450e-01 2.847160e-01 3.667700e-01 2.951912e-01 2.338540e-01 9.199379e-02
<GCONST> 1.012185e+02
<STATE> 3
<MEAN> 39
 -7.907777e-01 -9.233597e-01 1.370947e+01 -5.272780e+00 -1.850376e+01 -1.258904e+01 -7.975269e+00 -4.131855e+00 -3.462392e+00 3.210644e-01 -1.215190e+00 -3.038800e-01 7.867336e+01 3.689975e-03 7.627197e-01 -4.201896e-01 4.427695e-01 6.872079e-01 3.972496e-01 8.022313e-01 4.607571e-02 -5.699044e-03 1.024968e-01 -1.670115e-01 -5.881923e-02 -1.092735e+00 -9.452126e-02 1.609649e-01 -2.027536e-01 1.820561e-01 3.229894e-01 1.515140e-01 1.301586e-01 1.358465e-01 1.855467e-01 1.616876e-02 4.994287e-02 5.221099e-02 -2.571753e-01
<VARIANCE> 39
 3.695567e+01 2.130782e+01 2.521765e+01 7.336331e+01 2.740329e+01 4.678330e+01 4.636430e+01 3.794509e+01 4.176271e+01 5.752484e+01 4.506286e+01 2.767478e+01 2.019890e+01 4.138478e-01 1.177103e+00 9.295129e-01 1.421159e+00 1.696240e+00 1.454482e+00 1.676652e+00 1.324562e+00 1.533291e+00 1.931632e+00 1.575314e+00 1.129070e+00 7.281937e-01 1.044210e-01 1.439966e-01 1.614164e-01 2.169958e-01 2.378241e-01 2.521020e-01 2.736793e-01 2.657613e-01 2.563933e-01 2.873543e-01 2.709098e-01 2.143700e-01 7.618311e-02
<GCONST> 1.000080e+02
<STATE> 4
<MEAN> 39
 -3.137281e+00 3.033248e+00 9.676588e+00 -1.212612e+00 -1.189258e+01 -8.906320e+00 -3.411664e+00 -9.062633e-01 -2.997642e-01 1.588523e+00 1.037069e+00 1.210822e+00 7.034371e+01 -8.594175e-01 4.771503e-01 -1.024065e+00 4.295219e-01 1.458778e+00 8.535643e-01 8.166485e-01 7.853507e-01 9.230360e-01 7.354826e-01 8.321483e-01 6.176425e-01 -1.333516e+00 -1.035184e-01 -2.485552e-01 -2.287558e-02 -1.560521e-01 -6.898784e-02 -2.987438e-02 -1.682348e-01 3.144132e-02 7.371560e-02 1.119182e-01 1.251531e-01 7.506258e-02 2.582810e-01
<VARIANCE> 39
 2.925273e+01 3.663443e+01 2.427977e+01 4.652828e+01 3.460202e+01 4.382801e+01 4.095890e+01 3.899000e+01 3.818904e+01 4.804764e+01 4.676293e+01 3.368150e+01 3.691612e+01 1.541172e+00 1.580949e+00 1.350446e+00 1.906955e+00 2.650836e+00 2.244406e+00 2.691548e+00 2.530954e+00 2.469517e+00 2.945205e+00 3.124154e+00 2.189570e+00 1.112909e+00 1.519314e-01 2.304184e-01 2.244654e-01 2.903923e-01 4.264629e-01 3.936360e-01 4.047868e-01 4.290247e-01 4.387935e-01 5.264037e-01 5.481668e-01 3.942503e-01 1.207734e-01
<GCONST> 1.136929e+02
<TRANSP> 5
 0.000000e+00 1.000000e+00 0.000000e+00 0.000000e+00 0.000000e+00
 0.000000e+00 7.200358e-01 2.799642e-01 0.000000e+00 0.000000e+00
 0.000000e+00 0.000000e+00 7.612617e-01 2.387383e-01 0.000000e+00
 0.000000e+00 0.000000e+00 0.000000e+00 7.816550e-01 2.183450e-01
 0.000000e+00 0.000000e+00 0.000000e+00 0.000000e+00 0.000000e+00
<ENDHMM>
~h "f"
<BEGINHMM>
<NUMSTATES> 5
<STATE> 2
<MEAN> 39
 -1.340550e+01 -1.039460e+00 4.862566e+00 1.019091e+00 -1.376942e+00 -3.511775e+00 6.211666e-01 4.762175e+00 4.987232e+00 5.591381e+00 1.943464e+00 4.456350e+00 7.388147e+01 -3.958786e-01 -3.472665e-01 -2.521113e-01 -8.602278e-02 1.644692e-01 2.561388e-01 2.384884e-01 2.588995e-01 2.844711e-01 3.999977e-01 2.940867e-01 2.208501e-01 -6.148487e-03 4.311090e-01 1.458653e-01 1.628387e-01 -3.056240e-02 -1.938642e-01 -1.374641e-01 -2.030819e-01 -2.848229e-01 -2.434604e-01 -2.024740e-01 -1.669791e-01 -1.741879e-01 -4.888455e-02
<VARIANCE> 39
 3.217976e+01 1.393121e+01 3.009837e+01 2.332323e+01 2.524648e+01 3.083829e+01 4.409070e+01 2.947249e+01 3.365458e+01 2.650447e+01 2.495143e+01 2.949698e+01 2.485979e+01 1.098364e+00 6.868293e-01 1.089270e+00 9.281395e-01 1.470909e+00 1.506934e+00 1.613990e+00 2.123155e+00 1.933601e+00 1.902830e+00 1.665901e+00 1.548992e+00 4.755336e-01 1.853223e-01 1.623162e-01 1.628700e-01 2.262880e-01 3.402704e-01 3.507321e-01 3.956284e-01 4.287937e-01 3.950369e-01 3.857199e-01 3.448581e-01 3.209331e-01 6.304950e-02
<GCONST> 1.004849e+02
<STATE> 3
<MEAN> 39
 -1.208782e+01 -1.141927e+00 5.660662e+00 8.908765e-01 -9.679039e-01 -2.368240e+00 1.547796e+00 4.131399e+00 4.453084e+00 5.862491e+00 2.012873e+00 4.473863e+00 7.191484e+01 3.339479e+00 1.201748e+00 1.106073e+00 -4.076815e-01 -1.773973e+00 -1.590571e+00 -2.016243e+00 -2.351475e+00 -1.915318e+00 -1.676987e+00 -1.463692e+00 -1.419710e+00 3.094671e-01 8.675652e-01 -1.297161e-02 6.966314e-02 -5.118324e-01 -9.753188e-01 -6.374288e-01 -8.429936e-01 -6.438669e-01 -4.254824e-01 -3.713379e-01 -2.365976e-01 -2.905981e-01 6.350234e-01
<VARIANCE> 39
 4.093761e+01 1.378113e+01 3.910977e+01 2.438911e+01 2.715017e+01 3.374747e+01 4.554486e+01 2.592721e+01 2.759472e+01 2.709781e+01 2.395777e+01 3.034209e+01 2.351244e+01 1.642980e+00 1.927783e+00 1.962777e+00 2.924906e+00 3.739307e+00 4.949851e+00 3.780114e+00 2.513729e+00 2.722026e+00 2.754111e+00 1.950459e+00 2.116294e+00 1.125303e+00 2.554935e-01 3.833419e-01 2.599728e-01 5.750596e-01 3.923749e-01 5.672787e-01 6.291487e-01 3.834830e-01 5.502839e-01 5.229453e-01 4.829959e-01 4.172786e-01 1.291434e-01
<GCONST> 1.147090e+02
<STATE> 4
<MEAN> 39
 -1.805638e-01 1.584186e+00 8.841919e+00 -1.335173e+00 -1.038974e+01 -1.089300e+01 -7.641387e+00 -4.171128e+00 -1.883551e+00 -1.604292e-01 -2.864002e+00 -3.884384e-01 7.596919e+01 3.223202e+00 -5.227516e-01 7.704674e-01 -1.856466e+00 -3.461365e+00 -2.104942e+00 -2.745588e+00 -2.039283e+00 -1.295984e+00 -1.090044e+00 -6.618271e-01 -9.889306e-01 2.110081e+00 -9.401189e-01 -4.928408e-01 -2.206306e-01 -2.707848e-01 2.570092e-01 5.966019e-01 5.899068e-01 7.241676e-01 5.338519e-01 4.988938e-01 5.268145e-01 4.268410e-01 6.090109e-02
<VARIANCE> 39
 4.489995e+01 3.201937e+01 5.191842e+01 3.899399e+01 5.326792e+01 7.064752e+01 3.787906e+01 2.420065e+01 3.540047e+01 3.049039e+01 1.861807e+01 1.845318e+01 2.749973e+01 2.161132e+00 3.932854e+00 2.471395e+00 5.081125e+00 3.629191e+00 5.768838e+00 5.184916e+00 3.414090e+00 4.357578e+00 4.198416e+00 3.918781e+00 2.784424e+00 8.772905e-01 2.776068e-01 2.954773e-01 1.818727e-01 3.474627e-01 6.037707e-01 5.710381e-01 5.577284e-01 3.368160e-01 3.027338e-01 3.330613e-01 3.129246e-01 2.883813e-01 2.578178e-01
<GCONST> 1.194492e+02
<TRANSP> 5
 0.000000e+00 1.000000e+00 0.000000e+00 0.000000e+00 0.000000e+00
 0.000000e+00 8.743820e-01 1.256181e-01 0.000000e+00 0.000000e+00
 0.000000e+00 0.000000e+00 5.300112e-01 4.699888e-01 0.000000e+00
 0.000000e+00 0.000000e+00 0.000000e+00 5.215996e-01 4.784003e-01
 0.000000e+00 0.000000e+00 0.000000e+00 0.000000e+00 0.000000e+00
<ENDHMM>
~h "g"
<BEGINHMM>
<NUMSTATES> 5
<STATE> 2
<MEAN> 39
 9.160938e-01 8.304543e+00 8.651999e+00 2.632125e+00 -4.875857e+00 -5.950110e+00 -4.783876e+00 -3.702822e+00 -4.872535e+00 -1.001232e+00 -3.452602e+00 -3.753263e+00 6.842362e+01 -3.398050e-01 -3.803502e-01 5.088945e-01 3.880644e-02 -2.881804e-01 -7.694033e-01 -4.173915e-01 -1.137027e-01 -2.488571e-01 2.233022e-01 -1.174614e-01 2.404156e-01 9.183207e-01 -1.224237e-01 -5.179047e-01 -7.099307e-02 -2.467096e-01 -2.192053e-01 -4.096966e-02 -5.488224e-02 1.930189e-01 3.427643e-01 1.731386e-01 1.574121e-01 2.002449e-01 3.341047e-01
<VARIANCE> 39
 2.609513e+01 7.568221e+01 2.777574e+01 2.959548e+01 3.707914e+01 3.447993e+01 2.534429e+01 3.825765e+01 3.359782e+01 3.876449e+01 3.579937e+01 2.266600e+01 4.154907e+01 3.160179e+00 5.828129e+00 2.388008e+00 2.738172e+00 6.045960e+00 4.491982e+00 3.153084e+00 4.012691e+00 3.702596e+00 3.752420e+00 2.609715e+00 2.601220e+00 4.040753e+00 5.734004e-01 6.584591e-01 3.858959e-01 6.007725e-01 1.191128e+00 7.584372e-01 6.225550e-01 7.453773e-01 7.165825e-01 7.413013e-01 5.027027e-01 4.152480e-01 4.568174e-01
<GCONST> 1.278911e+02
<STATE> 3
<MEAN> 39
 -1.618104e+00 -3.018198e-01 1.095865e+01 -1.923469e+00 -1.181865e+01 -1.229355e+01 -9.577773e+00 -2.746658e+00 -2.686320e+00 2.846230e+00 -2.255997e+00 6.275494e-01 7.818675e+01 9.733933e-01 -2.194278e+00 -4.135040e-01 -2.015863e+00 -2.435838e+00 -1.196514e+00 -1.228591e+00 1.353635e+00 1.376677e+00 -1.349045e-01 5.698392e-01 2.692886e-01 2.161342e+00 3.321962e-01 4.838066e-02 -6.878410e-01 -1.326617e-01 6.464643e-01 6.901004e-01 5.237163e-01 3.080244e-01 2.792709e-01 -4.782702e-01 -3.193331e-01 -5.991204e-01 -4.116047e-01
<VARIANCE> 39
 3.710199e+01 2.274654e+01 6.023795e+01 5.725126e+01 8.936782e+01 5.312919e+01 5.537363e+01 4.223076e+01 3.778694e+01 6.627445e+01 5.127034e+01 2.433219e+01 1.742588e+01 1.656695e+00 2.477442e+00 3.912088e+00 4.033808e+00 7.676451e+00 3.603686e+00 4.728975e+00 4.751194e+00 5.989385e+00 6.693316e+00 3.496225e+00 3.049120e+00 1.078534e+00 3.917517e-01 4.218786e-01 7.056529e-01 7.736396e-01 2.063875e+00 6.550494e-01 6.436138e-01 8.264362e-01 8.702044e-01 1.250677e+00 7.581151e-01 6.767851e-01 1.787903e-01
<GCONST> 1.322933e+02
<STATE> 4
<MEAN> 39
 1.435515e+00 -7.453671e+00 4.846078e+00 -6.536593e+00 -1.156439e+01 -1.112432e+01 -7.850582e+00 4.114030e+00 2.473431e+00 -9.541929e-01 -5.008889e+00 -3.064508e+00 8.234389e+01 4.429233e-01 -1.542059e+00 -2.429030e+00 -8.895612e-01 1.895585e+00 1.191904e+00 9.254960e-01 5.668344e-01 1.040407e+00 -6.900424e-01 -1.357800e+00 -1.393019e+00 7.141421e-01 -1.394199e-01 4.056574e-01 -7.966900e-02 3.910189e-01 5.769999e-01 3.697919e-01 2.054589e-01 -7.284148e-01 -4.173484e-01 1.569132e-01 -1.188589e-02 -1.086988e-01 -3.911272e-01
<VARIANCE> 39
 3.848684e+01 2.417670e+01 4.005707e+01 4.604750e+01 5.095884e+01 5.568826e+01 8.108827e+01 4.438735e+01 8.757691e+01 4.510064e+01 6.227530e+01 3.435912e+01 1.432726e+01 2.877317e-01 1.128936e+00 1.659879e+00 2.250695e+00 3.825474e+00 1.699155e+00 2.404560e+00 3.254143e+00 3.220300e+00 4.024380e+00 3.121959e+00 3.648904e+00 4.466939e-01 8.041111e-02 1.596898e-01 3.863397e-01 3.373104e-01 8.921345e-01 3.442074e-01 6.867113e-01 4.690328e-01 5.044154e-01 6.539498e-01 6.073933e-01 4.387237e-01 5.950431e-02
<GCONST> 1.151359e+02
<TRANSP> 5
 0.000000e+00 1.000000e+00 0.000000e+00 0.000000e+00 0.000000e+00
 0.000000e+00 8.407769e-01 1.592230e-01 0.000000e+00 0.000000e+00
 0.000000e+00 0.000000e+00 6.134037e-01 3.865963e-01 0.000000e+00
 0.000000e+00 0.000000e+00 0.000000e+00 6.572930e-01 3.427070e-01
 0.000000e+00 0.000000e+00 0.000000e+00 0.000000e+00 0.000000e+00
<ENDHMM>
~h "i"
<BEGINHMM>
<NUMSTATES> 5
<STATE> 2
<MEAN> 39
 -4.125942e+00 5.014229e+00 1.918104e+01 -3.627280e+00 -1.270605e+01 -7.076459e+00 -1.350341e+01 -7.778237e+00 -5.692654e+00 -6.390200e+00 -3.665889e+00 -8.006793e-02 7.731660e+01 1.103072e-01 -2.379441e-01 9.891202e-01 -6.570338e-01 -1.186325e+00 4.236706e-01 -8.813814e-01 -2.453857e-01 -1.553330e-01 -6.417698e-01 8.344977e-02 1.124395e-01 4.951487e-01 -3.494250e-01 5.309808e-02 -7.166272e-01 1.318007e-01 7.968827e-01 2.137898e-01 7.095063e-01 4.339240e-01 3.265631e-01 4.568397e-01 1.970407e-01 -6.999537e-02 -3.776120e-01
<VARIANCE> 39
 3.210278e+01 2.509164e+01 4.399657e+01 7.921870e+01 5.106047e+01 4.959867e+01 4.941594e+01 3.156316e+01 4.470613e+01 4.324539e+01 4.373092e+01 3.232919e+01 2.076286e+01 1.549101e+00 1.898845e+00 2.044195e+00 3.413401e+00 4.411431e+00 3.912844e+00 3.482402e+00 2.504503e+00 2.191974e+00 2.607682e+00 2.263433e+00 2.137198e+00 5.487631e-01 3.092087e-01 3.621705e-01 3.307800e-01 6.091778e-01 6.723524e-01 8.413051e-01 7.863064e-01 5.061729e-01 5.352531e-01 5.555573e-01 4.327770e-01 4.141761e-01 1.047397e-01
<GCONST> 1.198534e+02
<STATE> 3
<MEAN> 39
 -4.352740e+00 6.413069e+00 1.921075e+01 -5.912671e+00 -1.233739e+01 -6.125547e+00 -1.388473e+01 -7.698361e+00 -7.146037e+00 -6.755330e+00 -3.574760e+00 -1.783353e+00 7.620748e+01 1.328898e-01 3.318418e-01 -4.490131e-01 2.111911e-01 3.042796e-01 1.856530e-02 5.218648e-01 1.756490e-02 -1.396001e-02 2.133508e-01 1.053246e-01 -2.390461e-02 -6.061971e-01 4.498176e-04 4.176725e-02 -3.270907e-01 2.165822e-01 2.657548e-01 4.100457e-03 2.856826e-01 6.314441e-02 1.271769e-01 2.033328e-01 4.762117e-02 3.807062e-02 -2.504693e-01
<VARIANCE> 39
 2.700776e+01 2.040849e+01 4.819875e+01 7.717375e+01 4.304538e+01 5.161339e+01 4.098138e+01 3.021412e+01 4.408033e+01 4.595573e+01 5.041790e+01 3.859404e+01 2.004737e+01 3.987862e-01 8.736313e-01 1.101110e+00 1.592333e+00 1.570536e+00 1.405681e+00 1.750964e+00 1.353154e+00 1.501779e+00 1.607620e+00 1.396002e+00 1.250952e+00 5.456130e-01 9.050978e-02 1.645334e-01 1.877178e-01 2.691424e-01 3.463474e-01 3.309804e-01 3.264856e-01 3.111757e-01 2.876971e-01 3.098463e-01 2.960578e-01 2.501866e-01 5.893437e-02
<GCONST> 1.017215e+02
<STATE> 4
<MEAN> 39
 -4.206313e+00 8.563485e+00 1.258555e+01 -1.073456e+00 -6.034112e+00 -4.176550e+00 -7.129523e+00 -5.458299e+00 -3.920649e+00 -2.770947e+00 -1.338741e+00 5.689649e-02 6.816852e+01 -4.554055e-01 -2.214887e-01 -1.483754e+00 5.229481e-01 1.217593e+00 7.047712e-01 1.055691e+00 8.376862e-01 1.009640e+00 9.339943e-01 5.297582e-01 2.906073e-01 -1.181988e+00 -1.187611e-01 -1.980217e-01 4.548368e-02 -9.733847e-02 -4.519968e-02 3.420448e-02 -8.442117e-02 1.013217e-01 1.128044e-01 4.711442e-02 4.503845e-02 4.357535e-02 1.850043e-01
<VARIANCE> 39
 2.516333e+01 3.290099e+01 3.829151e+01 4.904362e+01 3.627289e+01 4.368142e+01 3.505037e+01 2.995283e+01 3.195842e+01 3.916872e+01 3.394828e+01 2.841608e+01 3.647087e+01 1.020999e+00 1.373532e+00 1.778251e+00 1.986719e+00 2.184829e+00 2.451063e+00 2.319712e+00 2.587749e+00 2.454978e+00 2.491652e+00 2.309434e+00 2.085114e+00 8.939667e-01 1.314610e-01 2.258616e-01 2.824887e-01 3.156614e-01 4.085137e-01 4.464555e-01 3.886853e-01 4.444270e-01 4.086725e-01 4.397310e-01 4.172778e-01 3.648756e-01 1.350798e-01
<GCONST> 1.112082e+02
<TRANSP> 5
 0.000000e+00 1.000000e+00 0.000000e+00 0.000000e+00 0.000000e+00
 0.000000e+00 5.130628e-01 4.869373e-01 0.000000e+00 0.000000e+00
 0.000000e+00 0.000000e+00 8.124366e-01 1.875634e-01 0.000000e+00
 0.000000e+00 0.000000e+00 0.000000e+00 8.100386e-01 1.899614e-01
 0.000000e+00 0.000000e+00 0.000000e+00 0.000000e+00 0.000000e+00
<ENDHMM>
~h "k"
<BEGINHMM>
<NUMSTATES> 5
<STATE> 2
<MEAN> 39
 -5.909033e+00 2.677180e-01 -3.152904e+00 -3.131013e+00 3.547708e+00 1.613838e-01 -5.447372e-01 1.795388e+00 6.137566e-01 8.492299e+00 1.971768e+00 3.520884e+00 6.946579e+01 6.235195e-01 -3.401641e-01 -1.595881e-01 -4.529909e-01 -1.671551e-01 -8.966694e-01 -8.203090e-01 -8.170779e-01 -7.728317e-01 -2.230726e-01 -6.385435e-01 -4.165820e-01 1.517227e+00 5.413552e-01 2.963097e-01 4.543324e-01 -6.517559e-02 -7.166059e-01 -2.632985e-01 -2.626597e-01 -3.750714e-01 -1.494687e-01 -6.000957e-01 -1.612665e-01 -3.075663e-01 2.658500e-02
<VARIANCE> 39
 3.690608e+01 3.112714e+01 8.012682e+01 4.854569e+01 5.107698e+01 5.096056e+01 4.491133e+01 4.221634e+01 4.788132e+01 4.303134e+01 4.119679e+01 3.047193e+01 4.528667e+01 3.929044e+00 3.947075e+00 7.328850e+00 4.963891e+00 7.501677e+00 4.158797e+00 3.900774e+00 4.646328e+00 4.800771e+00 6.457063e+00 3.503437e+00 3.244467e+00 2.958612e+00 5.443256e-01 6.236389e-01 1.237317e+00 1.101184e+00 1.085730e+00 6.921409e-01 6.847408e-01 7.050775e-01 9.042460e-01 9.858646e-01 7.125952e-01 5.468609e-01 5.351543e-01
<GCONST> 1.371355e+02
<STATE> 3
<MEAN> 39
 2.248616e+00 2.987229e+00 1.376882e+00 -5.696214e+00 -5.817312e+00 -7.412880e+00 -6.943651e+00 -5.145838e+00 -4.867986e+00 5.371415e-01 -2.733241e+00 -1.907659e+00 7.538276e+01 3.064993e+00 -4.754141e-02 5.358593e-01 -1.742221e+00 -3.587585e+00 -1.548804e+00 -1.460117e+00 -1.546056e+00 -7.643529e-01 -2.516475e+00 -9.349399e-01 -1.446568e+00 1.915405e+00 -4.719317e-01 -6.297950e-01 -6.656741e-01 -2.443946e-01 5.650224e-01 7.038314e-01 4.642369e-01 4.601339e-01 4.865851e-01 5.217479e-01 2.964897e-01 2.409844e-01 -3.950414e-02
<VARIANCE> 39
 4.709663e+01 3.950949e+01 4.562398e+01 4.608591e+01 6.262906e+01 5.754187e+01 5.066760e+01 5.446574e+01 5.279277e+01 4.505701e+01 4.122119e+01 2.476485e+01 2.879320e+01 1.068324e+00 5.220866e+00 4.613797e+00 5.644410e+00 5.623587e+00 4.375084e+00 3.936496e+00 6.037793e+00 6.700415e+00 5.278899e+00 5.314601e+00 3.471960e+00 9.464359e-01 3.296451e-01 2.903765e-01 3.185661e-01 6.236870e-01 1.016929e+00 4.651247e-01 5.114460e-01 5.487036e-01 4.895521e-01 6.433666e-01 4.616227e-01 4.186849e-01 1.899498e-01
<GCONST> 1.283663e+02
<STATE> 4
<MEAN> 39
 4.535959e+00 -1.143177e-01 -4.108979e-01 -1.004444e+01 -9.596830e+00 -6.951514e+00 -7.296185e+00 -5.955151e+00 -4.587802e+00 -1.559544e+00 -2.264553e+00 -4.439119e+00 7.842751e+01 4.688060e-01 -8.362017e-01 -1.889834e-01 -6.128350e-01 -5.559789e-01 2.124535e-01 -1.616779e-01 -3.487725e-01 2.428007e-01 -4.914948e-01 -1.063355e-01 -4.737806e-01 7.679560e-01 -6.441754e-01 2.926372e-02 -2.229083e-01 3.744780e-01 9.652151e-01 5.219089e-01 3.792849e-01 2.479719e-01 1.237348e-01 5.146968e-01 1.458250e-01 2.673791e-01 -4.613773e-01
<VARIANCE> 39
 3.310835e+01 5.012779e+01 3.970707e+01 4.997200e+01 5.235272e+01 6.472787e+01 5.904539e+01 8.126943e+01 9.296397e+01 7.825343e+01 7.658298e+01 4.321013e+01 2.236500e+01 1.066868e+00 2.106420e+00 2.932397e+00 4.086945e+00 5.718056e+00 2.674130e+00 2.771576e+00 3.292746e+00 3.127483e+00 3.107685e+00 3.049597e+00 2.819911e+00 9.685100e-01 2.183333e-01 4.377716e-01 3.078364e-01 5.865158e-01 5.933803e-01 5.114115e-01 5.882519e-01 7.910320e-01 6.665887e-01 7.094116e-01 6.340099e-01 4.259328e-01 1.168074e-01
<GCONST> 1.257961e+02
<TRANSP> 5
 0.000000e+00 1.000000e+00 0.000000e+00 0.000000e+00 0.000000e+00
 0.000000e+00 8.169200e-01 1.830799e-01 0.000000e+00 0.000000e+00
 0.000000e+00 0.000000e+00 4.680348e-01 5.319652e-01 0.000000e+00
 0.000000e+00 0.000000e+00 0.000000e+00 4.655325e-01 5.344675e-01
 0.000000e+00 0.000000e+00 0.000000e+00 0.000000e+00 0.000000e+00
<ENDHMM>
~h "l"
<BEGINHMM>
<NUMSTATES> 5
<STATE> 2
<MEAN> 39
 7.958349e-01 5.107970e+00 1.016121e+01 1.520153e+00 -5.127002e+00 -1.027555e+01 -1.388257e+01 -3.048538e+00 -1.584339e+00 -2.070448e+00 -2.479776e+00 -2.131517e+00 7.177317e+01 8.252764e-01 -5.357868e-01 7.189060e-01 -4.584524e-01 -9.632446e-01 -1.588183e+00 -2.063253e+00 -2.816344e-01 -3.845862e-01 -5.627912e-01 -1.349053e-01 -1.404366e-01 1.579717e+00 -3.289798e-01 -3.781548e-01 -2.495888e-01 -1.970334e-01 5.471274e-02 5.945912e-01 5.693622e-01 3.493926e-01 2.462486e-01 3.153639e-01 2.382367e-01 1.451203e-01 -7.950750e-02
<VARIANCE> 39
 2.601531e+01 5.080102e+01 3.112894e+01 6.513791e+01 3.923857e+01 6.035255e+01 7.394556e+01 3.024622e+01 5.540881e+01 4.807092e+01 3.478578e+01 4.140323e+01 3.488029e+01 2.230329e+00 2.601304e+00 2.459558e+00 3.212466e+00 3.562417e+00 6.348724e+00 7.696871e+00 3.889912e+00 3.618812e+00 3.876848e+00 3.349402e+00 2.536316e+00 2.219627e+00 2.602620e-01 3.831978e-01 3.404483e-01 4.460684e-01 7.284074e-01 9.008108e-01 1.183394e+00 6.845185e-01 6.121454e-01 6.196961e-01 6.378966e-01 4.661492e-01 2.439932e-01
<GCONST> 1.281792e+02
<STATE> 3
<MEAN> 39
 2.197793e+00 3.619031e-01 1.145157e+01 -8.166964e-01 -7.679446e+00 -1.129134e+01 -1.790620e+01 -1.541845e+00 -2.313973e+00 -3.150805e+00 -9.988092e-01 -3.414401e+00 7.588424e+01 9.126547e-02 -9.460174e-01 -2.076147e-01 -8.674802e-01 -9.696465e-01 4.654489e-01 1.982002e-01 -5.273128e-02 2.570673e-01 6.728818e-01 -1.014432e-01 -2.411302e-01 8.565555e-01 -3.172123e-02 -4.294758e-02 -2.228553e-01 -1.726764e-01 -1.156262e-01 3.228973e-01 3.695083e-01 -1.007142e-01 9.096903e-02 1.158408e-01 -1.107856e-01 -2.394955e-02 9.938315e-03
<VARIANCE> 39
 2.414412e+01 3.947499e+01 4.337560e+01 6.724882e+01 4.613432e+01 5.635654e+01 6.487044e+01 2.933327e+01 7.396297e+01 5.940475e+01 5.435614e+01 5.017420e+01 1.596907e+01 3.516244e-01 1.574224e+00 2.164619e+00 1.968902e+00 3.390370e+00 2.796651e+00 3.443172e+00 2.775549e+00 2.453579e+00 3.358484e+00 2.684435e+00 1.710346e+00 6.689517e-01 5.757988e-02 2.451226e-01 1.870216e-01 2.842166e-01 5.324873e-01 4.243780e-01 5.582723e-01 4.103668e-01 4.097831e-01 4.927363e-01 3.759388e-01 2.990859e-01 1.075588e-01
<GCONST> 1.134243e+02
<STATE> 4
<MEAN> 39
 4.590957e-01 -3.623966e+00 9.590357e+00 -6.144357e+00 -1.320842e+01 -9.251908e+00 -1.465627e+01 -2.655561e+00 -7.427763e-01 1.180969e+00 -4.004415e+00 -3.056727e+00 8.020831e+01 -3.423868e-02 -3.026318e-01 -5.554930e-01 -7.781182e-01 -4.123553e-01 7.395473e-01 6.370437e-01 -1.776228e-01 1.297354e-01 9.521288e-02 -1.686158e-01 1.133717e-02 4.420433e-01 -3.701030e-02 2.393330e-01 -2.147866e-02 1.285102e-01 3.154907e-01 -4.122289e-02 1.003576e-01 -7.265789e-02 -1.682790e-01 -2.521911e-01 5.202556e-02 4.432065e-02 -1.791855e-01
<VARIANCE> 39
 2.742085e+01 2.962356e+01 6.088466e+01 7.399586e+01 5.660702e+01 6.544365e+01 5.536189e+01 5.940521e+01 5.577467e+01 9.002759e+01 7.419408e+01 4.314120e+01 1.181438e+01 2.993295e-01 1.446744e+00 1.974782e+00 2.229337e+00 2.689324e+00 2.768401e+00 3.050194e+00 2.491322e+00 2.069086e+00 2.700981e+00 2.714093e+00 1.640762e+00 5.819889e-01 3.652909e-02 1.486952e-01 1.491555e-01 2.351512e-01 3.472364e-01 3.061025e-01 4.239882e-01 4.284423e-01 3.733186e-01 4.693989e-01 4.399375e-01 2.723856e-01 6.844431e-02
<GCONST> 1.104634e+02
<TRANSP> 5
 0.000000e+00 1.000000e+00 0.000000e+00 0.000000e+00 0.000000e+00
 0.000000e+00 6.951619e-01 3.048382e-01 0.000000e+00 0.000000e+00
 0.000000e+00 0.000000e+00 7.335337e-01 2.664663e-01 0.000000e+00
 0.000000e+00 0.000000e+00 0.000000e+00 6.217868e-01 3.782132e-01
 0.000000e+00 0.000000e+00 0.000000e+00 0.000000e+00 0.000000e+00
<ENDHMM>
~h "m"
<BEGINHMM>
<NUMSTATES> 5
<STATE> 2
<MEAN> 39
 4.069031e+00 6.318261e+00 6.368968e+00 4.191939e+00 -3.667923e+00 -8.014210e+00 -8.364206e+00 -1.090546e+01 -8.636752e+00 -9.985458e-01 -1.629516e+00 -7.010915e+00 7.049502e+01 1.069081e+00 -3.580030e-01 2.541367e-01 5.769485e-01 -6.027240e-01 -1.428862e+00 -8.324206e-01 -1.625209e+00 -1.489529e+00 -7.385620e-02 1.012814e-01 -8.335141e-01 1.166498e+00 -4.036362e-01 -4.111564e-01 -2.778631e-01 -4.431954e-01 6.318693e-02 5.851145e-01 4.155171e-01 6.887380e-01 5.509997e-01 1.532701e-01 1.395539e-01 4.359611e-01 -4.911505e-03
<VARIANCE> 39
 1.837446e+01 5.328806e+01 2.021550e+01 3.917420e+01 2.697534e+01 3.808868e+01 3.655450e+01 4.973276e+01 5.081873e+01 5.233412e+01 5.307368e+01 2.828190e+01 3.197088e+01 2.022280e+00 2.101365e+00 2.031425e+00 2.761688e+00 2.822941e+00 3.960672e+00 3.669222e+00 4.735703e+00 3.637213e+00 2.955235e+00 2.841964e+00 2.485535e+00 2.561387e+00 1.895280e-01 2.659980e-01 3.109609e-01 2.658711e-01 3.769181e-01 4.704517e-01 5.413811e-01 7.645741e-01 4.885563e-01 5.306147e-01 4.998986e-01 3.241563e-01 1.950670e-01
<GCONST> 1.191578e+02
<STATE> 3
<MEAN> 39
 5.596238e+00 2.667132e+00 4.540012e+00 2.982038e+00 -5.079237e+00 -8.228453e+00 -8.853281e+00 -1.228670e+01 -1.166938e+01 -2.139536e+00 -1.425366e+00 -7.986184e+00 7.375279e+01 7.325219e-02 -7.664338e-01 -5.736249e-01 -9.884140e-01 -1.956510e-01 5.444627e-01 7.733431e-02 7.379867e-01 5.176029e-01 -4.652518e-01 -9.524311e-02 2.231335e-01 6.846364e-01 -9.134644e-02 -1.356270e-01 -1.638050e-01 -5.120886e-01 -1.003201e-01 3.178387e-01 6.231735e-02 4.226187e-01 3.562647e-01 -1.841000e-01 -1.395924e-01 1.414919e-01 1.363934e-01
<VARIANCE> 39
 1.818861e+01 3.095969e+01 2.209996e+01 4.347604e+01 2.632320e+01 4.504010e+01 4.647492e+01 4.049691e+01 6.311623e+01 5.309654e+01 5.977989e+01 3.515815e+01 1.872708e+01 3.147893e-01 1.038259e+00 2.612275e+00 3.097832e+00 1.480066e+00 1.886050e+00 1.823555e+00 3.522779e+00 2.937962e+00 1.964868e+00 1.662986e+00 1.697628e+00 5.774091e-01 6.531522e-02 1.463413e-01 3.427201e-01 2.884660e-01 2.819190e-01 2.770425e-01 3.119742e-01 4.094225e-01 4.189249e-01 3.244519e-01 3.088356e-01 2.941264e-01 6.591730e-02
<GCONST> 1.056096e+02
<STATE> 4
<MEAN> 39
 4.216630e+00 -1.512786e+00 7.892534e-01 -8.589602e+00 -7.076143e+00 -3.570221e+00 -9.978006e+00 -6.288111e+00 -9.531662e+00 -6.219025e+00 -4.797225e+00 -8.244679e+00 7.754688e+01 -2.868983e-01 -5.701598e-01 -5.155947e-01 -1.479048e+00 -1.189824e-01 1.051754e+00 1.949101e-01 8.944744e-01 8.252507e-01 -4.555369e-01 -4.209703e-01 3.324398e-01 6.226715e-01 -7.188171e-02 2.170244e-01 1.897663e-01 3.411694e-01 1.127847e-01 -1.015942e-01 1.326812e-02 -3.002362e-01 -1.535716e-01 7.144281e-02 4.659187e-02 -3.914353e-03 -1.882819e-01
<VARIANCE> 39
 2.091479e+01 3.944876e+01 7.868504e+01 6.319081e+01 5.502542e+01 4.263211e+01 6.583726e+01 3.553965e+01 7.667709e+01 4.769780e+01 6.860305e+01 3.844605e+01 1.936674e+01 4.935560e-01 1.878604e+00 3.816978e+00 3.257659e+00 3.014686e+00 2.672046e+00 2.414548e+00 3.561803e+00 3.347547e+00 2.391885e+00 1.826034e+00 1.990621e+00 8.623567e-01 5.589765e-02 1.474729e-01 2.768310e-01 4.418474e-01 3.005706e-01 3.518194e-01 3.319445e-01 3.956516e-01 3.791176e-01 3.080904e-01 2.514779e-01 2.688013e-01 5.167686e-02
<GCONST> 1.123936e+02
<TRANSP> 5
 0.000000e+00 1.000000e+00 0.000000e+00 0.000000e+00 0.000000e+00
 0.000000e+00 6.412985e-01 3.587015e-01 0.000000e+00 0.000000e+00
 0.000000e+00 0.000000e+00 7.902846e-01 2.097154e-01 0.000000e+00
 0.000000e+00 0.000000e+00 0.000000e+00 6.147529e-01 3.852471e-01
 0.000000e+00 0.000000e+00 0.000000e+00 0.000000e+00 0.000000e+00
<ENDHMM>
~h "n"
<BEGINHMM>
<NUMSTATES> 5
<STATE> 2
<MEAN> 39
 4.699947e+00 8.376903e+00 8.706243e+00 3.280117e+00 -8.697528e+00 -7.468072e+00 -5.496009e+00 -1.078354e+01 -7.341439e+00 8.374738e-01 -4.240948e+00 -5.239976e+00 7.048952e+01 6.244053e-01 -2.137370e-01 1.299594e-01 9.631893e-02 -8.112845e-01 -7.832157e-01 -2.701818e-01 -1.025483e+00 -5.218016e-01 1.057646e-01 -3.426817e-01 -2.345738e-01 7.757809e-01 -3.590660e-01 -3.525909e-01 -1.993642e-01 -2.099821e-01 3.111505e-01 2.026195e-01 1.706590e-01 7.014327e-01 3.922404e-01 -3.999580e-02 1.226882e-01 2.515516e-01 4.344171e-02
<VARIANCE> 39
 2.078881e+01 4.330437e+01 2.242935e+01 4.006771e+01 2.792161e+01 2.356741e+01 2.224424e+01 4.327804e+01 8.097637e+01 3.852280e+01 2.490328e+01 4.089368e+01 2.127140e+01 1.449004e+00 1.435864e+00 1.281152e+00 1.647981e+00 2.577168e+00 2.714483e+00 2.885862e+00 3.961808e+00 2.384188e+00 1.695691e+00 2.140539e+00 1.995091e+00 1.711769e+00 1.362041e-01 2.682647e-01 3.182340e-01 3.168959e-01 3.339341e-01 4.844497e-01 5.897064e-01 4.445147e-01 4.560065e-01 4.958342e-01 3.825624e-01 3.467075e-01 1.983299e-01
<GCONST> 1.120278e+02
<STATE> 3
<MEAN> 39
 2.814330e+00 3.035071e+00 5.716124e+00 -1.389362e-01 -8.864079e+00 -1.091120e+01 -6.481948e+00 -7.416187e+00 -8.844571e+00 -1.958633e+00 -5.438196e+00 -4.744523e+00 7.525307e+01 -4.682862e-01 -1.332187e+00 -7.548040e-01 -1.250467e+00 7.760062e-01 -2.499329e-02 -5.145782e-01 2.190728e+00 1.002685e+00 -1.135458e+00 -4.199512e-01 1.599684e-01 1.215170e+00 -8.479378e-02 -4.510813e-01 -1.799957e-01 -3.839418e-01 9.344687e-02 4.233258e-01 -5.904147e-02 2.735893e-01 4.355214e-01 -2.322661e-01 -2.134995e-01 -5.735742e-03 2.616692e-01
<VARIANCE> 39
 2.323545e+01 1.804394e+01 3.160463e+01 5.127359e+01 3.592624e+01 3.349710e+01 2.263931e+01 4.141047e+01 9.678908e+01 4.184613e+01 4.329251e+01 5.078631e+01 1.366663e+01 4.017477e-01 2.088040e+00 2.580138e+00 2.537443e+00 2.020765e+00 3.058635e+00 2.818452e+00 3.810050e+00 3.661478e+00 4.106097e+00 3.163059e+00 1.635551e+00 9.349590e-01 7.746292e-02 1.853712e-01 2.848765e-01 3.284219e-01 3.422800e-01 5.284280e-01 4.823413e-01 7.465392e-01 4.308481e-01 4.660749e-01 4.875314e-01 2.794428e-01 9.826656e-02
<GCONST> 1.125819e+02
<STATE> 4
<MEAN> 39
 1.313167e+00 -5.989277e+00 3.319540e+00 -8.523458e+00 -6.813037e+00 -6.045015e+00 -8.709074e+00 -1.320437e+00 -6.547229e+00 -7.088763e+00 -1.009268e+01 -5.378051e+00 8.067735e+01 -2.137583e-01 -1.782093e+00 -7.185211e-01 -7.179250e-01 5.441480e-01 1.016359e+00 -1.475854e-02 4.390436e-01 1.524801e+00 -7.484972e-01 -6.864990e-01 1.689204e-01 9.695174e-01 1.291248e-01 3.737014e-01 5.458098e-02 4.479556e-01 -1.548069e-01 -8.373497e-02 2.625034e-01 -6.430330e-01 -2.226627e-01 3.156582e-01 1.793130e-01 -8.394109e-02 -3.327284e-01
<VARIANCE> 39
 2.909319e+01 3.520226e+01 5.665156e+01 5.508636e+01 5.757118e+01 3.564125e+01 5.742388e+01 3.934619e+01 1.375260e+02 6.574797e+01 6.951647e+01 4.914867e+01 1.370458e+01 4.147931e-01 2.238510e+00 2.311593e+00 2.446371e+00 2.771851e+00 2.799482e+00 3.471933e+00 2.616130e+00 2.862459e+00 3.403522e+00 2.224391e+00 1.821047e+00 9.791858e-01 4.016814e-02 2.575409e-01 2.977453e-01 2.918247e-01 2.458407e-01 3.938920e-01 5.680861e-01 5.753964e-01 4.268030e-01 5.948431e-01 3.304055e-01 2.936611e-01 6.970300e-02
<GCONST> 1.146014e+02
<TRANSP> 5
 0.000000e+00 1.000000e+00 0.000000e+00 0.000000e+00 0.000000e+00
 0.000000e+00 8.011785e-01 1.988215e-01 0.000000e+00 0.000000e+00
 0.000000e+00 0.000000e+00 7.313961e-01 2.686039e-01 0.000000e+00
 0.000000e+00 0.000000e+00 0.000000e+00 6.902272e-01 3.097728e-01
 0.000000e+00 0.000000e+00 0.000000e+00 0.000000e+00 0.000000e+00
<ENDHMM>
~h "o"
<BEGINHMM>
<NUMSTATES> 5
<STATE> 2
<MEAN> 39
 4.472176e+00 2.528036e+00 -1.569857e+00 -1.508979e+01 -7.474526e+00 -1.190947e+00 -1.247634e+01 -1.181108e+01 -3.607848e+00 4.707613e+00 -2.801166e-01 -9.612686e-01 7.811609e+01 2.864224e-01 5.059074e-02 -2.795306e-01 -1.025154e+00 -5.349444e-01 6.994107e-01 2.735565e-01 -4.141321e-01 -5.678554e-01 -1.745970e-01 2.143489e-01 3.838682e-01 5.489470e-02 -4.016518e-01 1.201890e-01 1.280798e-01 5.964489e-01 4.776940e-01 -9.496171e-02 3.700713e-01 5.450648e-01 1.418562e-01 -1.997028e-01 -1.283705e-01 3.446136e-02 -4.077019e-01
<VARIANCE> 39
 3.172151e+01 3.061941e+01 3.626691e+01 4.407443e+01 5.956778e+01 6.855005e+01 5.478590e+01 4.135707e+01 4.543423e+01 8.662547e+01 4.979248e+01 3.694951e+01 1.909711e+01 6.361153e-01 1.133380e+00 1.220538e+00 3.328062e+00 2.885816e+00 2.061784e+00 2.852515e+00 2.491246e+00 2.237559e+00 2.785232e+00 2.229954e+00 1.945269e+00 8.084120e-01 2.291904e-01 2.714762e-01 2.260490e-01 4.097266e-01 5.631790e-01 4.075788e-01 6.035705e-01 5.903001e-01 4.992562e-01 6.595402e-01 4.737706e-01 3.825281e-01 1.071302e-01
<GCONST> 1.159085e+02
<STATE> 3
<MEAN> 39
 6.279212e+00 5.319006e+00 -2.361907e+00 -1.754741e+01 -1.016660e+01 1.370250e+00 -8.565969e+00 -9.898900e+00 -5.309352e+00 5.305160e-01 -9.652959e-01 8.667841e-01 7.554339e+01 -8.117454e-02 3.958012e-01 -5.951335e-02 2.249708e-01 1.772847e-01 5.080402e-02 5.343045e-01 4.053047e-01 -1.344495e-01 -2.681351e-01 -3.349291e-02 1.219618e-01 -6.668375e-01 -1.520012e-01 5.617139e-02 5.824673e-02 3.981454e-01 2.370092e-01 -1.276971e-01 8.323229e-02 1.697910e-01 8.825061e-02 8.168138e-02 7.713798e-02 -6.393754e-02 -2.162915e-01
<VARIANCE> 39
 2.828868e+01 2.463452e+01 3.943151e+01 3.539706e+01 5.934686e+01 4.895733e+01 3.557307e+01 3.518596e+01 4.285862e+01 5.362764e+01 3.340677e+01 3.634426e+01 1.623203e+01 2.399247e-01 7.116437e-01 6.371103e-01 1.771981e+00 1.582786e+00 1.218556e+00 1.551762e+00 1.405487e+00 1.445919e+00 1.645309e+00 1.577343e+00 1.366176e+00 6.076670e-01 5.533293e-02 9.562498e-02 1.316242e-01 2.223623e-01 2.587279e-01 2.017413e-01 2.396847e-01 2.599558e-01 2.808139e-01 2.787474e-01 2.788088e-01 2.611345e-01 5.082623e-02
<GCONST> 9.647877e+01
<STATE> 4
<MEAN> 39
 2.147129e+00 7.429902e+00 -1.649268e+00 -1.076822e+01 -6.275782e+00 3.640990e-01 -3.863626e+00 -4.516402e+00 -3.218379e+00 2.269669e+00 2.841937e+00 2.401349e+00 6.787488e+01 -1.093997e+00 9.489063e-03 1.487820e-01 1.219618e+00 6.512952e-01 -1.384269e-01 8.057417e-01 1.119434e+00 8.540605e-01 6.074610e-01 8.594776e-01 4.310651e-01 -1.174283e+00 -7.815799e-02 -2.027124e-01 1.996602e-02 -5.438560e-02 -3.433574e-02 -1.150077e-02 -1.097906e-01 -1.728446e-02 1.342406e-01 1.198900e-01 -1.020287e-02 3.201656e-02 1.923936e-01
<VARIANCE> 39
 2.572969e+01 3.468010e+01 1.940925e+01 4.275286e+01 3.378484e+01 3.281812e+01 3.680683e+01 4.102745e+01 3.874420e+01 4.355336e+01 3.959877e+01 3.549806e+01 2.476693e+01 1.031722e+00 1.029549e+00 1.216592e+00 2.014902e+00 2.040156e+00 1.741554e+00 2.055608e+00 2.620979e+00 2.848250e+00 2.736940e+00 2.634676e+00 2.354656e+00 7.743969e-01 1.459328e-01 1.638933e-01 2.026341e-01 3.442955e-01 3.596485e-01 3.277514e-01 3.696911e-01 4.253205e-01 4.759592e-01 5.048962e-01 5.210308e-01 4.225709e-01 1.099772e-01
<GCONST> 1.094133e+02
<TRANSP> 5
 0.000000e+00 1.000000e+00 0.000000e+00 0.000000e+00 0.000000e+00
 0.000000e+00 5.731599e-01 4.268401e-01 0.000000e+00 0.000000e+00
 0.000000e+00 0.000000e+00 8.074748e-01 1.925252e-01 0.000000e+00
 0.000000e+00 0.000000e+00 0.000000e+00 8.012140e-01 1.987859e-01
 0.000000e+00 0.000000e+00 0.000000e+00 0.000000e+00 0.000000e+00
<ENDHMM>
~h "p"
<BEGINHMM>
<NUMSTATES> 5
<STATE> 2
<MEAN> 39
 -6.882862e+00 1.532299e+00 3.856553e+00 2.568124e-01 -9.213942e-01 -1.358848e+00 -4.776585e-01 3.302390e+00 4.380649e+00 4.701129e+00 2.138605e+00 3.031638e+00 6.756147e+01 3.657955e-01 -5.666084e-01 1.383402e+00 6.394402e-02 -8.604896e-01 -1.583781e+00 -1.200191e+00 -6.805966e-01 -7.706338e-01 -7.658358e-01 -9.946232e-01 -2.750396e-01 2.131766e+00 5.745451e-01 2.260221e-01 3.297075e-01 -2.818905e-01 -5.980785e-01 -2.453182e-01 -5.028715e-01 -6.045736e-01 -5.221469e-01 -3.817647e-01 -2.145764e-01 -2.725603e-01 2.777684e-01
<VARIANCE> 39
 2.932248e+01 3.346028e+01 3.904651e+01 3.438027e+01 3.262157e+01 3.973563e+01 3.416260e+01 3.327998e+01 3.199634e+01 3.015650e+01 2.986254e+01 2.844024e+01 5.074411e+01 4.326968e+00 4.114911e+00 4.950920e+00 3.518984e+00 5.416069e+00 5.674072e+00 4.763034e+00 4.801703e+00 4.749568e+00 3.948749e+00 3.383857e+00 3.049805e+00 3.534445e+00 3.999150e-01 6.924036e-01 5.953577e-01 6.577854e-01 8.405064e-01 8.988973e-01 7.330842e-01 6.885948e-01 6.359864e-01 6.375371e-01 6.508183e-01 5.143256e-01 5.466963e-01
<GCONST> 1.305487e+02
<STATE> 3
<MEAN> 39
 -1.326238e+00 2.194822e+00 9.938761e+00 -4.137965e-01 -7.988645e+00 -8.997043e+00 -8.088466e+00 -3.670134e+00 -2.821455e+00 -7.282841e-01 -2.952783e+00 -6.009896e-01 7.470412e+01 2.179568e+00 8.757535e-02 1.927306e+00 -1.617863e+00 -3.492876e+00 -1.722452e+00 -2.763625e+00 -2.587161e+00 -1.985809e+00 -1.429468e+00 -9.218284e-01 -9.330893e-01 2.470738e+00 -3.074116e-01 -1.234612e-01 -3.850295e-01 -4.003486e-01 1.135432e-01 7.492075e-01 3.815674e-01 2.936930e-01 4.337795e-01 2.845035e-01 4.648530e-01 1.530432e-01 -4.647892e-01
<VARIANCE> 39
 5.316212e+01 3.426663e+01 7.069260e+01 4.805342e+01 4.526311e+01 5.550794e+01 4.275098e+01 3.381759e+01 3.723070e+01 2.872106e+01 2.699273e+01 2.391551e+01 2.580674e+01 1.797948e+00 4.300746e+00 6.050566e+00 5.994701e+00 6.066489e+00 7.865107e+00 5.280130e+00 4.653293e+00 4.623788e+00 5.133603e+00 5.052252e+00 3.971492e+00 2.125032e+00 4.438403e-01 4.477494e-01 4.011194e-01 4.838658e-01 7.715995e-01 7.452741e-01 6.687555e-01 5.895836e-01 5.516545e-01 4.886720e-01 5.019084e-01 4.324234e-01 3.057122e-01
<GCONST> 1.299763e+02
<STATE> 4
<MEAN> 39
 3.062499e-01 4.020941e-01 1.086950e+01 -4.745295e+00 -1.235670e+01 -9.614556e+00 -1.073514e+01 -5.650635e+00 -3.120806e+00 -8.170222e-01 -2.854356e+00 -1.022459e+00 7.826133e+01 9.370760e-01 -4.345645e-01 8.918297e-01 -1.828539e+00 -2.239299e+00 -3.903410e-01 -1.440356e+00 -1.265590e+00 -6.967988e-01 -7.048054e-01 -2.199566e-01 -4.132480e-01 1.623868e+00 -7.084469e-01 -8.013630e-02 -5.041625e-01 2.268604e-01 8.433427e-01 6.815045e-01 7.887560e-01 7.234154e-01 5.566989e-01 3.401674e-01 3.626280e-01 2.621931e-01 -6.683241e-01
<VARIANCE> 39
 4.583076e+01 4.854544e+01 1.042693e+02 7.142490e+01 5.451348e+01 8.560268e+01 5.287528e+01 3.672974e+01 5.199715e+01 4.989775e+01 4.755135e+01 3.664145e+01 2.369274e+01 1.720363e+00 3.225869e+00 3.273077e+00 4.164323e+00 4.421419e+00 5.147626e+00 4.656723e+00 3.411832e+00 3.616877e+00 4.406005e+00 4.223254e+00 3.334195e+00 1.061503e+00 2.074066e-01 4.174227e-01 4.890695e-01 5.404680e-01 6.145901e-01 7.665663e-01 5.611947e-01 5.297694e-01 4.916582e-01 4.962714e-01 4.677515e-01 3.846523e-01 2.224396e-01
<GCONST> 1.281271e+02
<TRANSP> 5
 0.000000e+00 1.000000e+00 0.000000e+00 0.000000e+00 0.000000e+00
 0.000000e+00 7.442476e-01 2.557524e-01 0.000000e+00 0.000000e+00
 0.000000e+00 0.000000e+00 2.708145e-01 7.291855e-01 0.000000e+00
 0.000000e+00 0.000000e+00 0.000000e+00 1.100336e-01 8.899664e-01
 0.000000e+00 0.000000e+00 0.000000e+00 0.000000e+00 0.000000e+00
<ENDHMM>
~h "s"
<BEGINHMM>
<NUMSTATES> 5
<STATE> 2
<MEAN> 39
 -1.883786e+01 5.520930e+00 8.926367e-01 -3.309285e+00 2.503135e+00 -4.213178e+00 1.079929e+00 3.772410e+00 4.656618e+00 5.139947e+00 2.856989e+00 3.102622e+00 7.443042e+01 -5.325232e-01 -8.135909e-02 -1.415640e-01 -5.463759e-02 9.548490e-02 1.735412e-01 1.526173e-01 1.925823e-01 3.081776e-01 2.907942e-01 2.415594e-01 2.142169e-01 6.090638e-02 4.164407e-01 -5.147021e-02 1.746699e-01 2.059741e-02 -1.250828e-01 -4.445982e-02 -1.933206e-01 -1.780087e-01 -1.445034e-01 -1.599914e-01 -1.607758e-01 -1.332528e-01 -5.571852e-02
<VARIANCE> 39
 3.107738e+01 1.623892e+01 3.552660e+01 3.099898e+01 3.279184e+01 3.859399e+01 4.223444e+01 3.888573e+01 3.151031e+01 3.004925e+01 3.004120e+01 3.488447e+01 2.558565e+01 1.361610e+00 7.162662e-01 1.119570e+00 1.008999e+00 1.280369e+00 1.451925e+00 1.681081e+00 1.840918e+00 1.814526e+00 1.896099e+00 1.881060e+00 1.536603e+00 4.571757e-01 1.891350e-01 1.385526e-01 1.796252e-01 2.129636e-01 2.808402e-01 3.370911e-01 3.844218e-01 3.960052e-01 3.938011e-01 3.880481e-01 3.753833e-01 3.179287e-01 5.415839e-02
<GCONST> 1.017981e+02
<STATE> 3
<MEAN> 39
 -1.658502e+01 3.891205e+00 3.462138e+00 -2.587247e+00 3.130442e+00 -2.480433e+00 1.214085e+00 3.898330e+00 5.477227e+00 5.326428e+00 2.365543e+00 3.401405e+00 7.252563e+01 3.592415e+00 3.743288e-01 1.490698e+00 -1.049951e-01 -1.532938e+00 -1.394227e+00 -2.555519e+00 -2.297595e+00 -1.950232e+00 -1.758598e+00 -1.741983e+00 -1.581299e+00 4.078869e-01 1.022362e+00 -3.320624e-02 1.238445e-01 -2.947362e-01 -8.934459e-01 -5.075170e-01 -9.420983e-01 -7.165440e-01 -6.108212e-01 -4.362275e-01 -3.142074e-01 -3.859476e-01 5.279375e-01
<VARIANCE> 39
 3.986404e+01 1.487613e+01 3.546145e+01 3.034988e+01 2.802302e+01 3.830711e+01 4.550379e+01 3.462180e+01 3.375493e+01 3.031820e+01 3.028281e+01 3.432991e+01 2.260860e+01 2.518776e+00 1.586046e+00 2.772411e+00 2.897658e+00 3.314536e+00 4.473240e+00 3.926873e+00 3.345074e+00 2.955280e+00 2.730427e+00 2.458418e+00 2.392820e+00 8.626778e-01 2.618737e-01 3.267309e-01 4.497344e-01 5.225053e-01 4.092283e-01 7.369734e-01 6.412346e-01 5.780331e-01 5.779397e-01 5.618012e-01 5.862220e-01 4.754469e-01 1.003887e-01
<GCONST> 1.180341e+02
<STATE> 4
<MEAN> 39
 -2.741004e+00 5.081249e+00 6.447532e+00 -4.550582e+00 -5.223228e+00 -9.513740e+00 -1.027833e+01 -5.703601e+00 -2.098589e+00 -7.094997e-01 -3.806204e+00 -2.864802e+00 7.656803e+01 3.935121e+00 -1.149299e+00 7.235083e-01 -1.497718e+00 -3.228165e+00 -1.258766e+00 -3.044666e+00 -2.159955e+00 -1.755425e+00 -1.357486e+00 -1.007529e+00 -1.366819e+00 1.890701e+00 -9.641332e-01 -4.173697e-01 -3.454790e-01 -1.515773e-01 2.433403e-01 6.671694e-01 8.587601e-01 7.412111e-01 4.892741e-01 4.088140e-01 6.699876e-01 5.130714e-01 -1.651830e-02
<VARIANCE> 39
 5.876930e+01 2.951335e+01 7.624438e+01 4.112284e+01 6.214346e+01 7.786296e+01 4.156871e+01 3.562784e+01 3.742109e+01 3.805914e+01 2.963548e+01 3.333399e+01 2.956671e+01 2.254779e+00 3.329863e+00 5.781548e+00 5.125117e+00 4.492621e+00 7.724647e+00 6.067564e+00 5.132463e+00 4.852763e+00 5.138161e+00 5.025371e+00 3.465325e+00 7.354276e-01 3.561823e-01 2.724705e-01 2.474239e-01 4.025585e-01 6.722993e-01 6.120263e-01 6.652386e-01 4.889613e-01 4.302044e-01 5.124249e-01 4.457628e-01 4.260549e-01 2.002996e-01
<GCONST> 1.272397e+02
<TRANSP> 5
 0.000000e+00 1.000000e+00 0.000000e+00 0.000000e+00 0.000000e+00
 0.000000e+00 8.985924e-01 1.014076e-01 0.000000e+00 0.000000e+00
 0.000000e+00 0.000000e+00 5.631961e-01 4.368040e-01 0.000000e+00
 0.000000e+00 0.000000e+00 0.000000e+00 5.543326e-01 4.456674e-01
 0.000000e+00 0.000000e+00 0.000000e+00 0.000000e+00 0.000000e+00
<ENDHMM>
~h "t"
<BEGINHMM>
<NUMSTATES> 5
<STATE> 2
<MEAN> 39
 -1.037499e+01 3.905659e+00 1.231520e+00 -3.217473e+00 1.501126e+00 -1.733816e+00 -5.976996e-01 3.059294e+00 4.608154e+00 4.682630e+00 2.986649e+00 2.977005e+00 7.039957e+01 3.614076e-01 -5.112096e-01 3.807137e-01 -6.515478e-01 -5.330072e-01 -1.239486e+00 -1.281456e+00 -6.210670e-01 -2.173402e-01 -8.147706e-01 -1.105829e+00 -6.822832e-01 2.126862e+00 7.768257e-01 -1.575938e-01 2.116354e-01 -1.283442e-01 -4.981927e-01 -1.009341e-01 -4.371757e-01 -4.045977e-01 -2.411586e-01 -3.300191e-01 -3.998986e-01 -4.230061e-01 1.493222e-01
<VARIANCE> 39
 4.249201e+01 2.202690e+01 3.117157e+01 3.425413e+01 3.961229e+01 4.284200e+01 3.630957e+01 3.630938e+01 3.056018e+01 3.154191e+01 2.893305e+01 3.045060e+01 4.507112e+01 5.380859e+00 2.519846e+00 3.581508e+00 3.606684e+00 5.204521e+00 4.934259e+00 4.689961e+00 4.289634e+00 4.138977e+00 3.852700e+00 4.180232e+00 3.805857e+00 4.020421e+00 5.432329e-01 4.920534e-01 5.178699e-01 6.399525e-01 7.090791e-01 9.542128e-01 7.481914e-01 7.024376e-01 6.800356e-01 6.183882e-01 6.953443e-01 5.732707e-01 4.861703e-01
<GCONST> 1.299489e+02
<STATE> 3
<MEAN> 39
 -2.063169e+00 2.036736e+00 3.510597e+00 -6.289503e+00 -4.956184e+00 -7.714398e+00 -9.435094e+00 -2.623692e+00 2.023530e+00 -6.949688e-01 -4.755104e+00 -3.456027e+00 7.753625e+01 3.257781e+00 -1.787119e+00 4.575111e-01 -1.565109e+00 -2.322097e+00 -6.682006e-01 -2.358584e+00 -1.695686e+00 -6.370967e-01 -1.261819e+00 -2.040423e+00 -2.073049e+00 2.380880e+00 -3.119674e-01 -2.658466e-01 -2.730614e-01 1.088894e-01 3.244666e-01 8.404749e-01 7.681750e-01 3.131862e-01 5.703983e-02 3.536918e-01 6.194018e-01 3.687442e-01 -5.371773e-01
<VARIANCE> 39
 6.252546e+01 3.791777e+01 5.682859e+01 3.606526e+01 5.315052e+01 6.506429e+01 3.914369e+01 3.780797e+01 5.491061e+01 3.641913e+01 3.342581e+01 4.995414e+01 2.703590e+01 1.646741e+00 4.409059e+00 6.099552e+00 5.525390e+00 6.764610e+00 8.273816e+00 5.578131e+00 5.909144e+00 7.007177e+00 5.197162e+00 6.710067e+00 5.231524e+00 1.443688e+00 4.993961e-01 3.472421e-01 3.227512e-01 4.858256e-01 8.189847e-01 7.130674e-01 7.260925e-01 6.017791e-01 5.242400e-01 5.860563e-01 5.009516e-01 5.256910e-01 3.833913e-01
<GCONST> 1.329372e+02
<STATE> 4
<MEAN> 39
 -9.736288e-02 -1.941860e+00 3.298211e+00 -8.470983e+00 -6.819602e+00 -6.211231e+00 -9.825243e+00 -3.424096e+00 2.058648e+00 -8.367791e-01 -4.922065e+00 -4.574504e+00 8.044014e+01 1.637767e+00 -1.765298e+00 -6.588009e-02 -9.884028e-01 -1.201418e+00 4.996166e-01 -4.469900e-01 -8.235130e-01 -5.197300e-01 -6.306654e-01 -4.475737e-01 -7.493096e-01 1.443101e+00 -8.324029e-01 2.828923e-01 -2.697327e-01 3.753324e-01 6.298590e-01 4.842626e-01 8.755463e-01 4.463416e-01 2.683482e-02 3.301991e-01 6.832571e-01 6.183863e-01 -6.699210e-01
<VARIANCE> 39
 5.441144e+01 5.662037e+01 9.478461e+01 5.115437e+01 6.940472e+01 8.820683e+01 4.861893e+01 5.250768e+01 8.720657e+01 6.070477e+01 5.982191e+01 6.485986e+01 2.586004e+01 1.686391e+00 2.887484e+00 4.534999e+00 3.259068e+00 7.464064e+00 5.687799e+00 4.957724e+00 4.068552e+00 3.642521e+00 4.237896e+00 4.250385e+00 2.892346e+00 8.736360e-01 2.552378e-01 5.140576e-01 4.088702e-01 5.890732e-01 6.409564e-01 8.170546e-01 6.898856e-01 6.997990e-01 8.389234e-01 6.590188e-01 7.079102e-01 5.523800e-01 2.184463e-01
<GCONST> 1.331091e+02
<TRANSP> 5
 0.000000e+00 1.000000e+00 0.000000e+00 0.000000e+00 0.000000e+00
 0.000000e+00 7.680413e-01 2.319587e-01 0.000000e+00 0.000000e+00
 0.000000e+00 0.000000e+00 3.032344e-01 6.967656e-01 0.000000e+00
 0.000000e+00 0.000000e+00 0.000000e+00 9.118022e-02 9.088198e-01
 0.000000e+00 0.000000e+00 0.000000e+00 0.000000e+00 0.000000e+00
<ENDHMM>
~h "u"
<BEGINHMM>
<NUMSTATES> 5
<STATE> 2
<MEAN> 39
 4.726204e+00 7.971182e+00 9.353147e-01 -1.038284e+01 -7.735690e+00 -3.711787e+00 -1.047983e+01 -1.059557e+01 -9.848779e+00 -2.914190e+00 -5.650773e+00 -3.717126e+00 7.362656e+01 -2.244355e-02 -2.582212e-01 1.942506e-01 3.910632e-01 5.555648e-02 -3.778018e-02 -5.261117e-01 -4.282318e-01 -2.718526e-01 -1.659417e-02 1.799552e-01 -1.839824e-01 5.055182e-04 -2.714672e-01 -6.400616e-02 1.616713e-01 3.999448e-01 3.062282e-01 -1.087609e-01 4.994399e-02 3.436276e-01 3.957448e-01 1.028740e-01 -2.878560e-02 -4.206151e-02 -1.171081e-01
<VARIANCE> 39
 2.554956e+01 2.856942e+01 3.383862e+01 4.309280e+01 4.906890e+01 5.571018e+01 5.153078e+01 5.617685e+01 3.466351e+01 6.139782e+01 5.361293e+01 3.381862e+01 1.857399e+01 6.444741e-01 1.281497e+00 1.277695e+00 2.609011e+00 2.578134e+00 2.267175e+00 3.483879e+00 2.846951e+00 3.047570e+00 2.694012e+00 2.323096e+00 1.975750e+00 4.559729e-01 1.585255e-01 2.332059e-01 2.290251e-01 3.692560e-01 4.270979e-01 3.636831e-01 5.723523e-01 7.721751e-01 5.950429e-01 5.926514e-01 4.927657e-01 3.805882e-01 7.591195e-02
<GCONST> 1.137026e+02
<STATE> 3
<MEAN> 39
 3.479779e+00 7.187374e+00 5.200543e+00 -4.150113e+00 -6.321563e+00 -5.559408e+00 -1.258247e+01 -9.872969e+00 -7.357578e+00 -2.896632e+00 -5.597863e+00 -5.322807e+00 7.240860e+01 -9.076121e-01 6.863258e-01 9.475434e-01 1.329223e+00 7.068636e-01 -3.718749e-01 8.324751e-01 1.404168e+00 9.802396e-01 -2.291983e-01 -1.203801e-01 -2.473277e-01 -8.853519e-01 -2.100736e-01 2.215093e-01 -1.181272e-01 -1.898441e-01 3.680206e-02 1.379647e-01 4.599822e-01 3.263251e-01 9.442823e-02 2.276044e-02 1.350487e-01 2.326031e-01 -1.592797e-01
<VARIANCE> 39
 2.368000e+01 4.025279e+01 3.912074e+01 3.786984e+01 3.874413e+01 5.855216e+01 5.665194e+01 4.040664e+01 3.439599e+01 3.935577e+01 4.740437e+01 2.676741e+01 2.261903e+01 1.219745e+00 2.224313e+00 2.266618e+00 2.030250e+00 3.180447e+00 2.165356e+00 3.587985e+00 4.344985e+00 2.949573e+00 3.560726e+00 2.778849e+00 2.207283e+00 7.671820e-01 1.317753e-01 3.959221e-01 3.674060e-01 3.513273e-01 4.342946e-01 4.367893e-01 7.853695e-01 6.608794e-01 5.408090e-01 6.020283e-01 4.778225e-01 3.918669e-01 1.210835e-01
<GCONST> 1.176496e+02
<STATE> 4
<MEAN> 39
 -1.052578e+00 9.751933e+00 5.965693e+00 -2.309741e+00 -4.565676e+00 -4.694011e+00 -6.435612e+00 -3.406286e+00 -3.071028e+00 -2.193667e+00 -3.329364e+00 -2.750955e+00 6.816834e+01 -1.403484e+00 -1.093839e-01 -2.922285e-02 4.333895e-01 5.789152e-01 2.553058e-01 9.642394e-01 1.174341e+00 9.915264e-01 6.155422e-01 7.977176e-01 7.057475e-01 -6.773397e-01 -3.461085e-03 -2.554578e-01 -1.216778e-01 -1.465530e-01 -1.442292e-01 5.691869e-03 -7.753288e-02 -2.111402e-01 -9.002125e-02 1.334390e-01 8.644451e-02 1.139571e-01 2.404199e-01
<VARIANCE> 39
 3.530016e+01 4.515631e+01 3.134803e+01 2.976332e+01 2.983518e+01 3.467077e+01 3.395074e+01 2.818340e+01 2.643657e+01 2.983643e+01 3.082732e+01 3.082491e+01 4.337951e+01 1.493741e+00 1.745271e+00 1.082721e+00 1.681285e+00 1.647411e+00 1.933554e+00 2.413807e+00 2.975756e+00 2.367499e+00 2.748217e+00 2.756994e+00 1.946427e+00 7.225019e-01 1.838327e-01 2.567159e-01 2.723875e-01 3.860250e-01 3.904800e-01 3.744063e-01 3.786243e-01 4.911421e-01 4.198108e-01 5.026428e-01 5.115210e-01 3.979641e-01 1.116113e-01
<GCONST> 1.106562e+02
<TRANSP> 5
 0.000000e+00 1.000000e+00 0.000000e+00 0.000000e+00 0.000000e+00
 0.000000e+00 8.031772e-01 1.968228e-01 0.000000e+00 0.000000e+00
 0.000000e+00 0.000000e+00 6.761630e-01 3.238370e-01 0.000000e+00
 0.000000e+00 0.000000e+00 0.000000e+00 7.327198e-01 2.672803e-01
 0.000000e+00 0.000000e+00 0.000000e+00 0.000000e+00 0.000000e+00
<ENDHMM>
~h "v"
<BEGINHMM>
<NUMSTATES> 5
<STATE> 2
<MEAN> 39
 -9.664914e-01 6.376693e+00 7.725553e+00 4.953143e+00 -2.165402e+00 -8.282368e+00 -9.022903e+00 -3.676666e+00 -5.864282e-01 3.844272e-01 -4.040004e+00 -1.790085e+00 7.177074e+01 4.651119e-02 -2.419504e-01 3.038732e-01 -6.806645e-02 -4.776863e-01 -6.601419e-01 -2.991966e-01 -3.992707e-01 -2.295734e-01 -1.890121e-01 9.883025e-03 1.670100e-01 8.664950e-01 -1.365469e-02 -3.357193e-01 8.167950e-03 -2.471182e-01 -2.616045e-01 7.721238e-02 1.599978e-01 6.420280e-02 7.456256e-02 5.304272e-02 2.332469e-01 1.450635e-01 6.227056e-02
<VARIANCE> 39
 3.343569e+01 2.439656e+01 1.927975e+01 2.224076e+01 2.294066e+01 3.492116e+01 2.830874e+01 2.103967e+01 2.799566e+01 2.650021e+01 2.244974e+01 2.383283e+01 2.473273e+01 2.036009e+00 2.249242e+00 1.256193e+00 1.291554e+00 3.070214e+00 3.824690e+00 2.920803e+00 1.627153e+00 1.662029e+00 1.788722e+00 1.862587e+00 1.712950e+00 1.446673e+00 4.433816e-01 3.322441e-01 2.562805e-01 2.526315e-01 6.409926e-01 6.881709e-01 6.378494e-01 3.449040e-01 3.473284e-01 4.285208e-01 3.236702e-01 3.202537e-01 2.166156e-01
<GCONST> 1.095776e+02
<STATE> 3
<MEAN> 39
 -1.012802e+00 2.078704e+00 8.979227e+00 1.709527e+00 -7.653272e+00 -1.299202e+01 -1.031146e+01 -4.792757e+00 -1.815486e+00 -1.089688e-01 -3.132361e+00 2.608597e-01 7.695797e+01 6.628604e-01 -1.315668e+00 4.166550e-01 -1.467943e+00 -1.925961e+00 -4.481082e-01 -2.851550e-01 -3.622092e-01 -1.088226e-02 9.081028e-02 6.763834e-01 2.498668e-01 1.047069e+00 -1.129132e-02 4.832625e-03 -3.349299e-02 -3.202779e-01 -7.882428e-02 3.396815e-01 6.205544e-02 6.932579e-02 4.779294e-02 -6.252363e-02 -3.240131e-02 -1.608213e-01 -1.588067e-02
<VARIANCE> 39
 3.296806e+01 1.763659e+01 4.099246e+01 3.113380e+01 3.296098e+01 4.783855e+01 2.793468e+01 2.076272e+01 3.080269e+01 2.336084e+01 2.464535e+01 2.161342e+01 1.937879e+01 9.442389e-01 1.630683e+00 2.112507e+00 2.123737e+00 3.769482e+00 2.713400e+00 1.862415e+00 1.939914e+00 1.531406e+00 3.358628e+00 1.515674e+00 1.374618e+00 6.758561e-01 1.593267e-01 2.178621e-01 1.592353e-01 2.136700e-01 3.500702e-01 3.494283e-01 2.831137e-01 2.603332e-01 2.497389e-01 2.898397e-01 3.018329e-01 2.037314e-01 8.569049e-02
<GCONST> 1.029418e+02
<STATE> 4
<MEAN> 39
 -9.373406e-01 -8.354999e-01 9.730801e+00 -8.336771e+00 -1.403734e+01 -1.389756e+01 -8.376430e+00 -5.359047e+00 -3.606814e+00 2.979926e+00 -3.109141e+00 -5.911502e-01 7.987563e+01 2.840108e-02 -4.356675e-01 7.799331e-02 -1.034682e+00 -5.748093e-01 4.457420e-01 1.525682e-01 -9.457052e-02 2.095462e-01 -1.050327e-01 3.098889e-02 -2.760265e-01 3.797358e-01 -8.306069e-02 1.990588e-01 -9.794799e-02 2.340202e-01 2.996091e-01 1.536481e-01 8.659911e-02 7.216708e-02 -8.346228e-03 -2.035184e-01 -6.381887e-02 -7.925946e-02 -1.927631e-01
<VARIANCE> 39
 3.359615e+01 2.183805e+01 4.084538e+01 7.315017e+01 4.772831e+01 5.997884e+01 2.532930e+01 2.521087e+01 4.399948e+01 4.067319e+01 2.540478e+01 2.300110e+01 1.877915e+01 6.711527e-01 9.448868e-01 1.436549e+00 2.109045e+00 2.114619e+00 1.462453e+00 1.709906e+00 1.295113e+00 1.214928e+00 1.871011e+00 1.340666e+00 1.026086e+00 5.360143e-01 7.238731e-02 1.624502e-01 1.105981e-01 2.308315e-01 2.675244e-01 2.410337e-01 2.227100e-01 2.526309e-01 2.056279e-01 2.827772e-01 1.810413e-01 1.800852e-01 6.471333e-02
<GCONST> 9.784684e+01
<TRANSP> 5
 0.000000e+00 1.000000e+00 0.000000e+00 0.000000e+00 0.000000e+00
 0.000000e+00 8.116739e-01 1.883262e-01 0.000000e+00 0.000000e+00
 0.000000e+00 0.000000e+00 6.036407e-01 3.963593e-01 0.000000e+00
 0.000000e+00 0.000000e+00 0.000000e+00 6.935226e-01 3.064774e-01
 0.000000e+00 0.000000e+00 0.000000e+00 0.000000e+00 0.000000e+00
<ENDHMM>
~h "y"
<BEGINHMM>
<NUMSTATES> 5
<STATE> 2
<MEAN> 39
 4.763114e-01 -4.026833e-01 1.342929e+01 9.975758e+00 -1.163498e+01 -1.684515e+01 -1.493213e+01 -3.105242e+00 -6.480114e+00 -4.878030e+00 -4.277003e+00 6.551362e-01 7.586698e+01 4.478197e-01 -8.454800e-01 -2.662969e-01 -1.054163e-01 -1.220381e+00 -4.335096e-01 -1.281617e+00 -1.340640e-01 -2.841400e-01 1.220773e-01 -4.124142e-02 1.420606e-01 7.642603e-01 -1.701987e-01 9.528355e-02 -2.989604e-01 -3.295656e-01 4.245206e-01 6.017109e-01 3.156620e-01 -4.132532e-02 2.600920e-01 4.292992e-01 -6.053991e-02 -3.490714e-01 -2.334924e-01
<VARIANCE> 39
 1.915810e+01 1.725062e+01 2.627462e+01 5.363738e+01 3.124323e+01 3.051122e+01 5.760561e+01 2.216199e+01 4.010470e+01 6.115527e+01 2.492775e+01 2.016212e+01 1.674756e+01 7.469927e-01 5.550785e-01 2.012312e+00 1.976329e+00 3.014438e+00 2.376824e+00 1.961010e+00 2.202872e+00 3.842519e+00 4.658928e+00 2.296212e+00 2.672204e+00 3.475253e-01 2.188334e-01 1.789751e-01 2.414283e-01 1.757386e-01 4.519744e-01 3.573864e-01 3.341423e-01 3.343770e-01 5.265002e-01 5.834429e-01 4.137218e-01 4.033264e-01 6.907330e-02
<GCONST> 1.071001e+02
<STATE> 3
<MEAN> 39
 5.561111e-01 -3.347414e+00 9.529815e+00 4.399926e+00 -1.283901e+01 -1.594120e+01 -1.497524e+01 -3.940938e+00 -7.982552e+00 2.029996e-01 -6.959452e+00 -2.151367e+00 7.831033e+01 2.227289e-01 -2.732836e-03 -8.588743e-01 -9.294209e-01 5.517051e-01 6.884519e-01 2.323569e-01 -7.741804e-01 5.171903e-01 8.902718e-01 4.224579e-02 -1.142940e-01 -1.413378e-01 -8.728658e-02 3.221099e-01 3.003208e-02 -7.353305e-02 2.081382e-01 1.771177e-01 3.744942e-01 -6.822263e-02 -2.940173e-02 -1.255664e-01 1.361265e-01 2.149061e-01 -2.520515e-01
<VARIANCE> 39
 2.330101e+01 2.131823e+01 5.090796e+01 7.733157e+01 3.083224e+01 5.531410e+01 7.026993e+01 4.828206e+01 8.653570e+01 9.708568e+01 3.884739e+01 3.467511e+01 1.858463e+01 2.605981e-01 8.620219e-01 1.256430e+00 1.868397e+00 1.153652e+00 2.170897e+00 2.933831e+00 2.491753e+00 2.400452e+00 3.537420e+00 2.276113e+00 2.259459e+00 4.333144e-01 6.007947e-02 1.165402e-01 1.390641e-01 2.647656e-01 2.197568e-01 3.771592e-01 4.332207e-01 4.573610e-01 4.137214e-01 6.548555e-01 4.184253e-01 3.981075e-01 3.345466e-02
<GCONST> 1.072381e+02
<STATE> 4
<MEAN> 39
 -9.805167e-02 2.725780e+00 1.042053e+01 4.961197e+00 -1.062193e+01 -1.333124e+01 -8.131925e+00 -4.993823e+00 -7.429216e+00 -2.803305e+00 -1.192819e+00 4.766435e-01 7.071399e+01 -4.132264e-01 6.585076e-01 -7.989087e-01 -5.231192e-01 9.324633e-01 1.152393e+00 1.013883e+00 3.853390e-01 6.032099e-01 1.793347e-01 2.821597e-01 2.216513e-01 -1.035161e+00 -9.377661e-02 -9.424141e-02 -3.067683e-05 1.811553e-02 3.578635e-02 1.278515e-01 -1.171528e-02 1.972741e-01 1.678593e-01 -4.212099e-02 2.857015e-02 5.100979e-03 8.836336e-03
<VARIANCE> 39
 2.252485e+01 2.939054e+01 4.589844e+01 5.637385e+01 3.073202e+01 5.754633e+01 3.730990e+01 4.662430e+01 3.752519e+01 6.126633e+01 3.931526e+01 2.738693e+01 3.223363e+01 5.759142e-01 1.276868e+00 9.170114e-01 1.870064e+00 1.851950e+00 3.031881e+00 2.439828e+00 2.349635e+00 2.935725e+00 2.896544e+00 2.442491e+00 2.267394e+00 4.405119e-01 6.948709e-02 1.991834e-01 1.816763e-01 2.480213e-01 2.946529e-01 4.635449e-01 4.085481e-01 4.560062e-01 5.235539e-01 5.191901e-01 4.857279e-01 5.169609e-01 6.604612e-02
<GCONST> 1.094480e+02
<TRANSP> 5
 0.000000e+00 1.000000e+00 0.000000e+00 0.000000e+00 0.000000e+00
 0.000000e+00 7.077488e-01 2.922512e-01 0.000000e+00 0.000000e+00
 0.000000e+00 0.000000e+00 7.600029e-01 2.399972e-01 0.000000e+00
 0.000000e+00 0.000000e+00 0.000000e+00 8.012136e-01 1.987864e-01
 0.000000e+00 0.000000e+00 0.000000e+00 0.000000e+00 0.000000e+00
<ENDHMM>
~h "sil"
<BEGINHMM>
<NUMSTATES> 5
<STATE> 2
<MEAN> 39
 -5.614464e+00 5.336373e+00 1.501736e+00 1.637337e-01 1.197478e-01 2.493022e+00 1.830173e+00 3.460759e+00 4.334400e+00 5.572130e+00 5.006271e+00 3.788102e+00 6.148890e+01 -3.152610e-01 -4.590797e-02 -7.637542e-02 1.131793e-01 2.192324e-01 9.668375e-02 1.577698e-01 3.028055e-01 3.008151e-01 2.969310e-01 2.701616e-01 2.261641e-01 -2.213776e-01 9.385366e-02 1.127808e-02 6.600768e-02 -1.626917e-02 -3.597367e-02 -5.607465e-02 -1.016758e-01 -1.326362e-01 -1.295390e-01 -1.253377e-01 -1.412590e-01 -1.025876e-01 1.392511e-01
<VARIANCE> 39
 1.307728e+01 2.513977e+01 2.581143e+01 3.283201e+01 3.523561e+01 3.410780e+01 2.521486e+01 2.410068e+01 2.462548e+01 2.530264e+01 2.558438e+01 2.757356e+01 2.497274e+01 4.054480e-01 4.039654e-01 6.698144e-01 8.375205e-01 1.058279e+00 1.246623e+00 1.379892e+00 1.558500e+00 1.653271e+00 1.758611e+00 1.744408e+00 1.495583e+00 3.478086e-01 6.148957e-02 7.173395e-02 1.151551e-01 1.415891e-01 1.812851e-01 2.086691e-01 2.433082e-01 2.661078e-01 2.938906e-01 2.973999e-01 2.898895e-01 2.650617e-01 4.106886e-02
<GCONST> 8.980524e+01
<STATE> 3
<MEAN> 39
 -6.833896e+00 4.275949e+00 1.561255e+00 4.496533e-01 1.140955e+00 2.420319e+00 1.613152e+00 3.765460e+00 4.634561e+00 5.528607e+00 4.640080e+00 3.484250e+00 6.178191e+01 -1.026947e-02 2.692105e-02 1.502893e-01 9.447348e-02 2.036161e-01 -1.613606e-01 -1.988288e-01 -1.522267e-01 -2.010539e-01 -2.296317e-01 -3.411027e-01 -2.046184e-01 3.619503e-01 1.805552e-01 5.028462e-02 7.536855e-02 -6.494508e-02 -1.191895e-01 -2.299015e-01 -2.448287e-01 -2.406587e-01 -2.186824e-01 -1.855000e-01 -2.192333e-01 -1.759012e-01 3.031191e-01
<VARIANCE> 39
 1.147157e+01 2.413956e+01 2.375339e+01 3.218087e+01 3.333184e+01 3.321393e+01 2.738505e+01 2.773732e+01 2.675914e+01 2.849942e+01 2.592590e+01 2.880298e+01 2.815463e+01 1.027794e+00 9.376098e-01 1.135030e+00 1.399149e+00 1.446194e+00 1.899354e+00 1.984420e+00 2.174248e+00 2.329592e+00 2.416803e+00 2.149592e+00 1.993865e+00 8.927388e-01 2.157548e-01 1.861789e-01 2.058160e-01 2.347583e-01 2.619523e-01 3.726172e-01 4.015709e-01 4.201438e-01 4.443845e-01 4.319074e-01 3.688530e-01 3.438494e-01 1.704642e-01
<GCONST> 1.043048e+02
<STATE> 4
<MEAN> 39
 -6.551365e+00 4.467124e+00 2.267817e+00 4.569963e-01 1.511078e+00 1.824446e+00 6.498449e-01 2.574183e+00 3.602430e+00 4.484190e+00 2.925703e+00 2.124550e+00 6.309081e+01 4.693730e-01 1.506298e-01 2.666507e-01 -2.170298e-01 -2.854564e-01 -8.565511e-01 -8.453675e-01 -6.916981e-01 -5.749747e-01 -4.952874e-01 -6.996178e-01 -5.007535e-01 1.117951e+00 1.714229e-01 -3.536249e-02 -6.946954e-03 -1.401509e-01 -2.203866e-01 -2.149395e-01 -1.839284e-01 -1.365044e-01 -8.299696e-02 -3.795078e-02 -3.628776e-02 -3.761036e-02 2.717740e-01
<VARIANCE> 39
 1.949259e+01 3.130599e+01 2.979033e+01 3.883133e+01 3.765803e+01 3.855207e+01 3.049302e+01 3.074384e+01 2.996690e+01 3.060194e+01 3.127726e+01 3.144024e+01 3.161905e+01 3.113294e+00 1.906393e+00 1.875567e+00 1.999387e+00 2.269519e+00 3.160177e+00 3.438742e+00 3.699924e+00 3.356951e+00 2.880481e+00 2.781465e+00 2.476474e+00 2.002879e+00 2.254506e-01 1.797088e-01 2.116963e-01 2.614530e-01 3.179099e-01 4.130126e-01 3.648375e-01 3.392069e-01 3.250324e-01 3.139545e-01 3.162846e-01 2.721532e-01 2.384713e-01
<GCONST> 1.125555e+02
<TRANSP> 5
 0.000000e+00 1.000000e+00 0.000000e+00 0.000000e+00 0.000000e+00
 0.000000e+00 6.864201e-01 3.135799e-01 0.000000e+00 0.000000e+00
 0.000000e+00 0.000000e+00 3.080483e-01 6.919516e-01 0.000000e+00
 0.000000e+00 0.000000e+00 0.000000e+00 2.334385e-01 7.665615e-01
 0.000000e+00 0.000000e+00 0.000000e+00 0.000000e+00 0.000000e+00
<ENDHMM>
