~o
<STREAMINFO> 1 39
<VECSIZE> 39<NULLD><MFCC_D_A_0><DIAGC>
~s "silst"
<MEAN> 39
 -6.756379e+00 5.307190e+00 1.738881e+00 1.511988e+00 1.681174e+00 3.349943e+00 2.317089e+00 4.363645e+00 5.184496e+00 5.966083e+00 4.888350e+00 3.971626e+00 6.049739e+01 -2.563601e-02 -7.574005e-03 1.952010e-01 2.191509e-01 3.200948e-01 -2.709991e-02 -9.780680e-02 -5.049410e-02 -1.678427e-01 -2.916613e-01 -3.784920e-01 -2.716967e-01 2.360146e-01 3.160546e-01 8.260253e-02 1.636297e-01 -7.931336e-02 -1.779604e-01 -3.432183e-01 -3.989267e-01 -4.284659e-01 -4.027915e-01 -3.321053e-01 -3.611695e-01 -2.891426e-01 4.473431e-01
<VARIANCE> 39
 9.086287e+00 2.053255e+01 2.015538e+01 2.481012e+01 2.751375e+01 2.688522e+01 2.269763e+01 2.291058e+01 2.315585e+01 2.386835e+01 2.238472e+01 2.428569e+01 2.089466e+01 8.684394e-01 9.064773e-01 1.058248e+00 1.297978e+00 1.347262e+00 1.739139e+00 1.860367e+00 2.190649e+00 2.371645e+00 2.437483e+00 2.229804e+00 2.054316e+00 6.974170e-01 2.514548e-01 2.500446e-01 2.574211e-01 2.703591e-01 3.062516e-01 4.080383e-01 4.431212e-01 4.811614e-01 5.122162e-01 4.850700e-01 4.118429e-01 4.035259e-01 1.570823e-01
<GCONST> 1.027891e+02
~h "A"
<BEGINHMM>
<NUMSTATES> 5
<STATE> 2
<MEAN> 39
 4.492077e+00 -3.445086e+00 -7.500916e+00 -1.290525e+01 -2.791383e+00 3.159323e+00 -5.335714e+00 -6.696386e+00 -3.510402e+00 -4.447161e+00 -2.002688e+00 -6.142984e+00 8.040278e+01 3.486548e-01 -3.757552e-02 -6.500775e-01 -5.159948e-01 -1.205610e-01 8.804421e-01 1.411164e+00 3.906792e-01 -1.028580e+00 -1.550782e+00 4.034782e-01 1.945142e-01 -1.503717e-01 -3.885129e-01 4.390465e-01 5.046556e-01 5.697559e-01 2.441034e-02 -5.508527e-01 5.558322e-02 2.019396e-01 4.396347e-02 1.568382e-01 -8.719036e-02 6.856829e-02 -3.860964e-01
<VARIANCE> 39
 3.395201e+01 2.290501e+01 2.209108e+01 2.675166e+01 3.754256e+01 5.270059e+01 5.124768e+01 3.554562e+01 6.429585e+01 6.674274e+01 4.422030e+01 4.211412e+01 1.958956e+01 3.669523e-01 1.193676e+00 1.176454e+00 1.481874e+00 1.723406e+00 2.536216e+00 2.397925e+00 2.385230e+00 2.577047e+00 2.495950e+00 2.379441e+00 1.857670e+00 4.702219e-01 2.486673e-01 1.623276e-01 1.812077e-01 2.622361e-01 3.485116e-01 3.745562e-01 5.495936e-01 5.919281e-01 5.109868e-01 5.292202e-01 4.881862e-01 4.593320e-01 7.035340e-02
<GCONST> 1.093515e+02
<STATE> 3
<MEAN> 39
 5.259783e+00 5.966303e-01 -5.633690e+00 -1.023795e+01 -4.497579e+00 6.082413e-01 -2.340816e+00 -4.784585e+00 -8.586265e+00 -9.188614e+00 -3.392450e+00 -7.624915e+00 7.650459e+01 -1.458199e-01 8.077540e-01 6.327840e-01 7.184363e-01 -8.970577e-02 -4.390819e-01 1.264040e-01 -1.543058e-01 -2.621638e-01 2.285474e-01 -2.929465e-01 -1.075940e-01 -8.198887e-01 -1.097372e-01 6.996668e-02 1.266722e-01 1.136011e-01 1.204442e-01 5.801304e-02 -1.254439e-01 -9.615453e-02 1.010840e-01 2.256024e-01 3.381684e-02 9.342924e-02 -1.181208e-01
<VARIANCE> 39
 2.780226e+01 2.491544e+01 2.488380e+01 3.468059e+01 4.083578e+01 3.811682e+01 5.171700e+01 5.243060e+01 8.393021e+01 4.883588e+01 3.810485e+01 3.793979e+01 2.252465e+01 2.307450e-01 6.791546e-01 1.128860e+00 1.406742e+00 1.139447e+00 1.506698e+00 1.827790e+00 2.100697e+00 1.858625e+00 1.700754e+00 1.478630e+00 1.452511e+00 3.238881e-01 4.532536e-02 9.799981e-02 1.893861e-01 2.235562e-01 2.066092e-01 2.724833e-01 3.363499e-01 3.945480e-01 3.536027e-01 3.322105e-01 2.861411e-01 2.802131e-01 3.609715e-02
<GCONST> 9.876400e+01
<STATE> 4
<MEAN> 39
 1.703265e+00 6.715583e+00 -1.254572e+00 -5.238584e+00 -1.933321e+00 2.413198e+00 5.557355e-01 -3.686875e+00 -6.285956e+00 -4.454851e+00 -2.618541e+00 -3.681720e+00 6.835850e+01 -1.291165e+00 2.341761e-01 1.442651e-01 3.130699e-01 6.025643e-01 5.131185e-01 6.448462e-01 1.027969e+00 1.017899e+00 9.843081e-01 7.559884e-01 9.493646e-01 -1.150835e+00 -1.116706e-01 -2.660407e-01 -1.690459e-01 -1.436370e-01 -4.162326e-02 -3.431091e-02 4.021838e-02 2.299173e-01 2.516189e-01 1.203583e-01 1.494327e-01 1.086840e-01 1.822828e-01
<VARIANCE> 39
 3.055433e+01 3.404453e+01 2.370152e+01 4.585761e+01 2.751055e+01 2.724963e+01 4.119790e+01 5.181878e+01 5.217093e+01 4.337498e+01 3.561589e+01 2.855812e+01 3.192162e+01 1.223571e+00 1.464555e+00 1.581422e+00 1.815989e+00 1.662859e+00 1.890727e+00 2.647360e+00 3.533841e+00 3.462513e+00 2.411508e+00 2.494764e+00 2.109051e+00 6.586722e-01 1.885661e-01 2.095233e-01 2.985011e-01 3.321433e-01 3.063407e-01 4.197455e-01 5.024374e-01 6.372687e-01 5.380172e-01 4.119020e-01 4.743085e-01 4.032584e-01 1.249360e-01
<GCONST> 1.124253e+02
<TRANSP> 5
 0.000000e+00 1.000000e+00 0.000000e+00 0.000000e+00 0.000000e+00
 0.000000e+00 6.833714e-01 3.166286e-01 0.000000e+00 0.000000e+00
 0.000000e+00 0.000000e+00 8.517151e-01 1.482849e-01 0.000000e+00
 0.000000e+00 0.000000e+00 0.000000e+00 8.204197e-01 1.795804e-01
 0.000000e+00 0.000000e+00 0.000000e+00 0.000000e+00 0.000000e+00
<ENDHMM>
~h "E"
<BEGINHMM>
<NUMSTATES> 5
<STATE> 2
<MEAN> 39
 -5.678397e-01 -3.336323e+00 6.145975e+00 -5.216748e+00 -1.396871e+01 -1.609530e+01 -9.117253e+00 8.048998e-01 2.080849e+00 2.714492e-01 -2.556289e+00 -2.616831e+00 8.152412e+01 1.312999e+00 -2.890248e+00 -2.784883e-02 -1.528883e+00 -1.450412e+00 -1.215340e-01 -1.844244e-01 1.367697e+00 5.385686e-01 -1.479747e-01 -9.026017e-02 -6.810039e-01 1.735259e+00 -1.254881e+00 2.890478e-01 -5.031052e-01 3.128684e-01 1.189951e+00 1.185203e+00 1.165228e+00 4.057954e-01 2.809028e-01 1.524921e-01 3.015544e-01 2.560469e-01 -5.809382e-01
<VARIANCE> 39
 4.059243e+01 1.768512e+01 3.080690e+01 3.846569e+01 2.495457e+01 4.760855e+01 6.606598e+01 2.434988e+01 5.987760e+01 1.717297e+01 4.560798e+01 5.706434e+01 1.598232e+01 1.862965e+00 1.177675e+00 1.507257e+00 1.114010e+00 3.087795e+00 3.163410e+00 3.263339e+00 1.256427e+00 2.760557e+00 1.421137e+00 3.073386e+00 1.139795e+00 7.238584e-01 1.110127e-01 2.768192e-01 2.579027e-01 4.186440e-01 3.772403e-01 3.925279e-01 5.099342e-01 3.780554e-01 3.912651e-01 3.216591e-01 6.068619e-01 4.983410e-01 8.018986e-02
<GCONST> 1.096006e+02
<STATE> 3
<MEAN> 39
 -1.549483e+00 -9.173841e+00 1.249825e+00 -7.273438e+00 -1.090591e+01 -1.497706e+01 -7.104555e+00 3.866619e+00 4.409001e+00 -2.783025e+00 -3.680074e+00 -9.544247e+00 8.427372e+01 1.103654e-01 -2.808797e-01 -8.481761e-01 2.243182e-01 1.318457e+00 1.372013e+00 4.329276e-01 2.188727e-02 -1.527907e-01 -2.286175e-01 -7.105930e-01 -4.218641e-02 -2.725973e-01 -2.667189e-01 6.475744e-01 8.866878e-02 2.242388e-01 4.561648e-01 2.357721e-01 -1.502895e-01 -1.327627e-01 -1.153851e-01 1.160056e-01 9.793730e-02 3.309573e-01 -4.320512e-01
<VARIANCE> 39
 3.780835e+01 1.353191e+01 3.368783e+01 2.278205e+01 3.125525e+01 9.240781e+01 6.437096e+01 2.700138e+01 7.532977e+01 3.155616e+01 4.397300e+01 1.017487e+02 1.453904e+01 4.515761e-01 2.363592e+00 1.405841e+00 9.705032e-01 2.545111e+00 1.349088e+00 3.562242e+00 1.977183e+00 2.178169e+00 2.065471e+00 1.452971e+00 2.158300e+00 7.956544e-01 1.650364e-01 2.610790e-01 3.239837e-01 2.503373e-01 3.283473e-01 2.031096e-01 6.689478e-01 4.024749e-01 4.180939e-01 4.586364e-01 4.361188e-01 3.215924e-01 7.847083e-02
<GCONST> 1.089858e+02
<STATE> 4
<MEAN> 39
 -1.586250e+00 -5.078658e+00 1.700759e+00 -4.384518e+00 -6.672210e+00 -6.934902e+00 -3.951650e+00 4.472069e+00 3.237989e+00 -5.029852e-01 -5.909399e+00 -2.887637e+00 7.717542e+01 -4.183584e-01 2.717496e-01 -2.551779e-01 2.594157e-01 1.051024e+00 8.026413e-01 -1.321083e-01 1.528888e-01 3.245217e-01 2.069787e-01 1.085916e-01 1.745221e-01 -6.490093e-01 -5.338994e-02 1.609651e-03 3.238699e-02 4.456702e-02 6.656228e-02 -5.152581e-02 -7.283910e-02 -5.588127e-02 5.509889e-02 5.107282e-02 6.668480e-02 6.312668e-03 -2.942314e-02
<VARIANCE> 39
 6.744963e+01 1.300437e+01 3.130461e+01 3.448208e+01 5.632139e+01 5.657303e+01 5.938850e+01 3.114914e+01 5.547488e+01 4.234516e+01 4.124131e+01 1.791981e+01 1.781060e+01 7.990819e-01 1.012288e+00 8.471479e-01 1.101023e+00 2.089760e+00 1.840471e+00 2.628515e+00 1.706142e+00 1.911267e+00 2.117664e+00 1.486311e+00 1.367068e+00 2.989230e-01 1.041581e-01 1.190123e-01 1.750300e-01 1.630958e-01 2.510659e-01 2.790745e-01 4.061675e-01 2.676319e-01 3.057843e-01 3.321756e-01 2.822601e-01 2.468185e-01 4.044484e-02
<GCONST> 1.007571e+02
<TRANSP> 5
 0.000000e+00 1.000000e+00 0.000000e+00 0.000000e+00 0.000000e+00
 0.000000e+00 5.272994e-01 4.727005e-01 0.000000e+00 0.000000e+00
 0.000000e+00 0.000000e+00 7.490277e-01 2.509723e-01 0.000000e+00
 0.000000e+00 0.000000e+00 0.000000e+00 8.933178e-01 1.066822e-01
 0.000000e+00 0.000000e+00 0.000000e+00 0.000000e+00 0.000000e+00
<ENDHMM>
~h "O"
<BEGINHMM>
<NUMSTATES> 5
<STATE> 2
<MEAN> 39
 4.376143e+00 -2.182710e-01 -5.242293e+00 -1.170271e+01 -4.646519e+00 -1.661123e+00 -8.825053e+00 -1.045236e+01 1.046053e+00 5.496844e+00 -2.510751e+00 -5.538084e+00 7.883150e+01 2.713057e+00 -9.540446e-01 -1.534119e+00 -4.177339e+00 -1.742914e+00 4.075635e-01 -4.061928e-01 -2.123772e+00 -6.912966e-01 -4.856583e-02 -3.597280e-01 -1.673969e+00 2.051743e+00 -1.351089e+00 -4.749182e-01 5.075465e-02 4.938724e-01 4.849234e-01 3.137077e-01 6.563032e-01 1.301778e+00 6.538349e-01 1.192343e-01 2.202607e-01 5.448666e-01 -2.294065e-01
<VARIANCE> 39
 3.347905e+01 1.001882e+01 2.301860e+01 2.280486e+01 2.832521e+01 5.065701e+01 2.816617e+01 1.268748e+01 2.115609e+01 1.620802e+01 6.223078e+01 1.893881e+01 1.480700e+01 1.850831e+00 2.094126e+00 3.361970e+00 2.481813e+00 2.895626e+00 2.251309e+00 2.211318e+00 3.322278e+00 3.036227e+00 1.272191e+00 7.171238e+00 2.063325e+00 5.813634e-01 6.188770e-02 2.468989e-01 2.568300e-01 4.563577e-01 2.805812e-01 3.007657e-01 2.225432e-01 2.337541e-01 2.134899e-01 3.713994e-01 3.400579e-01 2.022482e-01 1.129564e-01
<GCONST> 1.042109e+02
<STATE> 3
<MEAN> 39
 4.379736e+00 -3.113460e+00 -7.474209e+00 -1.581834e+01 -4.567189e+00 9.693671e-01 -6.980920e+00 -8.923326e+00 8.213212e-01 5.570650e+00 -3.754654e+00 -7.169946e+00 8.067880e+01 -1.037094e-02 -5.446305e-01 -5.774688e-01 -1.189570e+00 5.766186e-02 9.783447e-01 7.210002e-01 2.750092e-01 -2.342293e-01 -7.562985e-01 -1.252587e-01 -2.442701e-01 3.259490e-01 -4.628081e-01 3.444078e-01 2.404874e-01 7.412117e-01 3.978516e-01 -1.090639e-02 1.489851e-01 4.148799e-01 -3.098581e-02 -2.520826e-01 5.763156e-02 3.297330e-01 -5.176687e-01
<VARIANCE> 39
 2.955136e+01 1.296180e+01 3.352377e+01 2.954465e+01 4.454487e+01 4.998090e+01 3.156788e+01 2.767864e+01 4.751337e+01 2.437886e+01 9.165026e+01 1.938861e+01 1.275888e+01 1.802519e-01 1.005625e+00 6.684412e-01 1.107808e+00 8.271187e-01 9.513216e-01 1.572102e+00 1.249395e+00 1.222207e+00 1.541108e+00 1.238753e+00 9.519120e-01 4.352809e-01 2.126718e-01 2.199254e-01 2.480880e-01 3.043466e-01 3.170556e-01 2.179271e-01 1.709925e-01 4.402120e-01 2.911210e-01 2.294115e-01 4.994496e-01 1.881009e-01 8.067897e-02
<GCONST> 9.598792e+01
<STATE> 4
<MEAN> 39
 2.464916e+00 -1.126670e+00 -8.266986e+00 -1.714605e+01 -2.143449e+00 4.968177e+00 -2.480272e+00 -8.064797e+00 -5.113418e-01 1.007969e+00 -1.442204e+00 -5.333995e+00 7.790171e+01 -2.762087e-01 7.580742e-01 5.188872e-02 2.714296e-01 4.038716e-01 3.475183e-01 4.146431e-01 4.256246e-01 -2.163508e-01 -4.030868e-01 -1.766655e-02 4.342738e-01 -7.188824e-01 -5.686248e-02 6.571692e-02 1.241204e-01 1.731920e-01 1.851149e-02 -6.689262e-02 -6.425700e-02 4.472419e-02 1.008047e-01 7.411592e-02 3.080217e-02 2.197533e-02 -9.725116e-02
<VARIANCE> 39
 5.182831e+01 2.045717e+01 3.789118e+01 2.284739e+01 5.494864e+01 4.613063e+01 5.627711e+01 3.879519e+01 3.105377e+01 3.795366e+01 6.161533e+01 3.583369e+01 1.671897e+01 5.043773e-01 8.611187e-01 8.246776e-01 1.296935e+00 1.041316e+00 1.532027e+00 1.381755e+00 1.683833e+00 1.427760e+00 1.554947e+00 1.307336e+00 1.354311e+00 3.817492e-01 8.338018e-02 1.331535e-01 1.325113e-01 1.669795e-01 2.047223e-01 2.341698e-01 3.151560e-01 2.745509e-01 2.622415e-01 2.047961e-01 2.148719e-01 3.238956e-01 4.991712e-02
<GCONST> 9.708922e+01
<TRANSP> 5
 0.000000e+00 1.000000e+00 0.000000e+00 0.000000e+00 0.000000e+00
 0.000000e+00 4.113094e-01 5.886906e-01 0.000000e+00 0.000000e+00
 0.000000e+00 0.000000e+00 6.827331e-01 3.172669e-01 0.000000e+00
 0.000000e+00 0.000000e+00 0.000000e+00 8.833517e-01 1.166482e-01
 0.000000e+00 0.000000e+00 0.000000e+00 0.000000e+00 0.000000e+00
<ENDHMM>
~h "R"
<BEGINHMM>
<NUMSTATES> 5
<STATE> 2
<MEAN> 39
 -7.780981e-01 1.136969e+00 6.351405e-01 -4.784974e+00 4.199055e-01 -2.525850e+00 -7.929685e+00 -3.477393e+00 2.291719e+00 6.154851e-01 -4.928458e+00 -1.791361e+00 7.443394e+01 6.430404e-01 6.820905e-02 -2.870228e-01 -8.850027e-01 -9.607883e-02 -1.564383e-01 -4.562306e-01 -5.898881e-01 -2.759078e-01 -1.482060e-01 -2.693450e-01 -9.431116e-02 8.253796e-01 -1.969113e-01 -1.046207e-03 8.544147e-02 3.363815e-02 -8.539651e-02 5.008411e-02 3.079527e-01 1.933803e-01 -2.248878e-02 6.867383e-02 2.983375e-01 1.637331e-01 -1.857674e-01
<VARIANCE> 39
 4.518528e+01 4.416988e+01 3.653808e+01 6.251135e+01 7.746716e+01 8.028446e+01 5.055664e+01 5.210966e+01 5.631906e+01 5.427140e+01 4.103762e+01 3.132339e+01 3.747888e+01 2.953153e+00 2.538486e+00 2.188732e+00 4.144671e+00 6.533781e+00 4.808175e+00 4.403550e+00 4.273022e+00 3.879699e+00 3.780984e+00 3.372224e+00 2.718047e+00 2.865332e+00 5.510069e-01 4.536175e-01 3.500023e-01 7.190891e-01 1.019279e+00 7.409394e-01 6.866984e-01 8.897584e-01 7.303545e-01 7.595247e-01 6.234834e-01 5.315865e-01 3.270234e-01
<GCONST> 1.326340e+02
<STATE> 3
<MEAN> 39
 1.239908e+00 2.721397e+00 6.252065e-01 -6.600686e+00 2.621149e-01 -1.222260e+00 -7.712425e+00 -4.095151e+00 2.186846e+00 3.038360e-01 -4.111198e+00 -4.673809e-01 7.481974e+01 3.900169e-01 -2.632468e-01 -1.211276e-01 -5.377077e-01 -8.122779e-01 -3.562325e-01 1.240575e-01 -3.782871e-02 -1.484651e-01 -1.810281e-01 1.364920e-01 -5.988082e-02 4.812698e-01 2.812257e-02 -1.776491e-01 1.332910e-02 6.678473e-02 -2.090346e-01 -2.350587e-02 5.133770e-02 -1.590714e-02 -9.108849e-03 1.962693e-03 -6.743085e-03 -1.123774e-01 3.174945e-02
<VARIANCE> 39
 3.369620e+01 3.407465e+01 3.944936e+01 5.704731e+01 5.851963e+01 6.317279e+01 4.659242e+01 4.186971e+01 5.959330e+01 4.802309e+01 3.369260e+01 3.678282e+01 2.510089e+01 1.190471e+00 1.689907e+00 1.362565e+00 1.820336e+00 3.438030e+00 2.284550e+00 2.118161e+00 2.519635e+00 1.905449e+00 1.999348e+00 1.861029e+00 1.921750e+00 6.820559e-01 2.472131e-01 2.320448e-01 1.964589e-01 3.385909e-01 5.354494e-01 3.773632e-01 3.809203e-01 4.622759e-01 3.565816e-01 3.805919e-01 3.434915e-01 3.188006e-01 1.433967e-01
<GCONST> 1.130544e+02
<STATE> 4
<MEAN> 39
 3.609346e+00 1.579801e+00 -6.326406e-02 -1.000060e+01 -6.618923e+00 -3.130711e+00 -8.209949e+00 -4.884289e+00 9.532870e-01 5.835660e-01 -3.525687e+00 -2.435744e+00 7.643560e+01 5.934850e-02 -2.674351e-01 1.716063e-01 -9.289864e-02 -6.010609e-01 -1.402196e-01 4.448380e-03 1.872720e-02 -5.452764e-02 -1.578052e-01 8.425603e-02 -1.549539e-01 1.348362e-01 -9.866118e-02 2.585593e-02 4.448472e-02 7.789923e-02 9.993988e-02 7.412931e-02 6.921275e-03 2.752782e-03 -3.656231e-02 -1.302121e-02 4.779230e-02 3.301160e-02 -6.653301e-02
<VARIANCE> 39
 3.169527e+01 5.488545e+01 3.759071e+01 6.900546e+01 5.852742e+01 7.540627e+01 5.635038e+01 4.560557e+01 5.845002e+01 4.922399e+01 4.476305e+01 3.675285e+01 2.742290e+01 5.733110e-01 1.376455e+00 1.008866e+00 1.603636e+00 2.182007e+00 1.949158e+00 2.123682e+00 1.988655e+00 1.587172e+00 1.928233e+00 1.606557e+00 1.510804e+00 8.623117e-01 7.635902e-02 1.620829e-01 1.309779e-01 2.117988e-01 2.669702e-01 2.796294e-01 2.953807e-01 2.948616e-01 2.814956e-01 2.968189e-01 2.543333e-01 2.318488e-01 8.062731e-02
<GCONST> 1.060714e+02
<TRANSP> 5
 0.000000e+00 1.000000e+00 0.000000e+00 0.000000e+00 0.000000e+00
 0.000000e+00 7.192150e-01 2.807850e-01 0.000000e+00 0.000000e+00
 0.000000e+00 0.000000e+00 6.933013e-01 3.066987e-01 0.000000e+00
 0.000000e+00 0.000000e+00 0.000000e+00 7.656787e-01 2.343213e-01
 0.000000e+00 0.000000e+00 0.000000e+00 0.000000e+00 0.000000e+00
<ENDHMM>
~h "S"
<BEGINHMM>
<NUMSTATES> 5
<STATE> 2
<MEAN> 39
 -1.489802e+01 -8.850338e-01 8.672905e+00 -2.535985e+00 -4.779618e+00 -2.960398e+00 -1.433523e+00 1.807942e+00 4.621497e+00 2.656616e+00 2.495245e+00 1.324820e+00 7.693752e+01 -4.495312e-01 -2.272110e-01 -2.010665e-01 1.342360e-01 2.330303e-01 1.600308e-01 7.282902e-02 8.253653e-02 4.704806e-01 1.841249e-01 1.231090e-01 1.425932e-01 3.127532e-02 4.474940e-01 6.705880e-02 -6.060982e-02 5.163392e-02 -4.928168e-04 -7.145340e-02 -1.460475e-01 -1.124888e-01 -1.862829e-01 -9.186953e-02 -1.706433e-01 -1.415474e-01 -1.365420e-01
<VARIANCE> 39
 1.243655e+02 2.153480e+01 3.161507e+01 3.930517e+01 4.426459e+01 5.107944e+01 3.921027e+01 7.619286e+01 6.296746e+01 4.555202e+01 3.725483e+01 4.443608e+01 2.348150e+01 1.737588e+00 6.301305e-01 8.002575e-01 1.111042e+00 1.246541e+00 1.492640e+00 1.523802e+00 1.989665e+00 2.014450e+00 1.863701e+00 1.985030e+00 1.537846e+00 5.606743e-01 2.388334e-01 1.302206e-01 1.605631e-01 1.883814e-01 2.868132e-01 3.072646e-01 3.292317e-01 4.253355e-01 3.500533e-01 3.628710e-01 3.744899e-01 3.250503e-01 4.240561e-02
<GCONST> 1.058204e+02
<STATE> 3
<MEAN> 39
 -9.598019e+00 -1.359762e+00 6.870688e+00 -9.103002e-01 -2.549258e+00 -2.414526e+00 -3.667779e+00 6.417466e-01 4.636423e+00 2.322356e+00 -3.472243e-01 -4.397610e-01 7.459333e+01 3.788990e+00 4.198245e-01 -1.252673e+00 -2.594788e-01 -1.991956e-01 -4.572556e-01 -1.865445e+00 -1.798360e+00 -1.520804e+00 -1.117307e+00 -1.716565e+00 -1.802677e+00 4.566479e-02 5.656356e-01 -8.108264e-02 -5.191426e-01 -5.847853e-01 -2.969257e-01 6.394064e-02 -1.981467e-01 -3.852584e-01 -3.358246e-01 -1.572809e-01 -1.391074e-01 -2.741804e-01 4.455052e-01
<VARIANCE> 39
 1.015927e+02 2.348362e+01 2.636530e+01 4.450056e+01 4.277716e+01 5.197155e+01 4.598233e+01 7.373460e+01 8.103766e+01 4.877259e+01 3.905562e+01 4.629994e+01 2.322668e+01 6.230903e+00 1.799911e+00 2.620395e+00 2.670047e+00 3.110274e+00 4.090534e+00 4.380679e+00 4.401846e+00 3.142241e+00 2.929274e+00 3.303871e+00 3.131830e+00 1.230062e+00 6.558430e-01 3.392735e-01 2.962175e-01 3.461488e-01 4.855129e-01 5.605689e-01 6.780803e-01 6.187334e-01 6.480257e-01 5.618256e-01 6.266925e-01 5.389012e-01 1.868681e-01
<GCONST> 1.261902e+02
<STATE> 4
<MEAN> 39
 3.312736e+00 2.308835e+00 1.226994e+00 -4.880170e+00 -5.567012e+00 -3.618187e+00 -8.013120e+00 -8.216279e+00 -6.151709e+00 -4.060441e+00 -5.174384e+00 -6.887332e+00 7.443839e+01 7.127811e-01 -3.297681e-02 -8.426932e-01 -5.104566e-01 1.976684e-01 4.031383e-01 -1.664122e-01 -2.564704e-01 -2.122048e-01 1.301667e-01 -2.615900e-02 -1.557535e-01 1.389027e-02 -6.018331e-01 -1.160487e-01 2.889030e-02 -7.089680e-02 1.217908e-01 1.742453e-01 4.318681e-01 4.304218e-01 3.360774e-01 2.378557e-01 3.866781e-01 3.790841e-01 -4.561965e-02
<VARIANCE> 39
 3.169016e+01 4.866054e+01 2.539577e+01 3.714787e+01 3.815092e+01 4.292366e+01 5.281691e+01 6.851681e+01 1.052791e+02 6.091519e+01 4.297787e+01 3.262871e+01 4.205185e+01 5.820855e+00 2.652843e+00 3.519401e+00 3.921563e+00 3.216614e+00 2.899557e+00 3.464604e+00 5.333973e+00 5.236172e+00 3.639591e+00 3.615798e+00 3.501757e+00 2.252100e+00 5.114912e-01 2.938429e-01 2.758644e-01 2.799577e-01 4.793506e-01 5.834637e-01 8.288722e-01 6.235502e-01 4.777796e-01 5.028359e-01 5.839121e-01 4.916515e-01 1.535935e-01
<GCONST> 1.270850e+02
<TRANSP> 5
 0.000000e+00 1.000000e+00 0.000000e+00 0.000000e+00 0.000000e+00
 0.000000e+00 8.579184e-01 1.420816e-01 0.000000e+00 0.000000e+00
 0.000000e+00 0.000000e+00 5.394369e-01 4.605631e-01 0.000000e+00
 0.000000e+00 0.000000e+00 0.000000e+00 7.294064e-01 2.705936e-01
 0.000000e+00 0.000000e+00 0.000000e+00 0.000000e+00 0.000000e+00
<ENDHMM>
~h "Z"
<BEGINHMM>
<NUMSTATES> 5
<STATE> 2
<MEAN> 39
 -6.521994e+00 7.649928e+00 1.698480e+01 -1.215589e+00 -6.244159e+00 -7.725573e+00 -7.912306e+00 -3.373419e+00 -4.670672e+00 8.551788e-01 -3.221517e+00 -9.195121e-01 7.471930e+01 -9.190559e-01 9.781146e-01 1.146408e+00 -1.798380e-01 4.389816e-01 -7.452840e-01 -3.007045e-01 -8.423787e-01 -4.927469e-01 -4.415691e-01 -2.110139e-01 2.831572e-01 1.133739e+00 -2.548316e-01 -1.406726e-01 -4.811364e-01 -4.524121e-02 3.384991e-01 5.556561e-01 4.624728e-01 1.604458e-01 1.734667e-01 1.093832e-01 1.962555e-01 -9.786248e-02 -2.265833e-01
<VARIANCE> 39
 3.744241e+01 1.670026e+01 2.667867e+01 3.945007e+01 3.167289e+01 3.216560e+01 2.380672e+01 2.075858e+01 4.950087e+01 2.470622e+01 2.010628e+01 3.970766e+01 2.269547e+01 3.288959e+00 1.503109e+00 2.233345e+00 1.678176e+00 6.295261e+00 5.249269e+00 5.429735e+00 1.474749e+00 3.036622e+00 2.557965e+00 2.351481e+00 1.789727e+00 1.685640e+00 4.649477e-01 3.737364e-01 3.025741e-01 2.978552e-01 8.665732e-01 6.103486e-01 9.121965e-01 3.420433e-01 5.166647e-01 4.741640e-01 3.025213e-01 4.647168e-01 2.013488e-01
<GCONST> 1.166947e+02
<STATE> 3
<MEAN> 39
 -1.266170e+01 9.959803e+00 1.877540e+01 -1.586666e+00 -2.540575e+00 -5.088517e+00 -5.140602e+00 -5.124876e+00 -4.318914e+00 -3.380907e-01 -2.492979e+00 -1.649576e+00 7.710772e+01 -3.635088e-01 5.528671e-02 1.612004e-01 -2.445302e-01 -1.299573e-02 1.765867e-01 -9.182878e-03 -2.240209e-01 1.818781e-01 8.279766e-02 -1.839772e-03 -8.255360e-02 1.440663e-01 3.510605e-01 -1.940193e-01 6.651109e-02 -7.533917e-03 -3.959729e-01 -1.816916e-01 -2.269849e-01 -5.282732e-02 -6.708307e-03 5.729508e-02 -1.519059e-02 9.372854e-02 -2.326563e-02
<VARIANCE> 39
 4.105929e+01 1.397247e+01 1.826260e+01 2.927666e+01 2.468791e+01 2.212565e+01 2.008679e+01 2.073187e+01 3.498654e+01 2.266973e+01 2.255732e+01 2.516722e+01 2.517001e+01 1.522216e+00 5.883638e-01 6.281987e-01 5.882609e-01 2.379521e+00 1.770752e+00 1.737236e+00 1.613360e+00 1.337181e+00 1.429821e+00 1.259113e+00 1.356247e+00 2.070622e-01 9.444813e-02 1.205975e-01 1.050154e-01 9.505842e-02 2.206443e-01 2.901261e-01 2.825665e-01 3.075154e-01 2.657389e-01 2.626534e-01 2.994886e-01 2.143383e-01 3.473397e-02
<GCONST> 9.081898e+01
<STATE> 4
<MEAN> 39
 -5.828421e+00 4.375513e+00 2.206191e+01 -1.588317e+00 -1.301510e+01 -7.718536e+00 -1.015839e+01 -7.571908e+00 -5.021562e+00 -3.366873e-01 -1.620208e+00 -5.233467e-03 7.828685e+01 9.187286e-01 -1.054565e+00 4.826571e-02 -5.284928e-02 -1.061847e+00 -3.421293e-01 -5.381233e-01 8.473761e-02 -2.544733e-01 -1.976016e-01 -1.342669e-01 1.423797e-01 1.087669e-01 -7.800987e-02 -1.498296e-02 -1.246608e-01 -1.210653e-02 2.048305e-01 1.021839e-01 7.750325e-02 1.604547e-01 5.948380e-02 -2.349539e-02 -9.216098e-02 -4.152253e-02 -2.124945e-02
<VARIANCE> 39
 4.128331e+01 2.588243e+01 2.282947e+01 6.834348e+01 3.379425e+01 2.729487e+01 2.521230e+01 1.792495e+01 3.087853e+01 4.176910e+01 4.303873e+01 2.163342e+01 1.958611e+01 6.528388e-01 8.551586e-01 6.659986e-01 7.119341e-01 1.240516e+00 1.816233e+00 1.837332e+00 1.232915e+00 1.398411e+00 1.738686e+00 1.473312e+00 1.099950e+00 1.680920e-01 1.126008e-01 1.352670e-01 8.938966e-02 1.172332e-01 1.639584e-01 2.937068e-01 2.857222e-01 1.872269e-01 2.672033e-01 3.104713e-01 2.115672e-01 2.243942e-01 2.546696e-02
<GCONST> 9.189500e+01
<TRANSP> 5
 0.000000e+00 1.000000e+00 0.000000e+00 0.000000e+00 0.000000e+00
 0.000000e+00 7.234889e-01 2.765112e-01 0.000000e+00 0.000000e+00
 0.000000e+00 0.000000e+00 8.660560e-01 1.339440e-01 0.000000e+00
 0.000000e+00 0.000000e+00 0.000000e+00 8.697689e-01 1.302310e-01
 0.000000e+00 0.000000e+00 0.000000e+00 0.000000e+00 0.000000e+00
<ENDHMM>
~h "a"
<BEGINHMM>
<NUMSTATES> 5
<STATE> 2
<MEAN> 39
 2.391502e+00 -9.971038e+00 -5.528443e+00 -8.927724e+00 -2.130457e+00 -2.687030e+00 -6.346328e+00 -8.961926e-01 3.617127e+00 -2.115768e+00 -8.138789e+00 -8.012705e+00 8.342519e+01 5.093826e-03 -4.558308e-01 -6.305469e-01 -2.712871e-02 6.590626e-01 5.262908e-01 3.469878e-01 -3.347248e-01 -1.072840e-01 -1.811379e-01 -1.107703e-01 -3.491991e-01 1.386695e-01 -9.987838e-02 6.466513e-01 3.536865e-01 3.442577e-01 -2.751266e-02 -1.750888e-01 -1.049766e-01 -1.828294e-01 -1.949664e-01 1.789969e-01 3.260792e-01 2.601731e-01 -4.991051e-01
<VARIANCE> 39
 3.785386e+01 1.937489e+01 2.734521e+01 3.033810e+01 3.198355e+01 7.456273e+01 4.534376e+01 4.025851e+01 8.124618e+01 4.340266e+01 7.902725e+01 6.859384e+01 1.177586e+01 3.104418e-01 1.718164e+00 1.409660e+00 1.098368e+00 1.943633e+00 2.381460e+00 2.132434e+00 1.980986e+00 1.694697e+00 1.757289e+00 1.886712e+00 1.812496e+00 5.873525e-01 1.293496e-01 1.865395e-01 1.836527e-01 2.735909e-01 3.061959e-01 3.519589e-01 3.724783e-01 4.037701e-01 4.490190e-01 3.312739e-01 4.309411e-01 3.624519e-01 9.424769e-02
<GCONST> 1.071235e+02
<STATE> 3
<MEAN> 39
 3.031879e+00 -7.643491e+00 -8.280414e+00 -8.522597e+00 2.415330e+00 -3.254439e-01 -5.094688e+00 -5.806520e+00 2.312803e+00 -1.959175e+00 -5.718965e+00 -8.980476e+00 8.073939e+01 2.321689e-02 8.562045e-01 -3.917903e-02 4.427336e-01 3.977764e-01 3.956399e-01 3.495923e-02 -2.430479e-01 -2.982668e-01 8.967201e-02 3.468521e-01 2.247231e-01 -1.029134e+00 -1.061957e-01 2.529777e-01 1.535418e-01 1.132533e-01 -4.879024e-02 3.818470e-02 7.339790e-02 1.795164e-01 2.502114e-03 6.209967e-02 7.300208e-02 1.450707e-01 -2.918497e-01
<VARIANCE> 39
 3.542587e+01 2.563404e+01 2.415444e+01 3.123274e+01 3.854839e+01 7.205544e+01 5.578398e+01 3.681305e+01 4.860191e+01 3.961147e+01 6.230249e+01 5.012020e+01 1.814709e+01 3.528824e-01 1.516315e+00 1.057967e+00 1.056043e+00 1.248068e+00 1.447503e+00 1.568120e+00 1.541873e+00 1.671282e+00 1.305052e+00 1.371486e+00 1.327469e+00 8.144897e-01 7.880437e-02 1.274196e-01 1.495116e-01 1.803153e-01 2.137311e-01 2.693271e-01 3.182896e-01 2.667358e-01 2.611392e-01 2.554938e-01 2.325553e-01 2.314656e-01 7.198457e-02
<GCONST> 9.951641e+01
<STATE> 4
<MEAN> 39
 6.058017e-02 -1.608513e+00 -6.337323e+00 -5.286874e+00 2.667974e+00 2.593423e+00 -1.255981e+00 -7.327311e-01 3.740333e+00 1.554833e+00 -1.629313e+00 -5.133437e+00 7.080122e+01 -9.055663e-01 7.489254e-01 2.510502e-01 3.980069e-01 1.269876e-01 4.719079e-01 9.392675e-01 9.862332e-01 3.883657e-01 7.980237e-01 9.092357e-01 9.116743e-01 -1.451344e+00 -8.429413e-02 -2.163147e-01 -2.289646e-02 -1.086623e-01 -8.883480e-02 -1.032004e-01 -1.119464e-02 4.596774e-02 6.998848e-02 4.541624e-02 4.102212e-02 2.049858e-02 2.620759e-01
<VARIANCE> 39
 2.238364e+01 3.011605e+01 2.868959e+01 3.596357e+01 3.424284e+01 5.853723e+01 4.160364e+01 4.686881e+01 4.449606e+01 4.611677e+01 5.155267e+01 5.395052e+01 3.153503e+01 1.360579e+00 1.656888e+00 1.243310e+00 1.655080e+00 1.810813e+00 2.212748e+00 2.743230e+00 2.660465e+00 2.588712e+00 2.543198e+00 2.684121e+00 2.244013e+00 1.091927e+00 1.656027e-01 2.227980e-01 2.447144e-01 2.821539e-01 3.147174e-01 3.911878e-01 4.663225e-01 4.955980e-01 4.555055e-01 4.633914e-01 4.637907e-01 4.138826e-01 1.197443e-01
<GCONST> 1.131344e+02
<TRANSP> 5
 0.000000e+00 1.000000e+00 0.000000e+00 0.000000e+00 0.000000e+00
 0.000000e+00 7.138852e-01 2.861148e-01 0.000000e+00 0.000000e+00
 0.000000e+00 0.000000e+00 7.969258e-01 2.030742e-01 0.000000e+00
 0.000000e+00 0.000000e+00 0.000000e+00 8.127527e-01 1.872473e-01
 0.000000e+00 0.000000e+00 0.000000e+00 0.000000e+00 0.000000e+00
<ENDHMM>
~h "b"
<BEGINHMM>
<NUMSTATES> 5
<STATE> 2
<MEAN> 39
 3.447944e+00 1.294996e+01 6.743363e+00 3.985020e+00 1.952224e-01 -1.579977e+00 -6.196189e+00 -6.671436e+00 -5.082363e+00 -2.179037e+00 -3.459218e+00 -5.689906e+00 6.530338e+01 2.954932e-01 -3.467905e-02 -4.424698e-02 -1.633808e-01 -7.389909e-02 -2.894177e-01 -4.398545e-01 -1.892022e-01 -4.598895e-02 -7.742991e-02 -1.300088e-01 -6.771377e-02 5.547563e-01 -1.553123e-01 -6.492473e-01 -3.050996e-01 -3.924088e-01 -1.828014e-01 2.242082e-02 7.742494e-02 2.434653e-01 4.238252e-01 3.016231e-01 1.676715e-01 2.518076e-01 3.612813e-01
<VARIANCE> 39
 9.473867e+00 3.835640e+01 1.912039e+01 2.249096e+01 1.656817e+01 2.148045e+01 2.260621e+01 2.488005e+01 2.705274e+01 2.802995e+01 3.785349e+01 2.435066e+01 1.900793e+01 1.450499e+00 2.732353e+00 1.219367e+00 1.442250e+00 1.553403e+00 2.113006e+00 2.429147e+00 2.812640e+00 2.628114e+00 2.165777e+00 1.992627e+00 1.892946e+00 1.466475e+00 2.287891e-01 3.305534e-01 2.550477e-01 3.640602e-01 4.101498e-01 4.681737e-01 4.985707e-01 5.022486e-01 4.690185e-01 4.212535e-01 4.167592e-01 3.512147e-01 3.427072e-01
<GCONST> 1.081394e+02
<STATE> 3
<MEAN> 39
 2.832855e+00 4.336734e+00 2.617944e+00 -1.524121e+00 -1.690748e+00 -3.454206e+00 -8.209183e+00 -6.847699e+00 -1.954991e+00 5.784822e-01 -2.788504e+00 -3.988267e+00 7.278648e+01 3.683806e-01 -3.113031e+00 -1.687849e+00 -3.060532e+00 -2.003365e+00 -8.388579e-01 -1.020788e+00 2.010936e-01 1.892553e+00 1.393661e+00 2.732148e-01 3.779402e-01 3.300743e+00 7.408915e-02 -2.294913e-01 -1.349771e-01 -4.391464e-01 -2.114281e-01 3.522848e-01 2.935194e-01 1.627585e-01 7.460792e-02 -1.889120e-01 -2.486289e-01 -3.894641e-01 1.915357e-01
<VARIANCE> 39
 2.869384e+01 2.844780e+01 2.665754e+01 4.616762e+01 2.272300e+01 3.930532e+01 2.918349e+01 2.872941e+01 3.293204e+01 3.741120e+01 3.915058e+01 2.452201e+01 2.455416e+01 2.399271e+00 4.259555e+00 3.732652e+00 4.372923e+00 3.179410e+00 4.762769e+00 3.588407e+00 4.110380e+00 4.778285e+00 3.541161e+00 3.515355e+00 4.175824e+00 1.919000e+00 2.448034e-01 6.595728e-01 3.900341e-01 5.676479e-01 5.861793e-01 5.239670e-01 6.139982e-01 5.060178e-01 6.237775e-01 5.397068e-01 5.958257e-01 5.770398e-01 3.783705e-01
<GCONST> 1.240914e+02
<STATE> 4
<MEAN> 39
 4.437713e+00 -2.721192e+00 -1.581682e+00 -1.009009e+01 -6.510334e+00 -2.037967e+00 -8.646663e+00 -5.732962e+00 3.106275e+00 2.797486e+00 -2.830954e+00 -6.486586e+00 7.980567e+01 -2.357074e-02 -2.257835e+00 -1.152573e+00 -1.967920e+00 -7.032101e-01 5.774148e-01 5.117000e-01 8.278909e-01 1.041758e+00 -2.821194e-01 -9.706765e-01 -8.945814e-01 2.058055e+00 -1.855123e-01 6.717232e-01 3.843330e-01 7.990742e-01 6.440049e-01 2.691562e-01 3.991579e-01 4.512127e-03 -6.743647e-01 -6.020417e-01 -2.611316e-01 -5.892190e-02 -7.568370e-01
<VARIANCE> 39
 3.764421e+01 3.424981e+01 4.968475e+01 5.877132e+01 3.810208e+01 9.988207e+01 3.598656e+01 4.057632e+01 5.194834e+01 4.326564e+01 8.865745e+01 4.977253e+01 2.011709e+01 1.080674e+00 2.992078e+00 3.105651e+00 3.190076e+00 3.987790e+00 3.662418e+00 3.735046e+00 3.194041e+00 3.903435e+00 3.147265e+00 4.038969e+00 4.833176e+00 1.448202e+00 1.815415e-01 3.408900e-01 2.774734e-01 5.350009e-01 4.175839e-01 6.595342e-01 4.979747e-01 5.169756e-01 5.278963e-01 4.482846e-01 5.516357e-01 5.060358e-01 1.903335e-01
<GCONST> 1.242253e+02
<TRANSP> 5
 0.000000e+00 1.000000e+00 0.000000e+00 0.000000e+00 0.000000e+00
 0.000000e+00 8.141172e-01 1.858828e-01 0.000000e+00 0.000000e+00
 0.000000e+00 0.000000e+00 4.599544e-01 5.400456e-01 0.000000e+00
 0.000000e+00 0.000000e+00 0.000000e+00 4.552488e-01 5.447512e-01
 0.000000e+00 0.000000e+00 0.000000e+00 0.000000e+00 0.000000e+00
<ENDHMM>
~h "d"
<BEGINHMM>
<NUMSTATES> 5
<STATE> 2
<MEAN> 39
 1.151923e+00 1.376168e+01 9.176633e+00 3.592487e+00 -1.327235e+00 -3.333225e+00 -6.004496e+00 -4.161102e+00 -3.612018e+00 -2.955297e+00 -5.070867e+00 -5.292943e+00 6.502151e+01 -1.904335e-01 2.912936e-02 1.724100e-01 -6.924581e-02 -6.087677e-02 -4.874089e-01 -1.270834e-01 -4.525777e-02 -3.606939e-02 -2.348643e-01 -1.658614e-01 -1.027521e-02 7.230283e-01 -3.142401e-01 -5.590986e-01 -6.798638e-02 -1.766948e-01 -1.784595e-01 -5.851121e-02 1.240361e-03 1.100068e-01 2.162998e-01 1.928850e-01 3.184773e-01 3.419955e-01 3.402562e-01
<VARIANCE> 39
 1.216793e+01 3.174168e+01 1.598865e+01 2.737012e+01 2.243229e+01 2.255459e+01 2.022841e+01 2.369401e+01 2.801541e+01 3.050549e+01 2.098492e+01 2.181830e+01 2.218516e+01 2.518754e+00 2.704421e+00 1.370220e+00 1.547516e+00 2.485755e+00 2.710383e+00 2.757138e+00 3.099604e+00 2.501971e+00 2.184567e+00 2.085932e+00 2.249791e+00 1.773363e+00 2.711427e-01 2.656860e-01 3.119729e-01 3.611671e-01 7.860730e-01 5.993301e-01 6.603323e-01 6.810873e-01 5.000946e-01 5.053976e-01 3.470371e-01 3.210177e-01 3.941027e-01
<GCONST> 1.117646e+02
<STATE> 3
<MEAN> 39
 -5.039521e+00 6.972268e+00 8.480293e+00 4.950500e-01 -3.344139e+00 -8.075429e+00 -7.458341e+00 -4.755195e+00 -2.354222e+00 -2.279406e+00 -3.053537e+00 -2.025923e+00 7.465350e+01 -1.312769e-01 -2.434774e+00 1.349933e+00 -1.157893e+00 -3.696244e+00 -2.423602e+00 -2.148838e+00 -6.351492e-01 1.700065e-01 1.835822e-01 1.130453e+00 1.232906e+00 3.155906e+00 6.330979e-01 -1.771642e-01 3.560491e-01 -2.458713e-01 -8.485627e-01 1.021891e-01 -3.908847e-01 4.406236e-02 -9.399940e-03 7.370073e-02 7.859393e-02 -1.515926e-01 -1.370540e-01
<VARIANCE> 39
 3.245610e+01 1.652333e+01 3.977536e+01 3.043261e+01 4.933493e+01 4.851598e+01 4.122258e+01 3.023556e+01 3.200363e+01 2.421709e+01 2.237111e+01 3.273451e+01 2.409632e+01 2.600063e+00 2.587004e+00 3.426182e+00 4.808752e+00 4.903236e+00 3.455480e+00 3.986320e+00 3.164684e+00 3.291187e+00 6.800836e+00 2.637886e+00 2.715845e+00 1.554270e+00 2.425118e-01 4.696867e-01 5.507292e-01 5.969172e-01 8.748518e-01 8.413430e-01 7.052324e-01 5.916075e-01 4.873700e-01 5.367616e-01 5.551811e-01 4.891291e-01 2.940861e-01
<GCONST> 1.236575e+02
<STATE> 4
<MEAN> 39
 -1.445014e+00 1.038433e+00 1.443652e+01 -1.850680e+00 -1.591155e+01 -1.164214e+01 -1.407322e+01 -5.299045e+00 -1.660193e+00 -2.670129e+00 3.909710e-01 2.443231e-01 7.976353e+01 6.938897e-01 -1.845106e+00 1.131815e+00 -1.405890e+00 -3.102950e+00 -4.345875e-01 -1.371949e+00 1.175106e-01 1.686613e-01 4.120257e-01 7.638484e-01 2.556392e-01 1.488654e+00 -6.139688e-02 6.067307e-01 -5.152680e-01 1.239516e-01 1.003147e+00 6.653525e-01 7.911581e-01 1.595761e-01 -9.637236e-02 1.375265e-01 -3.629326e-01 -3.378009e-01 -7.516370e-01
<VARIANCE> 39
 3.370465e+01 2.047165e+01 4.125869e+01 7.300682e+01 4.048693e+01 5.103039e+01 4.242356e+01 2.343041e+01 5.914574e+01 7.220997e+01 4.209792e+01 3.841765e+01 1.808465e+01 6.665702e-01 1.143563e+00 2.492698e+00 3.696409e+00 3.883937e+00 3.102775e+00 3.093043e+00 2.820807e+00 2.255217e+00 5.087977e+00 3.043496e+00 2.142179e+00 7.316179e-01 1.317124e-01 2.183422e-01 2.610488e-01 4.055705e-01 4.507159e-01 4.304283e-01 4.386198e-01 3.276840e-01 4.260314e-01 6.323773e-01 3.391632e-01 3.976531e-01 1.327921e-01
<GCONST> 1.153017e+02
<TRANSP> 5
 0.000000e+00 1.000000e+00 0.000000e+00 0.000000e+00 0.000000e+00
 0.000000e+00 8.328832e-01 1.671167e-01 0.000000e+00 0.000000e+00
 0.000000e+00 0.000000e+00 5.829746e-01 4.170254e-01 0.000000e+00
 0.000000e+00 0.000000e+00 0.000000e+00 4.816608e-01 5.183392e-01
 0.000000e+00 0.000000e+00 0.000000e+00 0.000000e+00 0.000000e+00
<ENDHMM>
~h "e"
<BEGINHMM>
<NUMSTATES> 5
<STATE> 2
<MEAN> 39
 -2.404008e+00 -4.213336e+00 1.295950e+01 -4.398711e+00 -1.825521e+01 -1.415838e+01 -1.181842e+01 -1.764264e+00 -5.586420e-01 -1.766496e+00 -8.072450e-01 -7.592027e-01 8.269676e+01 -1.623590e-01 -1.237930e-01 4.186555e-01 -3.975559e-01 -6.146255e-01 1.016907e-01 2.375438e-01 -3.076043e-02 -3.407333e-01 1.902134e-01 2.410889e-01 4.617634e-03 5.972266e-02 -8.869056e-02 3.835741e-01 -2.720660e-01 2.426322e-01 5.997003e-01 1.689634e-01 2.915841e-01 -2.510390e-02 -4.393131e-02 5.619554e-02 -1.193290e-01 -3.459201e-02 -4.335781e-01
<VARIANCE> 39
 3.583720e+01 2.162941e+01 3.056953e+01 6.346085e+01 3.085425e+01 5.567437e+01 5.437297e+01 3.746652e+01 4.787879e+01 7.167152e+01 4.517831e+01 3.865565e+01 1.601607e+01 2.651127e-01 7.656671e-01 7.685978e-01 9.179751e-01 1.297595e+00 9.800299e-01 1.216897e+00 1.128448e+00 1.244019e+00 1.436073e+00 1.161996e+00 1.009904e+00 4.508272e-01 1.319376e-01 1.730520e-01 1.548321e-01 2.134478e-01 3.138099e-01 3.412492e-01 3.923852e-01 2.704384e-01 2.659884e-01 3.501555e-01 2.801028e-01 2.261722e-01 8.901788e-02
<GCONST> 9.868780e+01
<STATE> 3
<MEAN> 39
 -3.802552e-01 -6.062590e-01 1.363578e+01 -5.639126e+00 -1.858811e+01 -1.218125e+01 -7.707844e+00 -4.388092e+00 -3.950310e+00 7.354516e-01 -1.448200e+00 -3.458330e-01 7.814404e+01 3.947643e-02 7.429282e-01 -4.312207e-01 4.670618e-01 6.825967e-01 4.108947e-01 7.650656e-01 3.861017e-02 2.224588e-02 6.587960e-02 -1.866096e-01 -8.398441e-02 -1.107747e+00 -8.761945e-02 1.721139e-01 -1.952382e-01 2.127208e-01 3.366240e-01 1.503213e-01 1.256675e-01 1.420993e-01 1.906324e-01 -1.702709e-02 4.765878e-02 4.856943e-02 -2.624990e-01
<VARIANCE> 39
 3.561387e+01 2.131740e+01 2.570815e+01 7.696303e+01 2.689702e+01 4.694645e+01 4.617573e+01 3.613823e+01 4.220213e+01 5.534520e+01 4.645113e+01 2.703316e+01 1.918287e+01 3.519146e-01 1.105994e+00 9.233707e-01 1.407073e+00 1.541063e+00 1.477551e+00 1.603695e+00 1.336265e+00 1.518229e+00 1.912775e+00 1.567765e+00 1.105465e+00 6.976373e-01 9.036992e-02 1.472067e-01 1.644762e-01 2.273310e-01 2.435841e-01 2.587387e-01 2.808365e-01 2.636879e-01 2.540834e-01 2.853535e-01 2.710367e-01 2.124439e-01 7.412152e-02
<GCONST> 9.941109e+01
<STATE> 4
<MEAN> 39
 -3.043332e+00 3.120558e+00 9.756854e+00 -9.618097e-01 -1.161949e+01 -8.629514e+00 -3.393481e+00 -7.430579e-01 -2.152288e-01 1.435049e+00 1.010926e+00 1.212749e+00 7.016832e+01 -9.391059e-01 4.915814e-01 -1.053966e+00 4.210348e-01 1.510862e+00 8.247563e-01 8.423989e-01 8.115436e-01 9.623758e-01 7.864211e-01 8.686532e-01 6.603628e-01 -1.329843e+00 -1.144948e-01 -2.515477e-01 -2.994847e-02 -1.741153e-01 -8.835794e-02 -3.968433e-02 -1.691150e-01 2.524896e-02 7.384025e-02 1.291116e-01 1.337002e-01 7.866172e-02 2.695691e-01
<VARIANCE> 39
 2.724941e+01 3.690424e+01 2.436741e+01 4.771962e+01 3.551500e+01 4.535176e+01 4.267265e+01 3.855582e+01 3.891090e+01 4.852053e+01 4.731510e+01 3.475167e+01 3.831871e+01 1.636005e+00 1.757595e+00 1.393553e+00 2.010871e+00 2.725994e+00 2.337308e+00 2.828338e+00 2.606866e+00 2.510418e+00 3.116743e+00 3.212017e+00 2.218885e+00 1.129004e+00 1.699759e-01 2.365492e-01 2.335114e-01 2.888381e-01 4.459471e-01 4.025429e-01 4.236940e-01 4.354922e-01 4.438151e-01 5.366777e-01 5.525841e-01 3.971957e-01 1.164938e-01
<GCONST> 1.146935e+02
<TRANSP> 5
 0.000000e+00 1.000000e+00 0.000000e+00 0.000000e+00 0.000000e+00
 0.000000e+00 7.274271e-01 2.725730e-01 0.000000e+00 0.000000e+00
 0.000000e+00 0.000000e+00 7.650093e-01 2.349907e-01 0.000000e+00
 0.000000e+00 0.000000e+00 0.000000e+00 7.836567e-01 2.163433e-01
 0.000000e+00 0.000000e+00 0.000000e+00 0.000000e+00 0.000000e+00
<ENDHMM>
~h "f"
<BEGINHMM>
<NUMSTATES> 5
<STATE> 2
<MEAN> 39
 -1.368305e+01 -1.016472e+00 4.691345e+00 7.946756e-01 -1.669161e+00 -3.810042e+00 2.568711e-01 4.547646e+00 4.762738e+00 5.417868e+00 1.878222e+00 4.303434e+00 7.397853e+01 -4.108870e-01 -3.416520e-01 -2.759166e-01 -9.029382e-02 1.292309e-01 2.248428e-01 1.887459e-01 2.239588e-01 2.773553e-01 3.816901e-01 2.932908e-01 2.132129e-01 4.247485e-02 3.988076e-01 1.409300e-01 1.658332e-01 -1.429786e-02 -1.471216e-01 -1.063547e-01 -1.623172e-01 -2.491921e-01 -2.197154e-01 -1.764940e-01 -1.539617e-01 -1.567113e-01 -6.439407e-02
<VARIANCE> 39
 3.011259e+01 1.384534e+01 2.865851e+01 2.339907e+01 2.765806e+01 3.448889e+01 4.647090e+01 2.997496e+01 3.555895e+01 2.849895e+01 2.517042e+01 2.958126e+01 2.592016e+01 9.163474e-01 6.348471e-01 1.017678e+00 9.203423e-01 1.382911e+00 1.452890e+00 1.496150e+00 1.907582e+00 1.771315e+00 1.789918e+00 1.545116e+00 1.480208e+00 5.329688e-01 1.770650e-01 1.541329e-01 1.544095e-01 2.121457e-01 3.109608e-01 3.383087e-01 3.762979e-01 4.147202e-01 3.799128e-01 3.754007e-01 3.357981e-01 3.130690e-01 5.603087e-02
<GCONST> 9.938680e+01
<STATE> 3
<MEAN> 39
 -1.212061e+01 -1.190853e+00 5.535106e+00 8.972199e-01 -8.324525e-01 -2.311204e+00 1.539953e+00 4.254941e+00 4.566763e+00 5.948219e+00 2.110854e+00 4.583386e+00 7.190674e+01 3.233467e+00 1.194303e+00 1.068672e+00 -4.094777e-01 -1.696935e+00 -1.482527e+00 -1.887432e+00 -2.267773e+00 -1.885096e+00 -1.637286e+00 -1.422176e+00 -1.371740e+00 2.525159e-01 8.887261e-01 1.167548e-02 7.872380e-02 -4.965773e-01 -9.727210e-01 -6.398184e-01 -8.385471e-01 -6.680492e-01 -4.428459e-01 -3.876455e-01 -2.578603e-01 -3.110734e-01 6.202716e-01
<VARIANCE> 39
 4.056641e+01 1.367853e+01 3.865466e+01 2.416361e+01 2.645676e+01 3.295105e+01 4.611517e+01 2.655214e+01 2.656713e+01 2.612985e+01 2.336911e+01 2.982428e+01 2.327025e+01 1.801558e+00 1.898050e+00 1.999151e+00 2.966480e+00 3.712475e+00 4.770272e+00 3.752319e+00 2.643553e+00 2.794295e+00 2.704501e+00 1.963345e+00 2.100496e+00 1.075585e+00 2.419591e-01 3.742136e-01 2.643600e-01 5.829476e-01 3.844951e-01 5.637795e-01 6.323846e-01 3.812410e-01 5.311218e-01 5.168155e-01 4.808261e-01 4.156638e-01 1.287891e-01
<GCONST> 1.144673e+02
<STATE> 4
<MEAN> 39
 -1.136173e-01 1.607656e+00 8.850757e+00 -1.511419e+00 -1.055639e+01 -1.090185e+01 -7.705327e+00 -4.223291e+00 -1.985561e+00 -2.462394e-01 -2.815736e+00 -3.452826e-01 7.605768e+01 3.152891e+00 -5.475255e-01 7.699592e-01 -1.850455e+00 -3.422410e+00 -2.051683e+00 -2.692366e+00 -1.969699e+00 -1.236010e+00 -1.046241e+00 -6.016763e-01 -9.536542e-01 2.093619e+00 -9.551046e-01 -4.922666e-01 -2.199046e-01 -2.368078e-01 2.780877e-01 5.926678e-01 5.899684e-01 7.319934e-01 5.473487e-01 5.044053e-01 5.228618e-01 4.145479e-01 4.585857e-02
<VARIANCE> 39
 4.418396e+01 3.200951e+01 5.336893e+01 4.002463e+01 5.121078e+01 7.050558e+01 3.840100e+01 2.469023e+01 3.567888e+01 3.042196e+01 1.855086e+01 1.930816e+01 2.704486e+01 2.263371e+00 3.773227e+00 2.431518e+00 4.998570e+00 3.547943e+00 5.765894e+00 5.256252e+00 3.437357e+00 4.195942e+00 4.119680e+00 3.946051e+00 2.808568e+00 8.540924e-01 2.526608e-01 2.945481e-01 1.848313e-01 3.486797e-01 6.033537e-01 5.747940e-01 5.715671e-01 3.222610e-01 3.062982e-01 3.371242e-01 3.060601e-01 2.868312e-01 2.597884e-01
<GCONST> 1.193233e+02
<TRANSP> 5
 0.000000e+00 1.000000e+00 0.000000e+00 0.000000e+00 0.000000e+00
 0.000000e+00 8.804266e-01 1.195734e-01 0.000000e+00 0.000000e+00
 0.000000e+00 0.000000e+00 5.571684e-01 4.428317e-01 0.000000e+00
 0.000000e+00 0.000000e+00 0.000000e+00 5.434971e-01 4.565029e-01
 0.000000e+00 0.000000e+00 0.000000e+00 0.000000e+00 0.000000e+00
<ENDHMM>
~h "g"
<BEGINHMM>
<NUMSTATES> 5
<STATE> 2
<MEAN> 39
 1.340831e+00 8.979445e+00 8.653886e+00 2.871373e+00 -4.746319e+00 -5.467526e+00 -4.859057e+00 -3.874305e+00 -4.860928e+00 -1.016448e+00 -3.275079e+00 -4.014572e+00 6.764858e+01 -2.921721e-01 -3.205237e-01 4.173998e-01 2.591061e-02 -1.539672e-01 -6.508780e-01 -3.683231e-01 -1.229988e-01 -2.631989e-01 2.118941e-01 -1.578721e-01 1.620552e-01 8.496845e-01 -1.935167e-01 -5.416336e-01 -5.043694e-02 -2.336645e-01 -1.936506e-01 -5.620072e-02 -1.175518e-02 2.083074e-01 3.280227e-01 2.041903e-01 1.586826e-01 2.442162e-01 3.588186e-01
<VARIANCE> 39
 2.097448e+01 7.027332e+01 2.550869e+01 2.839198e+01 3.662638e+01 3.137235e+01 2.462971e+01 3.695427e+01 3.219780e+01 3.703258e+01 3.397600e+01 2.028500e+01 3.650610e+01 3.130599e+00 5.621240e+00 2.518092e+00 2.552906e+00 5.631436e+00 4.122854e+00 2.902926e+00 3.819727e+00 3.542454e+00 3.553524e+00 2.511338e+00 2.508246e+00 3.613429e+00 4.918939e-01 6.090645e-01 3.862299e-01 5.609483e-01 1.177023e+00 7.291984e-01 5.900618e-01 7.295778e-01 6.771584e-01 7.052931e-01 4.814451e-01 3.696994e-01 4.324408e-01
<GCONST> 1.255385e+02
<STATE> 3
<MEAN> 39
 -2.230995e+00 -2.229756e-01 1.084361e+01 -1.995460e+00 -1.106511e+01 -1.210553e+01 -9.136049e+00 -2.960970e+00 -2.805842e+00 3.062496e+00 -2.572215e+00 6.255086e-01 7.823635e+01 8.656330e-01 -2.159294e+00 -1.540255e-01 -1.949106e+00 -2.644919e+00 -1.406610e+00 -1.241048e+00 1.223323e+00 1.246755e+00 -1.320263e-01 5.812626e-01 3.758221e-01 2.260377e+00 4.019894e-01 4.000787e-02 -6.427882e-01 -1.460597e-01 5.095561e-01 6.486413e-01 4.545858e-01 3.141913e-01 3.054230e-01 -4.877309e-01 -2.747496e-01 -5.716650e-01 -4.162894e-01
<VARIANCE> 39
 4.124169e+01 2.109734e+01 6.016823e+01 5.581387e+01 9.135703e+01 5.549208e+01 5.555412e+01 4.196820e+01 3.815591e+01 6.328249e+01 5.178793e+01 2.369014e+01 1.617803e+01 1.952297e+00 2.478499e+00 3.591912e+00 4.078097e+00 6.652765e+00 3.882946e+00 4.790606e+00 4.800630e+00 5.826073e+00 6.663611e+00 3.434519e+00 3.027864e+00 1.265428e+00 4.480937e-01 4.452156e-01 6.940212e-01 8.383658e-01 2.147716e+00 7.012886e-01 6.855484e-01 8.033489e-01 9.090534e-01 1.182597e+00 7.767366e-01 6.474270e-01 1.628294e-01
<GCONST> 1.326490e+02
<STATE> 4
<MEAN> 39
 1.564426e+00 -7.514112e+00 5.084413e+00 -6.369749e+00 -1.184396e+01 -1.114075e+01 -7.887303e+00 4.179466e+00 2.880285e+00 -1.040542e+00 -4.773164e+00 -3.166890e+00 8.239856e+01 4.421108e-01 -1.543210e+00 -2.475821e+00 -9.007446e-01 1.904027e+00 1.228977e+00 9.542884e-01 5.779418e-01 1.085045e+00 -6.652958e-01 -1.412915e+00 -1.451580e+00 7.119856e-01 -1.590080e-01 4.111220e-01 -1.005934e-01 3.949845e-01 6.247609e-01 3.780415e-01 2.197741e-01 -7.347803e-01 -4.458748e-01 1.726863e-01 -1.864919e-02 -1.012670e-01 -3.955674e-01
<VARIANCE> 39
 3.864062e+01 2.345629e+01 3.863398e+01 4.588268e+01 4.743522e+01 5.598180e+01 8.095767e+01 4.600806e+01 8.612802e+01 4.204754e+01 6.248776e+01 3.315427e+01 1.378319e+01 2.764678e-01 1.068637e+00 1.520442e+00 2.163162e+00 3.641503e+00 1.636176e+00 2.221522e+00 3.195837e+00 3.192714e+00 4.068323e+00 3.019874e+00 3.647859e+00 4.274662e-01 7.587918e-02 1.564280e-01 3.621756e-01 3.241376e-01 8.003047e-01 3.223520e-01 6.793044e-01 4.700308e-01 4.803728e-01 6.113610e-01 6.036810e-01 4.377622e-01 5.996198e-02
<GCONST> 1.139153e+02
<TRANSP> 5
 0.000000e+00 1.000000e+00 0.000000e+00 0.000000e+00 0.000000e+00
 0.000000e+00 8.391011e-01 1.608989e-01 0.000000e+00 0.000000e+00
 0.000000e+00 0.000000e+00 6.550308e-01 3.449692e-01 0.000000e+00
 0.000000e+00 0.000000e+00 0.000000e+00 6.453102e-01 3.546898e-01
 0.000000e+00 0.000000e+00 0.000000e+00 0.000000e+00 0.000000e+00
<ENDHMM>
~h "i"
<BEGINHMM>
<NUMSTATES> 5
<STATE> 2
<MEAN> 39
 -3.827406e+00 4.659887e+00 1.971423e+01 -3.318276e+00 -1.359123e+01 -6.896766e+00 -1.381715e+01 -8.130323e+00 -5.539207e+00 -6.647598e+00 -3.484141e+00 5.342996e-02 7.747475e+01 -1.603171e-02 -2.401633e-01 8.922562e-01 -7.941420e-01 -1.002779e+00 6.158479e-01 -8.263164e-01 -1.503245e-01 -3.964888e-02 -5.487604e-01 1.031082e-01 7.557267e-02 4.761090e-01 -3.411523e-01 1.091514e-01 -7.672280e-01 1.540563e-01 9.185811e-01 1.852843e-01 7.581874e-01 4.711733e-01 2.985374e-01 4.674155e-01 1.565767e-01 -1.123425e-01 -4.198527e-01
<VARIANCE> 39
 3.011006e+01 2.514293e+01 4.163700e+01 7.817318e+01 4.670390e+01 5.091477e+01 5.174089e+01 3.127005e+01 4.476889e+01 4.327497e+01 4.487747e+01 3.286474e+01 2.034119e+01 1.288359e+00 1.876992e+00 1.899763e+00 3.469414e+00 3.992692e+00 3.721056e+00 3.276505e+00 2.316323e+00 2.073058e+00 2.469923e+00 2.269923e+00 2.119732e+00 4.746537e-01 2.902534e-01 3.438777e-01 2.931788e-01 6.241827e-01 5.701847e-01 8.706377e-01 7.658993e-01 4.887866e-01 5.449780e-01 5.540098e-01 4.449251e-01 4.151661e-01 9.504262e-02
<GCONST> 1.184631e+02
<STATE> 3
<MEAN> 39
 -4.105803e+00 6.634556e+00 1.867433e+01 -6.157756e+00 -1.197167e+01 -6.172399e+00 -1.376146e+01 -7.576192e+00 -7.412428e+00 -6.556364e+00 -3.589636e+00 -1.922142e+00 7.590931e+01 1.253712e-01 3.268992e-01 -4.348929e-01 1.798014e-01 2.883177e-01 3.431267e-02 4.820457e-01 -7.160105e-03 -2.315646e-02 2.171114e-01 8.159722e-02 -1.195988e-02 -6.004581e-01 8.945262e-03 2.992367e-02 -2.913979e-01 2.299803e-01 2.203057e-01 -1.488626e-03 2.630230e-01 3.955163e-02 1.255982e-01 1.690275e-01 4.715230e-02 4.641016e-02 -2.338975e-01
<VARIANCE> 39
 2.713655e+01 2.099585e+01 5.052447e+01 7.765533e+01 4.258270e+01 5.067570e+01 4.167962e+01 3.015811e+01 4.564908e+01 4.757574e+01 5.049421e+01 3.923207e+01 2.082429e+01 3.564980e-01 8.157689e-01 1.013618e+00 1.428801e+00 1.444232e+00 1.319034e+00 1.637503e+00 1.314158e+00 1.449193e+00 1.581152e+00 1.329341e+00 1.225479e+00 4.919390e-01 7.939861e-02 1.493862e-01 1.839202e-01 2.605521e-01 3.196316e-01 3.120382e-01 3.043185e-01 2.947842e-01 2.778708e-01 2.957980e-01 2.877288e-01 2.446740e-01 5.569320e-02
<GCONST> 1.003460e+02
<STATE> 4
<MEAN> 39
 -4.441140e+00 8.445099e+00 1.237468e+01 -1.056919e+00 -5.799221e+00 -3.774181e+00 -6.918417e+00 -5.449951e+00 -3.776152e+00 -2.550982e+00 -1.423784e+00 3.082970e-02 6.788113e+01 -5.076517e-01 -2.547489e-01 -1.530469e+00 5.721229e-01 1.261886e+00 7.209304e-01 1.138382e+00 9.151655e-01 1.072455e+00 9.506989e-01 5.804778e-01 3.171015e-01 -1.210089e+00 -1.219384e-01 -2.003801e-01 4.751031e-02 -1.114473e-01 -5.106712e-02 1.965578e-02 -9.584247e-02 1.118669e-01 1.074330e-01 4.892783e-02 5.520536e-02 4.702543e-02 2.003660e-01
<VARIANCE> 39
 2.453354e+01 3.257761e+01 3.662425e+01 5.160252e+01 3.673751e+01 4.178555e+01 3.554960e+01 3.114949e+01 3.249616e+01 3.851291e+01 3.514992e+01 2.838606e+01 3.690006e+01 1.079123e+00 1.445570e+00 1.816210e+00 2.146735e+00 2.259826e+00 2.559803e+00 2.375547e+00 2.631430e+00 2.479636e+00 2.572600e+00 2.397005e+00 2.154253e+00 9.289142e-01 1.416734e-01 2.387102e-01 2.937211e-01 3.257572e-01 4.253003e-01 4.587770e-01 4.033816e-01 4.644572e-01 4.217342e-01 4.542319e-01 4.303532e-01 3.724833e-01 1.376816e-01
<GCONST> 1.122029e+02
<TRANSP> 5
 0.000000e+00 1.000000e+00 0.000000e+00 0.000000e+00 0.000000e+00
 0.000000e+00 5.029595e-01 4.970404e-01 0.000000e+00 0.000000e+00
 0.000000e+00 0.000000e+00 8.252895e-01 1.747105e-01 0.000000e+00
 0.000000e+00 0.000000e+00 0.000000e+00 8.043059e-01 1.956941e-01
 0.000000e+00 0.000000e+00 0.000000e+00 0.000000e+00 0.000000e+00
<ENDHMM>
~h "k"
<BEGINHMM>
<NUMSTATES> 5
<STATE> 2
<MEAN> 39
 -6.098604e+00 1.410630e-01 -3.385256e+00 -3.201317e+00 3.693997e+00 2.576907e-01 -4.736229e-01 1.978079e+00 7.071579e-01 8.700166e+00 2.000251e+00 3.565326e+00 6.948633e+01 5.913861e-01 -3.613856e-01 -2.280453e-01 -5.031180e-01 -8.655672e-02 -8.860037e-01 -8.279319e-01 -8.230094e-01 -8.197304e-01 -1.609176e-01 -6.597603e-01 -3.863594e-01 1.570201e+00 5.378916e-01 3.158615e-01 4.837198e-01 -3.975633e-02 -7.189367e-01 -2.673277e-01 -2.559618e-01 -3.825960e-01 -1.485468e-01 -6.116153e-01 -1.497394e-01 -3.091227e-01 1.668023e-03
<VARIANCE> 39
 3.664030e+01 3.015260e+01 7.959415e+01 4.898667e+01 4.938465e+01 5.093203e+01 4.538478e+01 4.172444e+01 4.742835e+01 4.140728e+01 4.045218e+01 3.009805e+01 4.609800e+01 3.774067e+00 3.876041e+00 7.534901e+00 5.015930e+00 7.162079e+00 4.029374e+00 3.798023e+00 4.503940e+00 4.603265e+00 6.234884e+00 3.352229e+00 3.194901e+00 2.900511e+00 5.484726e-01 6.006725e-01 1.217520e+00 1.106610e+00 1.062362e+00 6.708655e-01 6.874313e-01 6.972836e-01 9.016660e-01 9.711924e-01 7.011774e-01 5.414543e-01 5.309333e-01
<GCONST> 1.365369e+02
<STATE> 3
<MEAN> 39
 2.133124e+00 3.620565e+00 1.524838e+00 -5.246308e+00 -5.241676e+00 -6.999484e+00 -6.713161e+00 -5.212826e+00 -5.060628e+00 7.871906e-01 -2.546897e+00 -1.617170e+00 7.477660e+01 3.189894e+00 1.292734e-01 6.471096e-01 -1.735257e+00 -3.772583e+00 -1.674311e+00 -1.556404e+00 -1.665212e+00 -9.013295e-01 -2.565193e+00 -9.680848e-01 -1.423262e+00 1.915462e+00 -4.136059e-01 -6.742843e-01 -6.916586e-01 -3.082516e-01 4.754004e-01 6.712090e-01 4.296984e-01 4.690821e-01 4.905439e-01 4.832636e-01 2.874663e-01 2.218353e-01 1.122401e-02
<VARIANCE> 39
 4.912354e+01 3.592248e+01 4.634676e+01 4.546566e+01 6.142501e+01 5.541649e+01 4.734066e+01 5.071452e+01 4.874405e+01 4.120382e+01 3.789198e+01 2.437050e+01 2.797583e+01 8.847439e-01 4.915588e+00 4.223626e+00 5.738744e+00 5.096302e+00 4.258503e+00 3.857081e+00 5.775099e+00 6.374402e+00 5.322112e+00 5.163522e+00 3.513906e+00 9.471996e-01 3.428160e-01 2.609476e-01 2.924738e-01 5.673946e-01 9.805559e-01 4.433566e-01 4.802959e-01 4.934311e-01 4.642364e-01 5.887172e-01 4.369868e-01 4.118713e-01 1.814194e-01
<GCONST> 1.264921e+02
<STATE> 4
<MEAN> 39
 4.516514e+00 -3.810237e-01 -2.880222e-01 -9.913628e+00 -1.004140e+01 -6.974720e+00 -7.052294e+00 -5.363555e+00 -4.025520e+00 -1.495186e+00 -2.149256e+00 -4.330820e+00 7.866206e+01 5.159065e-01 -1.040147e+00 -3.328715e-01 -7.541284e-01 -5.785394e-01 2.353478e-01 -1.407590e-01 -2.757585e-01 3.768294e-01 -5.527309e-01 -1.338635e-01 -5.669091e-01 8.992561e-01 -7.094814e-01 1.411655e-02 -2.322395e-01 4.043303e-01 1.062335e+00 5.579242e-01 3.996873e-01 2.488764e-01 1.319329e-01 5.585001e-01 1.605831e-01 2.783609e-01 -4.831069e-01
<VARIANCE> 39
 3.399665e+01 5.105475e+01 4.140507e+01 5.169704e+01 4.852759e+01 6.778233e+01 6.013917e+01 8.282516e+01 9.132063e+01 7.704263e+01 7.705904e+01 4.335593e+01 2.252906e+01 9.771923e-01 2.086143e+00 3.129370e+00 4.030528e+00 5.650408e+00 2.741973e+00 2.780082e+00 3.337219e+00 3.335210e+00 3.351623e+00 3.161352e+00 2.955966e+00 9.397452e-01 1.966915e-01 4.300466e-01 3.083230e-01 6.035147e-01 5.449579e-01 5.361564e-01 6.253016e-01 8.217050e-01 6.912811e-01 7.402788e-01 6.497819e-01 4.379176e-01 1.073541e-01
<GCONST> 1.261000e+02
<TRANSP> 5
 0.000000e+00 1.000000e+00 0.000000e+00 0.000000e+00 0.000000e+00
 0.000000e+00 8.181657e-01 1.818343e-01 0.000000e+00 0.000000e+00
 0.000000e+00 0.000000e+00 4.751391e-01 5.248609e-01 0.000000e+00
 0.000000e+00 0.000000e+00 0.000000e+00 4.649853e-01 5.350147e-01
 0.000000e+00 0.000000e+00 0.000000e+00 0.000000e+00 0.000000e+00
<ENDHMM>
~h "l"
<BEGINHMM>
<NUMSTATES> 5
<STATE> 2
<MEAN> 39
 4.713785e-01 5.073285e+00 9.981539e+00 1.513731e+00 -4.919441e+00 -9.768410e+00 -1.341283e+01 -3.335020e+00 -1.419596e+00 -1.839375e+00 -2.682020e+00 -2.237086e+00 7.147236e+01 9.337676e-01 -4.160580e-01 8.358183e-01 -3.992041e-01 -9.588234e-01 -1.819094e+00 -2.306496e+00 -3.957562e-01 -5.065125e-01 -7.146190e-01 -1.978124e-01 -1.775333e-01 1.650674e+00 -3.464944e-01 -3.825798e-01 -2.499451e-01 -1.919231e-01 8.660743e-02 5.678664e-01 5.490915e-01 4.187258e-01 2.463354e-01 3.086643e-01 2.891976e-01 1.799917e-01 -8.581764e-02
<VARIANCE> 39
 2.630178e+01 5.078728e+01 3.143721e+01 6.323632e+01 4.174143e+01 5.999771e+01 7.423889e+01 3.029224e+01 5.301634e+01 4.708608e+01 3.443211e+01 4.102155e+01 3.672640e+01 2.358214e+00 2.624373e+00 2.398856e+00 3.264824e+00 3.719032e+00 6.315674e+00 7.725463e+00 3.837232e+00 3.778787e+00 3.723885e+00 3.402990e+00 2.636174e+00 2.320987e+00 2.728832e-01 3.907353e-01 3.498178e-01 4.429708e-01 7.443005e-01 9.228293e-01 1.230415e+00 6.453748e-01 6.190224e-01 5.999759e-01 6.293303e-01 4.697554e-01 2.548548e-01
<GCONST> 1.285140e+02
<STATE> 3
<MEAN> 39
 2.152663e+00 1.288935e+00 1.169735e+01 -3.188026e-02 -6.891887e+00 -1.152701e+01 -1.751253e+01 -1.526451e+00 -2.480262e+00 -3.607816e+00 -9.107941e-01 -3.254781e+00 7.524260e+01 9.567933e-02 -9.265609e-01 -1.632029e-01 -7.878222e-01 -8.833916e-01 3.226918e-01 1.571524e-01 2.619818e-03 1.916149e-01 6.338413e-01 -4.787248e-02 -2.484465e-01 8.340531e-01 -2.793853e-02 -1.256486e-01 -2.195897e-01 -2.028773e-01 -2.232696e-01 3.544706e-01 3.870173e-01 -1.005240e-01 1.394270e-01 1.886647e-01 -1.263795e-01 -2.695684e-02 5.335938e-02
<VARIANCE> 39
 2.378298e+01 3.958126e+01 4.122794e+01 6.830298e+01 4.007852e+01 5.544695e+01 6.456449e+01 2.822026e+01 7.326108e+01 5.494896e+01 4.949369e+01 5.006222e+01 1.535508e+01 3.710066e-01 1.540680e+00 1.972657e+00 1.724918e+00 3.054086e+00 2.451542e+00 3.265200e+00 2.670182e+00 2.277268e+00 3.220688e+00 2.475566e+00 1.596685e+00 6.644323e-01 6.120713e-02 2.333119e-01 1.901120e-01 2.901158e-01 4.604366e-01 4.451943e-01 5.709759e-01 4.011095e-01 3.945985e-01 4.745678e-01 3.766655e-01 2.986003e-01 1.055195e-01
<GCONST> 1.120162e+02
<STATE> 4
<MEAN> 39
 6.119156e-01 -3.931273e+00 8.541334e+00 -5.550251e+00 -1.234110e+01 -1.014380e+01 -1.456468e+01 -2.552419e+00 1.979995e-01 2.024293e+00 -4.615934e+00 -3.177036e+00 8.028845e+01 6.136458e-03 -6.468155e-01 -7.283429e-01 -1.074064e+00 -6.679603e-01 9.961739e-01 7.088205e-01 -1.754799e-01 3.849877e-01 3.553429e-01 -2.701644e-01 -5.451551e-03 7.276084e-01 -4.773026e-02 2.806494e-01 -3.595554e-02 8.084433e-02 3.654551e-01 3.342094e-02 7.912520e-02 -8.661953e-02 -2.237401e-01 -3.404531e-01 1.042620e-01 5.967265e-02 -1.890403e-01
<VARIANCE> 39
 2.646330e+01 2.696619e+01 5.815044e+01 6.302044e+01 5.523559e+01 6.190891e+01 6.333683e+01 6.316251e+01 5.129860e+01 7.397018e+01 6.947905e+01 4.488290e+01 1.181357e+01 3.625556e-01 1.635004e+00 2.580196e+00 2.569566e+00 3.711252e+00 3.561275e+00 3.861948e+00 3.204002e+00 2.510806e+00 3.308873e+00 3.418883e+00 2.074210e+00 6.341686e-01 3.760555e-02 1.502435e-01 1.624311e-01 2.393948e-01 3.699444e-01 3.175513e-01 4.863431e-01 4.948875e-01 3.962796e-01 4.990630e-01 4.599417e-01 2.955424e-01 6.660358e-02
<GCONST> 1.134132e+02
<TRANSP> 5
 0.000000e+00 1.000000e+00 0.000000e+00 0.000000e+00 0.000000e+00
 0.000000e+00 6.747437e-01 3.252564e-01 0.000000e+00 0.000000e+00
 0.000000e+00 0.000000e+00 7.424045e-01 2.575956e-01 0.000000e+00
 0.000000e+00 0.000000e+00 0.000000e+00 5.367840e-01 4.632160e-01
 0.000000e+00 0.000000e+00 0.000000e+00 0.000000e+00 0.000000e+00
<ENDHMM>
~h "m"
<BEGINHMM>
<NUMSTATES> 5
<STATE> 2
<MEAN> 39
 3.612077e+00 6.590932e+00 6.512229e+00 4.123461e+00 -3.427936e+00 -7.801662e+00 -8.329797e+00 -1.033267e+01 -8.320583e+00 -1.263814e+00 -1.841426e+00 -6.897586e+00 6.999281e+01 1.299459e+00 -2.706924e-01 3.046384e-01 6.046084e-01 -7.344414e-01 -1.705100e+00 -1.020276e+00 -1.887402e+00 -1.698238e+00 -1.378358e-01 6.115951e-02 -9.766769e-01 1.318079e+00 -4.418113e-01 -4.401414e-01 -2.850871e-01 -3.985628e-01 7.426028e-02 5.808825e-01 4.625189e-01 6.788695e-01 5.481029e-01 2.285385e-01 2.079540e-01 4.484748e-01 -2.253287e-02
<VARIANCE> 39
 1.855157e+01 5.543972e+01 2.028030e+01 3.764714e+01 2.764141e+01 3.908944e+01 3.597076e+01 5.037223e+01 4.985966e+01 5.024134e+01 5.080548e+01 2.803689e+01 3.442138e+01 2.178147e+00 2.271759e+00 2.055955e+00 2.781817e+00 3.005676e+00 4.107012e+00 4.013231e+00 4.803791e+00 3.720318e+00 3.149896e+00 3.102441e+00 2.536778e+00 2.734714e+00 1.845281e-01 2.723200e-01 3.046289e-01 2.550836e-01 3.942951e-01 5.062494e-01 5.313894e-01 7.900584e-01 4.841745e-01 5.083711e-01 4.864998e-01 3.165246e-01 2.048481e-01
<GCONST> 1.198268e+02
<STATE> 3
<MEAN> 39
 5.462299e+00 3.022094e+00 4.891392e+00 3.313310e+00 -4.822207e+00 -8.172544e+00 -8.790030e+00 -1.247594e+01 -1.146925e+01 -1.902934e+00 -1.271799e+00 -7.913593e+00 7.357800e+01 9.094372e-02 -6.656678e-01 -4.725239e-01 -7.032059e-01 -1.451040e-01 3.831536e-01 4.660824e-02 5.014666e-01 3.418311e-01 -3.462527e-01 9.742603e-04 1.759271e-01 5.885221e-01 -8.474461e-02 -1.604047e-01 -1.897105e-01 -5.442052e-01 -1.293193e-01 3.188521e-01 6.358115e-02 4.703698e-01 3.798391e-01 -1.961888e-01 -1.312975e-01 1.667555e-01 1.548334e-01
<VARIANCE> 39
 1.748706e+01 3.335894e+01 2.026088e+01 4.242946e+01 2.578122e+01 4.447210e+01 4.607094e+01 4.115884e+01 6.297607e+01 5.299417e+01 5.894700e+01 3.545741e+01 1.904266e+01 2.601590e-01 9.327493e-01 2.136131e+00 2.622034e+00 1.335196e+00 1.602012e+00 1.642797e+00 3.137105e+00 2.536603e+00 1.827488e+00 1.519385e+00 1.593884e+00 5.192193e-01 6.905178e-02 1.420514e-01 3.433289e-01 2.608214e-01 2.688968e-01 2.756379e-01 3.110442e-01 3.978610e-01 4.193259e-01 3.216989e-01 3.138601e-01 2.967126e-01 6.361929e-02
<GCONST> 1.037081e+02
<STATE> 4
<MEAN> 39
 4.654661e+00 -1.943447e+00 7.774376e-01 -6.443069e+00 -7.400340e+00 -4.467919e+00 -8.661462e+00 -5.705856e+00 -7.110464e+00 -5.513152e+00 -3.445050e+00 -7.213279e+00 7.805531e+01 -4.061306e-01 -1.089483e+00 -7.299861e-01 -2.292427e+00 -3.902715e-01 1.524045e+00 2.562675e-01 1.498806e+00 1.245346e+00 -7.056299e-01 -6.491377e-01 4.406254e-01 1.137819e+00 -1.336814e-01 2.527283e-01 2.851810e-01 3.211100e-01 2.021827e-01 -8.387037e-03 -1.844995e-02 -3.996838e-01 -2.449276e-01 1.357366e-01 1.600910e-02 -5.688209e-02 -2.128970e-01
<VARIANCE> 39
 2.545668e+01 3.002562e+01 6.913950e+01 6.252002e+01 4.975661e+01 5.306422e+01 5.434791e+01 3.196348e+01 7.173293e+01 4.914966e+01 6.315701e+01 4.183796e+01 1.882085e+01 7.211449e-01 2.053681e+00 5.507130e+00 2.764549e+00 4.191215e+00 2.862022e+00 3.076398e+00 4.310467e+00 4.396516e+00 3.130992e+00 2.342242e+00 2.545207e+00 7.583271e-01 6.250450e-02 1.650164e-01 2.591520e-01 4.989039e-01 3.186806e-01 4.078030e-01 3.808026e-01 4.026082e-01 4.192865e-01 3.456611e-01 3.088708e-01 3.123657e-01 5.761890e-02
<GCONST> 1.156650e+02
<TRANSP> 5
 0.000000e+00 1.000000e+00 0.000000e+00 0.000000e+00 0.000000e+00
 0.000000e+00 5.987987e-01 4.012013e-01 0.000000e+00 0.000000e+00
 0.000000e+00 0.000000e+00 8.030497e-01 1.969502e-01 0.000000e+00
 0.000000e+00 0.000000e+00 0.000000e+00 5.479900e-01 4.520100e-01
 0.000000e+00 0.000000e+00 0.000000e+00 0.000000e+00 0.000000e+00
<ENDHMM>
~h "n"
<BEGINHMM>
<NUMSTATES> 5
<STATE> 2
<MEAN> 39
 4.604134e+00 8.145050e+00 8.480865e+00 2.997405e+00 -8.805163e+00 -7.327992e+00 -5.544823e+00 -1.045407e+01 -7.334616e+00 5.918039e-01 -4.602219e+00 -5.261510e+00 7.063731e+01 6.356212e-01 -1.736743e-01 1.475309e-01 1.365581e-01 -8.309643e-01 -7.470891e-01 -2.447411e-01 -1.040895e+00 -5.148261e-01 1.198425e-01 -3.447925e-01 -2.609693e-01 7.278320e-01 -3.474675e-01 -3.189516e-01 -1.782174e-01 -1.952211e-01 2.952644e-01 1.693605e-01 1.441454e-01 6.667061e-01 3.552901e-01 -3.563170e-02 1.392576e-01 2.465274e-01 3.514015e-02
<VARIANCE> 39
 1.908940e+01 4.240092e+01 2.419068e+01 4.136822e+01 2.663918e+01 2.299903e+01 2.168488e+01 4.218119e+01 8.264098e+01 3.753769e+01 2.356251e+01 3.877369e+01 2.094712e+01 1.357476e+00 1.320499e+00 1.233803e+00 1.479569e+00 2.329803e+00 2.620587e+00 2.811874e+00 3.498671e+00 2.306278e+00 1.599523e+00 2.096477e+00 1.915843e+00 1.620178e+00 1.263150e-01 2.450230e-01 2.996786e-01 2.996349e-01 3.162130e-01 4.506153e-01 5.688351e-01 4.144236e-01 4.347749e-01 4.773481e-01 3.655443e-01 3.198735e-01 1.847861e-01
<GCONST> 1.101905e+02
<STATE> 3
<MEAN> 39
 2.856108e+00 3.155103e+00 5.929970e+00 3.610729e-01 -8.862361e+00 -1.137905e+01 -6.282941e+00 -7.861112e+00 -9.066782e+00 -1.743553e+00 -4.899748e+00 -4.714056e+00 7.514877e+01 -5.500212e-01 -1.416414e+00 -7.772363e-01 -1.385673e+00 8.893877e-01 -1.485368e-01 -5.822647e-01 2.472334e+00 1.019867e+00 -1.254295e+00 -3.998994e-01 2.496280e-01 1.338756e+00 -9.907372e-02 -5.297021e-01 -2.237914e-01 -4.465971e-01 1.298160e-01 4.785016e-01 -7.388864e-02 3.628306e-01 5.143675e-01 -2.791921e-01 -2.547088e-01 -6.783951e-03 3.148995e-01
<VARIANCE> 39
 2.590818e+01 1.902840e+01 3.145535e+01 5.116684e+01 3.885119e+01 3.262869e+01 2.294348e+01 4.263377e+01 9.283817e+01 4.535951e+01 4.852061e+01 5.550031e+01 1.365794e+01 4.032025e-01 2.000267e+00 2.716228e+00 2.367724e+00 2.107450e+00 3.181257e+00 2.974344e+00 3.394881e+00 3.538647e+00 4.172712e+00 3.233274e+00 1.756950e+00 8.620397e-01 8.717208e-02 1.894151e-01 3.149847e-01 3.364691e-01 3.624121e-01 5.298201e-01 5.102190e-01 7.383257e-01 4.383155e-01 4.746706e-01 4.996528e-01 3.082179e-01 9.264009e-02
<GCONST> 1.134979e+02
<STATE> 4
<MEAN> 39
 1.280843e+00 -5.194419e+00 3.522924e+00 -8.151719e+00 -6.582842e+00 -6.671344e+00 -8.824565e+00 -8.234339e-01 -5.890499e+00 -6.760052e+00 -9.569601e+00 -5.175067e+00 8.062437e+01 -2.689539e-01 -2.141327e+00 -8.425328e-01 -9.358618e-01 5.988032e-01 1.219014e+00 -5.518609e-02 6.502083e-01 1.737701e+00 -8.891776e-01 -8.360398e-01 1.470831e-01 1.221275e+00 1.616264e-01 3.462743e-01 4.079884e-02 5.153469e-01 -1.718764e-01 -1.692060e-02 3.071496e-01 -7.823385e-01 -2.110951e-01 3.251871e-01 1.680491e-01 -1.127578e-01 -3.565944e-01
<VARIANCE> 39
 2.594698e+01 3.228564e+01 5.475322e+01 5.071883e+01 5.889194e+01 3.829768e+01 4.669518e+01 4.059758e+01 1.395858e+02 6.332476e+01 7.483367e+01 5.670499e+01 1.369288e+01 4.965837e-01 1.868689e+00 2.525184e+00 2.631909e+00 3.054438e+00 2.880994e+00 3.928188e+00 2.942879e+00 3.064452e+00 3.796922e+00 2.605520e+00 1.979601e+00 8.689454e-01 4.050028e-02 2.778379e-01 3.436501e-01 2.636550e-01 2.642514e-01 4.909325e-01 6.049722e-01 5.930557e-01 4.728813e-01 6.443107e-01 3.915435e-01 3.242879e-01 7.281744e-02
<GCONST> 1.162303e+02
<TRANSP> 5
 0.000000e+00 1.000000e+00 0.000000e+00 0.000000e+00 0.000000e+00
 0.000000e+00 8.116667e-01 1.883332e-01 0.000000e+00 0.000000e+00
 0.000000e+00 0.000000e+00 6.995991e-01 3.004009e-01 0.000000e+00
 0.000000e+00 0.000000e+00 0.000000e+00 6.636915e-01 3.363085e-01
 0.000000e+00 0.000000e+00 0.000000e+00 0.000000e+00 0.000000e+00
<ENDHMM>
~h "o"
<BEGINHMM>
<NUMSTATES> 5
<STATE> 2
<MEAN> 39
 4.116157e+00 1.835426e+00 -1.603020e+00 -1.497117e+01 -7.328370e+00 -1.576841e+00 -1.317052e+01 -1.195675e+01 -3.463363e+00 5.241088e+00 -2.801530e-01 -1.157457e+00 7.856085e+01 2.490621e-01 4.551580e-02 -2.384628e-01 -9.086622e-01 -4.374045e-01 7.268950e-01 3.163156e-01 -3.571275e-01 -5.299160e-01 -2.014726e-01 2.114496e-01 3.122690e-01 -1.033807e-02 -3.770985e-01 1.654797e-01 1.414159e-01 5.960247e-01 4.639207e-01 -9.807239e-02 4.051104e-01 5.422891e-01 1.114715e-01 -2.402058e-01 -1.384745e-01 2.692517e-02 -4.276419e-01
<VARIANCE> 39
 3.067420e+01 3.050053e+01 3.636813e+01 4.563615e+01 5.969941e+01 7.150796e+01 5.471566e+01 4.205360e+01 4.736253e+01 8.924468e+01 5.438976e+01 3.874281e+01 1.822467e+01 5.417157e-01 1.097531e+00 1.321360e+00 3.380545e+00 2.793370e+00 2.231115e+00 3.035020e+00 2.450687e+00 2.331136e+00 2.977493e+00 2.355643e+00 2.093073e+00 8.088303e-01 2.240562e-01 2.616815e-01 2.272190e-01 4.153215e-01 5.662673e-01 4.367343e-01 6.396270e-01 5.928093e-01 5.312585e-01 6.891961e-01 4.991497e-01 4.158967e-01 1.073277e-01
<GCONST> 1.166992e+02
<STATE> 3
<MEAN> 39
 6.241678e+00 5.487000e+00 -2.321827e+00 -1.758936e+01 -1.044558e+01 1.349492e+00 -8.301955e+00 -9.595727e+00 -5.160039e+00 2.107648e-01 -9.120442e-01 7.790030e-01 7.536954e+01 -8.843580e-02 3.833793e-01 -7.145376e-02 1.944442e-01 1.548854e-01 3.147791e-02 5.094159e-01 4.021471e-01 -1.133528e-01 -2.313022e-01 -1.913062e-02 1.395233e-01 -6.561860e-01 -1.494665e-01 5.011564e-02 5.320027e-02 3.916163e-01 2.424469e-01 -1.211164e-01 7.559311e-02 1.554166e-01 7.904321e-02 8.959964e-02 7.899472e-02 -5.508016e-02 -2.093734e-01
<VARIANCE> 39
 2.797009e+01 2.541763e+01 3.911092e+01 3.532987e+01 5.799051e+01 4.783540e+01 3.461417e+01 3.522092e+01 4.457093e+01 5.042977e+01 3.337270e+01 3.666280e+01 1.665756e+01 2.176356e-01 6.450865e-01 6.021668e-01 1.620146e+00 1.393926e+00 1.146981e+00 1.436032e+00 1.329816e+00 1.406019e+00 1.564602e+00 1.515769e+00 1.290825e+00 5.540075e-01 5.158945e-02 8.780804e-02 1.267077e-01 2.086641e-01 2.421756e-01 1.916538e-01 2.145111e-01 2.442250e-01 2.662403e-01 2.568473e-01 2.637242e-01 2.456828e-01 4.546747e-02
<GCONST> 9.458698e+01
<STATE> 4
<MEAN> 39
 1.929374e+00 7.311471e+00 -1.522482e+00 -1.038275e+01 -5.924190e+00 3.004024e-01 -3.789525e+00 -4.312003e+00 -2.959146e+00 2.446429e+00 2.952006e+00 2.392506e+00 6.767210e+01 -1.149057e+00 1.400693e-02 1.592627e-01 1.246327e+00 6.749995e-01 -1.172743e-01 8.331079e-01 1.170144e+00 9.056379e-01 6.453370e-01 8.858470e-01 4.586768e-01 -1.190854e+00 -7.139893e-02 -1.952373e-01 1.086713e-02 -8.323453e-02 -5.034781e-02 -1.111256e-02 -1.107851e-01 -2.486003e-02 1.247019e-01 1.164737e-01 -1.526549e-02 4.287565e-02 2.073274e-01
<VARIANCE> 39
 2.470857e+01 3.414405e+01 1.951826e+01 4.346084e+01 3.409434e+01 3.461251e+01 3.931339e+01 4.243493e+01 3.963815e+01 4.382350e+01 4.096771e+01 3.733963e+01 2.618039e+01 1.066519e+00 1.141965e+00 1.282823e+00 2.110761e+00 2.184210e+00 1.869597e+00 2.174640e+00 2.720068e+00 2.916118e+00 2.850555e+00 2.756555e+00 2.448503e+00 8.063367e-01 1.570097e-01 1.730562e-01 2.113593e-01 3.539174e-01 3.750713e-01 3.495647e-01 4.012336e-01 4.463969e-01 4.944404e-01 5.239100e-01 5.420994e-01 4.425028e-01 1.135910e-01
<GCONST> 1.109951e+02
<TRANSP> 5
 0.000000e+00 1.000000e+00 0.000000e+00 0.000000e+00 0.000000e+00
 0.000000e+00 5.904902e-01 4.095098e-01 0.000000e+00 0.000000e+00
 0.000000e+00 0.000000e+00 8.146766e-01 1.853234e-01 0.000000e+00
 0.000000e+00 0.000000e+00 0.000000e+00 8.024680e-01 1.975320e-01
 0.000000e+00 0.000000e+00 0.000000e+00 0.000000e+00 0.000000e+00
<ENDHMM>
~h "p"
<BEGINHMM>
<NUMSTATES> 5
<STATE> 2
<MEAN> 39
 -7.158059e+00 1.494115e+00 3.705926e+00 1.460274e-01 -8.242634e-01 -1.080463e+00 -2.872426e-01 3.454652e+00 4.577460e+00 4.956555e+00 2.379287e+00 3.193495e+00 6.740137e+01 2.760338e-01 -5.632198e-01 1.330486e+00 6.708655e-02 -7.240743e-01 -1.520668e+00 -1.136826e+00 -6.145178e-01 -7.111880e-01 -7.168352e-01 -1.000507e+00 -2.396931e-01 2.080469e+00 5.959101e-01 2.433764e-01 3.419019e-01 -2.571521e-01 -5.807907e-01 -2.879734e-01 -5.197966e-01 -6.186330e-01 -5.509188e-01 -4.092534e-01 -2.569020e-01 -2.886634e-01 2.935081e-01
<VARIANCE> 39
 2.836553e+01 3.284294e+01 3.829389e+01 3.426507e+01 3.291283e+01 3.870503e+01 3.317156e+01 3.248627e+01 3.093140e+01 2.979151e+01 2.903217e+01 2.793259e+01 5.228344e+01 4.093513e+00 4.056871e+00 4.675404e+00 3.361129e+00 5.033836e+00 5.456989e+00 4.432571e+00 4.532611e+00 4.533285e+00 3.723813e+00 3.223823e+00 2.916947e+00 3.368476e+00 3.889509e-01 6.781923e-01 5.914618e-01 6.542736e-01 8.462927e-01 8.751978e-01 7.242008e-01 6.725408e-01 6.075242e-01 6.169221e-01 6.099373e-01 5.011190e-01 5.540645e-01
<GCONST> 1.294075e+02
<STATE> 3
<MEAN> 39
 -1.766230e+00 2.799683e+00 9.571754e+00 2.909479e-01 -6.557736e+00 -8.469218e+00 -7.264594e+00 -3.018934e+00 -2.494209e+00 -6.851747e-01 -2.979383e+00 -3.654329e-01 7.382579e+01 2.356180e+00 1.745082e-01 1.977671e+00 -1.455414e+00 -3.498184e+00 -1.971514e+00 -2.822818e+00 -2.663739e+00 -2.121958e+00 -1.568189e+00 -9.914002e-01 -9.651753e-01 2.600087e+00 -2.263704e-01 -1.638524e-01 -3.220257e-01 -4.589486e-01 -8.788194e-02 6.817404e-01 2.829628e-01 2.018021e-01 3.797236e-01 2.681833e-01 4.984421e-01 1.410933e-01 -3.819342e-01
<VARIANCE> 39
 5.160125e+01 3.183369e+01 6.712151e+01 4.336442e+01 4.190518e+01 4.959628e+01 3.823733e+01 3.294141e+01 3.485675e+01 2.570058e+01 2.465192e+01 2.214965e+01 2.520960e+01 1.722427e+00 4.359249e+00 6.479680e+00 6.108907e+00 5.915742e+00 7.692743e+00 5.275529e+00 4.484189e+00 4.485785e+00 5.047864e+00 4.647532e+00 3.848934e+00 2.502085e+00 4.176429e-01 4.443715e-01 3.878890e-01 4.481067e-01 7.497327e-01 7.308699e-01 6.152973e-01 5.415677e-01 5.266953e-01 4.835801e-01 5.174093e-01 4.367007e-01 3.013568e-01
<GCONST> 1.285711e+02
<STATE> 4
<MEAN> 39
 6.756176e-01 2.533575e-01 1.058527e+01 -4.778420e+00 -1.249342e+01 -9.974425e+00 -1.065603e+01 -5.700146e+00 -3.034522e+00 -7.882502e-01 -2.695669e+00 -1.116650e+00 7.828515e+01 1.030131e+00 -5.716045e-01 9.670048e-01 -1.916496e+00 -2.514671e+00 -5.394622e-01 -1.579532e+00 -1.365580e+00 -7.568262e-01 -6.896538e-01 -2.253934e-01 -5.112844e-01 1.777523e+00 -7.495543e-01 -9.533572e-02 -4.948342e-01 1.992054e-01 8.470986e-01 7.591581e-01 7.974966e-01 7.466644e-01 5.802374e-01 3.513858e-01 3.676998e-01 2.697900e-01 -6.802448e-01
<VARIANCE> 39
 4.467936e+01 4.763453e+01 1.022476e+02 6.996189e+01 5.172826e+01 8.755483e+01 5.092422e+01 3.760377e+01 5.376569e+01 4.717071e+01 4.606316e+01 3.727599e+01 2.282680e+01 1.567465e+00 3.168229e+00 3.540348e+00 4.301264e+00 4.598473e+00 5.545209e+00 4.822856e+00 3.603954e+00 3.715132e+00 4.591566e+00 4.625352e+00 3.571150e+00 1.095007e+00 1.847430e-01 4.042381e-01 4.857395e-01 5.149856e-01 5.593860e-01 7.554433e-01 5.332726e-01 5.061183e-01 5.004219e-01 4.661813e-01 4.443022e-01 3.717318e-01 2.261468e-01
<GCONST> 1.278635e+02
<TRANSP> 5
 0.000000e+00 1.000000e+00 0.000000e+00 0.000000e+00 0.000000e+00
 0.000000e+00 7.453886e-01 2.546113e-01 0.000000e+00 0.000000e+00
 0.000000e+00 0.000000e+00 2.823112e-01 7.176888e-01 0.000000e+00
 0.000000e+00 0.000000e+00 0.000000e+00 1.771155e-01 8.228845e-01
 0.000000e+00 0.000000e+00 0.000000e+00 0.000000e+00 0.000000e+00
<ENDHMM>
~h "s"
<BEGINHMM>
<NUMSTATES> 5
<STATE> 2
<MEAN> 39
 -1.886960e+01 5.478493e+00 9.031975e-01 -3.259405e+00 2.567775e+00 -4.113597e+00 1.106219e+00 3.852120e+00 4.725802e+00 5.213599e+00 2.959612e+00 3.198515e+00 7.421663e+01 -5.321223e-01 -6.074844e-02 -1.471540e-01 -5.335867e-02 7.521939e-02 1.548386e-01 1.259617e-01 1.657431e-01 2.832534e-01 2.666971e-01 2.167899e-01 1.958061e-01 1.081829e-01 3.909387e-01 -4.747854e-02 1.713815e-01 3.074061e-02 -1.019537e-01 -2.365833e-02 -1.620335e-01 -1.577734e-01 -1.306535e-01 -1.478041e-01 -1.463830e-01 -1.236308e-01 -6.728499e-02
<VARIANCE> 39
 2.924924e+01 1.619928e+01 3.516432e+01 3.143576e+01 3.303980e+01 3.862745e+01 4.240197e+01 3.883649e+01 3.176770e+01 2.972287e+01 2.948105e+01 3.490971e+01 2.656675e+01 1.161055e+00 6.971570e-01 1.049939e+00 9.945043e-01 1.249778e+00 1.414931e+00 1.577349e+00 1.744541e+00 1.745680e+00 1.781459e+00 1.768286e+00 1.479826e+00 4.999316e-01 1.740484e-01 1.302924e-01 1.706596e-01 2.075210e-01 2.622576e-01 3.221720e-01 3.587868e-01 3.801428e-01 3.828747e-01 3.768791e-01 3.630665e-01 3.116051e-01 5.088601e-02
<GCONST> 1.006045e+02
<STATE> 3
<MEAN> 39
 -1.671147e+01 3.950084e+00 3.384009e+00 -2.592318e+00 3.145897e+00 -2.433010e+00 1.336653e+00 3.952678e+00 5.533186e+00 5.375207e+00 2.469524e+00 3.503197e+00 7.252340e+01 3.424009e+00 3.321096e-01 1.466895e+00 -9.109565e-02 -1.442430e+00 -1.313789e+00 -2.420294e+00 -2.161916e+00 -1.841436e+00 -1.678393e+00 -1.655269e+00 -1.497211e+00 3.626150e-01 1.038711e+00 -1.631735e-02 1.385281e-01 -2.782600e-01 -8.815603e-01 -5.171883e-01 -9.501551e-01 -7.254915e-01 -6.212804e-01 -4.507588e-01 -3.353338e-01 -3.978448e-01 5.083526e-01
<VARIANCE> 39
 3.934524e+01 1.469766e+01 3.569207e+01 3.050504e+01 2.785882e+01 3.818769e+01 4.510835e+01 3.488869e+01 3.349863e+01 3.024446e+01 3.044356e+01 3.413770e+01 2.268517e+01 2.763148e+00 1.556846e+00 2.673507e+00 2.792904e+00 3.333805e+00 4.364683e+00 4.064109e+00 3.468216e+00 3.029027e+00 2.754663e+00 2.477572e+00 2.412936e+00 8.649032e-01 2.531689e-01 3.220819e-01 4.394520e-01 5.160646e-01 4.029607e-01 7.254698e-01 6.225669e-01 5.700879e-01 5.697752e-01 5.523591e-01 5.872419e-01 4.738538e-01 1.024980e-01
<GCONST> 1.179380e+02
<STATE> 4
<MEAN> 39
 -2.643739e+00 4.968720e+00 6.721354e+00 -4.510200e+00 -5.578380e+00 -9.700416e+00 -1.034448e+01 -5.649732e+00 -2.126149e+00 -8.412811e-01 -3.695752e+00 -2.727126e+00 7.668345e+01 3.829070e+00 -1.178345e+00 7.388461e-01 -1.473718e+00 -3.209594e+00 -1.233168e+00 -2.959195e+00 -2.074404e+00 -1.686122e+00 -1.314472e+00 -9.428779e-01 -1.300948e+00 1.876079e+00 -9.814352e-01 -4.044109e-01 -3.584396e-01 -1.469854e-01 2.801553e-01 6.826850e-01 8.761818e-01 7.439596e-01 4.936682e-01 4.222738e-01 6.605206e-01 5.028394e-01 -3.806122e-02
<VARIANCE> 39
 5.750586e+01 3.023276e+01 7.726579e+01 4.127330e+01 6.416447e+01 7.756032e+01 4.065182e+01 3.545296e+01 3.810065e+01 3.860005e+01 2.961477e+01 3.299346e+01 2.924435e+01 2.443479e+00 3.259217e+00 5.602402e+00 4.991854e+00 4.401242e+00 7.505673e+00 6.086428e+00 5.151409e+00 4.844027e+00 5.082026e+00 5.029722e+00 3.497320e+00 7.261534e-01 3.406768e-01 2.795578e-01 2.498133e-01 4.035430e-01 6.740172e-01 6.054336e-01 6.362090e-01 4.803389e-01 4.256895e-01 5.046674e-01 4.384905e-01 4.145908e-01 2.051822e-01
<GCONST> 1.270903e+02
<TRANSP> 5
 0.000000e+00 1.000000e+00 0.000000e+00 0.000000e+00 0.000000e+00
 0.000000e+00 8.997014e-01 1.002986e-01 0.000000e+00 0.000000e+00
 0.000000e+00 0.000000e+00 5.950770e-01 4.049229e-01 0.000000e+00
 0.000000e+00 0.000000e+00 0.000000e+00 5.737242e-01 4.262758e-01
 0.000000e+00 0.000000e+00 0.000000e+00 0.000000e+00 0.000000e+00
<ENDHMM>
~h "t"
<BEGINHMM>
<NUMSTATES> 5
<STATE> 2
<MEAN> 39
 -1.085558e+01 3.871249e+00 1.188361e+00 -3.205958e+00 1.938195e+00 -1.343811e+00 -3.588636e-01 3.228219e+00 4.726622e+00 4.913205e+00 3.215410e+00 3.134903e+00 7.017628e+01 2.220170e-01 -4.228125e-01 3.957067e-01 -5.770082e-01 -4.378285e-01 -1.212182e+00 -1.196482e+00 -5.806036e-01 -2.262828e-01 -7.850784e-01 -1.019552e+00 -5.780770e-01 2.074043e+00 7.892967e-01 -1.301520e-01 2.336623e-01 -1.128673e-01 -5.200155e-01 -1.538648e-01 -4.621469e-01 -4.203988e-01 -2.631130e-01 -3.620540e-01 -4.164619e-01 -4.202662e-01 1.679460e-01
<VARIANCE> 39
 3.938440e+01 2.196348e+01 3.183153e+01 3.557227e+01 4.117368e+01 4.065594e+01 3.532815e+01 3.515717e+01 3.020432e+01 3.022187e+01 2.658920e+01 2.868566e+01 4.632208e+01 4.894992e+00 2.343933e+00 3.486152e+00 3.392560e+00 4.939099e+00 4.630251e+00 4.267050e+00 4.049439e+00 3.851865e+00 3.710898e+00 3.722912e+00 3.335380e+00 3.857022e+00 5.178738e-01 4.627184e-01 4.975475e-01 6.407813e-01 6.967567e-01 8.742393e-01 7.026145e-01 6.696620e-01 6.624261e-01 5.863600e-01 6.560720e-01 5.535466e-01 4.800169e-01
<GCONST> 1.282131e+02
<STATE> 3
<MEAN> 39
 -2.818474e+00 3.511842e+00 4.238045e+00 -5.089044e+00 -4.512794e+00 -8.181627e+00 -8.770562e+00 -2.630078e+00 1.434869e+00 -8.450164e-01 -4.478142e+00 -2.551182e+00 7.664308e+01 3.434473e+00 -1.663103e+00 6.548195e-01 -1.554795e+00 -2.642140e+00 -1.059615e+00 -2.626273e+00 -1.809404e+00 -7.104721e-01 -1.372126e+00 -2.181954e+00 -2.079909e+00 2.517684e+00 -2.053618e-01 -4.201899e-01 -2.999046e-01 -2.434970e-02 2.245878e-01 8.910647e-01 6.621667e-01 3.171881e-01 1.402228e-01 3.800426e-01 5.616724e-01 2.464056e-01 -4.530156e-01
<VARIANCE> 39
 5.679042e+01 3.157958e+01 5.694835e+01 3.420077e+01 4.969230e+01 5.474622e+01 3.554712e+01 3.613803e+01 4.829858e+01 3.319098e+01 2.742467e+01 4.215593e+01 2.578287e+01 1.384263e+00 3.985564e+00 6.066894e+00 5.801124e+00 6.217543e+00 7.870482e+00 5.584972e+00 5.787078e+00 7.185318e+00 5.003183e+00 6.433596e+00 5.521410e+00 1.704625e+00 4.542184e-01 3.042503e-01 3.117602e-01 4.387281e-01 7.350484e-01 6.036252e-01 6.279599e-01 5.618737e-01 4.749636e-01 5.418066e-01 5.017486e-01 4.951721e-01 3.628407e-01
<GCONST> 1.302265e+02
<STATE> 4
<MEAN> 39
 5.226390e-01 -2.341473e+00 3.658938e+00 -8.651463e+00 -7.867462e+00 -6.439523e+00 -1.043229e+01 -3.352479e+00 2.412076e+00 -1.047697e+00 -4.879526e+00 -4.637219e+00 8.068555e+01 1.754344e+00 -2.109840e+00 -1.969669e-01 -1.244403e+00 -1.357854e+00 6.194633e-01 -6.193324e-01 -7.654493e-01 -3.263290e-01 -6.069859e-01 -4.975062e-01 -9.294252e-01 1.627747e+00 -9.188545e-01 2.863181e-01 -3.239359e-01 4.013264e-01 7.884331e-01 5.791901e-01 9.834846e-01 4.673106e-01 2.770500e-02 3.700351e-01 7.090841e-01 6.322789e-01 -7.282088e-01
<VARIANCE> 39
 4.876707e+01 5.093559e+01 9.928843e+01 5.264146e+01 6.323108e+01 8.740974e+01 4.949216e+01 5.121067e+01 9.061954e+01 5.821090e+01 6.020972e+01 6.936182e+01 2.322552e+01 1.507833e+00 2.794655e+00 4.092091e+00 3.095939e+00 7.012258e+00 5.401192e+00 4.525814e+00 4.105456e+00 3.723616e+00 4.251815e+00 4.666922e+00 3.493689e+00 8.114514e-01 1.727302e-01 4.537563e-01 4.189281e-01 5.982524e-01 5.122471e-01 7.951747e-01 6.811324e-01 6.927234e-01 8.580269e-01 6.229506e-01 6.701789e-01 6.043776e-01 2.090720e-01
<GCONST> 1.317687e+02
<TRANSP> 5
 0.000000e+00 1.000000e+00 0.000000e+00 0.000000e+00 0.000000e+00
 0.000000e+00 7.764949e-01 2.235051e-01 0.000000e+00 0.000000e+00
 0.000000e+00 0.000000e+00 3.349186e-01 6.650814e-01 0.000000e+00
 0.000000e+00 0.000000e+00 0.000000e+00 1.414255e-01 8.585745e-01
 0.000000e+00 0.000000e+00 0.000000e+00 0.000000e+00 0.000000e+00
<ENDHMM>
~h "u"
<BEGINHMM>
<NUMSTATES> 5
<STATE> 2
<MEAN> 39
 5.103394e+00 8.037848e+00 7.839987e-01 -1.064884e+01 -8.639162e+00 -3.633892e+00 -1.012229e+01 -1.047453e+01 -1.028660e+01 -3.606079e+00 -5.504099e+00 -3.807977e+00 7.348849e+01 -6.896374e-02 -2.874865e-01 1.092727e-01 4.119199e-01 1.537971e-01 5.524218e-02 -4.813398e-01 -4.237460e-01 -2.685685e-01 2.805126e-02 2.769025e-01 -1.741276e-01 -6.312941e-02 -2.807933e-01 -8.124254e-02 1.812763e-01 4.402312e-01 3.351347e-01 -1.043746e-01 2.195690e-03 3.146578e-01 4.224540e-01 1.591968e-01 -1.151473e-02 -4.244095e-02 -1.244434e-01
<VARIANCE> 39
 2.318314e+01 2.723993e+01 3.365442e+01 4.142930e+01 5.043031e+01 5.122365e+01 4.355210e+01 5.126763e+01 3.280264e+01 5.859784e+01 5.171196e+01 3.602596e+01 1.734758e+01 4.366335e-01 1.147840e+00 9.982522e-01 2.267897e+00 2.018603e+00 2.012582e+00 3.096195e+00 2.653069e+00 2.668203e+00 2.589420e+00 2.373832e+00 1.905553e+00 4.379457e-01 1.258542e-01 1.959073e-01 2.046730e-01 3.328086e-01 3.881130e-01 3.464036e-01 4.536575e-01 6.841787e-01 5.182827e-01 5.448283e-01 4.848731e-01 3.689639e-01 6.429886e-02
<GCONST> 1.098329e+02
<STATE> 3
<MEAN> 39
 2.738991e+00 5.537006e+00 5.770359e+00 -3.587291e+00 -5.104505e+00 -5.850906e+00 -1.454877e+01 -1.061031e+01 -6.619815e+00 -1.529913e+00 -5.570330e+00 -5.170721e+00 7.351575e+01 -1.042900e+00 7.016163e-01 1.213856e+00 1.526114e+00 7.266448e-01 -4.652394e-01 9.352729e-01 1.703474e+00 1.136486e+00 -3.919837e-01 -3.366406e-01 -3.543046e-01 -8.539013e-01 -1.922361e-01 3.563899e-01 -1.668497e-01 -2.603280e-01 -5.109876e-03 1.705209e-01 6.638517e-01 4.063239e-01 6.206818e-03 -9.692974e-02 1.377040e-01 2.586192e-01 -2.166866e-01
<VARIANCE> 39
 2.598118e+01 3.933274e+01 4.160867e+01 4.361949e+01 4.269221e+01 7.294632e+01 5.819384e+01 4.462642e+01 3.936137e+01 4.696781e+01 5.599823e+01 2.776664e+01 2.579196e+01 1.499917e+00 2.595822e+00 2.448457e+00 2.134104e+00 3.916582e+00 2.490082e+00 4.486310e+00 4.585243e+00 3.594825e+00 4.064406e+00 2.967722e+00 2.403875e+00 9.704075e-01 1.617946e-01 4.104725e-01 4.362317e-01 3.788621e-01 5.344715e-01 4.899640e-01 8.435578e-01 7.898538e-01 6.866613e-01 7.186912e-01 5.604898e-01 4.545649e-01 1.261921e-01
<GCONST> 1.226671e+02
<STATE> 4
<MEAN> 39
 -1.065492e+00 9.558249e+00 5.876903e+00 -2.619787e+00 -4.865330e+00 -4.629559e+00 -6.122902e+00 -3.215917e+00 -3.086016e+00 -2.335427e+00 -3.297295e+00 -2.692292e+00 6.813910e+01 -1.360254e+00 -9.848186e-02 -8.347377e-02 3.662574e-01 5.846453e-01 2.913555e-01 9.622680e-01 1.133444e+00 1.004993e+00 6.928245e-01 8.531582e-01 7.076375e-01 -7.290480e-01 3.678132e-03 -2.403519e-01 -1.263251e-01 -1.248491e-01 -1.239403e-01 3.608020e-03 -1.062996e-01 -2.245055e-01 -5.996052e-02 1.634797e-01 8.533806e-02 8.389199e-02 2.223905e-01
<VARIANCE> 39
 3.591124e+01 4.351051e+01 3.008078e+01 2.801956e+01 3.086625e+01 3.433169e+01 3.282508e+01 2.832209e+01 2.677676e+01 2.923189e+01 2.993976e+01 3.100712e+01 4.278026e+01 1.436158e+00 1.699434e+00 9.999942e-01 1.641621e+00 1.646021e+00 1.979485e+00 2.434643e+00 2.696681e+00 2.371771e+00 2.703950e+00 2.622020e+00 1.956634e+00 6.363170e-01 1.837741e-01 2.334912e-01 2.459474e-01 3.700141e-01 3.724335e-01 3.634602e-01 3.589606e-01 4.821838e-01 3.977537e-01 5.019545e-01 4.861159e-01 3.711487e-01 1.005434e-01
<GCONST> 1.093933e+02
<TRANSP> 5
 0.000000e+00 1.000000e+00 0.000000e+00 0.000000e+00 0.000000e+00
 0.000000e+00 8.067214e-01 1.932786e-01 0.000000e+00 0.000000e+00
 0.000000e+00 0.000000e+00 6.471141e-01 3.528859e-01 0.000000e+00
 0.000000e+00 0.000000e+00 0.000000e+00 7.264427e-01 2.735573e-01
 0.000000e+00 0.000000e+00 0.000000e+00 0.000000e+00 0.000000e+00
<ENDHMM>
~h "v"
<BEGINHMM>
<NUMSTATES> 5
<STATE> 2
<MEAN> 39
 -1.011228e+00 6.506824e+00 7.582837e+00 4.816711e+00 -1.937998e+00 -7.917251e+00 -9.051422e+00 -3.765072e+00 -5.597721e-01 5.934339e-01 -4.070896e+00 -2.018013e+00 7.152974e+01 3.314269e-02 -1.109314e-01 2.683020e-01 -4.339760e-02 -3.539538e-01 -5.954338e-01 -3.274517e-01 -4.189028e-01 -2.744776e-01 -1.769351e-01 -5.446033e-02 1.170121e-01 8.408015e-01 -1.221316e-02 -3.411647e-01 -1.527968e-02 -2.375517e-01 -2.490418e-01 5.737293e-02 1.660616e-01 6.789708e-02 7.830606e-02 5.700179e-02 2.350388e-01 1.685976e-01 6.549512e-02
<VARIANCE> 39
 3.362869e+01 2.430651e+01 1.890998e+01 2.257659e+01 2.285457e+01 3.500013e+01 2.963483e+01 2.128808e+01 2.787628e+01 2.643858e+01 2.304541e+01 2.397549e+01 2.559674e+01 2.050526e+00 1.904694e+00 1.239848e+00 1.220094e+00 2.701954e+00 3.789851e+00 3.009324e+00 1.622297e+00 1.644141e+00 1.704799e+00 1.822248e+00 1.687543e+00 1.398116e+00 4.366766e-01 3.353652e-01 2.594070e-01 2.558450e-01 6.351129e-01 6.648735e-01 6.254162e-01 3.370011e-01 3.396931e-01 4.281240e-01 3.263730e-01 3.182165e-01 2.141820e-01
<GCONST> 1.091219e+02
<STATE> 3
<MEAN> 39
 -7.685900e-01 2.395752e+00 8.614839e+00 1.955799e+00 -7.281127e+00 -1.248246e+01 -9.987906e+00 -4.974124e+00 -1.831662e+00 -4.988690e-02 -2.838950e+00 9.319206e-02 7.660525e+01 8.698544e-01 -1.608027e+00 3.477973e-01 -1.588285e+00 -2.150852e+00 -5.558133e-01 -3.692763e-01 -4.415433e-01 2.713291e-02 3.474314e-02 7.849509e-01 3.245448e-01 1.223024e+00 1.818229e-03 -4.135770e-02 1.563404e-03 -3.634748e-01 -1.410374e-01 3.665163e-01 6.785541e-02 9.391277e-02 6.514245e-02 -6.694238e-02 -7.088402e-03 -1.713783e-01 -2.277592e-03
<VARIANCE> 39
 3.373014e+01 1.715999e+01 4.307866e+01 3.129311e+01 3.107194e+01 4.784418e+01 2.634636e+01 1.970842e+01 3.162206e+01 2.066113e+01 2.342473e+01 2.138550e+01 1.828428e+01 9.792411e-01 1.703833e+00 2.714458e+00 2.149514e+00 3.796531e+00 3.260846e+00 1.953677e+00 2.085879e+00 1.695924e+00 3.665233e+00 1.510759e+00 1.479733e+00 7.209077e-01 1.643849e-01 2.053133e-01 1.619583e-01 2.032456e-01 3.417594e-01 3.764001e-01 3.393295e-01 2.729149e-01 2.916391e-01 3.347301e-01 3.304655e-01 2.069806e-01 8.281290e-02
<GCONST> 1.041741e+02
<STATE> 4
<MEAN> 39
 -1.100617e+00 -1.092269e+00 9.451564e+00 -8.254494e+00 -1.327102e+01 -1.393346e+01 -8.601460e+00 -5.856312e+00 -2.856477e+00 3.637811e+00 -2.940812e+00 -2.696907e-01 8.029887e+01 9.550580e-02 -7.247483e-01 1.544014e-01 -1.410407e+00 -8.912852e-01 4.035303e-01 1.301879e-01 -2.935958e-02 2.498198e-01 -9.603707e-02 6.383088e-02 -3.008997e-01 6.204313e-01 -1.511055e-01 2.453407e-01 -9.058549e-02 2.490087e-01 3.574508e-01 2.275815e-01 1.102268e-01 1.235991e-01 -3.504046e-02 -2.576479e-01 -1.033709e-01 -1.145679e-01 -2.137079e-01
<VARIANCE> 39
 3.569637e+01 2.013707e+01 4.468651e+01 8.082813e+01 4.902781e+01 6.736649e+01 2.549382e+01 2.709547e+01 4.229834e+01 4.038222e+01 2.652813e+01 2.449535e+01 1.743699e+01 8.141029e-01 8.476944e-01 1.706615e+00 1.995026e+00 2.417412e+00 1.728575e+00 2.165133e+00 1.319308e+00 1.362298e+00 2.193369e+00 1.626432e+00 1.191201e+00 4.508593e-01 7.677826e-02 1.713313e-01 1.120065e-01 2.040654e-01 2.922324e-01 2.372978e-01 2.548604e-01 2.868060e-01 2.005606e-01 3.002595e-01 1.934593e-01 1.892537e-01 6.305461e-02
<GCONST> 9.988381e+01
<TRANSP> 5
 0.000000e+00 1.000000e+00 0.000000e+00 0.000000e+00 0.000000e+00
 0.000000e+00 8.154341e-01 1.845659e-01 0.000000e+00 0.000000e+00
 0.000000e+00 0.000000e+00 5.947389e-01 4.052611e-01 0.000000e+00
 0.000000e+00 0.000000e+00 0.000000e+00 5.890660e-01 4.109341e-01
 0.000000e+00 0.000000e+00 0.000000e+00 0.000000e+00 0.000000e+00
<ENDHMM>
~h "y"
<BEGINHMM>
<NUMSTATES> 5
<STATE> 2
<MEAN> 39
 8.896974e-01 -2.960438e-02 1.363002e+01 1.067025e+01 -1.175132e+01 -1.683376e+01 -1.483554e+01 -2.776108e+00 -6.339157e+00 -5.402714e+00 -3.917011e+00 1.149131e+00 7.562184e+01 3.794913e-01 -7.165743e-01 -2.984688e-01 -1.286431e-01 -1.067872e+00 -3.306093e-01 -1.220057e+00 -1.502285e-01 -2.693059e-01 1.548915e-01 -7.422462e-02 1.139573e-01 6.511914e-01 -1.632516e-01 1.025084e-01 -2.810393e-01 -3.146637e-01 4.285037e-01 5.493249e-01 2.911242e-01 -6.512824e-02 2.629518e-01 4.472881e-01 -7.815290e-02 -3.518533e-01 -2.205826e-01
<VARIANCE> 39
 1.899656e+01 1.773182e+01 2.531859e+01 5.354516e+01 2.954729e+01 2.772006e+01 5.597787e+01 2.276745e+01 3.692212e+01 6.254589e+01 2.411201e+01 2.098689e+01 1.656447e+01 6.306866e-01 4.928613e-01 1.826542e+00 1.681536e+00 2.847000e+00 1.982149e+00 1.699591e+00 2.041012e+00 3.760983e+00 4.237679e+00 2.103412e+00 2.173599e+00 3.204411e-01 1.730354e-01 1.465050e-01 2.196684e-01 1.595592e-01 3.921102e-01 3.450481e-01 2.942172e-01 3.018556e-01 4.445994e-01 5.271398e-01 4.110935e-01 3.521713e-01 6.344564e-02
<GCONST> 1.038360e+02
<STATE> 3
<MEAN> 39
 4.152464e-01 -3.445690e+00 9.148196e+00 3.704935e+00 -1.288975e+01 -1.594065e+01 -1.507443e+01 -4.185410e+00 -7.994041e+00 7.174014e-01 -7.191189e+00 -2.503682e+00 7.851289e+01 2.088632e-01 -1.532754e-04 -8.682111e-01 -9.850337e-01 5.711848e-01 7.566665e-01 2.795776e-01 -8.038879e-01 5.547650e-01 9.345925e-01 4.568234e-02 -1.946257e-01 -1.545922e-01 -7.633379e-02 3.235552e-01 3.761936e-02 -5.999940e-02 2.038697e-01 1.732257e-01 3.872619e-01 -6.305989e-02 -6.304590e-02 -1.827793e-01 1.318719e-01 2.274168e-01 -2.577092e-01
<VARIANCE> 39
 2.392625e+01 2.050948e+01 4.910658e+01 7.285535e+01 3.108414e+01 5.770580e+01 7.415192e+01 5.126034e+01 8.980623e+01 9.257291e+01 3.853538e+01 3.383792e+01 1.792713e+01 2.707776e-01 7.851586e-01 1.287235e+00 1.854009e+00 1.074303e+00 2.267523e+00 2.782058e+00 2.516059e+00 2.281677e+00 3.666169e+00 2.230497e+00 2.464777e+00 4.442598e-01 5.575497e-02 1.177723e-01 1.488336e-01 2.676945e-01 2.068299e-01 3.835856e-01 4.298876e-01 4.543613e-01 4.170378e-01 6.172543e-01 4.193438e-01 4.410408e-01 3.458102e-02
<GCONST> 1.072256e+02
<STATE> 4
<MEAN> 39
 -2.226754e-01 2.925624e+00 1.027522e+01 4.745563e+00 -1.052313e+01 -1.263619e+01 -7.740149e+00 -4.956607e+00 -7.615109e+00 -2.800400e+00 -6.865714e-01 4.184433e-01 7.002916e+01 -4.413440e-01 6.795876e-01 -8.346901e-01 -5.698045e-01 9.959506e-01 1.198978e+00 1.135606e+00 4.603876e-01 6.214004e-01 2.459589e-01 3.024648e-01 3.274148e-01 -1.089304e+00 -8.432786e-02 -8.929917e-02 8.180362e-03 2.829172e-02 2.500864e-02 9.150483e-02 -2.416664e-02 2.164997e-01 1.754353e-01 -2.987549e-02 1.329278e-02 1.745472e-02 2.727021e-02
<VARIANCE> 39
 2.342124e+01 3.190545e+01 4.735267e+01 5.480103e+01 3.159950e+01 6.522395e+01 3.639502e+01 4.981879e+01 3.424489e+01 5.756820e+01 3.923727e+01 2.584549e+01 3.278274e+01 6.124617e-01 1.401200e+00 9.103326e-01 2.034898e+00 1.859783e+00 3.081152e+00 2.573503e+00 2.529523e+00 3.099681e+00 2.970958e+00 2.724976e+00 2.458370e+00 4.170063e-01 7.680302e-02 2.022969e-01 1.873038e-01 2.554089e-01 2.957793e-01 5.045417e-01 4.157930e-01 5.300524e-01 5.242261e-01 5.164756e-01 5.046957e-01 5.341977e-01 6.544725e-02
<GCONST> 1.106541e+02
<TRANSP> 5
 0.000000e+00 1.000000e+00 0.000000e+00 0.000000e+00 0.000000e+00
 0.000000e+00 7.103759e-01 2.896241e-01 0.000000e+00 0.000000e+00
 0.000000e+00 0.000000e+00 7.551621e-01 2.448379e-01 0.000000e+00
 0.000000e+00 0.000000e+00 0.000000e+00 7.980095e-01 2.019906e-01
 0.000000e+00 0.000000e+00 0.000000e+00 0.000000e+00 0.000000e+00
<ENDHMM>
~h "sp"
<BEGINHMM>
<NUMSTATES> 3
<STATE> 2
~s "silst"
<TRANSP> 3
 0.000000e+00 3.050838e-01 6.949162e-01
 0.000000e+00 3.923980e-01 6.076020e-01
 0.000000e+00 0.000000e+00 0.000000e+00
<ENDHMM>
~h "sil"
<BEGINHMM>
<NUMSTATES> 5
<STATE> 2
<MEAN> 39
 -5.724893e+00 4.967277e+00 1.347723e+00 -1.434425e-01 -4.115848e-02 2.323653e+00 1.701306e+00 3.425393e+00 4.308110e+00 5.637779e+00 5.156367e+00 3.757466e+00 6.159801e+01 -2.506307e-01 -2.756868e-02 -4.485060e-02 1.268331e-01 2.009486e-01 9.519311e-02 1.288783e-01 2.328416e-01 2.379123e-01 2.424292e-01 2.161499e-01 1.915622e-01 -1.937019e-01 7.140988e-02 1.069319e-02 4.796335e-02 -5.537326e-03 -1.554416e-02 -4.215495e-02 -7.296377e-02 -9.782487e-02 -1.006687e-01 -1.100206e-01 -1.269666e-01 -9.022799e-02 1.140220e-01
<VARIANCE> 39
 1.082572e+01 2.632928e+01 2.600042e+01 3.390588e+01 3.592991e+01 3.529980e+01 2.592697e+01 2.450549e+01 2.477778e+01 2.575456e+01 2.576712e+01 2.851927e+01 2.611407e+01 3.166341e-01 3.591772e-01 5.823369e-01 7.743415e-01 9.827679e-01 1.176871e+00 1.299087e+00 1.439667e+00 1.539771e+00 1.611773e+00 1.623070e+00 1.416698e+00 2.698022e-01 4.647749e-02 6.043110e-02 9.718805e-02 1.259927e-01 1.604798e-01 1.909904e-01 2.219110e-01 2.389752e-01 2.663322e-01 2.708743e-01 2.680588e-01 2.437671e-01 2.832243e-02
<GCONST> 8.664358e+01
<STATE> 3
~s "silst"
<STATE> 4
<MEAN> 39
 -6.591642e+00 4.309973e+00 2.212865e+00 6.196026e-01 1.581365e+00 2.055310e+00 8.792280e-01 2.783061e+00 3.641595e+00 4.447078e+00 3.096796e+00 2.151575e+00 6.266129e+01 4.149939e-01 1.670191e-01 2.879840e-01 -1.943905e-01 -2.300203e-01 -8.546330e-01 -8.258680e-01 -6.937131e-01 -5.949259e-01 -5.168804e-01 -7.116487e-01 -4.928522e-01 1.067347e+00 1.519229e-01 -2.095165e-02 -1.448107e-02 -1.526746e-01 -2.224429e-01 -2.347562e-01 -1.979229e-01 -1.445514e-01 -7.355662e-02 -1.726467e-02 -3.982655e-02 -3.370435e-02 2.975701e-01
<VARIANCE> 39
 1.532369e+01 2.922230e+01 2.744827e+01 3.626225e+01 3.584900e+01 3.611497e+01 2.890007e+01 2.910456e+01 2.845830e+01 3.030739e+01 2.931380e+01 2.996072e+01 2.887605e+01 3.092438e+00 1.929780e+00 1.866883e+00 1.993968e+00 2.237083e+00 3.081927e+00 3.411911e+00 3.746896e+00 3.432148e+00 3.020770e+00 2.817664e+00 2.530769e+00 1.862316e+00 2.176132e-01 1.611144e-01 1.927457e-01 2.417317e-01 2.865488e-01 3.946393e-01 3.510680e-01 3.192974e-01 3.135389e-01 3.186492e-01 2.977467e-01 2.619688e-01 2.321544e-01
<GCONST> 1.108909e+02
<TRANSP> 5
 0.000000e+00 1.000000e+00 0.000000e+00 0.000000e+00 0.000000e+00
 0.000000e+00 6.901848e-01 1.260995e-01 1.837157e-01 0.000000e+00
 0.000000e+00 0.000000e+00 4.103111e-01 5.896890e-01 0.000000e+00
 0.000000e+00 1.914349e-02 0.000000e+00 2.334240e-01 7.474325e-01
 0.000000e+00 0.000000e+00 0.000000e+00 0.000000e+00 0.000000e+00
<ENDHMM>
