~o
<STREAMINFO> 1 39
<VECSIZE> 39<NULLD><MFCC_D_A_0><DIAGC>
~h "proto"
<BEGINHMM>
<NUMSTATES> 5
<STATE> 2
<MEAN> 39
 -2.606464e+00 2.430137e+00 3.301190e+00 -3.898352e+00 -4.169756e+00 -3.003997e+00 -4.460319e+00 -2.002325e+00 -4.768140e-02 9.441738e-01 -4.510306e-01 -8.475977e-01 7.204881e+01 5.120692e-02 -2.250472e-02 -3.112543e-02 -7.730602e-02 -7.614411e-02 -3.709097e-02 -2.216845e-02 -1.563563e-02 -8.756862e-03 -4.753027e-03 1.864554e-02 5.910262e-03 4.635912e-02 -1.095988e-03 -1.044358e-03 -1.723763e-03 6.318534e-03 4.132901e-03 7.926364e-03 6.331793e-03 5.694189e-03 4.073125e-03 3.462731e-03 5.325687e-03 3.056357e-03 -1.052395e-02
<VARIANCE> 39
 6.535495e+01 5.034427e+01 7.918123e+01 6.628657e+01 7.942567e+01 7.326884e+01 6.553059e+01 5.778355e+01 6.399875e+01 5.793716e+01 5.315501e+01 5.136618e+01 7.017334e+01 2.111168e+00 1.889397e+00 2.080891e+00 2.389167e+00 3.282663e+00 2.872374e+00 3.216764e+00 3.083693e+00 2.886099e+00 2.866782e+00 2.636950e+00 2.260647e+00 2.105516e+00 2.815004e-01 2.793296e-01 2.911113e-01 3.631517e-01 4.944769e-01 4.622100e-01 5.100728e-01 5.000594e-01 4.620360e-01 4.661153e-01 4.364333e-01 3.740271e-01 2.172669e-01
<GCONST> 1.252929e+02
<STATE> 3
<MEAN> 39
 -2.606464e+00 2.430137e+00 3.301190e+00 -3.898352e+00 -4.169756e+00 -3.003997e+00 -4.460319e+00 -2.002325e+00 -4.768140e-02 9.441738e-01 -4.510306e-01 -8.475977e-01 7.204881e+01 5.120692e-02 -2.250472e-02 -3.112543e-02 -7.730602e-02 -7.614411e-02 -3.709097e-02 -2.216845e-02 -1.563563e-02 -8.756862e-03 -4.753027e-03 1.864554e-02 5.910262e-03 4.635912e-02 -1.095988e-03 -1.044358e-03 -1.723763e-03 6.318534e-03 4.132901e-03 7.926364e-03 6.331793e-03 5.694189e-03 4.073125e-03 3.462731e-03 5.325687e-03 3.056357e-03 -1.052395e-02
<VARIANCE> 39
 6.535495e+01 5.034427e+01 7.918123e+01 6.628657e+01 7.942567e+01 7.326884e+01 6.553059e+01 5.778355e+01 6.399875e+01 5.793716e+01 5.315501e+01 5.136618e+01 7.017334e+01 2.111168e+00 1.889397e+00 2.080891e+00 2.389167e+00 3.282663e+00 2.872374e+00 3.216764e+00 3.083693e+00 2.886099e+00 2.866782e+00 2.636950e+00 2.260647e+00 2.105516e+00 2.815004e-01 2.793296e-01 2.911113e-01 3.631517e-01 4.944769e-01 4.622100e-01 5.100728e-01 5.000594e-01 4.620360e-01 4.661153e-01 4.364333e-01 3.740271e-01 2.172669e-01
<GCONST> 1.252929e+02
<STATE> 4
<MEAN> 39
 -2.606464e+00 2.430137e+00 3.301190e+00 -3.898352e+00 -4.169756e+00 -3.003997e+00 -4.460319e+00 -2.002325e+00 -4.768140e-02 9.441738e-01 -4.510306e-01 -8.475977e-01 7.204881e+01 5.120692e-02 -2.250472e-02 -3.112543e-02 -7.730602e-02 -7.614411e-02 -3.709097e-02 -2.216845e-02 -1.563563e-02 -8.756862e-03 -4.753027e-03 1.864554e-02 5.910262e-03 4.635912e-02 -1.095988e-03 -1.044358e-03 -1.723763e-03 6.318534e-03 4.132901e-03 7.926364e-03 6.331793e-03 5.694189e-03 4.073125e-03 3.462731e-03 5.325687e-03 3.056357e-03 -1.052395e-02
<VARIANCE> 39
 6.535495e+01 5.034427e+01 7.918123e+01 6.628657e+01 7.942567e+01 7.326884e+01 6.553059e+01 5.778355e+01 6.399875e+01 5.793716e+01 5.315501e+01 5.136618e+01 7.017334e+01 2.111168e+00 1.889397e+00 2.080891e+00 2.389167e+00 3.282663e+00 2.872374e+00 3.216764e+00 3.083693e+00 2.886099e+00 2.866782e+00 2.636950e+00 2.260647e+00 2.105516e+00 2.815004e-01 2.793296e-01 2.911113e-01 3.631517e-01 4.944769e-01 4.622100e-01 5.100728e-01 5.000594e-01 4.620360e-01 4.661153e-01 4.364333e-01 3.740271e-01 2.172669e-01
<GCONST> 1.252929e+02
<TRANSP> 5
 0.000000e+00 1.000000e+00 0.000000e+00 0.000000e+00 0.000000e+00
 0.000000e+00 6.000000e-01 4.000000e-01 0.000000e+00 0.000000e+00
 0.000000e+00 0.000000e+00 6.000000e-01 4.000000e-01 0.000000e+00
 0.000000e+00 0.000000e+00 0.000000e+00 7.000000e-01 3.000000e-01
 0.000000e+00 0.000000e+00 0.000000e+00 0.000000e+00 0.000000e+00
<ENDHMM>
