~o
<STREAMINFO> 1 39
<VECSIZE> 39<NULLD><MFCC_D_A_0><DIAGC>
~s "silst"
<MEAN> 39
 -6.809168e+00 6.986116e+00 2.175080e+00 2.774727e+00 2.215230e+00 4.492343e+00 3.395271e+00 5.188314e+00 5.665180e+00 6.621264e+00 5.774525e+00 4.865163e+00 5.874359e+01 8.888534e-02 3.723525e-02 1.874272e-01 2.311871e-01 2.585054e-01 3.124933e-03 -1.095400e-01 -9.429562e-02 -1.433221e-01 -2.540612e-01 -3.713809e-01 -3.181887e-01 1.789152e-01 4.558913e-01 8.654882e-02 2.114689e-01 -6.665497e-02 -2.168776e-01 -4.072368e-01 -5.055155e-01 -5.621352e-01 -5.334187e-01 -4.572879e-01 -4.744664e-01 -3.875067e-01 5.088121e-01
<VARIANCE> 39
 6.330414e+00 1.331954e+01 1.419274e+01 1.650614e+01 1.990538e+01 1.861094e+01 1.569427e+01 1.534810e+01 1.645082e+01 1.676791e+01 1.714955e+01 1.795336e+01 1.202592e+01 8.456143e-01 8.821284e-01 9.920877e-01 1.016639e+00 1.193522e+00 1.553142e+00 1.800862e+00 2.300826e+00 2.384512e+00 2.314185e+00 2.288469e+00 2.041244e+00 5.242184e-01 1.707059e-01 2.624024e-01 2.504972e-01 2.651692e-01 3.092690e-01 3.877654e-01 3.793553e-01 4.126785e-01 4.229346e-01 3.976353e-01 3.596698e-01 3.511193e-01 1.194011e-01
<GCONST> 9.539191e+01
~h "A"
<BEGINHMM>
<NUMSTATES> 5
<STATE> 2
<MEAN> 39
 4.329209e+00 -3.564743e+00 -7.590524e+00 -1.279686e+01 -2.671864e+00 2.856241e+00 -5.381855e+00 -6.862844e+00 -3.648773e+00 -4.187385e+00 -2.155188e+00 -6.332033e+00 8.049096e+01 3.452514e-01 -4.280156e-02 -6.789601e-01 -5.524440e-01 -1.120817e-01 9.169970e-01 1.452530e+00 3.902086e-01 -1.037381e+00 -1.544339e+00 4.083499e-01 2.096795e-01 -1.448281e-01 -3.987746e-01 4.513706e-01 5.149222e-01 5.758998e-01 2.559043e-02 -5.472491e-01 5.998475e-02 2.063647e-01 4.584663e-02 1.382055e-01 -8.183335e-02 8.199050e-02 -3.952101e-01
<VARIANCE> 39
 3.335819e+01 2.290842e+01 2.176596e+01 2.687757e+01 3.706765e+01 5.055035e+01 5.208587e+01 3.475168e+01 6.509554e+01 6.550529e+01 4.518431e+01 4.220506e+01 1.936088e+01 3.584905e-01 1.184535e+00 1.179362e+00 1.491354e+00 1.747641e+00 2.517657e+00 2.365698e+00 2.444413e+00 2.627371e+00 2.486699e+00 2.415475e+00 1.863290e+00 4.723946e-01 2.509627e-01 1.614451e-01 1.830101e-01 2.617393e-01 3.531769e-01 3.810415e-01 5.599374e-01 6.017938e-01 5.185390e-01 5.286872e-01 4.933349e-01 4.637521e-01 6.913713e-02
<GCONST> 1.093961e+02
<STATE> 3
<MEAN> 39
 5.297968e+00 6.754344e-01 -5.584206e+00 -1.024982e+01 -4.602599e+00 8.155548e-01 -2.182036e+00 -4.528619e+00 -8.275645e+00 -9.105325e+00 -3.332059e+00 -7.455393e+00 7.637283e+01 -1.521428e-01 7.733142e-01 5.975111e-01 6.796623e-01 -8.219328e-02 -4.276881e-01 1.161478e-01 -1.328389e-01 -2.495384e-01 2.212025e-01 -2.620135e-01 -1.031721e-01 -8.003113e-01 -1.063883e-01 7.142573e-02 1.340116e-01 1.199260e-01 1.173083e-01 4.524833e-02 -1.329473e-01 -1.066410e-01 9.011708e-02 2.269662e-01 3.623931e-02 8.704299e-02 -1.151924e-01
<VARIANCE> 39
 2.786734e+01 2.566612e+01 2.498067e+01 3.626791e+01 4.038818e+01 3.840755e+01 5.055642e+01 4.954211e+01 8.289357e+01 4.872292e+01 3.795521e+01 3.775833e+01 2.332725e+01 2.257660e-01 6.711144e-01 1.108837e+00 1.369043e+00 1.122470e+00 1.488768e+00 1.798719e+00 2.035453e+00 1.818561e+00 1.688360e+00 1.438062e+00 1.428595e+00 3.255999e-01 4.331926e-02 9.426438e-02 1.791723e-01 2.239584e-01 2.043068e-01 2.690761e-01 3.185245e-01 3.683408e-01 3.445573e-01 3.271243e-01 2.841303e-01 2.764036e-01 3.687649e-02
<GCONST> 9.822630e+01
<STATE> 4
<MEAN> 39
 1.646507e+00 6.849147e+00 -1.145629e+00 -5.071533e+00 -1.723190e+00 2.339227e+00 3.405312e-01 -3.851516e+00 -6.468278e+00 -4.494632e+00 -2.624772e+00 -3.752803e+00 6.834156e+01 -1.331737e+00 2.366229e-01 1.402276e-01 3.224029e-01 6.116091e-01 5.295961e-01 6.898655e-01 1.073744e+00 1.050309e+00 1.004253e+00 7.663358e-01 9.823491e-01 -1.164636e+00 -1.093253e-01 -2.762518e-01 -1.854661e-01 -1.527278e-01 -4.739151e-02 -3.018248e-02 5.223428e-02 2.445769e-01 2.604795e-01 1.226444e-01 1.443804e-01 1.126616e-01 1.847200e-01
<VARIANCE> 39
 3.050312e+01 3.377195e+01 2.340331e+01 4.451886e+01 2.735271e+01 2.936327e+01 4.426023e+01 5.585504e+01 5.448177e+01 4.380084e+01 3.572308e+01 3.002379e+01 3.474052e+01 1.273312e+00 1.557056e+00 1.662934e+00 1.913711e+00 1.708068e+00 1.932370e+00 2.673459e+00 3.625684e+00 3.582949e+00 2.499935e+00 2.651679e+00 2.158658e+00 6.860007e-01 2.013599e-01 2.154622e-01 3.065915e-01 3.345852e-01 3.139349e-01 4.352611e-01 5.286491e-01 6.705035e-01 5.550165e-01 4.227351e-01 4.848703e-01 4.123507e-01 1.304585e-01
<GCONST> 1.136974e+02
<TRANSP> 5
 0.000000e+00 1.000000e+00 0.000000e+00 0.000000e+00 0.000000e+00
 0.000000e+00 6.771855e-01 3.228145e-01 0.000000e+00 0.000000e+00
 0.000000e+00 0.000000e+00 8.575829e-01 1.424171e-01 0.000000e+00
 0.000000e+00 0.000000e+00 0.000000e+00 8.153216e-01 1.846784e-01
 0.000000e+00 0.000000e+00 0.000000e+00 0.000000e+00 0.000000e+00
<ENDHMM>
~h "E"
<BEGINHMM>
<NUMSTATES> 5
<STATE> 2
<MEAN> 39
 -2.196908e-01 -3.479082e+00 6.069752e+00 -5.194078e+00 -1.424086e+01 -1.576491e+01 -9.378768e+00 8.416151e-01 2.359610e+00 1.670882e-01 -2.712115e+00 -2.529351e+00 8.139835e+01 1.191478e+00 -2.879030e+00 -1.033234e-01 -1.520698e+00 -1.408829e+00 2.964234e-02 -1.170272e-01 1.473383e+00 5.670156e-01 -1.171045e-01 -6.769811e-02 -6.300537e-01 1.704788e+00 -1.255639e+00 3.201264e-01 -4.923789e-01 3.283104e-01 1.226297e+00 1.159467e+00 1.202123e+00 3.960407e-01 2.551351e-01 1.586456e-01 2.876005e-01 2.226579e-01 -5.894932e-01
<VARIANCE> 39
 3.976873e+01 1.749864e+01 3.219833e+01 3.854878e+01 2.437229e+01 4.726080e+01 6.373794e+01 2.428775e+01 6.229295e+01 1.782098e+01 4.730958e+01 5.773049e+01 1.614391e+01 1.555876e+00 1.170295e+00 1.509500e+00 9.452497e-01 3.067202e+00 2.558862e+00 3.287179e+00 1.052287e+00 2.888229e+00 1.454084e+00 3.064431e+00 1.105332e+00 6.939150e-01 1.094739e-01 2.601834e-01 2.615809e-01 3.920674e-01 3.705865e-01 3.713270e-01 5.007886e-01 3.896578e-01 3.992962e-01 3.351214e-01 6.327540e-01 5.113246e-01 7.693037e-02
<GCONST> 1.088344e+02
<STATE> 3
<MEAN> 39
 -3.249793e+00 -9.350393e+00 8.537458e-01 -8.074873e+00 -1.163333e+01 -1.535373e+01 -6.361455e+00 3.252213e+00 3.149885e+00 -3.121982e+00 -4.789149e+00 -8.426387e+00 8.483282e+01 2.026686e-01 -4.336209e-01 -7.938130e-01 1.947362e-01 9.951457e-01 1.242537e+00 4.556167e-01 7.330140e-02 -1.802244e-01 -2.363078e-01 -6.759769e-01 -1.140142e-01 -1.768333e-01 -1.604055e-01 6.169190e-01 1.584415e-02 2.600340e-01 3.647467e-01 2.075022e-01 -1.304639e-01 -1.517316e-01 -1.274996e-01 4.309816e-02 4.688400e-02 2.373166e-01 -4.080264e-01
<VARIANCE> 39
 3.379100e+01 1.121672e+01 3.321436e+01 1.970084e+01 2.727983e+01 7.230014e+01 6.393106e+01 3.079189e+01 7.049422e+01 3.543678e+01 5.526292e+01 1.021445e+02 1.026302e+01 2.638928e-01 1.805199e+00 1.143271e+00 9.502396e-01 1.653886e+00 1.170831e+00 3.100650e+00 1.861420e+00 1.754101e+00 1.736797e+00 1.225528e+00 1.850479e+00 6.504743e-01 1.021729e-01 2.372528e-01 2.665111e-01 2.239055e-01 2.479142e-01 1.933529e-01 5.411901e-01 3.109642e-01 3.619891e-01 3.504218e-01 3.309008e-01 2.247729e-01 7.904401e-02
<GCONST> 1.027590e+02
<STATE> 4
<MEAN> 39
 1.229687e-01 -5.042146e+00 2.018811e+00 -3.640281e+00 -7.150074e+00 -7.026125e+00 -3.075937e+00 4.544728e+00 2.936070e+00 -1.050015e+00 -5.692706e+00 -3.109838e+00 7.656135e+01 -2.649352e-01 3.712782e-01 -3.016142e-01 3.657803e-01 1.116669e+00 7.005975e-01 -5.286241e-02 9.148708e-02 3.581454e-01 1.460966e-01 -5.867597e-02 9.028681e-02 -6.857991e-01 -1.010384e-01 1.211109e-02 3.292086e-02 2.647422e-02 1.284801e-01 1.322179e-02 -9.998204e-02 -4.742869e-02 9.246013e-02 8.105798e-02 5.391784e-02 1.228797e-02 -4.411749e-02
<VARIANCE> 39
 6.336803e+01 1.288452e+01 3.500313e+01 3.388195e+01 5.369599e+01 5.497007e+01 5.747457e+01 2.357123e+01 5.474790e+01 3.315813e+01 3.704672e+01 2.007729e+01 1.303810e+01 4.568456e-01 9.635653e-01 9.268922e-01 1.078264e+00 1.811144e+00 1.599620e+00 2.417823e+00 1.625270e+00 1.783218e+00 2.206166e+00 1.337204e+00 1.368044e+00 2.837920e-01 9.672810e-02 1.024269e-01 1.948859e-01 1.606888e-01 2.889121e-01 2.429782e-01 4.277249e-01 2.879316e-01 3.028248e-01 3.365133e-01 2.617992e-01 3.022619e-01 3.644423e-02
<GCONST> 9.870984e+01
<TRANSP> 5
 0.000000e+00 1.000000e+00 0.000000e+00 0.000000e+00 0.000000e+00
 0.000000e+00 4.985540e-01 5.014460e-01 0.000000e+00 0.000000e+00
 0.000000e+00 0.000000e+00 7.706552e-01 2.293448e-01 0.000000e+00
 0.000000e+00 0.000000e+00 0.000000e+00 8.691585e-01 1.308415e-01
 0.000000e+00 0.000000e+00 0.000000e+00 0.000000e+00 0.000000e+00
<ENDHMM>
~h "O"
<BEGINHMM>
<NUMSTATES> 5
<STATE> 2
<MEAN> 39
 4.279800e+00 -6.129984e-01 -5.341505e+00 -1.199156e+01 -4.465599e+00 -1.822053e+00 -8.433088e+00 -1.044361e+01 9.025488e-01 5.737541e+00 -2.437774e+00 -5.877380e+00 7.917245e+01 2.413992e+00 -9.908594e-01 -1.480119e+00 -3.926111e+00 -1.501550e+00 4.731534e-01 -2.194608e-01 -1.793669e+00 -5.011870e-01 9.515278e-03 -2.582504e-01 -1.566330e+00 1.957303e+00 -1.349179e+00 -4.338435e-01 9.355226e-02 5.744798e-01 5.145406e-01 3.175174e-01 6.365005e-01 1.267294e+00 6.326886e-01 9.139124e-02 1.994009e-01 5.742724e-01 -2.732277e-01
<VARIANCE> 39
 3.358801e+01 1.085411e+01 2.359375e+01 2.537099e+01 2.940627e+01 4.661325e+01 2.727873e+01 1.582419e+01 2.412123e+01 1.738279e+01 5.886173e+01 1.876368e+01 1.387534e+01 2.149794e+00 1.912169e+00 2.975576e+00 2.485422e+00 3.280516e+00 2.115126e+00 2.504311e+00 4.092898e+00 3.032969e+00 1.311587e+00 6.623374e+00 1.950974e+00 6.097827e-01 5.520895e-02 2.275628e-01 2.758017e-01 4.710453e-01 2.620274e-01 2.780532e-01 2.084656e-01 2.272618e-01 2.239580e-01 3.353177e-01 3.429934e-01 1.959908e-01 1.143205e-01
<GCONST> 1.045168e+02
<STATE> 3
<MEAN> 39
 4.515104e+00 -3.261127e+00 -7.643681e+00 -1.625339e+01 -4.431030e+00 1.597118e+00 -7.022774e+00 -8.838472e+00 1.059569e+00 5.307564e+00 -3.797183e+00 -7.218102e+00 8.064529e+01 -5.414499e-02 -4.299976e-01 -4.978159e-01 -1.018684e+00 1.225431e-01 9.538156e-01 6.340226e-01 2.899636e-01 -3.137214e-01 -8.212631e-01 -1.413645e-01 -2.025886e-01 2.003076e-01 -3.376300e-01 3.862589e-01 2.071254e-01 6.524391e-01 3.294471e-01 -6.814389e-02 1.031500e-01 2.999419e-01 -6.731498e-02 -2.284629e-01 5.052802e-02 3.031254e-01 -4.731281e-01
<VARIANCE> 39
 2.897093e+01 1.278142e+01 3.367789e+01 2.789905e+01 4.753273e+01 5.260355e+01 3.280986e+01 2.607876e+01 4.602764e+01 2.586958e+01 9.501612e+01 2.013383e+01 1.324401e+01 1.390721e-01 9.390392e-01 6.153638e-01 8.814453e-01 6.656455e-01 8.842477e-01 1.370166e+00 9.627876e-01 9.698776e-01 1.372697e+00 1.047976e+00 9.224601e-01 3.247225e-01 1.693375e-01 1.825437e-01 2.182857e-01 2.862287e-01 3.042154e-01 1.978821e-01 1.665741e-01 4.103270e-01 2.517489e-01 2.220312e-01 4.683160e-01 1.647203e-01 8.375701e-02
<GCONST> 9.279346e+01
<STATE> 4
<MEAN> 39
 2.077510e+00 -8.862622e-01 -8.403904e+00 -1.695023e+01 -1.872753e+00 5.259140e+00 -2.083032e+00 -7.874318e+00 -5.800238e-01 1.044871e+00 -1.128842e+00 -5.129087e+00 7.763956e+01 -2.760255e-01 7.754812e-01 8.496132e-02 3.287856e-01 3.362165e-01 3.284211e-01 4.534033e-01 4.517192e-01 -2.430882e-01 -3.901310e-01 1.309057e-02 4.754039e-01 -7.556430e-01 -5.983794e-02 4.470680e-02 1.233912e-01 1.779314e-01 2.228033e-02 -6.671771e-02 -5.842560e-02 5.341904e-02 1.105149e-01 6.076189e-02 3.396071e-02 1.428482e-03 -9.296973e-02
<VARIANCE> 39
 5.567032e+01 2.039011e+01 3.906134e+01 2.319801e+01 5.649732e+01 4.609509e+01 5.591364e+01 3.973878e+01 3.000329e+01 3.678045e+01 5.898956e+01 3.614804e+01 1.682636e+01 5.285171e-01 8.980185e-01 8.430628e-01 1.276352e+00 1.102852e+00 1.599159e+00 1.536701e+00 1.720118e+00 1.390785e+00 1.561552e+00 1.390688e+00 1.348475e+00 3.581876e-01 8.973571e-02 1.325693e-01 1.313282e-01 1.649065e-01 2.089714e-01 2.413489e-01 3.328783e-01 2.796881e-01 2.661742e-01 2.007217e-01 2.170570e-01 3.268686e-01 4.870577e-02
<GCONST> 9.760894e+01
<TRANSP> 5
 0.000000e+00 1.000000e+00 0.000000e+00 0.000000e+00 0.000000e+00
 0.000000e+00 4.727681e-01 5.272319e-01 0.000000e+00 0.000000e+00
 0.000000e+00 0.000000e+00 7.088616e-01 2.911384e-01 0.000000e+00
 0.000000e+00 0.000000e+00 0.000000e+00 8.768311e-01 1.231689e-01
 0.000000e+00 0.000000e+00 0.000000e+00 0.000000e+00 0.000000e+00
<ENDHMM>
~h "R"
<BEGINHMM>
<NUMSTATES> 5
<STATE> 2
<MEAN> 39
 -6.053759e-01 7.188083e-01 7.327406e-01 -4.998035e+00 -4.498153e-01 -3.117335e+00 -8.054987e+00 -3.671578e+00 2.349679e+00 6.774161e-01 -5.159128e+00 -1.943203e+00 7.475867e+01 6.016772e-01 6.432656e-02 -3.122024e-01 -8.310400e-01 7.054528e-02 -8.127312e-02 -5.421206e-01 -5.837710e-01 -1.988794e-01 -1.122222e-01 -2.920893e-01 -1.176216e-01 8.412094e-01 -2.585282e-01 5.477139e-02 1.130242e-01 7.731931e-02 -8.479662e-03 9.483374e-02 3.168035e-01 2.165821e-01 -4.333570e-02 7.801746e-02 3.342936e-01 1.825051e-01 -2.373302e-01
<VARIANCE> 39
 4.464805e+01 4.519019e+01 3.825105e+01 6.393972e+01 7.563762e+01 8.208071e+01 5.103057e+01 5.256972e+01 5.801413e+01 5.651102e+01 4.218178e+01 3.136835e+01 3.969605e+01 2.895223e+00 2.601284e+00 2.249316e+00 4.220289e+00 6.466273e+00 4.966553e+00 4.486537e+00 4.332740e+00 3.980011e+00 3.869967e+00 3.456637e+00 2.765714e+00 2.978087e+00 5.187685e-01 4.533786e-01 3.501715e-01 7.170990e-01 9.937329e-01 7.315931e-01 7.078013e-01 9.056236e-01 7.546779e-01 7.857005e-01 6.221489e-01 5.285621e-01 3.179587e-01
<GCONST> 1.330976e+02
<STATE> 3
<MEAN> 39
 4.554416e-01 3.239798e+00 6.697794e-01 -6.139109e+00 1.210047e+00 -7.713215e-01 -7.487529e+00 -3.381702e+00 1.941600e+00 -4.336165e-02 -4.055619e+00 -5.164112e-01 7.443610e+01 3.426322e-01 -5.624932e-02 -1.036481e-01 -5.269544e-01 -7.271004e-01 -3.606048e-01 1.575389e-01 -1.971822e-02 -2.341322e-01 -2.253280e-01 1.573905e-01 -1.087621e-02 3.685927e-01 1.167216e-01 -2.300023e-01 -3.016816e-02 -1.513226e-02 -3.182403e-01 -8.135743e-02 4.971392e-02 -8.223129e-02 5.036666e-03 1.202703e-02 -2.252866e-02 -1.108830e-01 9.161685e-02
<VARIANCE> 39
 3.362057e+01 3.331983e+01 3.755528e+01 5.449620e+01 5.813461e+01 6.126467e+01 4.509542e+01 3.829031e+01 5.960231e+01 4.541684e+01 3.262333e+01 3.568062e+01 2.528942e+01 1.348848e+00 1.568676e+00 1.358411e+00 1.820313e+00 3.450287e+00 2.135501e+00 2.062967e+00 2.525966e+00 1.968142e+00 1.932800e+00 1.817497e+00 1.831417e+00 7.045632e-01 2.402879e-01 2.256156e-01 2.013961e-01 3.434061e-01 5.256365e-01 3.866074e-01 3.828095e-01 4.387273e-01 3.680611e-01 3.776129e-01 3.383138e-01 3.183491e-01 1.341240e-01
<GCONST> 1.124646e+02
<STATE> 4
<MEAN> 39
 4.007886e+00 1.415471e+00 8.817390e-02 -9.669163e+00 -6.843467e+00 -3.161155e+00 -8.383684e+00 -5.225559e+00 1.316156e+00 7.938996e-01 -3.395642e+00 -2.221577e+00 7.635733e+01 1.110758e-01 -4.297182e-01 1.802739e-01 -1.405890e-01 -7.540107e-01 -1.686896e-01 -1.228430e-02 -1.206325e-02 -2.712318e-02 -1.574281e-01 9.651542e-02 -1.716857e-01 2.385689e-01 -1.332338e-01 3.305091e-02 5.731969e-02 8.561749e-02 1.371243e-01 9.401593e-02 -9.016565e-04 3.268253e-02 -3.289106e-02 -9.023073e-03 5.017914e-02 2.711338e-02 -7.444148e-02
<VARIANCE> 39
 3.110304e+01 5.511013e+01 3.901529e+01 7.188219e+01 5.364406e+01 7.704385e+01 5.695764e+01 4.778828e+01 5.726965e+01 5.053307e+01 4.464207e+01 3.728920e+01 2.762698e+01 6.831554e-01 1.519609e+00 1.083441e+00 1.772673e+00 2.440229e+00 2.199020e+00 2.373105e+00 2.193352e+00 1.671583e+00 2.093631e+00 1.747108e+00 1.666942e+00 9.574955e-01 7.697116e-02 1.666276e-01 1.329906e-01 2.186441e-01 2.661657e-01 2.898242e-01 3.073616e-01 3.158703e-01 2.855810e-01 3.138477e-01 2.680370e-01 2.487481e-01 8.004371e-02
<GCONST> 1.078696e+02
<TRANSP> 5
 0.000000e+00 1.000000e+00 0.000000e+00 0.000000e+00 0.000000e+00
 0.000000e+00 7.064571e-01 2.935429e-01 0.000000e+00 0.000000e+00
 0.000000e+00 0.000000e+00 7.174978e-01 2.825021e-01 0.000000e+00
 0.000000e+00 0.000000e+00 0.000000e+00 7.569703e-01 2.430297e-01
 0.000000e+00 0.000000e+00 0.000000e+00 0.000000e+00 0.000000e+00
<ENDHMM>
~h "S"
<BEGINHMM>
<NUMSTATES> 5
<STATE> 2
<MEAN> 39
 -1.469009e+01 -8.463055e-01 8.451698e+00 -2.646245e+00 -4.956223e+00 -3.035514e+00 -1.425024e+00 1.686968e+00 4.661342e+00 2.685080e+00 2.580141e+00 1.257456e+00 7.693264e+01 -4.440480e-01 -2.123405e-01 -1.594171e-01 1.417678e-01 2.123726e-01 1.283079e-01 4.644724e-02 6.065834e-02 4.458185e-01 1.598435e-01 1.030145e-01 1.399829e-01 5.905014e-02 4.144749e-01 7.316898e-02 -4.762070e-02 6.605600e-02 2.894056e-02 -5.282762e-02 -1.201805e-01 -8.674352e-02 -1.847234e-01 -8.891344e-02 -1.609333e-01 -1.281609e-01 -1.505343e-01
<VARIANCE> 39
 1.307111e+02 2.210259e+01 3.230418e+01 3.987711e+01 4.590642e+01 5.108196e+01 3.954245e+01 7.831156e+01 6.192641e+01 4.561515e+01 3.744270e+01 4.528250e+01 2.402940e+01 1.407723e+00 5.619657e-01 7.719954e-01 1.079697e+00 1.213659e+00 1.416234e+00 1.462228e+00 1.861549e+00 1.899631e+00 1.782023e+00 1.875327e+00 1.478984e+00 5.610322e-01 2.163070e-01 1.240709e-01 1.511485e-01 1.844046e-01 2.692527e-01 2.948397e-01 3.161952e-01 4.165636e-01 3.414077e-01 3.570096e-01 3.648033e-01 3.146005e-01 3.842834e-02
<GCONST> 1.046672e+02
<STATE> 3
<MEAN> 39
 -9.956237e+00 -1.478499e+00 6.946280e+00 -1.049121e+00 -2.623775e+00 -2.400273e+00 -3.604025e+00 9.834737e-01 5.020329e+00 2.529240e+00 -2.189536e-01 -2.300298e-01 7.473020e+01 3.710989e+00 3.368356e-01 -1.246464e+00 -2.385617e-01 -1.859226e-01 -4.671479e-01 -1.815781e+00 -1.709496e+00 -1.428877e+00 -1.049659e+00 -1.614258e+00 -1.741953e+00 4.630527e-02 5.946612e-01 -6.415214e-02 -5.000225e-01 -5.369867e-01 -2.696386e-01 7.392977e-02 -1.970635e-01 -4.037515e-01 -3.616767e-01 -1.753844e-01 -1.513236e-01 -2.906661e-01 4.157701e-01
<VARIANCE> 39
 1.035534e+02 2.280086e+01 2.808859e+01 4.642461e+01 4.338398e+01 5.418755e+01 4.587516e+01 7.005966e+01 7.375855e+01 4.821491e+01 3.925502e+01 4.573127e+01 2.299700e+01 5.911674e+00 1.798990e+00 2.612571e+00 2.721668e+00 3.136422e+00 3.921518e+00 4.308135e+00 4.396632e+00 3.215210e+00 2.977595e+00 3.465972e+00 3.069520e+00 1.259997e+00 6.976549e-01 3.444814e-01 3.006169e-01 3.635440e-01 4.952513e-01 5.778097e-01 6.988174e-01 6.162028e-01 6.110674e-01 5.687982e-01 6.324347e-01 5.454777e-01 1.874644e-01
<GCONST> 1.263626e+02
<STATE> 4
<MEAN> 39
 3.366459e+00 2.428810e+00 1.209408e+00 -5.057505e+00 -5.696380e+00 -3.644678e+00 -7.719277e+00 -8.192397e+00 -6.632189e+00 -4.283118e+00 -5.026846e+00 -7.013700e+00 7.432716e+01 5.367288e-01 7.744329e-03 -6.981665e-01 -3.598614e-01 2.723881e-01 4.092416e-01 -1.222555e-01 -2.126872e-01 -1.905852e-01 1.345477e-01 1.907377e-03 -9.171277e-02 -7.679261e-02 -5.407687e-01 -9.965708e-02 1.288085e-02 -7.138434e-02 1.039205e-01 1.582172e-01 3.886611e-01 3.872874e-01 3.229709e-01 2.342669e-01 3.494780e-01 3.475651e-01 -4.827690e-02
<VARIANCE> 39
 3.185166e+01 4.690291e+01 2.628821e+01 3.798841e+01 4.014297e+01 4.127931e+01 5.153312e+01 6.747801e+01 1.027976e+02 6.008784e+01 4.328600e+01 3.363047e+01 4.130384e+01 5.327788e+00 2.494999e+00 3.343598e+00 3.785814e+00 3.051692e+00 2.727937e+00 3.176867e+00 5.106877e+00 4.964508e+00 3.513917e+00 3.444304e+00 3.321768e+00 2.120711e+00 5.115069e-01 2.722011e-01 2.639010e-01 2.707060e-01 4.685376e-01 5.601886e-01 7.931118e-01 6.278996e-01 4.743569e-01 4.804510e-01 5.812388e-01 4.786221e-01 1.421715e-01
<GCONST> 1.259174e+02
<TRANSP> 5
 0.000000e+00 1.000000e+00 0.000000e+00 0.000000e+00 0.000000e+00
 0.000000e+00 8.536329e-01 1.463671e-01 0.000000e+00 0.000000e+00
 0.000000e+00 0.000000e+00 5.809641e-01 4.190359e-01 0.000000e+00
 0.000000e+00 0.000000e+00 0.000000e+00 7.469732e-01 2.530268e-01
 0.000000e+00 0.000000e+00 0.000000e+00 0.000000e+00 0.000000e+00
<ENDHMM>
~h "Z"
<BEGINHMM>
<NUMSTATES> 5
<STATE> 2
<MEAN> 39
 -6.502843e+00 7.741805e+00 1.688422e+01 -1.093345e+00 -6.043190e+00 -7.484931e+00 -7.792150e+00 -3.301188e+00 -4.636921e+00 7.727542e-01 -3.189210e+00 -9.168997e-01 7.445403e+01 -8.755044e-01 9.835657e-01 1.185069e+00 -1.782945e-01 3.720585e-01 -7.659956e-01 -3.748822e-01 -8.540109e-01 -5.290141e-01 -4.671489e-01 -2.296574e-01 2.673227e-01 1.154427e+00 -2.440204e-01 -1.490369e-01 -4.569599e-01 -5.907831e-02 3.083668e-01 5.304068e-01 4.480609e-01 1.552538e-01 1.718195e-01 1.267067e-01 1.976150e-01 -8.272762e-02 -2.074639e-01
<VARIANCE> 39
 3.678978e+01 1.715666e+01 2.744039e+01 3.945215e+01 3.154172e+01 3.407019e+01 2.336270e+01 2.129546e+01 4.904451e+01 2.520628e+01 2.038111e+01 3.883896e+01 2.399435e+01 3.469388e+00 1.501796e+00 2.329624e+00 1.719786e+00 6.558418e+00 5.431420e+00 5.593945e+00 1.526727e+00 3.101394e+00 2.561508e+00 2.329078e+00 1.782228e+00 1.738439e+00 4.557639e-01 3.726807e-01 3.178012e-01 2.975765e-01 8.621147e-01 6.163567e-01 8.796001e-01 3.388146e-01 5.112736e-01 4.807563e-01 3.129445e-01 4.682421e-01 2.013470e-01
<GCONST> 1.171775e+02
<STATE> 3
<MEAN> 39
 -1.263835e+01 9.759461e+00 1.914949e+01 -1.570661e+00 -2.889836e+00 -5.027074e+00 -5.348593e+00 -5.314189e+00 -4.091318e+00 -1.851702e-01 -2.287502e+00 -1.374834e+00 7.725794e+01 -2.365804e-01 -1.108546e-03 1.769385e-01 -1.993442e-01 -1.436243e-01 1.508071e-01 -3.696637e-02 -2.574293e-01 1.171914e-01 6.150595e-02 -5.931461e-02 -7.034910e-02 1.260933e-01 3.534004e-01 -1.807129e-01 6.339341e-02 -3.328330e-03 -3.765182e-01 -1.903512e-01 -2.207786e-01 -4.382192e-02 -2.239487e-02 3.233159e-02 -1.673691e-02 7.654824e-02 -2.978087e-02
<VARIANCE> 39
 3.994670e+01 1.333218e+01 2.090250e+01 2.979284e+01 2.528105e+01 2.154824e+01 2.078295e+01 2.047947e+01 3.516039e+01 2.198157e+01 2.301344e+01 2.556110e+01 2.406060e+01 1.506870e+00 5.927444e-01 5.935341e-01 5.915886e-01 2.304600e+00 1.709440e+00 1.721376e+00 1.577958e+00 1.341772e+00 1.378980e+00 1.248845e+00 1.275034e+00 2.013680e-01 1.004327e-01 1.173497e-01 9.848589e-02 9.122288e-02 2.278878e-01 2.814767e-01 2.877300e-01 2.918947e-01 2.546500e-01 2.688420e-01 2.890216e-01 2.097470e-01 3.290513e-02
<GCONST> 9.036391e+01
<STATE> 4
<MEAN> 39
 -4.718840e+00 3.994520e+00 2.207664e+01 -5.512543e-01 -1.407120e+01 -8.081063e+00 -1.064492e+01 -7.168096e+00 -4.706433e+00 -1.282686e+00 -1.084722e+00 9.717200e-03 7.799169e+01 1.056265e+00 -1.212738e+00 7.635348e-02 -1.192207e-01 -1.219967e+00 -3.828682e-01 -7.059636e-01 9.695193e-02 -2.174591e-01 -2.225326e-01 -9.265406e-02 1.942493e-01 1.558485e-01 -1.365436e-01 -1.515638e-03 -1.261033e-01 -2.091864e-02 2.499256e-01 1.451258e-01 1.134369e-01 1.779349e-01 4.073851e-02 1.338828e-02 -1.260061e-01 -5.547644e-02 -4.239931e-03
<VARIANCE> 39
 3.784148e+01 2.780721e+01 2.052980e+01 6.325489e+01 3.248339e+01 3.046726e+01 2.741462e+01 1.548929e+01 2.398149e+01 3.833186e+01 3.973547e+01 2.218474e+01 2.001095e+01 6.441829e-01 6.468642e-01 7.017891e-01 7.267882e-01 1.157819e+00 1.991508e+00 1.844595e+00 1.206322e+00 1.537691e+00 1.843935e+00 1.687341e+00 1.167944e+00 1.637986e-01 1.165758e-01 1.277009e-01 9.042551e-02 1.166399e-01 1.748554e-01 3.326986e-01 3.000423e-01 1.962059e-01 3.010048e-01 2.914403e-01 2.124153e-01 2.134268e-01 2.828811e-02
<GCONST> 9.182468e+01
<TRANSP> 5
 0.000000e+00 1.000000e+00 0.000000e+00 0.000000e+00 0.000000e+00
 0.000000e+00 7.361537e-01 2.638463e-01 0.000000e+00 0.000000e+00
 0.000000e+00 0.000000e+00 8.785459e-01 1.214542e-01 0.000000e+00
 0.000000e+00 0.000000e+00 0.000000e+00 8.385094e-01 1.614905e-01
 0.000000e+00 0.000000e+00 0.000000e+00 0.000000e+00 0.000000e+00
<ENDHMM>
~h "a"
<BEGINHMM>
<NUMSTATES> 5
<STATE> 2
<MEAN> 39
 2.542017e+00 -1.009839e+01 -5.385482e+00 -8.848182e+00 -2.270197e+00 -2.551313e+00 -6.431892e+00 -7.601111e-01 3.523460e+00 -2.246273e+00 -8.192389e+00 -7.938347e+00 8.337376e+01 3.545414e-03 -4.554172e-01 -6.226067e-01 -9.999014e-03 6.637465e-01 5.152292e-01 3.391842e-01 -3.330681e-01 -1.390110e-01 -1.703277e-01 -1.070610e-01 -3.199313e-01 1.327493e-01 -9.955481e-02 6.635793e-01 3.556613e-01 3.457646e-01 -2.947980e-02 -1.882736e-01 -1.070944e-01 -1.883454e-01 -1.922606e-01 1.887968e-01 3.275385e-01 2.617332e-01 -5.040460e-01
<VARIANCE> 39
 3.826464e+01 1.956644e+01 2.728183e+01 3.022202e+01 3.182034e+01 7.709614e+01 4.559531e+01 3.989733e+01 8.330368e+01 4.354432e+01 7.817632e+01 6.766590e+01 1.178741e+01 3.067943e-01 1.651766e+00 1.407943e+00 1.084587e+00 1.983586e+00 2.370962e+00 2.116639e+00 1.962811e+00 1.640277e+00 1.743690e+00 1.837478e+00 1.812409e+00 5.458205e-01 1.279162e-01 1.851468e-01 1.851095e-01 2.745344e-01 3.052810e-01 3.521127e-01 3.671155e-01 4.032631e-01 4.440728e-01 3.285912e-01 4.302641e-01 3.604705e-01 9.403299e-02
<GCONST> 1.069074e+02
<STATE> 3
<MEAN> 39
 2.882668e+00 -7.654709e+00 -8.483122e+00 -8.708473e+00 2.562367e+00 -3.803405e-01 -5.035598e+00 -5.800613e+00 2.183515e+00 -1.921456e+00 -5.709558e+00 -9.068194e+00 8.077741e+01 2.820985e-02 7.728606e-01 -7.344387e-02 4.039880e-01 3.792770e-01 3.906136e-01 2.187593e-02 -2.347518e-01 -2.621931e-01 9.267404e-02 3.407337e-01 1.953741e-01 -9.685168e-01 -9.505361e-02 2.555813e-01 1.628584e-01 1.140377e-01 -5.885839e-02 2.696820e-02 5.674189e-02 1.658017e-01 -7.170792e-04 5.799913e-02 7.051344e-02 1.430794e-01 -2.870376e-01
<VARIANCE> 39
 3.491998e+01 2.552864e+01 2.275628e+01 3.177324e+01 3.741354e+01 6.776963e+01 5.631401e+01 3.683469e+01 5.043290e+01 4.000830e+01 6.300474e+01 4.983718e+01 1.865733e+01 3.247093e-01 1.423174e+00 1.009097e+00 1.022613e+00 1.226304e+00 1.425872e+00 1.513862e+00 1.516886e+00 1.641591e+00 1.277276e+00 1.339301e+00 1.297224e+00 7.849643e-01 7.293991e-02 1.215416e-01 1.426676e-01 1.775584e-01 2.055666e-01 2.500141e-01 3.043225e-01 2.626683e-01 2.583776e-01 2.492904e-01 2.249854e-01 2.258721e-01 7.119159e-02
<GCONST> 9.855682e+01
<STATE> 4
<MEAN> 39
 2.529972e-01 -1.438753e+00 -6.092832e+00 -5.072598e+00 2.550688e+00 2.410740e+00 -1.476880e+00 -7.999058e-01 3.689167e+00 1.358900e+00 -1.963344e+00 -5.143067e+00 7.100770e+01 -9.406384e-01 8.247122e-01 2.619283e-01 4.249522e-01 1.553543e-01 4.772177e-01 9.820380e-01 9.865737e-01 3.791345e-01 8.025618e-01 9.300173e-01 9.288747e-01 -1.509361e+00 -9.123322e-02 -2.232323e-01 -3.148035e-02 -1.087679e-01 -8.483290e-02 -9.002791e-02 -9.335112e-04 5.685308e-02 7.467546e-02 5.238229e-02 4.911039e-02 2.577940e-02 2.561368e-01
<VARIANCE> 39
 2.405222e+01 3.047002e+01 3.018473e+01 3.583869e+01 3.517385e+01 6.350923e+01 4.289322e+01 4.677025e+01 4.468348e+01 4.663566e+01 5.138992e+01 5.467619e+01 3.426730e+01 1.438614e+00 1.840767e+00 1.320589e+00 1.759954e+00 1.891331e+00 2.292087e+00 2.785847e+00 2.756543e+00 2.712941e+00 2.658969e+00 2.765362e+00 2.304544e+00 1.122018e+00 1.774366e-01 2.310271e-01 2.553833e-01 2.931513e-01 3.283303e-01 4.189728e-01 4.926541e-01 5.078480e-01 4.625394e-01 4.730317e-01 4.731668e-01 4.241032e-01 1.309921e-01
<GCONST> 1.146447e+02
<TRANSP> 5
 0.000000e+00 1.000000e+00 0.000000e+00 0.000000e+00 0.000000e+00
 0.000000e+00 7.053483e-01 2.946517e-01 0.000000e+00 0.000000e+00
 0.000000e+00 0.000000e+00 7.998229e-01 2.001771e-01 0.000000e+00
 0.000000e+00 0.000000e+00 0.000000e+00 8.099726e-01 1.900274e-01
 0.000000e+00 0.000000e+00 0.000000e+00 0.000000e+00 0.000000e+00
<ENDHMM>
~h "b"
<BEGINHMM>
<NUMSTATES> 5
<STATE> 2
<MEAN> 39
 3.377898e+00 1.307039e+01 6.830135e+00 3.974498e+00 1.114927e-01 -1.678618e+00 -6.198238e+00 -6.626313e+00 -5.044195e+00 -2.132622e+00 -3.434717e+00 -5.701303e+00 6.523585e+01 3.302138e-01 1.140871e-01 4.347831e-02 -6.626312e-02 -2.819524e-02 -2.513479e-01 -4.278207e-01 -2.174025e-01 -1.528407e-01 -1.456298e-01 -1.630976e-01 -1.530132e-01 4.412559e-01 -1.817143e-01 -6.230788e-01 -2.883980e-01 -3.361990e-01 -1.407835e-01 3.578043e-02 9.077035e-02 2.514349e-01 4.043307e-01 2.979672e-01 1.879255e-01 2.753443e-01 3.161316e-01
<VARIANCE> 39
 9.303686e+00 3.888270e+01 1.903628e+01 2.246335e+01 1.657732e+01 2.118356e+01 2.252451e+01 2.537720e+01 2.702548e+01 2.806658e+01 3.794142e+01 2.442501e+01 1.923993e+01 1.378540e+00 2.024294e+00 1.003589e+00 1.036037e+00 1.399930e+00 2.058286e+00 2.389659e+00 2.749811e+00 2.380393e+00 2.025682e+00 1.971342e+00 1.794266e+00 1.035434e+00 2.205188e-01 3.153407e-01 2.421691e-01 3.230833e-01 3.896792e-01 4.576527e-01 4.970632e-01 5.088409e-01 4.565853e-01 4.183617e-01 4.067200e-01 3.306802e-01 3.264179e-01
<GCONST> 1.060399e+02
<STATE> 3
<MEAN> 39
 2.586595e+00 6.011922e+00 3.695984e+00 1.331049e-01 -7.610896e-01 -2.841980e+00 -7.488657e+00 -6.675867e+00 -3.167486e+00 -6.615944e-01 -3.268322e+00 -4.298108e+00 7.102293e+01 2.607853e-01 -2.932457e+00 -1.526133e+00 -2.724793e+00 -1.877921e+00 -9.677755e-01 -1.084584e+00 8.626334e-02 1.749197e+00 1.339336e+00 3.771680e-01 6.690591e-01 3.127165e+00 1.259824e-01 -4.168670e-01 -2.524565e-01 -6.725148e-01 -3.922250e-01 2.164504e-01 1.615882e-01 1.134986e-01 2.407494e-01 -7.950068e-03 -1.619568e-01 -2.930208e-01 4.140219e-01
<VARIANCE> 39
 2.483895e+01 3.470494e+01 2.536736e+01 4.321693e+01 2.164774e+01 3.487870e+01 2.926927e+01 2.736514e+01 3.094049e+01 3.432655e+01 3.574791e+01 2.530905e+01 2.722747e+01 2.493744e+00 4.156114e+00 3.664259e+00 4.281377e+00 2.969623e+00 4.261861e+00 3.289976e+00 4.017135e+00 4.554155e+00 3.355812e+00 3.154776e+00 3.521832e+00 1.877962e+00 2.412013e-01 6.888341e-01 4.228732e-01 5.173756e-01 5.432941e-01 5.929827e-01 6.208367e-01 5.025289e-01 6.390075e-01 5.560729e-01 5.795681e-01 6.206233e-01 3.818719e-01
<GCONST> 1.231725e+02
<STATE> 4
<MEAN> 39
 4.499726e+00 -2.320528e+00 -1.389859e+00 -9.642890e+00 -6.364483e+00 -2.479238e+00 -8.872522e+00 -6.049727e+00 2.989895e+00 3.084409e+00 -2.540674e+00 -6.117487e+00 7.950858e+01 6.693828e-02 -2.456705e+00 -1.279988e+00 -2.260736e+00 -8.878735e-01 5.170235e-01 4.005020e-01 8.141202e-01 1.234508e+00 -7.030269e-02 -8.939860e-01 -8.945779e-01 2.285351e+00 -1.864925e-01 6.246578e-01 3.528160e-01 7.480120e-01 6.374909e-01 3.373238e-01 4.440764e-01 5.165622e-02 -6.339529e-01 -6.228088e-01 -3.089670e-01 -1.308961e-01 -7.274587e-01
<VARIANCE> 39
 3.713261e+01 3.267438e+01 4.827927e+01 5.492292e+01 3.676572e+01 9.629612e+01 3.478776e+01 3.938284e+01 4.864473e+01 4.239743e+01 8.470506e+01 4.706979e+01 1.962674e+01 1.239489e+00 3.325630e+00 3.316093e+00 3.434260e+00 4.088307e+00 3.811581e+00 3.856158e+00 3.347475e+00 4.114070e+00 3.415776e+00 4.068469e+00 4.864037e+00 1.696823e+00 1.863638e-01 3.571625e-01 2.683210e-01 5.160159e-01 3.997303e-01 6.451859e-01 4.866225e-01 5.118692e-01 5.352699e-01 4.315667e-01 5.493138e-01 5.111120e-01 1.954378e-01
<GCONST> 1.244648e+02
<TRANSP> 5
 0.000000e+00 1.000000e+00 0.000000e+00 0.000000e+00 0.000000e+00
 0.000000e+00 8.000346e-01 1.999654e-01 0.000000e+00 0.000000e+00
 0.000000e+00 0.000000e+00 4.967818e-01 5.032182e-01 0.000000e+00
 0.000000e+00 0.000000e+00 0.000000e+00 5.067127e-01 4.932872e-01
 0.000000e+00 0.000000e+00 0.000000e+00 0.000000e+00 0.000000e+00
<ENDHMM>
~h "d"
<BEGINHMM>
<NUMSTATES> 5
<STATE> 2
<MEAN> 39
 1.424698e+00 1.396702e+01 9.263305e+00 3.598514e+00 -1.593060e+00 -3.394293e+00 -6.129213e+00 -4.235398e+00 -3.704803e+00 -3.000472e+00 -5.074249e+00 -5.350105e+00 6.486132e+01 -1.116509e-01 1.537763e-01 1.563291e-01 -1.472484e-02 1.056168e-02 -4.033060e-01 -8.152802e-02 -6.729439e-03 -3.540402e-02 -2.518024e-01 -2.199646e-01 -9.615262e-02 5.754057e-01 -3.643449e-01 -5.564933e-01 -9.917407e-02 -1.539237e-01 -8.411822e-02 -1.537374e-02 5.446465e-02 1.298081e-01 2.247836e-01 1.995224e-01 3.137019e-01 3.506822e-01 3.142413e-01
<VARIANCE> 39
 1.035165e+01 3.207406e+01 1.515894e+01 2.739223e+01 2.179476e+01 2.159635e+01 1.973406e+01 2.370214e+01 2.808723e+01 3.089919e+01 2.108487e+01 2.186312e+01 2.164720e+01 2.397055e+00 2.367498e+00 1.291426e+00 1.378307e+00 2.354022e+00 2.587006e+00 2.717110e+00 3.065769e+00 2.452478e+00 2.080694e+00 2.007287e+00 2.130371e+00 1.457029e+00 2.413767e-01 2.568997e-01 2.867306e-01 3.435297e-01 6.750701e-01 5.679033e-01 6.198224e-01 6.913367e-01 5.046456e-01 4.845392e-01 3.394128e-01 3.147131e-01 3.980683e-01
<GCONST> 1.100155e+02
<STATE> 3
<MEAN> 39
 -4.913518e+00 8.048545e+00 7.933264e+00 8.993478e-01 -1.656474e+00 -6.679740e+00 -6.394967e+00 -4.428366e+00 -2.464498e+00 -2.284180e+00 -3.612283e+00 -2.617378e+00 7.315807e+01 -4.710931e-01 -2.309668e+00 1.115507e+00 -1.116276e+00 -3.127353e+00 -2.341823e+00 -1.842992e+00 -6.437931e-01 1.600076e-01 2.004153e-01 1.066888e+00 1.300607e+00 3.159924e+00 6.317200e-01 -3.074707e-01 4.336124e-01 -2.893181e-01 -1.070824e+00 -1.121044e-01 -5.498747e-01 -2.303778e-02 -4.544698e-03 6.704053e-02 1.427532e-01 -5.743243e-02 6.045460e-02
<VARIANCE> 39
 3.103876e+01 1.815299e+01 3.602988e+01 2.960677e+01 4.147240e+01 4.617482e+01 3.567548e+01 3.058105e+01 2.971716e+01 2.261623e+01 2.280883e+01 3.058791e+01 2.968361e+01 2.751774e+00 2.806723e+00 3.374171e+00 4.457314e+00 5.423841e+00 3.412466e+00 3.956843e+00 3.067202e+00 3.081481e+00 6.046365e+00 2.473157e+00 2.506831e+00 1.576648e+00 2.359988e-01 4.849342e-01 5.227666e-01 6.244112e-01 7.646239e-01 8.491292e-01 6.485530e-01 6.086671e-01 4.860122e-01 6.028287e-01 5.660418e-01 4.966468e-01 3.476118e-01
<GCONST> 1.231569e+02
<STATE> 4
<MEAN> 39
 -1.695885e+00 1.457440e+00 1.424243e+01 -1.386216e+00 -1.525830e+01 -1.202774e+01 -1.384993e+01 -5.326791e+00 -1.697727e+00 -2.765611e+00 1.544946e-01 1.764180e-01 7.953324e+01 7.234148e-01 -1.978201e+00 1.263768e+00 -1.354360e+00 -3.387318e+00 -6.732206e-01 -1.559746e+00 6.292547e-02 1.737130e-01 3.382705e-01 8.351493e-01 3.326142e-01 1.661248e+00 -1.246422e-02 5.584131e-01 -4.658327e-01 7.209080e-02 8.942712e-01 6.993252e-01 7.291014e-01 1.804947e-01 -8.157573e-02 1.441198e-01 -3.285276e-01 -3.505247e-01 -7.330423e-01
<VARIANCE> 39
 3.357359e+01 2.104399e+01 4.000012e+01 6.716562e+01 4.046962e+01 4.910560e+01 4.221784e+01 2.327154e+01 5.692401e+01 6.538724e+01 3.802236e+01 3.908286e+01 1.844087e+01 7.280971e-01 1.307914e+00 2.620510e+00 3.978829e+00 4.107388e+00 3.439008e+00 3.489375e+00 2.973300e+00 2.533377e+00 5.538022e+00 3.115419e+00 2.268344e+00 8.766943e-01 1.528827e-01 2.283721e-01 2.779257e-01 3.870251e-01 5.011328e-01 4.153436e-01 4.430660e-01 3.241904e-01 4.161055e-01 5.740551e-01 3.366049e-01 3.907722e-01 1.384192e-01
<GCONST> 1.162742e+02
<TRANSP> 5
 0.000000e+00 1.000000e+00 0.000000e+00 0.000000e+00 0.000000e+00
 0.000000e+00 8.215813e-01 1.784187e-01 0.000000e+00 0.000000e+00
 0.000000e+00 0.000000e+00 6.010458e-01 3.989542e-01 0.000000e+00
 0.000000e+00 0.000000e+00 0.000000e+00 5.419548e-01 4.580452e-01
 0.000000e+00 0.000000e+00 0.000000e+00 0.000000e+00 0.000000e+00
<ENDHMM>
~h "e"
<BEGINHMM>
<NUMSTATES> 5
<STATE> 2
<MEAN> 39
 -2.705598e+00 -4.075159e+00 1.298891e+01 -4.829686e+00 -1.803622e+01 -1.437876e+01 -1.130581e+01 -2.127334e+00 -5.851328e-01 -1.363981e+00 -8.801106e-01 -6.082718e-01 8.273325e+01 -1.520697e-01 -7.938077e-02 3.630014e-01 -3.757311e-01 -5.308397e-01 1.073696e-01 2.655554e-01 -4.217909e-02 -3.129075e-01 2.101510e-01 2.160641e-01 -1.169837e-02 -3.144205e-03 -5.607069e-02 3.425155e-01 -2.528669e-01 2.312331e-01 5.354480e-01 1.375830e-01 2.446571e-01 -1.807152e-02 -4.011990e-02 4.209536e-02 -1.192319e-01 -3.282202e-02 -4.032253e-01
<VARIANCE> 39
 3.568063e+01 2.054511e+01 3.029446e+01 6.495405e+01 3.212849e+01 5.378256e+01 5.626476e+01 3.972541e+01 4.631724e+01 7.383740e+01 4.553469e+01 3.826327e+01 1.516565e+01 2.366668e-01 6.371447e-01 7.065393e-01 8.139338e-01 1.085195e+00 9.008678e-01 1.112697e+00 1.077636e+00 1.194112e+00 1.329690e+00 1.104183e+00 9.675367e-01 3.809171e-01 1.095368e-01 1.648881e-01 1.444759e-01 1.989017e-01 3.024597e-01 3.035933e-01 3.554282e-01 2.492875e-01 2.472908e-01 3.241977e-01 2.617679e-01 2.096495e-01 8.508398e-02
<GCONST> 9.635694e+01
<STATE> 3
<MEAN> 39
 4.592644e-02 -3.584280e-01 1.340621e+01 -5.819864e+00 -1.874652e+01 -1.160503e+01 -7.737079e+00 -4.346761e+00 -4.451843e+00 6.949248e-01 -1.782083e+00 -6.209405e-01 7.761368e+01 4.709894e-02 7.636138e-01 -4.506229e-01 5.155846e-01 7.108622e-01 4.419989e-01 7.510003e-01 5.241762e-02 4.531373e-02 3.391631e-02 -1.959199e-01 -8.493885e-02 -1.144651e+00 -9.370615e-02 1.785675e-01 -1.934771e-01 2.348604e-01 3.563901e-01 1.448296e-01 1.276440e-01 1.431971e-01 1.980497e-01 -3.123460e-02 5.710907e-02 5.329144e-02 -2.617358e-01
<VARIANCE> 39
 3.325045e+01 2.197635e+01 2.650753e+01 7.816148e+01 2.583097e+01 4.774154e+01 4.588850e+01 3.540762e+01 4.364065e+01 5.246066e+01 4.890823e+01 2.766797e+01 1.838755e+01 3.478260e-01 1.101705e+00 9.470609e-01 1.464108e+00 1.515139e+00 1.560912e+00 1.644139e+00 1.398087e+00 1.560336e+00 1.969521e+00 1.607936e+00 1.132658e+00 6.957614e-01 8.616570e-02 1.596175e-01 1.712372e-01 2.414479e-01 2.560701e-01 2.753238e-01 2.959067e-01 2.747509e-01 2.621748e-01 2.967907e-01 2.818573e-01 2.180217e-01 7.943086e-02
<GCONST> 1.001863e+02
<STATE> 4
<MEAN> 39
 -2.991664e+00 3.307695e+00 9.862096e+00 -6.492161e-01 -1.144418e+01 -8.483996e+00 -3.379344e+00 -6.524218e-01 -1.619076e-01 1.301780e+00 1.016390e+00 1.285058e+00 7.013875e+01 -1.005344e+00 5.016015e-01 -1.099158e+00 4.050291e-01 1.560033e+00 8.105749e-01 8.732011e-01 8.408718e-01 9.966045e-01 8.457055e-01 9.023041e-01 6.981035e-01 -1.341337e+00 -1.118324e-01 -2.530531e-01 -2.995476e-02 -1.856378e-01 -9.993199e-02 -4.025296e-02 -1.716080e-01 1.693410e-02 7.439851e-02 1.341491e-01 1.338965e-01 7.867886e-02 2.737141e-01
<VARIANCE> 39
 2.813306e+01 3.662426e+01 2.499270e+01 4.763147e+01 3.683248e+01 4.615766e+01 4.400304e+01 3.783610e+01 3.953332e+01 4.892994e+01 4.735970e+01 3.537022e+01 4.085283e+01 1.696356e+00 1.881570e+00 1.413165e+00 2.076203e+00 2.770881e+00 2.414360e+00 2.906835e+00 2.640398e+00 2.561586e+00 3.231289e+00 3.329796e+00 2.233318e+00 1.164931e+00 1.869406e-01 2.434881e-01 2.435245e-01 2.886970e-01 4.640466e-01 4.126847e-01 4.411169e-01 4.435061e-01 4.506381e-01 5.514616e-01 5.597830e-01 4.002607e-01 1.187409e-01
<GCONST> 1.156543e+02
<TRANSP> 5
 0.000000e+00 1.000000e+00 0.000000e+00 0.000000e+00 0.000000e+00
 0.000000e+00 7.485929e-01 2.514072e-01 0.000000e+00 0.000000e+00
 0.000000e+00 0.000000e+00 7.536435e-01 2.463565e-01 0.000000e+00
 0.000000e+00 0.000000e+00 0.000000e+00 7.788879e-01 2.211121e-01
 0.000000e+00 0.000000e+00 0.000000e+00 0.000000e+00 0.000000e+00
<ENDHMM>
~h "f"
<BEGINHMM>
<NUMSTATES> 5
<STATE> 2
<MEAN> 39
 -1.367895e+01 -9.559953e-01 4.614489e+00 8.230995e-01 -1.672997e+00 -3.808126e+00 1.841780e-01 4.477726e+00 4.785747e+00 5.424304e+00 1.899273e+00 4.365456e+00 7.381423e+01 -4.193424e-01 -3.339385e-01 -2.811342e-01 -1.101427e-01 9.953152e-02 2.127337e-01 1.710774e-01 2.072142e-01 2.572130e-01 3.663071e-01 2.767489e-01 2.108161e-01 8.507271e-02 3.684137e-01 1.327668e-01 1.629114e-01 -5.810857e-03 -1.180316e-01 -8.417089e-02 -1.351693e-01 -2.175116e-01 -1.945728e-01 -1.560421e-01 -1.407840e-01 -1.459602e-01 -7.187182e-02
<VARIANCE> 39
 2.894481e+01 1.377874e+01 2.748680e+01 2.344609e+01 2.910961e+01 3.631782e+01 4.679057e+01 2.986097e+01 3.609641e+01 2.896314e+01 2.539073e+01 2.970898e+01 2.737492e+01 8.160723e-01 6.117954e-01 9.621286e-01 9.021532e-01 1.343160e+00 1.419328e+00 1.444087e+00 1.783910e+00 1.724347e+00 1.748847e+00 1.500207e+00 1.434572e+00 5.695180e-01 1.651908e-01 1.480314e-01 1.491480e-01 2.035065e-01 2.916377e-01 3.240365e-01 3.532392e-01 4.021972e-01 3.709900e-01 3.604045e-01 3.220758e-01 3.022593e-01 5.269878e-02
<GCONST> 9.848889e+01
<STATE> 3
<MEAN> 39
 -1.229342e+01 -1.255328e+00 5.417726e+00 9.081509e-01 -7.911772e-01 -2.283165e+00 1.548074e+00 4.427852e+00 4.748479e+00 6.037879e+00 2.234440e+00 4.674754e+00 7.198324e+01 3.068110e+00 1.126956e+00 1.038304e+00 -3.816970e-01 -1.567955e+00 -1.380727e+00 -1.742212e+00 -2.130785e+00 -1.795719e+00 -1.539126e+00 -1.346444e+00 -1.316259e+00 1.945412e-01 9.146244e-01 4.777962e-02 9.747293e-02 -4.722223e-01 -9.538333e-01 -6.427711e-01 -8.325452e-01 -6.884426e-01 -4.714674e-01 -4.105635e-01 -2.866545e-01 -3.334683e-01 5.886104e-01
<VARIANCE> 39
 4.049028e+01 1.371025e+01 3.848406e+01 2.388407e+01 2.612309e+01 3.206228e+01 4.588203e+01 2.639400e+01 2.608887e+01 2.603891e+01 2.331587e+01 2.980614e+01 2.344484e+01 2.054126e+00 1.874525e+00 1.946841e+00 2.849387e+00 3.671710e+00 4.639842e+00 3.763410e+00 2.827871e+00 2.846889e+00 2.691541e+00 2.005454e+00 2.082372e+00 1.060672e+00 2.352740e-01 3.772147e-01 2.657218e-01 5.796157e-01 3.862109e-01 5.607947e-01 6.176682e-01 3.749472e-01 5.269474e-01 5.171451e-01 4.754655e-01 4.145500e-01 1.390819e-01
<GCONST> 1.144735e+02
<STATE> 4
<MEAN> 39
 -1.364879e-01 1.345022e+00 8.842400e+00 -1.806697e+00 -1.077776e+01 -1.089099e+01 -7.767725e+00 -4.255544e+00 -1.961923e+00 -1.835153e-01 -2.755917e+00 -3.958797e-01 7.630715e+01 2.985482e+00 -5.962555e-01 7.696062e-01 -1.848975e+00 -3.325489e+00 -1.915775e+00 -2.547477e+00 -1.851295e+00 -1.149392e+00 -9.782283e-01 -5.388358e-01 -8.804235e-01 2.048087e+00 -9.660327e-01 -4.550496e-01 -2.146975e-01 -1.978361e-01 3.162338e-01 5.999464e-01 6.016771e-01 7.267416e-01 5.393587e-01 4.965616e-01 5.114238e-01 4.014783e-01 8.309962e-03
<VARIANCE> 39
 4.380253e+01 3.348627e+01 5.440805e+01 4.275101e+01 5.141121e+01 7.197209e+01 3.884098e+01 2.592911e+01 3.722437e+01 3.075884e+01 1.888301e+01 2.030476e+01 2.781625e+01 2.645886e+00 3.653162e+00 2.379427e+00 4.870072e+00 3.632082e+00 5.773562e+00 5.362365e+00 3.569937e+00 4.144585e+00 4.102841e+00 3.860902e+00 2.853797e+00 8.399156e-01 2.468947e-01 3.241589e-01 1.878846e-01 3.764186e-01 6.258846e-01 5.867280e-01 5.824538e-01 3.284652e-01 3.234250e-01 3.395651e-01 3.033111e-01 2.854458e-01 2.757284e-01
<GCONST> 1.201672e+02
<TRANSP> 5
 0.000000e+00 1.000000e+00 0.000000e+00 0.000000e+00 0.000000e+00
 0.000000e+00 8.818859e-01 1.181141e-01 0.000000e+00 0.000000e+00
 0.000000e+00 0.000000e+00 5.866469e-01 4.133531e-01 0.000000e+00
 0.000000e+00 0.000000e+00 0.000000e+00 5.766534e-01 4.233465e-01
 0.000000e+00 0.000000e+00 0.000000e+00 0.000000e+00 0.000000e+00
<ENDHMM>
~h "g"
<BEGINHMM>
<NUMSTATES> 5
<STATE> 2
<MEAN> 39
 2.053608e+00 1.008929e+01 8.532247e+00 3.032856e+00 -4.877811e+00 -5.190875e+00 -5.060139e+00 -4.230818e+00 -4.941570e+00 -1.275174e+00 -3.156771e+00 -4.290878e+00 6.673910e+01 -2.556250e-01 -2.315267e-01 2.972037e-01 3.152686e-02 1.024191e-01 -4.649873e-01 -2.982894e-01 -1.218728e-01 -2.638699e-01 2.090113e-01 -2.157023e-01 5.977378e-02 6.925589e-01 -3.026892e-01 -6.152523e-01 -4.157645e-02 -2.249902e-01 -1.177791e-01 -5.697090e-02 3.815615e-02 2.262903e-01 3.097034e-01 2.678854e-01 1.454401e-01 2.837231e-01 4.086794e-01
<VARIANCE> 39
 1.317617e+01 6.251799e+01 2.338891e+01 2.775339e+01 3.604015e+01 2.753803e+01 2.332745e+01 3.560310e+01 3.054531e+01 3.445787e+01 3.357846e+01 1.805990e+01 2.974239e+01 2.952502e+00 5.444726e+00 2.482351e+00 2.359132e+00 4.952585e+00 3.764921e+00 2.802846e+00 3.826679e+00 3.423195e+00 3.156533e+00 2.455847e+00 2.313950e+00 3.248832e+00 3.763838e-01 4.827523e-01 3.851640e-01 4.981010e-01 1.126912e+00 7.214430e-01 5.640876e-01 6.999931e-01 6.364586e-01 6.233848e-01 4.739537e-01 3.317061e-01 4.201246e-01
<GCONST> 1.222524e+02
<STATE> 3
<MEAN> 39
 -2.970946e+00 2.746487e-02 1.074627e+01 -1.390229e+00 -9.479891e+00 -1.113427e+01 -8.098907e+00 -2.973119e+00 -3.201805e+00 3.110541e+00 -2.816753e+00 1.865101e-01 7.758790e+01 6.281803e-01 -2.076824e+00 1.323497e-01 -1.747027e+00 -2.742818e+00 -1.624369e+00 -1.278193e+00 9.493216e-01 1.037356e+00 -3.780816e-02 5.673734e-01 5.460914e-01 2.409328e+00 5.045875e-01 3.901808e-02 -5.414393e-01 -1.913220e-01 2.076596e-01 5.013252e-01 2.839039e-01 3.070764e-01 3.541981e-01 -5.020363e-01 -1.588918e-01 -4.805305e-01 -3.581270e-01
<VARIANCE> 39
 4.232460e+01 2.143108e+01 5.893403e+01 5.228576e+01 9.261698e+01 6.225364e+01 5.697127e+01 4.106334e+01 3.769344e+01 5.922677e+01 4.912332e+01 2.587216e+01 1.878181e+01 2.767466e+00 2.863789e+00 3.581419e+00 4.400257e+00 6.330774e+00 3.989817e+00 4.517692e+00 4.971485e+00 5.496821e+00 6.854739e+00 3.241854e+00 3.097901e+00 1.415476e+00 4.557863e-01 5.869789e-01 7.086058e-01 8.985178e-01 2.264132e+00 8.001046e-01 7.951372e-01 8.195357e-01 9.321504e-01 1.129232e+00 7.735727e-01 6.603869e-01 1.925236e-01
<GCONST> 1.343090e+02
<STATE> 4
<MEAN> 39
 1.578543e+00 -7.371110e+00 5.400116e+00 -6.262919e+00 -1.213548e+01 -1.126478e+01 -8.047488e+00 4.079906e+00 3.023966e+00 -9.637040e-01 -4.459757e+00 -3.013918e+00 8.238558e+01 4.559317e-01 -1.586748e+00 -2.478725e+00 -9.463140e-01 1.842634e+00 1.220122e+00 9.435408e-01 6.759562e-01 1.164611e+00 -6.821125e-01 -1.439178e+00 -1.464525e+00 7.453979e-01 -1.694499e-01 4.031769e-01 -1.339520e-01 4.007556e-01 6.876897e-01 4.027326e-01 2.553500e-01 -7.146347e-01 -4.543419e-01 1.609755e-01 -6.127421e-02 -1.236988e-01 -4.019709e-01
<VARIANCE> 39
 3.859457e+01 2.293028e+01 3.866472e+01 4.672773e+01 4.711172e+01 5.610594e+01 8.026146e+01 4.674184e+01 8.384183e+01 4.330848e+01 6.240242e+01 3.288383e+01 1.332315e+01 2.757490e-01 1.093831e+00 1.501258e+00 2.099444e+00 3.629441e+00 1.650848e+00 2.208232e+00 3.214013e+00 3.331933e+00 4.012879e+00 2.938083e+00 3.613806e+00 4.385491e-01 7.640803e-02 1.620078e-01 3.646533e-01 3.321491e-01 7.948561e-01 3.263481e-01 6.777703e-01 4.897101e-01 4.711100e-01 6.411789e-01 6.238244e-01 4.529955e-01 6.063855e-02
<GCONST> 1.140972e+02
<TRANSP> 5
 0.000000e+00 1.000000e+00 0.000000e+00 0.000000e+00 0.000000e+00
 0.000000e+00 8.226962e-01 1.773038e-01 0.000000e+00 0.000000e+00
 0.000000e+00 0.000000e+00 7.028988e-01 2.971012e-01 0.000000e+00
 0.000000e+00 0.000000e+00 0.000000e+00 6.471440e-01 3.528560e-01
 0.000000e+00 0.000000e+00 0.000000e+00 0.000000e+00 0.000000e+00
<ENDHMM>
~h "i"
<BEGINHMM>
<NUMSTATES> 5
<STATE> 2
<MEAN> 39
 -3.797422e+00 4.530327e+00 2.016034e+01 -3.088568e+00 -1.416310e+01 -6.425965e+00 -1.426747e+01 -8.226930e+00 -5.247846e+00 -6.999063e+00 -3.378886e+00 6.436954e-02 7.749273e+01 -6.715503e-02 -1.418602e-01 7.570152e-01 -7.933114e-01 -7.611402e-01 6.670802e-01 -7.459480e-01 -8.805580e-02 -8.293206e-03 -4.903776e-01 1.166361e-01 -5.565645e-03 3.844470e-01 -2.928268e-01 1.367065e-01 -7.775334e-01 1.873138e-01 9.505308e-01 1.041140e-01 7.786847e-01 4.645057e-01 2.352033e-01 4.627085e-01 1.155720e-01 -1.265962e-01 -4.356661e-01
<VARIANCE> 39
 2.935550e+01 2.413171e+01 4.118755e+01 7.572256e+01 4.501145e+01 5.160040e+01 5.224958e+01 3.114901e+01 4.595422e+01 4.347138e+01 4.685538e+01 3.398112e+01 2.035570e+01 1.052201e+00 1.780150e+00 1.737955e+00 3.326396e+00 3.567352e+00 3.285251e+00 3.088711e+00 2.127632e+00 1.900225e+00 2.312728e+00 2.122667e+00 1.870162e+00 4.507255e-01 2.740643e-01 3.227352e-01 2.667482e-01 5.907485e-01 5.160173e-01 8.535615e-01 7.130030e-01 4.618231e-01 5.440859e-01 5.408970e-01 4.519050e-01 4.006310e-01 9.053242e-02
<GCONST> 1.166669e+02
<STATE> 3
<MEAN> 39
 -4.044868e+00 6.893069e+00 1.826441e+01 -6.229331e+00 -1.160316e+01 -6.305462e+00 -1.362720e+01 -7.501536e+00 -7.579242e+00 -6.379623e+00 -3.623074e+00 -2.028632e+00 7.562585e+01 1.169408e-01 3.208477e-01 -4.375759e-01 1.620636e-01 2.852808e-01 5.785494e-02 4.730395e-01 -2.409135e-02 -2.325274e-02 2.361891e-01 6.489232e-02 -1.246507e-03 -6.102290e-01 7.286856e-03 1.262920e-02 -2.622965e-01 2.253754e-01 1.777754e-01 8.112813e-03 2.438014e-01 2.536009e-02 1.337964e-01 1.511408e-01 5.202078e-02 5.502321e-02 -2.152030e-01
<VARIANCE> 39
 2.720359e+01 2.179753e+01 5.160421e+01 7.713251e+01 4.206795e+01 4.969294e+01 4.163303e+01 2.959050e+01 4.464631e+01 4.772054e+01 4.964502e+01 3.875144e+01 2.179790e+01 3.391449e-01 7.885309e-01 9.739540e-01 1.296803e+00 1.409281e+00 1.284278e+00 1.571001e+00 1.306370e+00 1.432574e+00 1.572641e+00 1.307184e+00 1.221021e+00 4.715079e-01 7.458241e-02 1.413942e-01 1.795492e-01 2.532699e-01 2.970203e-01 2.995504e-01 2.851881e-01 2.825912e-01 2.724589e-01 2.878754e-01 2.799500e-01 2.393129e-01 5.422788e-02
<GCONST> 9.943217e+01
<STATE> 4
<MEAN> 39
 -4.580105e+00 8.368351e+00 1.243176e+01 -1.051904e+00 -5.780331e+00 -3.480151e+00 -6.788057e+00 -5.449064e+00 -3.675044e+00 -2.407083e+00 -1.441650e+00 7.804551e-02 6.783900e+01 -5.305552e-01 -2.802461e-01 -1.575079e+00 6.071616e-01 1.278580e+00 7.081654e-01 1.198589e+00 9.647190e-01 1.102807e+00 9.734274e-01 6.180011e-01 3.413084e-01 -1.223221e+00 -1.188423e-01 -1.987184e-01 3.898435e-02 -1.136607e-01 -4.211262e-02 7.291601e-03 -1.043703e-01 1.168192e-01 1.076039e-01 5.003774e-02 5.764120e-02 4.600156e-02 2.049806e-01
<VARIANCE> 39
 2.456195e+01 3.181197e+01 3.700275e+01 5.415411e+01 3.874690e+01 4.124681e+01 3.658047e+01 3.247092e+01 3.287408e+01 3.849466e+01 3.617898e+01 2.855735e+01 3.861768e+01 1.132383e+00 1.509246e+00 1.830668e+00 2.294422e+00 2.305910e+00 2.663879e+00 2.409222e+00 2.620694e+00 2.505292e+00 2.629185e+00 2.445186e+00 2.203584e+00 9.785748e-01 1.498327e-01 2.508195e-01 3.066056e-01 3.369851e-01 4.485775e-01 4.682797e-01 4.163322e-01 4.805802e-01 4.294192e-01 4.640941e-01 4.404562e-01 3.797678e-01 1.466561e-01
<GCONST> 1.132702e+02
<TRANSP> 5
 0.000000e+00 1.000000e+00 0.000000e+00 0.000000e+00 0.000000e+00
 0.000000e+00 5.217602e-01 4.782397e-01 0.000000e+00 0.000000e+00
 0.000000e+00 0.000000e+00 8.257288e-01 1.742712e-01 0.000000e+00
 0.000000e+00 0.000000e+00 0.000000e+00 7.981173e-01 2.018827e-01
 0.000000e+00 0.000000e+00 0.000000e+00 0.000000e+00 0.000000e+00
<ENDHMM>
~h "k"
<BEGINHMM>
<NUMSTATES> 5
<STATE> 2
<MEAN> 39
 -6.145492e+00 -6.328733e-02 -3.618040e+00 -3.340023e+00 3.785922e+00 2.320811e-01 -4.796145e-01 2.029477e+00 7.164993e-01 8.839032e+00 1.947885e+00 3.595215e+00 6.967570e+01 5.499776e-01 -3.596055e-01 -2.101755e-01 -4.840527e-01 -4.900087e-02 -8.794955e-01 -8.291476e-01 -8.285052e-01 -8.214332e-01 -1.463815e-01 -6.628265e-01 -3.759319e-01 1.573584e+00 5.408142e-01 3.462620e-01 5.228689e-01 -1.499746e-02 -7.407362e-01 -2.716883e-01 -2.568673e-01 -3.921097e-01 -1.446952e-01 -6.376531e-01 -1.427335e-01 -3.138084e-01 -2.635416e-02
<VARIANCE> 39
 3.700032e+01 2.920651e+01 7.947272e+01 4.878791e+01 4.905184e+01 5.121674e+01 4.550714e+01 4.142455e+01 4.745507e+01 4.115863e+01 4.028067e+01 2.998343e+01 4.476234e+01 3.684938e+00 3.828879e+00 7.510959e+00 4.960288e+00 6.999173e+00 4.021959e+00 3.772951e+00 4.437405e+00 4.548624e+00 6.166902e+00 3.323831e+00 3.157057e+00 2.902886e+00 5.571284e-01 5.858566e-01 1.198732e+00 1.107369e+00 1.053247e+00 6.711181e-01 6.878455e-01 6.987490e-01 9.061940e-01 9.627916e-01 6.990246e-01 5.418885e-01 5.200415e-01
<GCONST> 1.362648e+02
<STATE> 3
<MEAN> 39
 1.785710e+00 4.189800e+00 1.425048e+00 -4.825708e+00 -4.285681e+00 -6.384267e+00 -6.455874e+00 -5.374958e+00 -5.406534e+00 1.276046e+00 -2.401414e+00 -1.366030e+00 7.403275e+01 3.268684e+00 3.994487e-01 8.860320e-01 -1.693363e+00 -3.972564e+00 -1.801551e+00 -1.632970e+00 -1.841311e+00 -1.060559e+00 -2.600148e+00 -1.025957e+00 -1.392236e+00 1.855831e+00 -3.091808e-01 -6.891294e-01 -6.809348e-01 -3.768874e-01 3.260215e-01 6.022892e-01 3.758774e-01 4.755578e-01 4.806629e-01 4.095459e-01 2.777393e-01 2.050028e-01 6.196050e-02
<VARIANCE> 39
 5.247845e+01 3.116115e+01 4.745190e+01 4.352456e+01 6.182248e+01 5.494611e+01 4.627375e+01 4.723030e+01 4.312748e+01 3.979411e+01 3.605212e+01 2.389991e+01 2.601239e+01 8.512623e-01 4.537699e+00 3.851305e+00 5.960329e+00 4.608108e+00 4.133574e+00 3.758635e+00 5.506384e+00 6.109425e+00 5.306497e+00 5.026116e+00 3.433693e+00 9.685172e-01 3.672683e-01 2.612104e-01 2.971723e-01 5.337028e-01 9.667690e-01 4.484538e-01 4.848243e-01 4.636176e-01 4.589664e-01 5.826579e-01 4.317976e-01 4.077707e-01 1.770412e-01
<GCONST> 1.254512e+02
<STATE> 4
<MEAN> 39
 4.285847e+00 -6.814382e-01 2.355989e-01 -9.529591e+00 -1.023901e+01 -7.074894e+00 -6.701142e+00 -4.791847e+00 -3.453435e+00 -1.597756e+00 -2.109014e+00 -3.835663e+00 7.896132e+01 8.272604e-01 -1.284562e+00 -5.876598e-01 -1.092062e+00 -8.067903e-01 2.178888e-01 -1.952000e-01 -2.687996e-01 4.719520e-01 -7.564434e-01 -1.700772e-01 -7.876591e-01 1.184820e+00 -8.233843e-01 -6.805752e-02 -3.104733e-01 4.043796e-01 1.201815e+00 6.345105e-01 4.381638e-01 2.816709e-01 2.017038e-01 6.797169e-01 1.889458e-01 2.912329e-01 -4.923200e-01
<VARIANCE> 39
 3.694339e+01 5.344086e+01 4.189771e+01 5.512376e+01 4.660775e+01 6.923153e+01 6.068963e+01 8.576650e+01 9.200812e+01 7.123830e+01 7.399371e+01 3.986269e+01 2.332950e+01 1.203671e+00 2.239643e+00 3.347895e+00 3.902989e+00 6.114244e+00 2.927773e+00 2.969991e+00 3.563244e+00 3.752477e+00 3.882912e+00 3.440705e+00 3.236181e+00 9.125924e-01 1.480619e-01 4.429608e-01 3.292979e-01 6.454755e-01 4.839119e-01 5.520351e-01 6.464785e-01 8.285883e-01 7.120575e-01 7.052119e-01 6.595739e-01 4.499566e-01 1.074838e-01
<GCONST> 1.270259e+02
<TRANSP> 5
 0.000000e+00 1.000000e+00 0.000000e+00 0.000000e+00 0.000000e+00
 0.000000e+00 8.117475e-01 1.882525e-01 0.000000e+00 0.000000e+00
 0.000000e+00 0.000000e+00 4.504035e-01 5.495965e-01 0.000000e+00
 0.000000e+00 0.000000e+00 0.000000e+00 4.399427e-01 5.600572e-01
 0.000000e+00 0.000000e+00 0.000000e+00 0.000000e+00 0.000000e+00
<ENDHMM>
~h "l"
<BEGINHMM>
<NUMSTATES> 5
<STATE> 2
<MEAN> 39
 4.282121e-01 5.141432e+00 9.685814e+00 1.703750e+00 -4.699267e+00 -9.414135e+00 -1.272240e+01 -3.301537e+00 -1.496529e+00 -1.592268e+00 -2.585969e+00 -2.379410e+00 7.091488e+01 1.092953e+00 -3.041204e-01 9.373639e-01 -3.783185e-01 -9.769496e-01 -2.061049e+00 -2.622543e+00 -5.259897e-01 -6.258730e-01 -8.796728e-01 -2.686564e-01 -2.556150e-01 1.742292e+00 -3.656219e-01 -3.776892e-01 -2.470302e-01 -1.971234e-01 1.180507e-01 5.439313e-01 5.069870e-01 4.508517e-01 2.649482e-01 2.937506e-01 3.250032e-01 2.213571e-01 -8.820125e-02
<VARIANCE> 39
 2.578797e+01 5.275061e+01 3.062208e+01 6.264868e+01 4.447295e+01 6.302319e+01 7.300976e+01 3.042788e+01 5.108288e+01 4.634483e+01 3.379717e+01 3.979079e+01 3.930070e+01 2.457204e+00 2.593475e+00 2.288008e+00 3.350073e+00 3.912403e+00 6.402748e+00 7.438241e+00 3.814326e+00 3.825655e+00 3.440258e+00 3.566874e+00 2.696148e+00 2.431081e+00 2.810696e-01 3.944276e-01 3.475828e-01 4.389908e-01 7.374490e-01 9.509016e-01 1.263676e+00 5.904476e-01 6.052333e-01 5.849728e-01 6.123505e-01 4.455543e-01 2.632271e-01
<GCONST> 1.285260e+02
<STATE> 3
<MEAN> 39
 1.850135e+00 2.103390e+00 1.214830e+01 3.157365e-01 -6.139520e+00 -1.145236e+01 -1.728587e+01 -1.487727e+00 -2.344733e+00 -4.158944e+00 -1.226758e+00 -2.826033e+00 7.484206e+01 6.428742e-02 -7.768723e-01 -2.292091e-02 -6.064381e-01 -6.979801e-01 9.909120e-02 1.560770e-03 2.795747e-02 8.744562e-02 4.733527e-01 5.782935e-02 -1.799443e-01 7.345421e-01 -2.044889e-02 -2.066755e-01 -2.105596e-01 -1.965341e-01 -3.124383e-01 3.163111e-01 4.057384e-01 -6.618441e-02 1.584109e-01 2.773702e-01 -1.083447e-01 -3.760045e-02 8.000025e-02
<VARIANCE> 39
 2.386042e+01 3.963753e+01 3.945416e+01 6.758270e+01 3.770864e+01 5.438903e+01 6.424032e+01 2.838380e+01 7.170753e+01 5.159898e+01 4.606121e+01 4.841464e+01 1.529530e+01 3.892960e-01 1.441392e+00 1.531604e+00 1.435393e+00 2.491937e+00 1.861058e+00 2.849200e+00 2.328842e+00 1.991970e+00 2.731357e+00 2.112648e+00 1.403324e+00 6.553705e-01 7.387473e-02 2.246042e-01 2.008653e-01 2.861198e-01 4.253604e-01 4.648397e-01 5.844672e-01 4.573076e-01 3.988638e-01 4.451073e-01 3.861997e-01 2.969018e-01 1.146534e-01
<GCONST> 1.102446e+02
<STATE> 4
<MEAN> 39
 1.388870e+00 -3.770320e+00 7.760442e+00 -5.124566e+00 -1.169655e+01 -1.014451e+01 -1.484255e+01 -2.873760e+00 2.266051e-01 1.991993e+00 -3.582152e+00 -4.207375e+00 7.978642e+01 8.660237e-02 -1.192678e+00 -1.103476e+00 -1.476403e+00 -1.007917e+00 1.415933e+00 1.015070e+00 -2.053971e-01 6.581061e-01 6.965055e-01 -5.668564e-01 -1.950883e-01 1.111132e+00 -6.253252e-02 3.327425e-01 -7.338583e-02 2.580108e-02 4.221713e-01 2.013265e-01 1.093304e-01 -1.259211e-01 -2.632944e-01 -4.367613e-01 1.129839e-01 7.683327e-02 -2.102155e-01
<VARIANCE> 39
 3.032569e+01 3.020108e+01 5.769172e+01 6.057236e+01 4.372114e+01 6.030677e+01 7.244135e+01 5.555317e+01 6.320116e+01 6.660382e+01 7.100417e+01 5.203074e+01 1.415395e+01 4.862737e-01 2.029917e+00 3.386936e+00 3.025472e+00 5.194190e+00 4.324609e+00 5.070738e+00 4.124087e+00 3.214668e+00 4.792151e+00 4.143698e+00 2.752606e+00 6.366931e-01 4.293519e-02 1.695565e-01 2.006451e-01 3.262763e-01 3.870104e-01 4.453997e-01 6.377811e-01 5.308512e-01 4.619856e-01 4.973550e-01 5.332364e-01 3.634392e-01 7.206010e-02
<GCONST> 1.189948e+02
<TRANSP> 5
 0.000000e+00 1.000000e+00 0.000000e+00 0.000000e+00 0.000000e+00
 0.000000e+00 6.420756e-01 3.579244e-01 0.000000e+00 0.000000e+00
 0.000000e+00 0.000000e+00 7.426834e-01 2.573166e-01 0.000000e+00
 0.000000e+00 0.000000e+00 0.000000e+00 5.346755e-01 4.653245e-01
 0.000000e+00 0.000000e+00 0.000000e+00 0.000000e+00 0.000000e+00
<ENDHMM>
~h "m"
<BEGINHMM>
<NUMSTATES> 5
<STATE> 2
<MEAN> 39
 3.289289e+00 6.810185e+00 6.526208e+00 4.086347e+00 -3.216446e+00 -7.404463e+00 -8.223472e+00 -1.000703e+01 -8.197603e+00 -1.470713e+00 -2.019454e+00 -6.798845e+00 6.957565e+01 1.494937e+00 -1.896818e-01 3.509962e-01 6.657600e-01 -7.987083e-01 -1.922208e+00 -1.189418e+00 -2.125214e+00 -1.862731e+00 -2.029146e-01 -1.101934e-02 -1.121078e+00 1.405087e+00 -4.361467e-01 -4.679831e-01 -3.060532e-01 -3.827622e-01 6.694832e-02 5.440902e-01 4.719084e-01 6.612949e-01 5.543800e-01 2.829273e-01 2.607491e-01 4.488074e-01 -1.326300e-02
<VARIANCE> 39
 1.950988e+01 5.614842e+01 2.083633e+01 3.689572e+01 2.868469e+01 4.092272e+01 3.661237e+01 4.928122e+01 4.820991e+01 4.853588e+01 4.875677e+01 2.780103e+01 3.734962e+01 2.261079e+00 2.374109e+00 2.136228e+00 2.759997e+00 3.244144e+00 4.183708e+00 4.246265e+00 4.701087e+00 3.862471e+00 3.327833e+00 3.335704e+00 2.531651e+00 2.877856e+00 1.931284e-01 2.659699e-01 2.833886e-01 2.494316e-01 3.984142e-01 5.385749e-01 5.382146e-01 7.773566e-01 4.673535e-01 4.861170e-01 4.674111e-01 3.145833e-01 2.091041e-01
<GCONST> 1.202852e+02
<STATE> 3
<MEAN> 39
 5.322313e+00 3.292470e+00 5.154733e+00 3.490830e+00 -4.762092e+00 -8.288627e+00 -8.864857e+00 -1.253770e+01 -1.141460e+01 -1.840958e+00 -1.327600e+00 -7.957308e+00 7.340977e+01 1.169989e-01 -5.562678e-01 -3.865054e-01 -4.419346e-01 -7.154953e-02 2.445653e-01 3.248803e-02 2.675295e-01 1.488063e-01 -2.241970e-01 9.327412e-02 1.007524e-01 4.900195e-01 -8.708514e-02 -1.722224e-01 -2.103067e-01 -5.451183e-01 -1.307176e-01 3.160901e-01 7.680670e-02 4.987747e-01 3.883499e-01 -1.945990e-01 -1.191547e-01 1.896017e-01 1.517311e-01
<VARIANCE> 39
 1.687121e+01 3.534341e+01 1.969417e+01 4.257170e+01 2.576104e+01 4.352947e+01 4.577184e+01 4.330118e+01 6.379504e+01 5.374891e+01 5.901723e+01 3.559747e+01 1.950024e+01 1.983658e-01 7.913277e-01 1.658232e+00 2.121700e+00 1.129660e+00 1.393639e+00 1.490307e+00 2.612118e+00 2.026930e+00 1.683283e+00 1.320413e+00 1.435959e+00 4.626587e-01 7.570947e-02 1.453930e-01 3.396483e-01 2.552866e-01 2.567206e-01 2.792322e-01 3.128710e-01 4.231221e-01 4.230916e-01 3.203480e-01 3.190482e-01 2.974327e-01 7.124138e-02
<GCONST> 1.018826e+02
<STATE> 4
<MEAN> 39
 5.058716e+00 -1.559828e+00 1.512808e+00 -3.408783e+00 -6.915060e+00 -5.425203e+00 -7.940732e+00 -6.226557e+00 -6.025049e+00 -4.590789e+00 -1.763376e+00 -6.245205e+00 7.779354e+01 -4.361488e-01 -1.386273e+00 -7.801073e-01 -2.672722e+00 -7.188557e-01 1.676970e+00 2.678815e-01 1.820873e+00 1.507919e+00 -9.718018e-01 -7.079241e-01 6.125644e-01 1.448867e+00 -1.844778e-01 2.244155e-01 2.855836e-01 1.439335e-01 2.073269e-01 1.587408e-01 -2.719234e-02 -3.377853e-01 -1.932328e-01 1.316410e-01 -2.914550e-02 -7.692581e-02 -1.694117e-01
<VARIANCE> 39
 2.764162e+01 2.719329e+01 6.447446e+01 5.709324e+01 4.524607e+01 6.082667e+01 4.384906e+01 3.412716e+01 6.726624e+01 5.134343e+01 5.487173e+01 4.390730e+01 1.942837e+01 9.226492e-01 2.027232e+00 6.686691e+00 2.339212e+00 4.668556e+00 3.018880e+00 3.305280e+00 4.797852e+00 4.946772e+00 3.218266e+00 2.800676e+00 2.962418e+00 5.440817e-01 6.877468e-02 2.067977e-01 2.822919e-01 5.917314e-01 3.737196e-01 4.345728e-01 3.924766e-01 4.719533e-01 5.120386e-01 3.891221e-01 3.598815e-01 3.541821e-01 8.488835e-02
<GCONST> 1.180169e+02
<TRANSP> 5
 0.000000e+00 1.000000e+00 0.000000e+00 0.000000e+00 0.000000e+00
 0.000000e+00 5.572045e-01 4.427955e-01 0.000000e+00 0.000000e+00
 0.000000e+00 0.000000e+00 8.009773e-01 1.990227e-01 0.000000e+00
 0.000000e+00 0.000000e+00 0.000000e+00 5.751057e-01 4.248943e-01
 0.000000e+00 0.000000e+00 0.000000e+00 0.000000e+00 0.000000e+00
<ENDHMM>
~h "n"
<BEGINHMM>
<NUMSTATES> 5
<STATE> 2
<MEAN> 39
 4.544117e+00 7.799026e+00 7.946599e+00 2.614533e+00 -8.938890e+00 -7.584210e+00 -5.429543e+00 -1.048622e+01 -7.426339e+00 2.429447e-02 -5.005710e+00 -4.956950e+00 7.094446e+01 6.150277e-01 -1.463087e-01 1.278891e-01 1.659355e-01 -7.943992e-01 -6.814518e-01 -2.263773e-01 -9.792377e-01 -4.997344e-01 1.105048e-01 -3.254187e-01 -2.144216e-01 6.398880e-01 -3.347608e-01 -3.117726e-01 -1.523571e-01 -1.888858e-01 2.911740e-01 1.448157e-01 1.176392e-01 6.640639e-01 3.157509e-01 -3.034849e-02 1.346832e-01 2.300817e-01 4.245340e-02
<VARIANCE> 39
 1.808689e+01 4.211742e+01 2.677166e+01 4.226006e+01 2.499274e+01 2.290139e+01 2.045736e+01 4.159318e+01 8.473799e+01 3.658260e+01 2.103633e+01 3.552639e+01 2.142241e+01 1.224142e+00 1.149201e+00 1.016195e+00 1.319960e+00 2.222512e+00 2.507986e+00 2.537978e+00 3.433950e+00 2.198225e+00 1.597970e+00 2.069851e+00 1.820367e+00 1.508919e+00 1.180528e-01 2.138431e-01 2.408841e-01 2.639826e-01 2.999568e-01 4.221053e-01 5.129076e-01 4.037652e-01 4.068620e-01 4.448939e-01 3.599479e-01 3.050328e-01 1.690685e-01
<GCONST> 1.079012e+02
<STATE> 3
<MEAN> 39
 2.683471e+00 3.279578e+00 6.605497e+00 7.285109e-01 -8.904256e+00 -1.125996e+01 -6.382603e+00 -8.119596e+00 -9.362953e+00 -8.671046e-01 -4.082974e+00 -5.253756e+00 7.505392e+01 -6.204860e-01 -1.489848e+00 -7.819223e-01 -1.485212e+00 9.666429e-01 -2.955135e-01 -6.143038e-01 2.659803e+00 1.028219e+00 -1.306790e+00 -3.921402e-01 2.467748e-01 1.466055e+00 -1.091780e-01 -5.782076e-01 -2.802892e-01 -5.006878e-01 1.415219e-01 5.280960e-01 -7.218566e-02 4.018866e-01 6.215100e-01 -3.412060e-01 -2.874781e-01 1.955112e-03 3.438622e-01
<VARIANCE> 39
 2.810641e+01 2.143730e+01 3.155348e+01 5.468971e+01 4.106626e+01 3.439363e+01 2.451016e+01 4.248161e+01 8.644477e+01 5.285237e+01 5.391258e+01 6.449332e+01 1.407354e+01 4.960951e-01 1.953378e+00 3.209192e+00 2.249957e+00 2.165776e+00 3.273045e+00 3.343384e+00 3.275105e+00 3.422019e+00 4.263452e+00 3.322309e+00 1.951454e+00 7.755187e-01 1.001385e-01 2.257664e-01 4.129937e-01 3.813861e-01 3.745803e-01 5.451339e-01 6.097812e-01 7.153021e-01 4.340569e-01 5.031972e-01 5.167929e-01 3.480238e-01 1.063692e-01
<GCONST> 1.160169e+02
<STATE> 4
<MEAN> 39
 1.034105e+00 -4.641819e+00 3.486050e+00 -6.478806e+00 -4.988959e+00 -7.742446e+00 -9.220845e+00 6.218417e-01 -2.805885e+00 -6.521876e+00 -7.359718e+00 -5.063897e+00 8.093835e+01 -3.599691e-01 -2.533901e+00 -1.064186e+00 -1.418546e+00 5.966984e-01 1.587295e+00 -1.302587e-02 8.580129e-01 2.025283e+00 -9.666867e-01 -1.041675e+00 3.580718e-02 1.596026e+00 1.706976e-01 3.013525e-01 7.813300e-02 5.654052e-01 -2.655874e-01 9.734391e-02 4.088102e-01 -9.742997e-01 -2.795709e-01 3.979526e-01 1.062601e-01 -1.134644e-01 -3.689172e-01
<VARIANCE> 39
 2.861635e+01 2.664775e+01 5.736892e+01 4.429359e+01 4.675674e+01 4.441002e+01 4.642899e+01 2.949033e+01 1.264658e+02 6.116793e+01 6.772054e+01 6.139797e+01 1.427381e+01 6.113858e-01 1.644727e+00 2.583599e+00 2.372352e+00 2.967260e+00 2.812379e+00 4.222805e+00 3.110259e+00 3.193996e+00 4.282834e+00 3.052648e+00 2.054121e+00 5.932904e-01 4.685187e-02 2.575747e-01 3.903409e-01 2.478147e-01 2.191687e-01 5.622240e-01 6.279345e-01 4.838996e-01 4.914769e-01 6.554663e-01 4.797541e-01 3.104802e-01 7.121926e-02
<GCONST> 1.156878e+02
<TRANSP> 5
 0.000000e+00 1.000000e+00 0.000000e+00 0.000000e+00 0.000000e+00
 0.000000e+00 8.215431e-01 1.784569e-01 0.000000e+00 0.000000e+00
 0.000000e+00 0.000000e+00 6.608865e-01 3.391136e-01 0.000000e+00
 0.000000e+00 0.000000e+00 0.000000e+00 5.948489e-01 4.051512e-01
 0.000000e+00 0.000000e+00 0.000000e+00 0.000000e+00 0.000000e+00
<ENDHMM>
~h "o"
<BEGINHMM>
<NUMSTATES> 5
<STATE> 2
<MEAN> 39
 3.806684e+00 1.541217e+00 -1.862259e+00 -1.526191e+01 -6.974699e+00 -2.082184e+00 -1.337011e+01 -1.181206e+01 -3.563778e+00 5.521397e+00 -5.921179e-01 -1.165253e+00 7.879343e+01 2.151009e-01 4.620303e-02 -1.945579e-01 -8.032229e-01 -4.051214e-01 6.700380e-01 3.559925e-01 -2.613538e-01 -4.981138e-01 -2.444425e-01 1.680030e-01 2.840180e-01 -5.263263e-02 -3.438632e-01 1.800907e-01 1.472242e-01 5.898306e-01 4.297979e-01 -7.622560e-02 3.951522e-01 4.971839e-01 9.692309e-02 -2.419897e-01 -1.223069e-01 1.917246e-02 -4.278945e-01
<VARIANCE> 39
 2.968453e+01 2.932823e+01 3.657228e+01 4.776993e+01 6.022679e+01 7.341417e+01 5.316839e+01 4.302875e+01 4.846947e+01 8.934792e+01 5.721209e+01 4.015071e+01 1.737330e+01 4.962504e-01 1.075361e+00 1.373118e+00 3.320980e+00 2.585981e+00 2.283324e+00 2.943659e+00 2.431966e+00 2.369348e+00 2.954404e+00 2.371060e+00 2.115821e+00 8.024436e-01 2.134498e-01 2.516380e-01 2.250615e-01 4.121796e-01 5.599958e-01 4.456593e-01 6.263895e-01 5.925607e-01 5.309836e-01 6.741770e-01 5.003487e-01 4.296887e-01 1.063861e-01
<GCONST> 1.164954e+02
<STATE> 3
<MEAN> 39
 6.305297e+00 5.631550e+00 -2.216715e+00 -1.742901e+01 -1.068937e+01 1.413310e+00 -8.020884e+00 -9.360587e+00 -5.047738e+00 -8.677094e-02 -8.360631e-01 7.186889e-01 7.514680e+01 -9.636652e-02 3.712429e-01 -7.642245e-02 1.848675e-01 1.466836e-01 1.330443e-02 4.856437e-01 3.935127e-01 -9.585356e-02 -2.050659e-01 -8.817489e-03 1.513786e-01 -6.492396e-01 -1.508475e-01 4.258148e-02 4.856284e-02 3.788282e-01 2.478647e-01 -1.140381e-01 6.709151e-02 1.460695e-01 7.242852e-02 9.608071e-02 8.017480e-02 -4.464779e-02 -1.986670e-01
<VARIANCE> 39
 2.762699e+01 2.625081e+01 3.843911e+01 3.496360e+01 5.586810e+01 4.673071e+01 3.371215e+01 3.547961e+01 4.491437e+01 4.716624e+01 3.309488e+01 3.584700e+01 1.697511e+01 2.184495e-01 6.201143e-01 5.925840e-01 1.530112e+00 1.332435e+00 1.110290e+00 1.399051e+00 1.307922e+00 1.385091e+00 1.534706e+00 1.477533e+00 1.247075e+00 5.368599e-01 5.034309e-02 8.715715e-02 1.240664e-01 2.046636e-01 2.370905e-01 1.896650e-01 2.091488e-01 2.416003e-01 2.582743e-01 2.457798e-01 2.562414e-01 2.375652e-01 4.506311e-02
<GCONST> 9.378733e+01
<STATE> 4
<MEAN> 39
 1.905041e+00 7.422296e+00 -1.490300e+00 -1.008918e+01 -5.703531e+00 3.381624e-01 -3.760412e+00 -4.274795e+00 -2.810810e+00 2.576463e+00 3.008567e+00 2.518301e+00 6.758944e+01 -1.186632e+00 2.080686e-02 1.645888e-01 1.264773e+00 6.956594e-01 -1.210337e-01 8.541812e-01 1.202359e+00 9.116703e-01 6.569031e-01 8.971797e-01 4.641715e-01 -1.200195e+00 -6.500219e-02 -1.893632e-01 8.827144e-03 -9.256288e-02 -5.503540e-02 -1.243154e-02 -1.084070e-01 -2.766706e-02 1.204043e-01 1.125342e-01 -2.208365e-02 3.615251e-02 2.102973e-01
<VARIANCE> 39
 2.526675e+01 3.332232e+01 1.990323e+01 4.407194e+01 3.418202e+01 3.595016e+01 4.152644e+01 4.386708e+01 4.076447e+01 4.425693e+01 4.182594e+01 3.868316e+01 2.811260e+01 1.081594e+00 1.218626e+00 1.339349e+00 2.202243e+00 2.274188e+00 1.942241e+00 2.259349e+00 2.764821e+00 3.000858e+00 2.922446e+00 2.864241e+00 2.529585e+00 8.383641e-01 1.691285e-01 1.828075e-01 2.221718e-01 3.691988e-01 3.867450e-01 3.608130e-01 4.208730e-01 4.610800e-01 5.106142e-01 5.394720e-01 5.605019e-01 4.572384e-01 1.222271e-01
<GCONST> 1.123458e+02
<TRANSP> 5
 0.000000e+00 1.000000e+00 0.000000e+00 0.000000e+00 0.000000e+00
 0.000000e+00 6.205224e-01 3.794776e-01 0.000000e+00 0.000000e+00
 0.000000e+00 0.000000e+00 8.155419e-01 1.844580e-01 0.000000e+00
 0.000000e+00 0.000000e+00 0.000000e+00 8.004476e-01 1.995524e-01
 0.000000e+00 0.000000e+00 0.000000e+00 0.000000e+00 0.000000e+00
<ENDHMM>
~h "p"
<BEGINHMM>
<NUMSTATES> 5
<STATE> 2
<MEAN> 39
 -7.243503e+00 1.463381e+00 3.420428e+00 -4.454230e-02 -8.694069e-01 -8.883690e-01 -1.232136e-01 3.559498e+00 4.762766e+00 5.175889e+00 2.621929e+00 3.293807e+00 6.721947e+01 1.185589e-01 -5.858930e-01 1.274538e+00 1.188401e-01 -5.546839e-01 -1.443089e+00 -1.025660e+00 -4.926430e-01 -6.189671e-01 -6.405902e-01 -9.655277e-01 -1.869850e-01 1.995994e+00 6.019354e-01 2.562628e-01 3.637976e-01 -2.229246e-01 -5.493065e-01 -3.219959e-01 -5.331780e-01 -6.285607e-01 -5.797225e-01 -4.357915e-01 -3.031478e-01 -3.071844e-01 3.121711e-01
<VARIANCE> 39
 2.735190e+01 3.300959e+01 3.782614e+01 3.376370e+01 3.341575e+01 3.798446e+01 3.253023e+01 3.209208e+01 3.078353e+01 2.960391e+01 2.849791e+01 2.794580e+01 5.267845e+01 3.794172e+00 3.945006e+00 4.444198e+00 3.191253e+00 4.617345e+00 5.296227e+00 4.206539e+00 4.322025e+00 4.368633e+00 3.604640e+00 3.175887e+00 2.842304e+00 3.321334e+00 3.916233e-01 6.708643e-01 5.922260e-01 6.501569e-01 8.386686e-01 8.452260e-01 7.169266e-01 6.681048e-01 5.958107e-01 6.018746e-01 5.730743e-01 4.945629e-01 5.550921e-01
<GCONST> 1.285575e+02
<STATE> 3
<MEAN> 39
 -2.968817e+00 2.941346e+00 9.075826e+00 8.741001e-01 -4.544831e+00 -7.362109e+00 -6.151463e+00 -2.038657e+00 -1.619582e+00 -2.621721e-01 -2.859229e+00 9.486973e-04 7.288936e+01 2.478352e+00 3.260731e-01 2.016577e+00 -1.267706e+00 -3.338425e+00 -2.119387e+00 -2.865685e+00 -2.687472e+00 -2.214786e+00 -1.735275e+00 -1.150416e+00 -9.613549e-01 2.662212e+00 -5.224184e-02 -1.419528e-01 -2.368641e-01 -5.178493e-01 -3.508138e-01 5.568615e-01 1.313847e-01 5.375665e-02 2.619157e-01 1.988445e-01 5.031242e-01 1.161257e-01 -2.846557e-01
<VARIANCE> 39
 4.976794e+01 3.077069e+01 6.395310e+01 3.999636e+01 3.574091e+01 4.470088e+01 3.678156e+01 3.591812e+01 3.400872e+01 2.569264e+01 2.370146e+01 2.151091e+01 2.567045e+01 1.833849e+00 4.347659e+00 6.797681e+00 6.038603e+00 5.750563e+00 7.549561e+00 5.227339e+00 4.290313e+00 4.379564e+00 4.705504e+00 4.111487e+00 3.684949e+00 2.751682e+00 4.132600e-01 4.995356e-01 4.117217e-01 4.754860e-01 7.680951e-01 7.650195e-01 6.509191e-01 5.963265e-01 5.473084e-01 5.377226e-01 5.639623e-01 4.621496e-01 3.045165e-01
<GCONST> 1.286572e+02
<STATE> 4
<MEAN> 39
 9.163743e-01 1.692291e-01 1.048096e+01 -4.374065e+00 -1.271454e+01 -1.039394e+01 -1.055525e+01 -5.429923e+00 -3.083331e+00 -7.497865e-01 -2.565162e+00 -1.107277e+00 7.816493e+01 1.100806e+00 -6.280574e-01 1.073604e+00 -1.902232e+00 -2.721026e+00 -6.595235e-01 -1.641120e+00 -1.451598e+00 -8.660543e-01 -6.762913e-01 -2.302442e-01 -5.784866e-01 1.878739e+00 -7.515451e-01 -8.323961e-02 -4.877945e-01 1.363391e-01 8.233655e-01 8.137273e-01 7.859519e-01 7.063614e-01 5.797101e-01 3.519961e-01 3.653258e-01 2.580447e-01 -6.834133e-01
<VARIANCE> 39
 4.401443e+01 4.473742e+01 9.547318e+01 6.895375e+01 4.880673e+01 8.498040e+01 5.022137e+01 3.694300e+01 5.256239e+01 4.434518e+01 4.337666e+01 3.633396e+01 2.223304e+01 1.646778e+00 3.089507e+00 3.771412e+00 4.375744e+00 4.998331e+00 5.812981e+00 4.938221e+00 3.909055e+00 3.833382e+00 4.581291e+00 4.757905e+00 3.643375e+00 1.258087e+00 1.852945e-01 3.918999e-01 4.574600e-01 5.183618e-01 5.231216e-01 7.337375e-01 5.233492e-01 5.009495e-01 4.926473e-01 4.491009e-01 4.348982e-01 3.700556e-01 2.289722e-01
<GCONST> 1.276697e+02
<TRANSP> 5
 0.000000e+00 1.000000e+00 0.000000e+00 0.000000e+00 0.000000e+00
 0.000000e+00 7.321377e-01 2.678622e-01 0.000000e+00 0.000000e+00
 0.000000e+00 0.000000e+00 2.903446e-01 7.096554e-01 0.000000e+00
 0.000000e+00 0.000000e+00 0.000000e+00 3.203877e-01 6.796123e-01
 0.000000e+00 0.000000e+00 0.000000e+00 0.000000e+00 0.000000e+00
<ENDHMM>
~h "s"
<BEGINHMM>
<NUMSTATES> 5
<STATE> 2
<MEAN> 39
 -1.881087e+01 5.448883e+00 9.327552e-01 -3.171622e+00 2.625838e+00 -3.987662e+00 1.152567e+00 3.964283e+00 4.802495e+00 5.291848e+00 3.066327e+00 3.288099e+00 7.403290e+01 -5.335929e-01 -4.620823e-02 -1.465284e-01 -4.968442e-02 6.933350e-02 1.456131e-01 1.147470e-01 1.436497e-01 2.695531e-01 2.506671e-01 1.997802e-01 1.839709e-01 1.369965e-01 3.672006e-01 -4.674735e-02 1.659133e-01 3.625361e-02 -8.684076e-02 -1.073492e-02 -1.393042e-01 -1.414517e-01 -1.171685e-01 -1.380905e-01 -1.369048e-01 -1.151073e-01 -7.432827e-02
<VARIANCE> 39
 2.890496e+01 1.617880e+01 3.486323e+01 3.187818e+01 3.287526e+01 3.874382e+01 4.218318e+01 3.884477e+01 3.152605e+01 2.921776e+01 2.901786e+01 3.475719e+01 2.737976e+01 1.039493e+00 6.754056e-01 9.941450e-01 9.841047e-01 1.228882e+00 1.393279e+00 1.534735e+00 1.696196e+00 1.707776e+00 1.722261e+00 1.704037e+00 1.451218e+00 5.214748e-01 1.602922e-01 1.245531e-01 1.655090e-01 2.051530e-01 2.513058e-01 3.115449e-01 3.407231e-01 3.685650e-01 3.709205e-01 3.679419e-01 3.550122e-01 3.068106e-01 4.925299e-02
<GCONST> 9.975517e+01
<STATE> 3
<MEAN> 39
 -1.688506e+01 3.983754e+00 3.237136e+00 -2.623315e+00 3.145778e+00 -2.465898e+00 1.379994e+00 3.974861e+00 5.594389e+00 5.452334e+00 2.522079e+00 3.531981e+00 7.257687e+01 3.257581e+00 2.741072e-01 1.420626e+00 -9.091087e-02 -1.339343e+00 -1.210647e+00 -2.271067e+00 -2.018898e+00 -1.719669e+00 -1.577038e+00 -1.563545e+00 -1.413469e+00 3.170097e-01 1.051299e+00 3.693704e-03 1.557700e-01 -2.594026e-01 -8.596604e-01 -5.155679e-01 -9.474649e-01 -7.315620e-01 -6.334522e-01 -4.627164e-01 -3.506805e-01 -4.085355e-01 4.855550e-01
<VARIANCE> 39
 3.921687e+01 1.468526e+01 3.545294e+01 3.066985e+01 2.789208e+01 3.849648e+01 4.500224e+01 3.503174e+01 3.326715e+01 3.006985e+01 3.030133e+01 3.407180e+01 2.275537e+01 2.973717e+00 1.543173e+00 2.578461e+00 2.667588e+00 3.331120e+00 4.308044e+00 4.182454e+00 3.600940e+00 3.114076e+00 2.819929e+00 2.541889e+00 2.453864e+00 8.643877e-01 2.440082e-01 3.170147e-01 4.319679e-01 5.082290e-01 4.034692e-01 7.159228e-01 6.090303e-01 5.595015e-01 5.591188e-01 5.396144e-01 5.776646e-01 4.663937e-01 1.071837e-01
<GCONST> 1.178875e+02
<STATE> 4
<MEAN> 39
 -2.605918e+00 4.835556e+00 6.955391e+00 -4.534582e+00 -5.859674e+00 -9.771733e+00 -1.043573e+01 -5.623734e+00 -2.172264e+00 -9.037732e-01 -3.617321e+00 -2.661746e+00 7.678020e+01 3.704141e+00 -1.195403e+00 7.502677e-01 -1.452343e+00 -3.170591e+00 -1.179694e+00 -2.870209e+00 -1.980900e+00 -1.631512e+00 -1.271491e+00 -8.766603e-01 -1.233943e+00 1.843394e+00 -9.904634e-01 -3.824502e-01 -3.647004e-01 -1.333494e-01 3.129999e-01 6.900277e-01 8.920056e-01 7.412417e-01 4.934740e-01 4.248182e-01 6.497058e-01 4.966719e-01 -5.992789e-02
<VARIANCE> 39
 5.666238e+01 3.102833e+01 7.831964e+01 4.169613e+01 6.535439e+01 7.802083e+01 4.126501e+01 3.578225e+01 3.854864e+01 3.948521e+01 3.019698e+01 3.293321e+01 2.935807e+01 2.701967e+00 3.193416e+00 5.445254e+00 4.886815e+00 4.375399e+00 7.384226e+00 6.128893e+00 5.222791e+00 4.789021e+00 5.047502e+00 5.011553e+00 3.512294e+00 7.305682e-01 3.314390e-01 2.972273e-01 2.540295e-01 4.115709e-01 6.863558e-01 6.112605e-01 6.353499e-01 4.821588e-01 4.312094e-01 5.056942e-01 4.396702e-01 4.092539e-01 2.113288e-01
<GCONST> 1.273817e+02
<TRANSP> 5
 0.000000e+00 1.000000e+00 0.000000e+00 0.000000e+00 0.000000e+00
 0.000000e+00 8.991114e-01 1.008886e-01 0.000000e+00 0.000000e+00
 0.000000e+00 0.000000e+00 6.220577e-01 3.779423e-01 0.000000e+00
 0.000000e+00 0.000000e+00 0.000000e+00 5.954345e-01 4.045655e-01
 0.000000e+00 0.000000e+00 0.000000e+00 0.000000e+00 0.000000e+00
<ENDHMM>
~h "t"
<BEGINHMM>
<NUMSTATES> 5
<STATE> 2
<MEAN> 39
 -1.087423e+01 3.832951e+00 1.099952e+00 -3.254708e+00 2.206857e+00 -9.911208e-01 -2.385051e-01 3.304568e+00 4.860708e+00 5.094579e+00 3.356123e+00 3.178136e+00 6.998288e+01 5.665081e-02 -3.590049e-01 3.792333e-01 -5.308162e-01 -3.052031e-01 -1.125864e+00 -1.065170e+00 -5.080812e-01 -2.265658e-01 -7.196411e-01 -9.181676e-01 -4.674220e-01 1.959467e+00 7.711250e-01 -1.006430e-01 2.481360e-01 -1.006405e-01 -5.192903e-01 -2.038617e-01 -4.636575e-01 -4.258779e-01 -2.857108e-01 -3.784113e-01 -4.304634e-01 -4.085549e-01 1.782895e-01
<VARIANCE> 39
 3.896109e+01 2.218771e+01 3.111801e+01 3.627224e+01 4.403525e+01 4.117512e+01 3.556899e+01 3.541468e+01 3.015871e+01 2.939225e+01 2.598023e+01 2.828791e+01 4.667579e+01 4.398117e+00 2.227026e+00 3.309894e+00 3.230569e+00 4.716942e+00 4.549229e+00 3.957685e+00 3.859241e+00 3.661054e+00 3.551025e+00 3.462564e+00 2.918970e+00 3.798422e+00 5.301054e-01 4.498634e-01 4.860052e-01 6.380473e-01 6.935084e-01 8.109236e-01 6.928167e-01 6.579933e-01 6.489368e-01 5.721527e-01 6.367933e-01 5.448656e-01 4.772530e-01
<GCONST> 1.272417e+02
<STATE> 3
<MEAN> 39
 -4.368691e+00 4.875355e+00 4.981936e+00 -4.033011e+00 -3.489888e+00 -7.958702e+00 -7.485341e+00 -2.372304e+00 8.271539e-01 -7.748071e-01 -3.597294e+00 -1.413906e+00 7.535373e+01 3.495214e+00 -1.338535e+00 9.084491e-01 -1.353272e+00 -2.915697e+00 -1.482875e+00 -2.842225e+00 -1.968153e+00 -8.325344e-01 -1.508196e+00 -2.230765e+00 -2.015663e+00 2.577711e+00 1.112495e-02 -5.291454e-01 -2.882800e-01 -1.313252e-01 3.657033e-02 8.564371e-01 4.580470e-01 2.720378e-01 2.101679e-01 3.392107e-01 4.499492e-01 1.063766e-01 -3.341551e-01
<VARIANCE> 39
 5.372401e+01 2.457000e+01 5.911893e+01 3.036814e+01 4.938816e+01 4.670558e+01 3.535424e+01 3.642460e+01 4.259930e+01 3.226704e+01 2.479695e+01 3.563785e+01 2.368815e+01 1.378335e+00 3.570547e+00 6.144639e+00 6.143727e+00 5.668499e+00 7.135671e+00 5.299579e+00 5.477296e+00 6.951749e+00 4.991423e+00 6.153821e+00 5.589968e+00 2.115363e+00 4.949199e-01 2.895376e-01 3.344387e-01 4.105048e-01 7.399707e-01 6.299233e-01 6.060874e-01 6.096209e-01 4.783260e-01 5.647794e-01 5.426108e-01 5.258822e-01 3.461637e-01
<GCONST> 1.292505e+02
<STATE> 4
<MEAN> 39
 8.037244e-01 -2.500531e+00 3.351016e+00 -8.668726e+00 -8.135938e+00 -6.714103e+00 -1.069707e+01 -3.140793e+00 2.874237e+00 -1.001616e+00 -5.050381e+00 -4.715893e+00 8.084604e+01 1.930121e+00 -2.335383e+00 -2.916342e-01 -1.446851e+00 -1.409389e+00 6.215900e-01 -7.833405e-01 -7.156419e-01 -1.954249e-01 -6.562673e-01 -7.133489e-01 -1.179448e+00 1.795371e+00 -9.111781e-01 2.471769e-01 -3.402869e-01 3.998552e-01 8.313606e-01 6.657055e-01 1.034952e+00 4.497360e-01 1.783181e-03 3.764399e-01 7.210644e-01 5.974643e-01 -7.544695e-01
<VARIANCE> 39
 4.837626e+01 4.197541e+01 9.249062e+01 5.010739e+01 5.764354e+01 8.852348e+01 4.822218e+01 4.923439e+01 8.721085e+01 5.615465e+01 5.876107e+01 6.980096e+01 2.104115e+01 1.744179e+00 2.750307e+00 3.687172e+00 3.063305e+00 6.345289e+00 5.320398e+00 4.778145e+00 4.201141e+00 4.168805e+00 4.245280e+00 5.415545e+00 4.350885e+00 9.904777e-01 1.678205e-01 3.871504e-01 4.027294e-01 5.678598e-01 4.740657e-01 7.943690e-01 6.700937e-01 6.610426e-01 8.000043e-01 5.969526e-01 6.328879e-01 6.060930e-01 2.035515e-01
<GCONST> 1.311519e+02
<TRANSP> 5
 0.000000e+00 1.000000e+00 0.000000e+00 0.000000e+00 0.000000e+00
 0.000000e+00 7.738644e-01 2.261356e-01 0.000000e+00 0.000000e+00
 0.000000e+00 0.000000e+00 3.364017e-01 6.635983e-01 0.000000e+00
 0.000000e+00 0.000000e+00 0.000000e+00 3.007418e-01 6.992581e-01
 0.000000e+00 0.000000e+00 0.000000e+00 0.000000e+00 0.000000e+00
<ENDHMM>
~h "u"
<BEGINHMM>
<NUMSTATES> 5
<STATE> 2
<MEAN> 39
 5.559070e+00 8.470879e+00 9.958594e-01 -1.073626e+01 -9.488954e+00 -3.732493e+00 -9.517904e+00 -1.006401e+01 -1.004731e+01 -4.131692e+00 -5.389834e+00 -3.922875e+00 7.305761e+01 -8.311773e-02 -2.398091e-01 5.568256e-02 3.964025e-01 1.982426e-01 1.096664e-01 -3.317940e-01 -3.873438e-01 -3.313827e-01 1.770855e-02 2.644818e-01 -1.013834e-01 -1.281641e-01 -2.837481e-01 -8.409712e-02 1.664245e-01 4.658557e-01 3.798516e-01 -6.673058e-02 -1.544027e-02 2.714180e-01 4.052436e-01 1.893062e-01 2.175428e-02 -3.095752e-02 -1.391512e-01
<VARIANCE> 39
 2.207206e+01 2.787942e+01 3.175995e+01 4.137109e+01 5.001869e+01 4.895977e+01 4.119127e+01 4.941248e+01 3.292372e+01 5.235106e+01 4.946259e+01 3.763356e+01 1.738446e+01 2.961775e-01 1.013645e+00 8.281230e-01 1.986225e+00 1.717458e+00 1.685447e+00 2.590373e+00 2.541065e+00 2.167286e+00 2.375378e+00 2.216414e+00 1.735085e+00 4.025962e-01 1.024532e-01 1.785025e-01 1.741666e-01 2.993435e-01 3.537911e-01 3.142371e-01 3.796096e-01 5.845160e-01 4.556805e-01 4.544084e-01 4.494735e-01 3.440074e-01 5.389809e-02
<GCONST> 1.058365e+02
<STATE> 3
<MEAN> 39
 1.941437e+00 4.441060e+00 5.685258e+00 -3.735092e+00 -3.971148e+00 -5.876067e+00 -1.563349e+01 -1.076457e+01 -6.441336e+00 -8.276306e-01 -5.204949e+00 -4.660434e+00 7.461599e+01 -1.276642e+00 3.633982e-01 1.352412e+00 1.592360e+00 7.308201e-01 -5.392678e-01 7.380389e-01 1.787660e+00 1.310852e+00 -3.573246e-01 -3.542642e-01 -3.463118e-01 -6.321584e-01 -1.820432e-01 4.041761e-01 -1.351333e-01 -2.653661e-01 -8.370626e-02 1.573109e-01 7.739038e-01 4.401751e-01 -4.153637e-03 -1.617930e-01 1.094186e-01 2.412141e-01 -2.491338e-01
<VARIANCE> 39
 3.069349e+01 3.469077e+01 4.390560e+01 5.247582e+01 4.227453e+01 7.966875e+01 5.297418e+01 5.403693e+01 4.171122e+01 5.187645e+01 6.056078e+01 2.859415e+01 2.689820e+01 1.879237e+00 2.720035e+00 2.257739e+00 2.240221e+00 4.310934e+00 2.631728e+00 5.774057e+00 4.768543e+00 3.748587e+00 4.426801e+00 3.386626e+00 2.705182e+00 1.098560e+00 1.850027e-01 3.717240e-01 4.853500e-01 4.688183e-01 5.852060e-01 5.594430e-01 7.366437e-01 9.461554e-01 7.795135e-01 7.938536e-01 6.740111e-01 5.042859e-01 1.097187e-01
<GCONST> 1.256110e+02
<STATE> 4
<MEAN> 39
 -1.010898e+00 9.291235e+00 5.743358e+00 -2.991383e+00 -5.079381e+00 -4.416915e+00 -5.847656e+00 -3.259960e+00 -3.338093e+00 -1.994834e+00 -3.273011e+00 -2.578052e+00 6.804133e+01 -1.231133e+00 3.073414e-02 -1.534973e-01 3.583350e-01 5.909700e-01 3.508775e-01 9.990079e-01 1.032741e+00 9.694310e-01 7.402314e-01 8.871526e-01 6.582208e-01 -8.517104e-01 1.921370e-02 -2.191913e-01 -1.448361e-01 -1.067122e-01 -8.963946e-02 -1.578049e-02 -1.537267e-01 -1.998942e-01 -2.176100e-02 1.749696e-01 7.301693e-02 3.984471e-02 2.206361e-01
<VARIANCE> 39
 3.832278e+01 4.302141e+01 2.994524e+01 2.768259e+01 2.819296e+01 3.486408e+01 3.166943e+01 2.947536e+01 2.961210e+01 3.283628e+01 3.110190e+01 3.054267e+01 4.082995e+01 1.203881e+00 1.975352e+00 9.972207e-01 1.815237e+00 1.696958e+00 1.981535e+00 2.355045e+00 2.568622e+00 2.420416e+00 2.624855e+00 2.460749e+00 1.997620e+00 6.146424e-01 1.737918e-01 2.221360e-01 2.378193e-01 3.407869e-01 3.619089e-01 3.417518e-01 3.773832e-01 4.803897e-01 3.941570e-01 5.291314e-01 4.422876e-01 3.553708e-01 8.962440e-02
<GCONST> 1.090123e+02
<TRANSP> 5
 0.000000e+00 1.000000e+00 0.000000e+00 0.000000e+00 0.000000e+00
 0.000000e+00 8.043263e-01 1.956737e-01 0.000000e+00 0.000000e+00
 0.000000e+00 0.000000e+00 6.496654e-01 3.503346e-01 0.000000e+00
 0.000000e+00 0.000000e+00 0.000000e+00 7.196430e-01 2.803570e-01
 0.000000e+00 0.000000e+00 0.000000e+00 0.000000e+00 0.000000e+00
<ENDHMM>
~h "v"
<BEGINHMM>
<NUMSTATES> 5
<STATE> 2
<MEAN> 39
 -1.057761e+00 6.439775e+00 7.518213e+00 4.770976e+00 -1.941083e+00 -8.018828e+00 -9.089847e+00 -3.704118e+00 -4.503514e-01 7.308778e-01 -4.079978e+00 -2.074575e+00 7.156203e+01 -1.080077e-02 -1.437502e-02 2.611718e-01 -1.794362e-03 -2.521499e-01 -5.219489e-01 -3.189715e-01 -4.201711e-01 -2.996629e-01 -1.388577e-01 -8.294174e-02 8.314521e-02 7.754579e-01 -1.393075e-02 -3.298911e-01 -2.366792e-02 -2.325843e-01 -2.339959e-01 3.757641e-02 1.671545e-01 6.026761e-02 6.531795e-02 5.722762e-02 2.222961e-01 1.818045e-01 6.564353e-02
<VARIANCE> 39
 3.280143e+01 2.501818e+01 1.924699e+01 2.203589e+01 2.282823e+01 3.580821e+01 2.972223e+01 2.153896e+01 2.747487e+01 2.716071e+01 2.358168e+01 2.400517e+01 2.727408e+01 1.976665e+00 1.626792e+00 1.160911e+00 1.109315e+00 2.283696e+00 3.630675e+00 3.008348e+00 1.617277e+00 1.627625e+00 1.645268e+00 1.778813e+00 1.686142e+00 1.344821e+00 4.304624e-01 3.309676e-01 2.537335e-01 2.550296e-01 5.938258e-01 6.536472e-01 5.896110e-01 3.360978e-01 3.263862e-01 4.299529e-01 3.295359e-01 3.194747e-01 2.136919e-01
<GCONST> 1.083534e+02
<STATE> 3
<MEAN> 39
 -3.376842e-01 3.100201e+00 8.161529e+00 2.623420e+00 -6.368877e+00 -1.102792e+01 -9.475651e+00 -5.108173e+00 -1.585295e+00 -2.652663e-01 -2.586074e+00 -1.632309e-02 7.573438e+01 1.105121e+00 -1.838611e+00 2.768360e-01 -1.600670e+00 -2.367291e+00 -6.660894e-01 -5.393989e-01 -5.165441e-01 6.913405e-02 -1.704250e-01 8.527298e-01 3.744060e-01 1.401126e+00 3.995370e-02 -1.359736e-01 3.899884e-02 -4.125037e-01 -2.448571e-01 3.601598e-01 3.602630e-02 1.276812e-01 9.130058e-02 -7.069565e-02 5.179892e-02 -1.628422e-01 3.202375e-02
<VARIANCE> 39
 3.694141e+01 1.836352e+01 4.325452e+01 3.129558e+01 3.057695e+01 5.260076e+01 2.675462e+01 1.942568e+01 3.139706e+01 1.911235e+01 2.385381e+01 2.110285e+01 2.025851e+01 9.822350e-01 1.768576e+00 3.118661e+00 1.995357e+00 3.945594e+00 4.110357e+00 2.237573e+00 2.317489e+00 1.678267e+00 3.764434e+00 1.557801e+00 1.547914e+00 8.075681e-01 1.835145e-01 2.210663e-01 1.825542e-01 1.960976e-01 3.631726e-01 3.753629e-01 4.256411e-01 2.826658e-01 3.419186e-01 3.621580e-01 3.464400e-01 1.964236e-01 8.202111e-02
<GCONST> 1.060709e+02
<STATE> 4
<MEAN> 39
 -1.878358e-01 -7.852625e-01 8.960500e+00 -6.177823e+00 -1.190900e+01 -1.300736e+01 -9.678524e+00 -5.920342e+00 -2.709922e+00 2.112962e+00 -2.251436e+00 -1.316674e-01 7.956738e+01 2.709247e-01 -1.029401e+00 2.632897e-01 -1.881688e+00 -1.423378e+00 2.578570e-01 6.345311e-02 -2.003597e-02 2.222162e-01 -4.435102e-02 2.178772e-01 -2.391286e-01 9.083918e-01 -2.487582e-01 3.204485e-01 -1.119886e-01 2.008378e-01 4.134516e-01 3.196254e-01 1.968766e-01 1.828246e-01 -2.898596e-02 -2.590271e-01 -1.708218e-01 -1.817710e-01 -2.317829e-01
<VARIANCE> 39
 3.643913e+01 1.937508e+01 5.365625e+01 7.917560e+01 4.831600e+01 7.791819e+01 2.600756e+01 2.866772e+01 4.158944e+01 3.908807e+01 2.544788e+01 2.540282e+01 1.716315e+01 9.565384e-01 9.067895e-01 2.191667e+00 2.090884e+00 2.647135e+00 2.349996e+00 2.736211e+00 1.647504e+00 1.735888e+00 3.123418e+00 1.950022e+00 1.422940e+00 3.833831e-01 8.222833e-02 1.927114e-01 1.299013e-01 2.088185e-01 3.800030e-01 3.031636e-01 2.967766e-01 3.482623e-01 2.253535e-01 3.421908e-01 2.307980e-01 2.188094e-01 7.887626e-02
<GCONST> 1.043418e+02
<TRANSP> 5
 0.000000e+00 1.000000e+00 0.000000e+00 0.000000e+00 0.000000e+00
 0.000000e+00 8.153411e-01 1.846589e-01 0.000000e+00 0.000000e+00
 0.000000e+00 0.000000e+00 5.662978e-01 4.337022e-01 0.000000e+00
 0.000000e+00 0.000000e+00 0.000000e+00 4.891346e-01 5.108653e-01
 0.000000e+00 0.000000e+00 0.000000e+00 0.000000e+00 0.000000e+00
<ENDHMM>
~h "y"
<BEGINHMM>
<NUMSTATES> 5
<STATE> 2
<MEAN> 39
 1.022896e+00 -4.613735e-03 1.436496e+01 1.104712e+01 -1.228354e+01 -1.668644e+01 -1.464398e+01 -2.578125e+00 -6.783317e+00 -5.876919e+00 -3.904236e+00 1.482218e+00 7.527706e+01 3.017897e-01 -6.057705e-01 -2.680606e-01 -9.552640e-02 -8.438752e-01 -3.010283e-01 -1.083776e+00 -1.390786e-01 -1.488626e-01 1.524027e-01 -3.176786e-02 1.331728e-01 4.869610e-01 -1.428891e-01 1.140416e-01 -2.616093e-01 -2.911541e-01 4.120022e-01 4.196021e-01 2.878911e-01 -5.504913e-02 2.305928e-01 4.203464e-01 -6.519806e-02 -3.165901e-01 -2.174220e-01
<VARIANCE> 39
 1.854757e+01 1.703466e+01 3.016564e+01 5.360991e+01 2.743362e+01 3.015164e+01 5.466140e+01 2.472516e+01 3.496241e+01 6.303169e+01 2.841822e+01 2.090099e+01 1.654313e+01 5.228725e-01 4.848888e-01 1.469559e+00 1.313046e+00 2.536904e+00 1.600379e+00 1.582069e+00 1.845643e+00 3.180807e+00 3.431916e+00 2.022429e+00 1.677883e+00 3.976949e-01 1.424071e-01 1.310005e-01 1.939842e-01 1.497268e-01 3.357254e-01 3.544683e-01 2.617915e-01 2.834994e-01 3.763578e-01 4.575845e-01 3.849918e-01 2.883225e-01 5.293666e-02
<GCONST> 1.009410e+02
<STATE> 3
<MEAN> 39
 4.824556e-01 -3.829881e+00 8.328548e+00 2.784501e+00 -1.256644e+01 -1.578893e+01 -1.489583e+01 -4.811357e+00 -7.736039e+00 1.408597e+00 -7.238379e+00 -3.076307e+00 7.884874e+01 2.270438e-01 7.301741e-02 -9.960551e-01 -1.168500e+00 6.577679e-01 9.140557e-01 4.843321e-01 -8.591440e-01 5.418061e-01 1.040486e+00 3.366846e-02 -3.331767e-01 -1.779777e-01 -7.481532e-02 3.598627e-01 5.196054e-02 -5.420666e-02 1.756804e-01 2.423700e-01 4.105520e-01 -7.095408e-02 -9.483211e-02 -2.446926e-01 1.529545e-01 2.709703e-01 -2.625750e-01
<VARIANCE> 39
 2.488126e+01 2.068735e+01 4.602492e+01 6.918312e+01 3.411499e+01 5.861149e+01 7.775861e+01 5.278188e+01 9.732415e+01 9.389277e+01 3.768830e+01 3.268449e+01 1.769567e+01 3.037505e-01 8.551869e-01 1.428015e+00 1.924389e+00 1.036771e+00 2.408800e+00 2.642764e+00 2.754617e+00 2.555469e+00 3.973926e+00 2.167994e+00 2.677427e+00 5.354447e-01 5.924272e-02 1.223501e-01 1.572532e-01 2.804613e-01 2.110731e-01 4.103253e-01 4.554564e-01 4.719389e-01 4.557026e-01 6.237609e-01 4.224892e-01 5.000870e-01 3.839809e-02
<GCONST> 1.089281e+02
<STATE> 4
<MEAN> 39
 -2.634874e-01 3.245866e+00 9.388638e+00 3.729931e+00 -1.025853e+01 -1.202425e+01 -7.518855e+00 -5.326867e+00 -7.556407e+00 -2.093758e+00 -7.140898e-01 1.758878e-01 6.994344e+01 -4.683788e-01 7.051182e-01 -8.390245e-01 -6.391994e-01 1.053193e+00 1.283923e+00 1.206631e+00 5.344927e-01 6.337863e-01 2.303770e-01 2.698910e-01 4.310583e-01 -1.119538e+00 -8.882089e-02 -1.171225e-01 4.086498e-02 6.489284e-02 6.568880e-03 5.172002e-02 -5.961363e-02 2.432974e-01 1.974151e-01 -6.450816e-02 3.132353e-03 2.268416e-02 4.549912e-02
<VARIANCE> 39
 2.479958e+01 3.247245e+01 4.110578e+01 4.923331e+01 3.203209e+01 7.594244e+01 3.497926e+01 5.559310e+01 3.502765e+01 5.127890e+01 3.847105e+01 2.546716e+01 3.512661e+01 6.294019e-01 1.494403e+00 9.125414e-01 2.168154e+00 1.919934e+00 3.129639e+00 2.773388e+00 2.902022e+00 3.237062e+00 3.173837e+00 3.025835e+00 2.837572e+00 4.061319e-01 8.211862e-02 1.921333e-01 1.903391e-01 2.638966e-01 3.076305e-01 5.514569e-01 4.108827e-01 6.019188e-01 5.331163e-01 5.426790e-01 5.267597e-01 5.800875e-01 6.466029e-02
<GCONST> 1.118929e+02
<TRANSP> 5
 0.000000e+00 1.000000e+00 0.000000e+00 0.000000e+00 0.000000e+00
 0.000000e+00 7.621835e-01 2.378164e-01 0.000000e+00 0.000000e+00
 0.000000e+00 0.000000e+00 7.249418e-01 2.750582e-01 0.000000e+00
 0.000000e+00 0.000000e+00 0.000000e+00 7.890555e-01 2.109445e-01
 0.000000e+00 0.000000e+00 0.000000e+00 0.000000e+00 0.000000e+00
<ENDHMM>
~h "sp"
<BEGINHMM>
<NUMSTATES> 3
<STATE> 2
~s "silst"
<TRANSP> 3
 0.000000e+00 2.575224e-01 7.424776e-01
 0.000000e+00 4.618896e-01 5.381104e-01
 0.000000e+00 0.000000e+00 0.000000e+00
<ENDHMM>
~h "sil"
<BEGINHMM>
<NUMSTATES> 5
<STATE> 2
<MEAN> 39
 -5.635186e+00 4.332577e+00 1.150120e+00 -7.620946e-01 -3.911955e-01 1.923121e+00 1.362271e+00 3.115611e+00 4.095156e+00 5.470590e+00 4.988129e+00 3.400007e+00 6.218200e+01 -2.265130e-01 -7.358509e-03 -2.951488e-02 1.522291e-01 2.057861e-01 1.005409e-01 1.128169e-01 2.107737e-01 2.077694e-01 2.134597e-01 1.888248e-01 1.712501e-01 -2.091863e-01 5.191414e-02 6.134768e-03 3.525081e-02 -6.987705e-03 -9.428766e-03 -3.228955e-02 -5.320334e-02 -7.103830e-02 -7.724524e-02 -8.859065e-02 -1.074217e-01 -7.419003e-02 1.008760e-01
<VARIANCE> 39
 1.048505e+01 2.893911e+01 2.890082e+01 3.680576e+01 3.922171e+01 3.822966e+01 2.773944e+01 2.633448e+01 2.613901e+01 2.749048e+01 2.710874e+01 3.019660e+01 2.829899e+01 2.993401e-01 3.584607e-01 5.776392e-01 7.870245e-01 9.867009e-01 1.186160e+00 1.314096e+00 1.447126e+00 1.544050e+00 1.596354e+00 1.595483e+00 1.415710e+00 2.680982e-01 4.125132e-02 5.543122e-02 9.102607e-02 1.236939e-01 1.566814e-01 1.883384e-01 2.196005e-01 2.316558e-01 2.591342e-01 2.624826e-01 2.608728e-01 2.383345e-01 2.497254e-02
<GCONST> 8.685182e+01
<STATE> 3
~s "silst"
<STATE> 4
<MEAN> 39
 -6.561023e+00 4.001923e+00 2.028036e+00 4.503571e-01 1.450815e+00 1.921439e+00 7.889322e-01 2.744347e+00 3.606604e+00 4.377523e+00 3.038519e+00 2.079000e+00 6.278667e+01 3.036774e-01 7.619967e-02 2.488473e-01 -2.090261e-01 -1.589468e-01 -7.859680e-01 -7.095165e-01 -5.621821e-01 -5.069004e-01 -4.523314e-01 -6.310598e-01 -3.924927e-01 1.024778e+00 8.949623e-02 -1.208001e-02 -1.823732e-02 -1.499556e-01 -1.861382e-01 -2.090291e-01 -1.636659e-01 -1.115373e-01 -4.264664e-02 1.009479e-02 -2.605886e-02 -1.329030e-02 2.851864e-01
<VARIANCE> 39
 1.454182e+01 2.810054e+01 2.734084e+01 3.513913e+01 3.529489e+01 3.503482e+01 2.834990e+01 2.931599e+01 2.865849e+01 3.082543e+01 2.908231e+01 3.015295e+01 2.705821e+01 2.926857e+00 1.877756e+00 1.842552e+00 2.038150e+00 2.241638e+00 3.026344e+00 3.316173e+00 3.590653e+00 3.330491e+00 3.010450e+00 2.745787e+00 2.482636e+00 1.845789e+00 2.190807e-01 1.512835e-01 1.878221e-01 2.367616e-01 2.781115e-01 3.740685e-01 3.398117e-01 3.050347e-01 3.146378e-01 3.295971e-01 2.922088e-01 2.692016e-01 2.255449e-01
<GCONST> 1.101675e+02
<TRANSP> 5
 0.000000e+00 1.000000e+00 0.000000e+00 0.000000e+00 0.000000e+00
 0.000000e+00 6.885804e-01 9.868140e-02 2.127382e-01 0.000000e+00
 0.000000e+00 0.000000e+00 5.342461e-01 4.657538e-01 0.000000e+00
 0.000000e+00 1.259137e-02 0.000000e+00 2.760905e-01 7.113182e-01
 0.000000e+00 0.000000e+00 0.000000e+00 0.000000e+00 0.000000e+00
<ENDHMM>
